<?xml version="1.0"?>
<opencv_storage>
<cascade>
  <stageType>BOOST</stageType>
  <featureType>LBP</featureType>
  <height>18</height>
  <width>38</width>
  <stageParams>
    <boostType>GAB</boostType>
    <minHitRate>9.9900001287460327e-01</minHitRate>
    <maxFalseAlarm>4.0000000596046448e-01</maxFalseAlarm>
    <weightTrimRate>9.4999999999999996e-01</weightTrimRate>
    <maxDepth>1</maxDepth>
    <maxWeakCount>100</maxWeakCount></stageParams>
  <featureParams>
    <maxCatCount>256</maxCatCount>
    <featSize>1</featSize></featureParams>
  <stageNum>12</stageNum>
  <stages>
    <!-- stage 0 -->
    <_>
      <maxWeakCount>5</maxWeakCount>
      <stageThreshold>-2.1021487712860107e+00</stageThreshold>
      <weakClassifiers>
        <_>
          <internalNodes>
            0 -1 96 -801062696 -716144640 -2130657136 -543487077
            -604974934 -83197792 -1358238277 -7607361</internalNodes>
          <leafValues>
            -8.2575345039367676e-01 7.7445781230926514e-01</leafValues></_>
        <_>
          <internalNodes>
            0 -1 63 -1307553552 -116371328 9961885 2104574225
            -1711215958 -41418742 35007 -1157098595</internalNodes>
          <leafValues>
            -7.0418810844421387e-01 6.7265230417251587e-01</leafValues></_>
        <_>
          <internalNodes>
            0 -1 29 -318313854 -2683762 -2143289274 -542130130
            -930965265 -24297335 -863991572 -536900945</internalNodes>
          <leafValues>
            -7.2458475828170776e-01 6.1021989583969116e-01</leafValues></_>
        <_>
          <internalNodes>
            0 -1 71 276844688 496963760 889281751 2097617311 -2138799944
            -1927348048 168545019 520827387</internalNodes>
          <leafValues>
            -8.0861335992813110e-01 5.2227079868316650e-01</leafValues></_>
        <_>
          <internalNodes>
            0 -1 27 -2113746177 1518338167 -1978480641 7737431
            1922755583 -2012740941 -392246273 -925370177</internalNodes>
          <leafValues>
            -6.3922029733657837e-01 6.0639321804046631e-01</leafValues></_></weakClassifiers></_>
    <!-- stage 1 -->
    <_>
      <maxWeakCount>6</maxWeakCount>
      <stageThreshold>-1.3545199632644653e+00</stageThreshold>
      <weakClassifiers>
        <_>
          <internalNodes>
            0 -1 72 -120532816 -36683632 -1068498735 -10682095
            -366427974 -88604440 -2012706561 -74805109</internalNodes>
          <leafValues>
            -6.8304193019866943e-01 6.3402432203292847e-01</leafValues></_>
        <_>
          <internalNodes>
            0 -1 20 -158667026 -15761201 -1904033074 -1886453557
            -402920193 -105166337 -610546482 -4897</internalNodes>
          <leafValues>
            -6.8322527408599854e-01 5.8707326650619507e-01</leafValues></_>
        <_>
          <internalNodes>
            0 -1 137 -1065098742 1342276610 1073762336 1342276611
            -805257214 4195338 1073856522 -212338513</internalNodes>
          <leafValues>
            -5.7540416717529297e-01 6.1808413267135620e-01</leafValues></_>
        <_>
          <internalNodes>
            0 -1 115 -489692501 -1165786493 1075939843 16973826 34316451
            16908571 1092845706 -349183029</internalNodes>
          <leafValues>
            -4.9825587868690491e-01 6.5775984525680542e-01</leafValues></_>
        <_>
          <internalNodes>
            0 -1 14 -353481985 -219646740 1990787071 1002741453
            -153092353 -1534433540 -1163919425 -806622545</internalNodes>
          <leafValues>
            -5.9308880567550659e-01 5.6298869848251343e-01</leafValues></_>
        <_>
          <internalNodes>
            0 -1 110 402673816 429019264 286333279 454889943 -1709602597
            -609648500 210328543 -1625613857</internalNodes>
          <leafValues>
            -6.3117682933807373e-01 5.2241849899291992e-01</leafValues></_></weakClassifiers></_>
    <!-- stage 2 -->
    <_>
      <maxWeakCount>8</maxWeakCount>
      <stageThreshold>-1.4983634948730469e+00</stageThreshold>
      <weakClassifiers>
        <_>
          <internalNodes>
            0 -1 59 -267134885 -111865253 271601855 1599427263
            -1879015286 -133693430 8493311 453705871</internalNodes>
          <leafValues>
            -6.2745100259780884e-01 5.2142536640167236e-01</leafValues></_>
        <_>
          <internalNodes>
            0 -1 8 -1157957377 -1429421876 1245183 685788864 -107250689
            -1392539974 -205825 -273748241</internalNodes>
          <leafValues>
            -7.0339727401733398e-01 4.5846003293991089e-01</leafValues></_>
        <_>
          <internalNodes>
            0 -1 84 -75444016 -6729600 -2136942339 -717678507 -87512390
            -4265222 134777038 -74806120</internalNodes>
          <leafValues>
            -6.4194923639297485e-01 4.8165288567543030e-01</leafValues></_>
        <_>
          <internalNodes>
            0 -1 90 -121388926 1359052800 1074851840 285425675
            -1073250304 1342242896 1359200394 -150216037</internalNodes>
          <leafValues>
            -5.4478043317794800e-01 5.2724546194076538e-01</leafValues></_>
        <_>
          <internalNodes>
            0 -1 13 -387973893 13118086 -249571873 -1056964865
            2130705407 -2001485365 -125046945 -2131760897</internalNodes>
          <leafValues>
            -5.8954030275344849e-01 4.4696420431137085e-01</leafValues></_>
        <_>
          <internalNodes>
            0 -1 68 1347351281 -1877978986 64119127 1373108435
            -2012247877 -2146924371 278960879 137093579</internalNodes>
          <leafValues>
            -5.5311816930770874e-01 4.5849889516830444e-01</leafValues></_>
        <_>
          <internalNodes>
            0 -1 83 353521872 -577142352 421156317 1604132207 -997668726
            -1885417969 -1627238437 -1425024421</internalNodes>
          <leafValues>
            -5.4098123311996460e-01 4.7558230161666870e-01</leafValues></_>
        <_>
          <internalNodes>
            0 -1 115 -73145701 -775487457 36049427 34842667 1076593322
            33983390 35294850 -779368773</internalNodes>
          <leafValues>
            -4.7381603717803955e-01 5.5347555875778198e-01</leafValues></_></weakClassifiers></_>
    <!-- stage 3 -->
    <_>
      <maxWeakCount>10</maxWeakCount>
      <stageThreshold>-1.4011236429214478e+00</stageThreshold>
      <weakClassifiers>
        <_>
          <internalNodes>
            0 -1 24 -1345327378 -136861110 -817771826 -134512406
            -335812866 -306191122 -6041908 -12596</internalNodes>
          <leafValues>
            -6.3773339986801147e-01 4.5228564739227295e-01</leafValues></_>
        <_>
          <internalNodes>
            0 -1 69 1358954239 1346956012 352319487 1364955377
            -570458625 -628823906 -570425345 -67381249</internalNodes>
          <leafValues>
            -4.5848995447158813e-01 5.6804251670837402e-01</leafValues></_>
        <_>
          <internalNodes>
            0 -1 127 -217843069 -217866174 51059914 -788279294
            -805059422 -788273977 1073931274 -536611109</internalNodes>
          <leafValues>
            -4.3846789002418518e-01 5.5955791473388672e-01</leafValues></_>
        <_>
          <internalNodes>
            0 -1 41 -998063430 -9709317 8450751 -146323873 1947203319
            -68484982 1628091103 2144026811</internalNodes>
          <leafValues>
            -5.3203308582305908e-01 4.3063083291053772e-01</leafValues></_>
        <_>
          <internalNodes>
            0 -1 92 -213392766 -263725040 1073774594 1461141505
            -519925598 268435648 1073860746 -787745621</internalNodes>
          <leafValues>
            -4.5758724212646484e-01 4.5816126465797424e-01</leafValues></_>
        <_>
          <internalNodes>
            0 -1 108 -641740323 -605351484 19649473 454922623 463133066
            151231115 454738890 -541067281</internalNodes>
          <leafValues>
            -4.3843400478363037e-01 5.0648707151412964e-01</leafValues></_>
        <_>
          <internalNodes>
            0 -1 1 -360240577 -1970789765 -365090561 -2132004237
            1067450303 -2124880351 -822084609 -825234433</internalNodes>
          <leafValues>
            -6.5351200103759766e-01 3.6082988977432251e-01</leafValues></_>
        <_>
          <internalNodes>
            0 -1 60 972818520 -1109528448 -1744774981 -2768783 -89626530
            -68677504 303550335 -279195125</internalNodes>
          <leafValues>
            -6.1477786302566528e-01 3.5855990648269653e-01</leafValues></_>
        <_>
          <internalNodes>
            0 -1 109 -645141885 -782897086 83935313 17533067 -2004355413
            144709 18066067 -1692664909</internalNodes>
          <leafValues>
            -4.4416528940200806e-01 4.8755344748497009e-01</leafValues></_>
        <_>
          <internalNodes>
            0 -1 82 330502392 -1088465493 520117757 488313119
            -1978810232 -1416953728 187431935 1057952715</internalNodes>
          <leafValues>
            -6.0798531770706177e-01 3.9907068014144897e-01</leafValues></_></weakClassifiers></_>
    <!-- stage 4 -->
    <_>
      <maxWeakCount>11</maxWeakCount>
      <stageThreshold>-1.1747727394104004e+00</stageThreshold>
      <weakClassifiers>
        <_>
          <internalNodes>
            0 -1 31 -185603346 -2002345334 1220718810 -185664338
            -605291777 -400037234 -352326433 -656409345</internalNodes>
          <leafValues>
            -5.4647719860076904e-01 4.6268656849861145e-01</leafValues></_>
        <_>
          <internalNodes>
            0 -1 57 -638590977 -1868932910 1463803903 463207164
            1304918783 176701666 1610612735 463141839</internalNodes>
          <leafValues>
            -5.4343879222869873e-01 4.0925610065460205e-01</leafValues></_>
        <_>
          <internalNodes>
            0 -1 133 -805048118 -738143742 360616 -687622398 -805123966
            -736910014 -1051734966 -674497617</internalNodes>
          <leafValues>
            -4.5865920186042786e-01 5.0089532136917114e-01</leafValues></_>
        <_>
          <internalNodes>
            0 -1 111 -124221224 -36369656 290477841 1565873429 -57898872
            -85406983 -582431491 -128102139</internalNodes>
          <leafValues>
            -5.6416714191436768e-01 4.0803319215774536e-01</leafValues></_>
        <_>
          <internalNodes>
            0 -1 95 -757661958 -682238768 203295259 1429673847
            -1987380805 -1945531470 187079423 218578941</internalNodes>
          <leafValues>
            -5.7929271459579468e-01 3.2901793718338013e-01</leafValues></_>
        <_>
          <internalNodes>
            0 -1 55 -203435125 1943257019 -2147472885 2135102115
            -1216178006 1963012096 587447179 -75760689</internalNodes>
          <leafValues>
            -4.1862401366233826e-01 5.2970027923583984e-01</leafValues></_>
        <_>
          <internalNodes>
            0 -1 106 -783826302 -788430622 1144242306 1090637824
            1073922178 67461250 378265738 -770708773</internalNodes>
          <leafValues>
            -4.4840455055236816e-01 4.6018409729003906e-01</leafValues></_>
        <_>
          <internalNodes>
            0 -1 17 -1441904385 -1429732740 -2130984225 541598663
            1783610367 -1484247346 -1400111377 -1936742209</internalNodes>
          <leafValues>
            -7.1062195301055908e-01 2.7537596225738525e-01</leafValues></_>
        <_>
          <internalNodes>
            0 -1 38 -805255648 -15089422 -1878988673 -542695279
            1476437752 -91647260 122418814 1595360294</internalNodes>
          <leafValues>
            -6.0672909021377563e-01 2.8523379564285278e-01</leafValues></_>
        <_>
          <internalNodes>
            0 -1 132 -99630910 -747189052 -2124152704 -1826888831
            -886912790 1107691012 543408779 -206577265</internalNodes>
          <leafValues>
            -4.2050185799598694e-01 4.6908771991729736e-01</leafValues></_>
        <_>
          <internalNodes>
            0 -1 64 -1288071979 -749662184 1427132761 1359162161
            -888885064 -2046754680 419697145 453709840</internalNodes>
          <leafValues>
            -4.5364874601364136e-01 4.4345459342002869e-01</leafValues></_></weakClassifiers></_>
    <!-- stage 5 -->
    <_>
      <maxWeakCount>14</maxWeakCount>
      <stageThreshold>-1.2413448095321655e+00</stageThreshold>
      <weakClassifiers>
        <_>
          <internalNodes>
            0 -1 10 -403769346 -3172919 -1442653406 791361422 -68697377
            -342929234 -271589745 -810557745</internalNodes>
          <leafValues>
            -5.4696869850158691e-01 3.8390997052192688e-01</leafValues></_>
        <_>
          <internalNodes>
            0 -1 51 1287060735 271772850 -122159169 -772538401 8932607
            -2001050917 144301823 -637796365</internalNodes>
          <leafValues>
            -5.0458002090454102e-01 3.8908767700195312e-01</leafValues></_>
        <_>
          <internalNodes>
            0 -1 114 -360455509 -670965590 -1073684309 -176102142
            -1006449494 353866632 1073799883 -607126901</internalNodes>
          <leafValues>
            -3.9499908685684204e-01 4.7515243291854858e-01</leafValues></_>
        <_>
          <internalNodes>
            0 -1 110 -107982373 -608545894 1058757463 2136694707
            -610608422 -542533862 522149887 -551592962</internalNodes>
          <leafValues>
            -3.3230558037757874e-01 5.5547618865966797e-01</leafValues></_>
        <_>
          <internalNodes>
            0 -1 78 -78663541 1396926485 -1073598411 1360499019
            1208729770 -1069317952 1091018922 -1021313109</internalNodes>
          <leafValues>
            -3.9795458316802979e-01 4.6727859973907471e-01</leafValues></_>
        <_>
          <internalNodes>
            0 -1 48 1381849343 951177911 -1857303681 1359084405
            -2132932353 150802943 -91453953 423753717</internalNodes>
          <leafValues>
            -4.3772560358047485e-01 4.0041741728782654e-01</leafValues></_>
        <_>
          <internalNodes>
            0 -1 19 -402134466 -182211361 -1072338209 -511767825
            -501422849 -141273125 -561622843 -3289159</internalNodes>
          <leafValues>
            -5.1113587617874146e-01 3.1707805395126343e-01</leafValues></_>
        <_>
          <internalNodes>
            0 -1 113 -203702142 -711819102 -366657295 1359184163
            1646979242 -2121472594 34071226 -1006648357</internalNodes>
          <leafValues>
            -3.5247650742530823e-01 4.9540922045707703e-01</leafValues></_>
        <_>
          <internalNodes>
            0 -1 93 -154156830 -209541397 1076991072 -751595457
            -1835432760 -1197997940 -775300117 -1719035685</internalNodes>
          <leafValues>
            -4.2833852767944336e-01 4.2718404531478882e-01</leafValues></_>
        <_>
          <internalNodes>
            0 -1 105 -2039630 -537390508 -607766127 902105268
            -1951495738 412222194 400031880 1476118668</internalNodes>
          <leafValues>
            -5.4654163122177124e-01 2.9865416884422302e-01</leafValues></_>
        <_>
          <internalNodes>
            0 -1 28 -1882198289 8825358 -250482949 -572070945 -434379031
            -1063786866 -305282618 -842011156</internalNodes>
          <leafValues>
            -4.4811332225799561e-01 3.7776023149490356e-01</leafValues></_>
        <_>
          <internalNodes>
            0 -1 128 -749552981 -138182646 1602551971 1939413755
            33726698 557842658 1268484857 -67372101</internalNodes>
          <leafValues>
            -3.8865154981613159e-01 4.4406133890151978e-01</leafValues></_>
        <_>
          <internalNodes>
            0 -1 67 -487599486 -229027797 67205262 -9209727 1074265994
            1092763912 899489 1109914281</internalNodes>
          <leafValues>
            -5.7480037212371826e-01 3.0080533027648926e-01</leafValues></_>
        <_>
          <internalNodes>
            0 -1 81 -75541410 -134344933 -67084070 -1144733518 17631433
            -1190068057 -1894935364 -1090054433</internalNodes>
          <leafValues>
            -4.6203160285949707e-01 3.8043448328971863e-01</leafValues></_></weakClassifiers></_>
    <!-- stage 6 -->
    <_>
      <maxWeakCount>14</maxWeakCount>
      <stageThreshold>-1.2195812463760376e+00</stageThreshold>
      <weakClassifiers>
        <_>
          <internalNodes>
            0 -1 96 -70225672 -26920 -2130130808 -536880129 -2105605
            -2360093 -5242977 -85</internalNodes>
          <leafValues>
            -5.4265975952148438e-01 3.6106014251708984e-01</leafValues></_>
        <_>
          <internalNodes>
            0 -1 21 -823252434 -548433 -1365245270 -1431435714
            -956315409 838327171 -286331138 -4353</internalNodes>
          <leafValues>
            -6.5668624639511108e-01 2.7469635009765625e-01</leafValues></_>
        <_>
          <internalNodes>
            0 -1 145 -664009713 -42214433 -167793409 -2140785 -467923889
            -1618309698 -905982209 -5600722</internalNodes>
          <leafValues>
            -3.4709382057189941e-01 4.6891757845878601e-01</leafValues></_>
        <_>
          <internalNodes>
            0 -1 76 -70519457 2132541343 438894592 890720296 828289739
            268505482 -1815641908 2145124319</internalNodes>
          <leafValues>
            -4.3700692057609558e-01 3.6485156416893005e-01</leafValues></_>
        <_>
          <internalNodes>
            0 -1 9 -167805121 805322751 -36570277 -36634634 -29918425
            -1159763149 -84975260 -1460600969</internalNodes>
          <leafValues>
            -4.1185063123703003e-01 3.7082302570343018e-01</leafValues></_>
        <_>
          <internalNodes>
            0 -1 125 -663170852 -125539174 1155331580 -37099541
            -223950712 1067732364 600832910 -2099510</internalNodes>
          <leafValues>
            -3.9362332224845886e-01 3.8810390233993530e-01</leafValues></_>
        <_>
          <internalNodes>
            0 -1 44 -1422278446 -4893190 2060460262 -1678657961
            -1154424656 -1085050661 319662079 1064530910</internalNodes>
          <leafValues>
            -4.7405025362968445e-01 3.2594615221023560e-01</leafValues></_>
        <_>
          <internalNodes>
            0 -1 45 335727854 1033913082 1453481202 1372615739
            -1997403441 -1696029489 -2000647985 150200575</internalNodes>
          <leafValues>
            -5.4382306337356567e-01 2.5763773918151855e-01</leafValues></_>
        <_>
          <internalNodes>
            0 -1 138 -1069039486 -1073739254 -2113765278 268660866
            -1002398582 1074115713 1477677450 -632567606</internalNodes>
          <leafValues>
            -4.8203325271606445e-01 3.2568687200546265e-01</leafValues></_>
        <_>
          <internalNodes>
            0 -1 122 285409552 -1110502124 219155871 1040127453
            -1875229542 1051396554 -1215578145 -1147143189</internalNodes>
          <leafValues>
            -5.8789557218551636e-01 2.5946012139320374e-01</leafValues></_>
        <_>
          <internalNodes>
            0 -1 117 -750272373 -804298345 809718019 -784215485 25226659
            1094164751 1073793930 -1005585381</internalNodes>
          <leafValues>
            -3.6780798435211182e-01 4.2234787344932556e-01</leafValues></_>
        <_>
          <internalNodes>
            0 -1 5 417333055 811637759 -1711811081 -1128269411 34076331
            -1195390469 1968169525 810251365</internalNodes>
          <leafValues>
            -5.4256707429885864e-01 2.7838847041130066e-01</leafValues></_>
        <_>
          <internalNodes>
            0 -1 56 337139966 -1643054584 -586040457 -76292395
            -790869894 -4161536 2078055915 -617969255</internalNodes>
          <leafValues>
            -5.5165898799896240e-01 2.7784919738769531e-01</leafValues></_>
        <_>
          <internalNodes>
            0 -1 102 -1757155094 -237518678 554180744 1561788417
            1147191496 4218882 295126 2139327183</internalNodes>
          <leafValues>
            -5.5809533596038818e-01 2.7076560258865356e-01</leafValues></_></weakClassifiers></_>
    <!-- stage 7 -->
    <_>
      <maxWeakCount>16</maxWeakCount>
      <stageThreshold>-1.2710689306259155e+00</stageThreshold>
      <weakClassifiers>
        <_>
          <internalNodes>
            0 -1 18 -925897985 -390057377 -1400907041 -1193985857
            -18886657 -1362203665 -17825793 -593494529</internalNodes>
          <leafValues>
            -4.6895477175712585e-01 3.7062025070190430e-01</leafValues></_>
        <_>
          <internalNodes>
            0 -1 11 -34635905 808484845 2057035771 2112945790 -13107337
            -1197539393 -102002385 -1193219721</internalNodes>
          <leafValues>
            -3.9150217175483704e-01 3.8154298067092896e-01</leafValues></_>
        <_>
          <internalNodes>
            0 -1 126 -483661141 -2096911838 152021707 1090773002
            -1985222014 288272811 1093132970 -351274037</internalNodes>
          <leafValues>
            -3.8477334380149841e-01 3.9074423909187317e-01</leafValues></_>
        <_>
          <internalNodes>
            0 -1 124 293605843 -609070664 1025137503 1595891067
            -71641701 -73662294 -1448919105 2143148799</internalNodes>
          <leafValues>
            -4.5829266309738159e-01 3.2082277536392212e-01</leafValues></_>
        <_>
          <internalNodes>
            0 -1 89 -337992510 -104288054 1431340377 331350210
            -1309964092 215744516 1359675528 1487387850</internalNodes>
          <leafValues>
            -5.2171337604522705e-01 2.7600607275962830e-01</leafValues></_>
        <_>
          <internalNodes>
            0 -1 6 620756991 812121807 -3410882 -1654654097 1158633975
            -117448801 -1074286217 -1997013548</internalNodes>
          <leafValues>
            -4.1283890604972839e-01 3.2069572806358337e-01</leafValues></_>
        <_>
          <internalNodes>
            0 -1 103 -768892245 -1023148414 -949795267 258691
            -1068374902 1430440178 1346750634 -670045573</internalNodes>
          <leafValues>
            -3.2322123646736145e-01 4.2963600158691406e-01</leafValues></_>
        <_>
          <internalNodes>
            0 -1 80 430603647 465208162 401702783 1503261074 -1610678421
            -2102766950 1052856315 984284120</internalNodes>
          <leafValues>
            -4.8928242921829224e-01 2.8663340210914612e-01</leafValues></_>
        <_>
          <internalNodes>
            0 -1 58 -782248756 -13216161 -1869402090 2132759767
            -1793752920 -1254865682 -1189561409 -715828001</internalNodes>
          <leafValues>
            -3.8947489857673645e-01 3.5860958695411682e-01</leafValues></_>
        <_>
          <internalNodes>
            0 -1 15 -324080021 -680907030 -827658497 -1422610 -671089153
            -184651793 2012213239 -606244867</internalNodes>
          <leafValues>
            -3.5573625564575195e-01 3.9772480726242065e-01</leafValues></_>
        <_>
          <internalNodes>
            0 -1 118 -342891821 -132788073 1475070235 184746371
            1263513519 948900727 285990531 -499520642</internalNodes>
          <leafValues>
            -3.6843058466911316e-01 4.0081784129142761e-01</leafValues></_>
        <_>
          <internalNodes>
            0 -1 47 976245498 -1220619350 -69026989 -540031079 16785552
            -74966624 -1458898773 -74892781</internalNodes>
          <leafValues>
            -4.9222600460052490e-01 2.9643180966377258e-01</leafValues></_>
        <_>
          <internalNodes>
            0 -1 144 -50526197 -1581089 -89226017 -123868018 -419541427
            -16977985 -1193366417 -321990934</internalNodes>
          <leafValues>
            -3.3710560202598572e-01 4.2843326926231384e-01</leafValues></_>
        <_>
          <internalNodes>
            0 -1 54 -67456326 1943260502 -179961720 1439891651
            2043599944 341524520 2005369498 2001199084</internalNodes>
          <leafValues>
            -5.3928822278976440e-01 2.6983672380447388e-01</leafValues></_>
        <_>
          <internalNodes>
            0 -1 4 239049719 149813209 -140788237 995071481 232730487
            73005721 -578817518 -2097362719</internalNodes>
          <leafValues>
            -3.9958107471466064e-01 3.5331532359123230e-01</leafValues></_>
        <_>
          <internalNodes>
            0 -1 77 -71057231 -149582177 -48408183 369044211 -842563192
            1381504280 1291954304 -610536453</internalNodes>
          <leafValues>
            -2.9403099417686462e-01 4.8267301917076111e-01</leafValues></_></weakClassifiers></_>
    <!-- stage 8 -->
    <_>
      <maxWeakCount>17</maxWeakCount>
      <stageThreshold>-1.3788464069366455e+00</stageThreshold>
      <weakClassifiers>
        <_>
          <internalNodes>
            0 -1 98 -1191224577 -1195646241 -587202561 1346763109
            -357829909 -86006081 -359406657 1477967859</internalNodes>
          <leafValues>
            -3.9610940217971802e-01 3.7738066911697388e-01</leafValues></_>
        <_>
          <internalNodes>
            0 -1 37 -286282074 1236249226 -190445522 1355616424
            -138412645 -846830462 -88607046 -572531713</internalNodes>
          <leafValues>
            -4.7049996256828308e-01 3.1219795346260071e-01</leafValues></_>
        <_>
          <internalNodes>
            0 -1 116 -389029714 -378822136 857899146 -1154745621
            277007342 33687690 451336430 -134217729</internalNodes>
          <leafValues>
            -4.2684170603752136e-01 3.1570798158645630e-01</leafValues></_>
        <_>
          <internalNodes>
            0 -1 129 302059633 859249616 -1791025857 935268863
            -1282770758 -1141367859 -1115424581 -1147185185</internalNodes>
          <leafValues>
            -4.4466641545295715e-01 3.0998057126998901e-01</leafValues></_>
        <_>
          <internalNodes>
            0 -1 26 -1481707986 -77140444 -538524178 -9641046 -654849026
            -428087115 -621886784 -68166200</internalNodes>
          <leafValues>
            -5.4609996080398560e-01 2.1819975972175598e-01</leafValues></_>
        <_>
          <internalNodes>
            0 -1 127 -211567893 -217935705 -2046802811 1090768987
            -1022441278 1565091 -1073625078 -1052516657</internalNodes>
          <leafValues>
            -3.6660188436508179e-01 3.5886397957801819e-01</leafValues></_>
        <_>
          <internalNodes>
            0 -1 71 -1081879344 -16445292 -1943273770 -1626710107
            -1685534472 -1651834628 -1416909797 526299647</internalNodes>
          <leafValues>
            -5.0147151947021484e-01 2.5463438034057617e-01</leafValues></_>
        <_>
          <internalNodes>
            0 -1 36 143184110 -207875160 168565500 462435129 -1413547777
            -2018715233 -401031185 165629903</internalNodes>
          <leafValues>
            -4.7913658618927002e-01 2.7173894643783569e-01</leafValues></_>
        <_>
          <internalNodes>
            0 -1 139 -33035733 -74452789 1141461042 1427361319
            -804524022 1363309576 -794375990 -112459873</internalNodes>
          <leafValues>
            -3.1540378928184509e-01 4.5125558972358704e-01</leafValues></_>
        <_>
          <internalNodes>
            0 -1 3 1607171959 1400962912 -16777493 -49741968 -42502874
            -1079974027 -18149770 -1138688272</internalNodes>
          <leafValues>
            -3.5121133923530579e-01 3.9321881532669067e-01</leafValues></_>
        <_>
          <internalNodes>
            0 -1 101 -863272830 -721185654 1526759496 -217382906
            323998890 177715865 275286262 1393545419</internalNodes>
          <leafValues>
            -4.3125200271606445e-01 3.1537273526191711e-01</leafValues></_>
        <_>
          <internalNodes>
            0 -1 16 1055533823 -364373269 146856223 -792323619
            -2044757249 -2131986535 -1615660289 -862316246</internalNodes>
          <leafValues>
            -5.5364954471588135e-01 2.1598814427852631e-01</leafValues></_>
        <_>
          <internalNodes>
            0 -1 43 -1340620561 -136873137 1445065967 -220236545
            -805247998 -636678646 1964431230 2004301739</internalNodes>
          <leafValues>
            -4.8791709542274475e-01 2.8914126753807068e-01</leafValues></_>
        <_>
          <internalNodes>
            0 -1 136 -1064845312 -753204991 -1135484864 -785971963
            -756841846 1355170307 1381483439 -213911409</internalNodes>
          <leafValues>
            -3.3640813827514648e-01 4.0450045466423035e-01</leafValues></_>
        <_>
          <internalNodes>
            0 -1 79 723000024 -1079469416 -183438243 1031344999
            -1083672917 -1100159870 -1907341337 -21238787</internalNodes>
          <leafValues>
            -5.0955569744110107e-01 2.7975526452064514e-01</leafValues></_>
        <_>
          <internalNodes>
            0 -1 90 -754975765 151247506 1141109971 16935082 -1118834390
            469944341 272810250 -553392085</internalNodes>
          <leafValues>
            -3.6111602187156677e-01 3.8572466373443604e-01</leafValues></_>
        <_>
          <internalNodes>
            0 -1 62 -207585808 -14631424 -591276949 -46917875
            -1701925072 -611783348 318921612 1581279021</internalNodes>
          <leafValues>
            -4.7804984450340271e-01 2.9859238862991333e-01</leafValues></_></weakClassifiers></_>
    <!-- stage 9 -->
    <_>
      <maxWeakCount>18</maxWeakCount>
      <stageThreshold>-1.2598485946655273e+00</stageThreshold>
      <weakClassifiers>
        <_>
          <internalNodes>
            0 -1 7 -286261505 3026606 -2828577 -521474338 1971189247
            1726873306 -37421865 -991363844</internalNodes>
          <leafValues>
            -5.9223300218582153e-01 2.6272839307785034e-01</leafValues></_>
        <_>
          <internalNodes>
            0 -1 142 -522256306 -41009 1793035983 -538986515 -320421394
            -16802871 -898692370 -290795798</internalNodes>
          <leafValues>
            -4.0838003158569336e-01 3.1944102048873901e-01</leafValues></_>
        <_>
          <internalNodes>
            0 -1 88 -69207041 -204144657 462000578 -1148885010
            -607210597 268795959 -1727288182 -1025</internalNodes>
          <leafValues>
            -2.6434949040412903e-01 4.8017567396163940e-01</leafValues></_>
        <_>
          <internalNodes>
            0 -1 148 733222705 -4227301 -553825481 -180351 1596538785
            -75547649 763309983 -32855</internalNodes>
          <leafValues>
            -2.7783203125000000e-01 4.4534847140312195e-01</leafValues></_>
        <_>
          <internalNodes>
            0 -1 85 -1675830595 -1073911139 1426149649 1467028225
            -1904564056 -1364685057 2037357499 -1416054563</internalNodes>
          <leafValues>
            -3.4095087647438049e-01 3.5893052816390991e-01</leafValues></_>
        <_>
          <internalNodes>
            0 -1 50 -1013986802 -487436410 -461643250 -211294238
            1715947470 1125271322 -532683185 1733807983</internalNodes>
          <leafValues>
            -5.1146036386489868e-01 2.3354336619377136e-01</leafValues></_>
        <_>
          <internalNodes>
            0 -1 33 -622984418 2113211518 772147898 -1124291370
            -765756082 -380052581 -154346753 -187237377</internalNodes>
          <leafValues>
            -4.2529192566871643e-01 3.0402234196662903e-01</leafValues></_>
        <_>
          <internalNodes>
            0 -1 134 -144971077 1346416834 862701218 -671034800 25359506
            -1843069945 -514596760 -343147537</internalNodes>
          <leafValues>
            -3.3478152751922607e-01 3.6974009871482849e-01</leafValues></_>
        <_>
          <internalNodes>
            0 -1 12 545251259 416108879 -13511265 2106714097 1366514449
            -21632633 -849617579 -1999668124</internalNodes>
          <leafValues>
            -3.7041094899177551e-01 3.4501636028289795e-01</leafValues></_>
        <_>
          <internalNodes>
            0 -1 70 -654356270 -37537932 628063359 -145579341 -380127022
            -1106963082 -1407412055 -552238625</internalNodes>
          <leafValues>
            -3.3153524994850159e-01 3.8021546602249146e-01</leafValues></_>
        <_>
          <internalNodes>
            0 -1 141 -203506976 2117632 688981504 881025024 -1867988248
            136842112 197251839 1393554331</internalNodes>
          <leafValues>
            -5.2436453104019165e-01 2.2722528874874115e-01</leafValues></_>
        <_>
          <internalNodes>
            0 -1 61 312040071 869476402 -1596132533 458291569 -628629313
            -1145077338 -528028725 137427828</internalNodes>
          <leafValues>
            -4.4597780704498291e-01 2.7633339166641235e-01</leafValues></_>
        <_>
          <internalNodes>
            0 -1 130 -268369856 -660942336 785623737 -576727865
            -2059071047 -67466346 -656352533 -753970345</internalNodes>
          <leafValues>
            -4.3709096312522888e-01 2.8759860992431641e-01</leafValues></_>
        <_>
          <internalNodes>
            0 -1 32 1787555558 579584650 -1799209455 1957068243
            -35788203 -867997620 -22298382 -657981832</internalNodes>
          <leafValues>
            -4.9361592531204224e-01 2.4322645366191864e-01</leafValues></_>
        <_>
          <internalNodes>
            0 -1 75 -2119196278 -84476374 -2102943184 -550001229
            -941759235 304148120 859537563 628614588</internalNodes>
          <leafValues>
            -5.1934599876403809e-01 2.3109245300292969e-01</leafValues></_>
        <_>
          <internalNodes>
            0 -1 104 1084917382 -1957773693 -908154872 -143237313
            336905774 269277428 321643689 1434973548</internalNodes>
          <leafValues>
            -5.4013079404830933e-01 2.5689464807510376e-01</leafValues></_>
        <_>
          <internalNodes>
            0 -1 112 -905259392 -1065176832 -46019715 1405849837
            -888674382 -1373449178 -1016859762 1129267458</internalNodes>
          <leafValues>
            -5.3527325391769409e-01 2.3755450546741486e-01</leafValues></_>
        <_>
          <internalNodes>
            0 -1 49 1891458299 -2136971022 -18156994 -169622186
            145637631 -1600639785 -1644169794 984816555</internalNodes>
          <leafValues>
            -4.6938315033912659e-01 2.5692778825759888e-01</leafValues></_></weakClassifiers></_>
    <!-- stage 10 -->
    <_>
      <maxWeakCount>18</maxWeakCount>
      <stageThreshold>-1.5074343681335449e+00</stageThreshold>
      <weakClassifiers>
        <_>
          <internalNodes>
            0 -1 2 -554701185 -135486390 -290558209 -1675542 -152570115
            -2338481 -1130515 -2859009</internalNodes>
          <leafValues>
            -2.8957191109657288e-01 4.6810477972030640e-01</leafValues></_>
        <_>
          <internalNodes>
            0 -1 146 -1427503614 -1082614804 -1351743649 -1112534628
            -271121594 -1082164817 -276861953 -3075</internalNodes>
          <leafValues>
            -3.8164207339286804e-01 3.2455161213874817e-01</leafValues></_>
        <_>
          <internalNodes>
            0 -1 0 -67232425 812923639 -195644659 -1325861217 1594850087
            559091839 -67118759 821755774</internalNodes>
          <leafValues>
            -5.0742310285568237e-01 2.2040462493896484e-01</leafValues></_>
        <_>
          <internalNodes>
            0 -1 65 -236228126 -671652990 89187054 2013226183 1918104450
            -2131410681 289718735 1338851521</internalNodes>
          <leafValues>
            -4.2599663138389587e-01 2.8896036744117737e-01</leafValues></_>
        <_>
          <internalNodes>
            0 -1 100 465065176 -542514712 531128319 -575071560
            -573340594 -270643301 -1148059649 -552657927</internalNodes>
          <leafValues>
            -4.2914727330207825e-01 2.4941343069076538e-01</leafValues></_>
        <_>
          <internalNodes>
            0 -1 97 -88383745 -1734583624 -907765477 1427196016
            -22020177 -1162216401 -15996449 -1082794089</internalNodes>
          <leafValues>
            -3.6655828356742859e-01 3.0796730518341064e-01</leafValues></_>
        <_>
          <internalNodes>
            0 -1 39 -275858710 -8224600 541487103 870990016 -1747254869
            -1088207440 1885337341 2119107323</internalNodes>
          <leafValues>
            -4.2020413279533386e-01 2.8628778457641602e-01</leafValues></_>
        <_>
          <internalNodes>
            0 -1 107 -684723181 -106981245 -145359 427758336 -784367232
            271253552 1094707434 -340806985</internalNodes>
          <leafValues>
            -3.2968005537986755e-01 3.6365666985511780e-01</leafValues></_>
        <_>
          <internalNodes>
            0 -1 25 107736935 36564841 -159417345 1587243325 -1011624989
            616663489 -444610763 -867372636</internalNodes>
          <leafValues>
            -4.0671494603157043e-01 2.9657843708992004e-01</leafValues></_>
        <_>
          <internalNodes>
            0 -1 87 -766971760 -67467169 1465677087 1371546086
            -376724028 -1694367466 -658008800 1498065290</internalNodes>
          <leafValues>
            -4.4695290923118591e-01 2.7666696906089783e-01</leafValues></_>
        <_>
          <internalNodes>
            0 -1 86 -1870556526 -653097470 -1291101519 -985181483
            570459038 -1356928661 379246335 -1016082041</internalNodes>
          <leafValues>
            -3.3376181125640869e-01 3.6177590489387512e-01</leafValues></_>
        <_>
          <internalNodes>
            0 -1 121 -1716858760 -160295693 257760625 2133550971
            1090640381 -1888676899 187046041 1602199551</internalNodes>
          <leafValues>
            -4.5780059695243835e-01 2.4496667087078094e-01</leafValues></_>
        <_>
          <internalNodes>
            0 -1 94 -779906903 -687830117 -637089863 1159844763
            -393499480 -134200892 1124835458 -103810293</internalNodes>
          <leafValues>
            -2.9511749744415283e-01 4.0070933103561401e-01</leafValues></_>
        <_>
          <internalNodes>
            0 -1 42 -1025012721 -353391601 -215309822 -470810625
            -235021047 1417117663 -1671562161 -209717793</internalNodes>
          <leafValues>
            -3.3380332589149475e-01 3.5329747200012207e-01</leafValues></_>
        <_>
          <internalNodes>
            0 -1 35 -645111908 -70430535 1746992425 891365663 701365211
            -873465633 202427631 -847311377</internalNodes>
          <leafValues>
            -3.4977996349334717e-01 3.5460367798805237e-01</leafValues></_>
        <_>
          <internalNodes>
            0 -1 131 1648296482 -536876416 -686903126 -1050320181
            -680009391 -343232789 -909647838 1392755207</internalNodes>
          <leafValues>
            -4.5088881254196167e-01 2.9284662008285522e-01</leafValues></_>
        <_>
          <internalNodes>
            0 -1 40 -475553618 -1067417010 -231540166 1884501280
            1809305550 1416495439 -168299778 1146045903</internalNodes>
          <leafValues>
            -5.8624726533889771e-01 1.8437059223651886e-01</leafValues></_>
        <_>
          <internalNodes>
            0 -1 73 -1076921202 1057344621 -149246983 289681685
            -1704188792 -1398734301 1761033099 1544392213</internalNodes>
          <leafValues>
            -4.4568398594856262e-01 2.8967899084091187e-01</leafValues></_></weakClassifiers></_>
    <!-- stage 11 -->
    <_>
      <maxWeakCount>19</maxWeakCount>
      <stageThreshold>-1.5477354526519775e+00</stageThreshold>
      <weakClassifiers>
        <_>
          <internalNodes>
            0 -1 135 -1124349201 -54809049 -260116753 1409679279
            1609564095 -1077940289 -322961409 -11014417</internalNodes>
          <leafValues>
            -2.9020416736602783e-01 4.2574831843376160e-01</leafValues></_>
        <_>
          <internalNodes>
            0 -1 30 -422580626 1083173794 -159394050 -51389538 -43254289
            -322703447 -67900724 -925893428</internalNodes>
          <leafValues>
            -4.0772137045860291e-01 2.8194266557693481e-01</leafValues></_>
        <_>
          <internalNodes>
            0 -1 120 -40361832 -134460164 2099254975 934813948 -13201665
            1057230549 1566871466 503258303</internalNodes>
          <leafValues>
            -6.1900341510772705e-01 1.8678097426891327e-01</leafValues></_>
        <_>
          <internalNodes>
            0 -1 53 -408165594 -326704434 -330308790 -201602198
            -686295217 1095790427 -985943602 -143132695</internalNodes>
          <leafValues>
            -3.6428129673004150e-01 3.1244865059852600e-01</leafValues></_>
        <_>
          <internalNodes>
            0 -1 66 -71573505 -617948512 -572555265 -541360166
            -1698821121 -1976906512 1543429103 -877965382</internalNodes>
          <leafValues>
            -2.9362824559211731e-01 3.9841446280479431e-01</leafValues></_>
        <_>
          <internalNodes>
            0 -1 143 -229922133 -700205174 356567299 -2145157029
            -1055944229 166799 1364697503 -224674821</internalNodes>
          <leafValues>
            -2.7494701743125916e-01 4.1166064143180847e-01</leafValues></_>
        <_>
          <internalNodes>
            0 -1 52 1006121208 -1146987688 -1417871911 -272130344
            -610680711 -8888310 -1844905797 -1691296110</internalNodes>
          <leafValues>
            -4.5925766229629517e-01 2.7018481492996216e-01</leafValues></_>
        <_>
          <internalNodes>
            0 -1 147 -1367472297 -1811973335 -10528417 185206602
            1052722002 1462406445 1866353982 -2100132</internalNodes>
          <leafValues>
            -3.8711389899253845e-01 2.8093159198760986e-01</leafValues></_>
        <_>
          <internalNodes>
            0 -1 46 -615033742 -560336143 1863044891 1590940671
            959906352 1511852057 408131487 475733367</internalNodes>
          <leafValues>
            -5.0465017557144165e-01 2.3309615254402161e-01</leafValues></_>
        <_>
          <internalNodes>
            0 -1 123 -1062484862 -2142950653 1196060721 1360257709
            -2138576608 -649318127 -1063009873 -1051732653</internalNodes>
          <leafValues>
            -4.1116854548454285e-01 2.8595560789108276e-01</leafValues></_>
        <_>
          <internalNodes>
            0 -1 74 -1854185505 -1152061664 182823688 189901411
            -16810055 -1120913232 -1145083917 -1380319503</internalNodes>
          <leafValues>
            -2.9447895288467407e-01 3.9859789609909058e-01</leafValues></_>
        <_>
          <internalNodes>
            0 -1 22 -28373331 -1509710162 -1396136359 -1225085362
            -90364331 -1577602089 -195035307 -989856097</internalNodes>
          <leafValues>
            -4.4124403595924377e-01 2.4873632192611694e-01</leafValues></_>
        <_>
          <internalNodes>
            0 -1 119 -111218945 1156384998 1057685952 1171980359
            1084487418 1126841458 -1968461166 -8392961</internalNodes>
          <leafValues>
            -3.0715852975845337e-01 3.8842821121215820e-01</leafValues></_>
        <_>
          <internalNodes>
            0 -1 130 1078005891 -1814572642 -1663839541 -572664161
            226014459 -33554474 -1983774724 -880024614</internalNodes>
          <leafValues>
            -2.6528880000114441e-01 4.2014211416244507e-01</leafValues></_>
        <_>
          <internalNodes>
            0 -1 23 2071949271 2099786496 1247936507 -16454150
            1606385509 -121962836 -67715696 -1531904703</internalNodes>
          <leafValues>
            -3.3110994100570679e-01 3.4956347942352295e-01</leafValues></_>
        <_>
          <internalNodes>
            0 -1 140 -1073036408 -95442334 1208632990 -544242287
            -1047807861 -1964383604 1082546671 1108077067</internalNodes>
          <leafValues>
            -4.7686907649040222e-01 2.4749200046062469e-01</leafValues></_>
        <_>
          <internalNodes>
            0 -1 34 -30603102 1671136142 -424498598 -846534994
            -1889690977 -38363420 1241497908 -4929628</internalNodes>
          <leafValues>
            -4.3325537443161011e-01 2.6516601443290710e-01</leafValues></_>
        <_>
          <internalNodes>
            0 -1 91 -1024527578 -87895269 1334560780 1709690557
            1354682351 1887908863 284152973 -3148547</internalNodes>
          <leafValues>
            -3.4098896384239197e-01 3.5540279746055603e-01</leafValues></_>
        <_>
          <internalNodes>
            0 -1 99 -1651912299 -1615900491 -1190928433 1073273197
            -1894932296 -1611071320 -811532306 1590682195</internalNodes>
          <leafValues>
            -3.6570259928703308e-01 3.1371450424194336e-01</leafValues></_></weakClassifiers></_></stages>
  <features>
    <_>
      <rect>
        0 6 5 4</rect></_>
    <_>
      <rect>
        1 3 10 3</rect></_>
    <_>
      <rect>
        1 6 6 1</rect></_>
    <_>
      <rect>
        1 8 3 3</rect></_>
    <_>
      <rect>
        2 0 5 2</rect></_>
    <_>
      <rect>
        2 2 3 4</rect></_>
    <_>
      <rect>
        2 4 3 2</rect></_>
    <_>
      <rect>
        2 5 4 2</rect></_>
    <_>
      <rect>
        2 5 10 4</rect></_>
    <_>
      <rect>
        2 6 3 3</rect></_>
    <_>
      <rect>
        2 6 7 2</rect></_>
    <_>
      <rect>
        2 7 3 3</rect></_>
    <_>
      <rect>
        3 1 3 3</rect></_>
    <_>
      <rect>
        3 4 3 3</rect></_>
    <_>
      <rect>
        3 4 10 4</rect></_>
    <_>
      <rect>
        3 7 5 1</rect></_>
    <_>
      <rect>
        4 2 9 4</rect></_>
    <_>
      <rect>
        4 2 9 5</rect></_>
    <_>
      <rect>
        4 2 10 4</rect></_>
    <_>
      <rect>
        4 4 6 2</rect></_>
    <_>
      <rect>
        4 5 5 2</rect></_>
    <_>
      <rect>
        4 5 5 4</rect></_>
    <_>
      <rect>
        4 8 3 2</rect></_>
    <_>
      <rect>
        4 9 2 2</rect></_>
    <_>
      <rect>
        5 0 5 4</rect></_>
    <_>
      <rect>
        5 1 3 2</rect></_>
    <_>
      <rect>
        5 2 5 2</rect></_>
    <_>
      <rect>
        5 2 9 4</rect></_>
    <_>
      <rect>
        5 3 3 2</rect></_>
    <_>
      <rect>
        5 4 5 2</rect></_>
    <_>
      <rect>
        6 4 2 2</rect></_>
    <_>
      <rect>
        6 5 2 3</rect></_>
    <_>
      <rect>
        6 6 2 2</rect></_>
    <_>
      <rect>
        6 9 3 3</rect></_>
    <_>
      <rect>
        7 0 5 2</rect></_>
    <_>
      <rect>
        7 0 6 6</rect></_>
    <_>
      <rect>
        7 0 10 6</rect></_>
    <_>
      <rect>
        7 5 2 3</rect></_>
    <_>
      <rect>
        7 6 5 1</rect></_>
    <_>
      <rect>
        7 8 4 1</rect></_>
    <_>
      <rect>
        8 5 2 2</rect></_>
    <_>
      <rect>
        8 7 4 1</rect></_>
    <_>
      <rect>
        9 4 2 1</rect></_>
    <_>
      <rect>
        9 6 5 1</rect></_>
    <_>
      <rect>
        9 7 5 1</rect></_>
    <_>
      <rect>
        10 0 9 5</rect></_>
    <_>
      <rect>
        10 5 5 2</rect></_>
    <_>
      <rect>
        10 5 5 3</rect></_>
    <_>
      <rect>
        10 5 8 4</rect></_>
    <_>
      <rect>
        11 3 7 4</rect></_>
    <_>
      <rect>
        11 4 2 1</rect></_>
    <_>
      <rect>
        11 4 7 3</rect></_>
    <_>
      <rect>
        11 6 5 2</rect></_>
    <_>
      <rect>
        12 3 2 1</rect></_>
    <_>
      <rect>
        12 4 2 2</rect></_>
    <_>
      <rect>
        12 4 2 3</rect></_>
    <_>
      <rect>
        12 5 5 3</rect></_>
    <_>
      <rect>
        12 5 6 2</rect></_>
    <_>
      <rect>
        12 6 3 1</rect></_>
    <_>
      <rect>
        12 6 4 1</rect></_>
    <_>
      <rect>
        12 6 5 2</rect></_>
    <_>
      <rect>
        12 6 8 4</rect></_>
    <_>
      <rect>
        12 8 3 1</rect></_>
    <_>
      <rect>
        12 8 4 1</rect></_>
    <_>
      <rect>
        12 10 5 1</rect></_>
    <_>
      <rect>
        13 3 3 1</rect></_>
    <_>
      <rect>
        13 3 5 3</rect></_>
    <_>
      <rect>
        13 4 2 1</rect></_>
    <_>
      <rect>
        13 5 6 1</rect></_>
    <_>
      <rect>
        13 5 6 3</rect></_>
    <_>
      <rect>
        13 6 2 1</rect></_>
    <_>
      <rect>
        13 7 3 1</rect></_>
    <_>
      <rect>
        13 8 4 1</rect></_>
    <_>
      <rect>
        13 8 7 1</rect></_>
    <_>
      <rect>
        13 9 8 3</rect></_>
    <_>
      <rect>
        14 2 2 2</rect></_>
    <_>
      <rect>
        14 3 2 3</rect></_>
    <_>
      <rect>
        14 5 1 2</rect></_>
    <_>
      <rect>
        14 5 1 3</rect></_>
    <_>
      <rect>
        14 5 4 3</rect></_>
    <_>
      <rect>
        14 5 5 2</rect></_>
    <_>
      <rect>
        14 6 2 1</rect></_>
    <_>
      <rect>
        14 7 3 1</rect></_>
    <_>
      <rect>
        14 7 4 1</rect></_>
    <_>
      <rect>
        14 8 3 1</rect></_>
    <_>
      <rect>
        14 8 5 1</rect></_>
    <_>
      <rect>
        14 9 1 1</rect></_>
    <_>
      <rect>
        15 3 1 2</rect></_>
    <_>
      <rect>
        15 3 2 3</rect></_>
    <_>
      <rect>
        15 4 1 2</rect></_>
    <_>
      <rect>
        15 4 1 3</rect></_>
    <_>
      <rect>
        15 4 2 1</rect></_>
    <_>
      <rect>
        15 5 1 3</rect></_>
    <_>
      <rect>
        15 5 3 1</rect></_>
    <_>
      <rect>
        15 6 1 2</rect></_>
    <_>
      <rect>
        15 6 3 1</rect></_>
    <_>
      <rect>
        15 6 3 2</rect></_>
    <_>
      <rect>
        15 6 5 3</rect></_>
    <_>
      <rect>
        15 6 6 3</rect></_>
    <_>
      <rect>
        15 7 2 1</rect></_>
    <_>
      <rect>
        15 7 3 1</rect></_>
    <_>
      <rect>
        15 9 1 2</rect></_>
    <_>
      <rect>
        15 10 2 1</rect></_>
    <_>
      <rect>
        16 2 1 4</rect></_>
    <_>
      <rect>
        16 2 2 2</rect></_>
    <_>
      <rect>
        16 4 1 2</rect></_>
    <_>
      <rect>
        16 4 1 3</rect></_>
    <_>
      <rect>
        16 5 1 2</rect></_>
    <_>
      <rect>
        16 5 2 2</rect></_>
    <_>
      <rect>
        16 6 1 2</rect></_>
    <_>
      <rect>
        16 7 3 1</rect></_>
    <_>
      <rect>
        16 8 3 1</rect></_>
    <_>
      <rect>
        16 9 1 1</rect></_>
    <_>
      <rect>
        16 10 1 1</rect></_>
    <_>
      <rect>
        17 2 1 4</rect></_>
    <_>
      <rect>
        17 3 1 3</rect></_>
    <_>
      <rect>
        17 3 2 3</rect></_>
    <_>
      <rect>
        17 4 1 3</rect></_>
    <_>
      <rect>
        17 5 1 2</rect></_>
    <_>
      <rect>
        17 5 2 2</rect></_>
    <_>
      <rect>
        17 6 1 1</rect></_>
    <_>
      <rect>
        17 6 2 1</rect></_>
    <_>
      <rect>
        17 7 1 1</rect></_>
    <_>
      <rect>
        17 7 1 2</rect></_>
    <_>
      <rect>
        17 7 2 1</rect></_>
    <_>
      <rect>
        18 3 1 2</rect></_>
    <_>
      <rect>
        18 3 1 3</rect></_>
    <_>
      <rect>
        18 4 1 3</rect></_>
    <_>
      <rect>
        18 5 2 2</rect></_>
    <_>
      <rect>
        18 7 1 1</rect></_>
    <_>
      <rect>
        18 8 1 1</rect></_>
    <_>
      <rect>
        18 8 1 2</rect></_>
    <_>
      <rect>
        18 10 1 1</rect></_>
    <_>
      <rect>
        19 2 1 4</rect></_>
    <_>
      <rect>
        19 4 1 3</rect></_>
    <_>
      <rect>
        19 4 5 3</rect></_>
    <_>
      <rect>
        19 10 1 1</rect></_>
    <_>
      <rect>
        20 3 1 4</rect></_>
    <_>
      <rect>
        20 4 1 3</rect></_>
    <_>
      <rect>
        20 5 1 3</rect></_>
    <_>
      <rect>
        20 8 1 2</rect></_>
    <_>
      <rect>
        20 10 1 2</rect></_>
    <_>
      <rect>
        21 0 4 3</rect></_>
    <_>
      <rect>
        21 4 1 3</rect></_>
    <_>
      <rect>
        22 2 4 3</rect></_>
    <_>
      <rect>
        23 0 4 4</rect></_>
    <_>
      <rect>
        25 8 3 3</rect></_>
    <_>
      <rect>
        26 6 3 3</rect></_>
    <_>
      <rect>
        29 6 2 3</rect></_></features></cascade>
</opencv_storage>
