<?xml version="1.0"?>
<opencv_storage>
<cascade>
  <stageType>BOOST</stageType>
  <featureType>LBP</featureType>
  <height>18</height>
  <width>38</width>
  <stageParams>
    <boostType>GAB</boostType>
    <minHitRate>9.9900001287460327e-01</minHitRate>
    <maxFalseAlarm>4.0000000596046448e-01</maxFalseAlarm>
    <weightTrimRate>9.4999999999999996e-01</weightTrimRate>
    <maxDepth>1</maxDepth>
    <maxWeakCount>100</maxWeakCount></stageParams>
  <featureParams>
    <maxCatCount>256</maxCatCount>
    <featSize>1</featSize></featureParams>
  <stageNum>12</stageNum>
  <stages>
    <!-- stage 0 -->
    <_>
      <maxWeakCount>3</maxWeakCount>
      <stageThreshold>-1.1787892580032349e+00</stageThreshold>
      <weakClassifiers>
        <_>
          <internalNodes>
            0 -1 84 -264191872 -116391936 2101265 -581894127 -1610579768
            -124245368 -1064785729 -6782773</internalNodes>
          <leafValues>
            -8.8054609298706055e-01 8.0566483736038208e-01</leafValues></_>
        <_>
          <internalNodes>
            0 -1 93 -255790912 -780091200 268484748 1359069387
            -268375894 -1073175936 -1870407445 -7340049</internalNodes>
          <leafValues>
            -8.6184608936309814e-01 5.9988659620285034e-01</leafValues></_>
        <_>
          <internalNodes>
            0 -1 63 285298896 -577040175 822171867 -40398441 -2139062024
            -1626537799 453696255 529469947</internalNodes>
          <leafValues>
            -8.0445218086242676e-01 5.6360286474227905e-01</leafValues></_></weakClassifiers></_>
    <!-- stage 1 -->
    <_>
      <maxWeakCount>5</maxWeakCount>
      <stageThreshold>-9.1153830289840698e-01</stageThreshold>
      <weakClassifiers>
        <_>
          <internalNodes>
            0 -1 98 -259997568 -218054528 -1853826659 -36315051
            -930570080 -70677876 -1467434261 -87301909</internalNodes>
          <leafValues>
            -7.9202878475189209e-01 6.9219076633453369e-01</leafValues></_>
        <_>
          <internalNodes>
            0 -1 23 -100342066 -78740890 -1945834292 -544538588
            -78988804 -67632198 -351997969 -1375541</internalNodes>
          <leafValues>
            -7.2253990173339844e-01 6.4626485109329224e-01</leafValues></_>
        <_>
          <internalNodes>
            0 -1 88 -263470454 -771702782 -805306368 1359024130
            -1073512438 32898 1091010688 -217062773</internalNodes>
          <leafValues>
            -6.4934980869293213e-01 6.4017528295516968e-01</leafValues></_>
        <_>
          <internalNodes>
            0 -1 123 -1035738998 -805076926 34816 1073995778 -1073626998
            49154 1342546058 -208931941</internalNodes>
          <leafValues>
            -6.0380625724792480e-01 6.5175074338912964e-01</leafValues></_>
        <_>
          <internalNodes>
            0 -1 10 -1040000769 -2138542002 -2137729553 145490141
            -254218753 -1062933858 -496395329 -1360007505</internalNodes>
          <leafValues>
            -6.6922950744628906e-01 6.0062944889068604e-01</leafValues></_></weakClassifiers></_>
    <!-- stage 2 -->
    <_>
      <maxWeakCount>8</maxWeakCount>
      <stageThreshold>-1.5155142545700073e+00</stageThreshold>
      <weakClassifiers>
        <_>
          <internalNodes>
            0 -1 64 -55525168 -3145520 -2138005313 -547811311
            -1736419094 -4554616 -2004309825 -74968679</internalNodes>
          <leafValues>
            -7.0797854661941528e-01 5.9771597385406494e-01</leafValues></_>
        <_>
          <internalNodes>
            0 -1 4 -1117458 -15736753 168324618 -1895062513 -941098001
            -70529845 -1356084273 -271586353</internalNodes>
          <leafValues>
            -6.7934197187423706e-01 5.3170937299728394e-01</leafValues></_>
        <_>
          <internalNodes>
            0 -1 24 -151325953 -800571160 34561791 34324511 -94766149
            -1429569296 -359662849 -1949308225</internalNodes>
          <leafValues>
            -5.8847779035568237e-01 5.4954081773757935e-01</leafValues></_>
        <_>
          <internalNodes>
            0 -1 116 -607462184 -754202488 50987192 1594567483
            -1979675986 -1987509111 155814330 -1684333653</internalNodes>
          <leafValues>
            -5.3988200426101685e-01 5.7268649339675903e-01</leafValues></_>
        <_>
          <internalNodes>
            0 -1 103 -217060725 -800997246 1342277643 1342341122 4374666
            -1878867194 1074038923 -775425541</internalNodes>
          <leafValues>
            -5.4705619812011719e-01 5.5711132287979126e-01</leafValues></_>
        <_>
          <internalNodes>
            0 -1 97 461527258 -654272496 454776287 1595086163
            -1702323730 -1625683574 521805787 521878523</internalNodes>
          <leafValues>
            -6.7493402957916260e-01 4.2486971616744995e-01</leafValues></_>
        <_>
          <internalNodes>
            0 -1 39 -398007056 -34480039 68703453 -682376741 -645871365
            -1080555086 285602299 1539536811</internalNodes>
          <leafValues>
            -5.6267094612121582e-01 4.9199789762496948e-01</leafValues></_>
        <_>
          <internalNodes>
            0 -1 131 -234626934 -259882432 264195 -788414462 1073840811
            1074167814 1342521999 -749995317</internalNodes>
          <leafValues>
            -5.0766402482986450e-01 5.3348040580749512e-01</leafValues></_></weakClassifiers></_>
    <!-- stage 3 -->
    <_>
      <maxWeakCount>10</maxWeakCount>
      <stageThreshold>-1.5386247634887695e+00</stageThreshold>
      <weakClassifiers>
        <_>
          <internalNodes>
            0 -1 26 -286265618 8561282 -930154241 1078915791 -589301505
            -1998082930 -287311105 -923796737</internalNodes>
          <leafValues>
            -5.9028643369674683e-01 5.3749072551727295e-01</leafValues></_>
        <_>
          <internalNodes>
            0 -1 46 -603987969 269146874 1505746943 333173755 1253805051
            176846841 1224736767 200989439</internalNodes>
          <leafValues>
            -5.9221732616424561e-01 4.6672925353050232e-01</leafValues></_>
        <_>
          <internalNodes>
            0 -1 79 -201334102 -785137517 286380032 1359184003
            -787251062 1342177280 1091948554 -753671285</internalNodes>
          <leafValues>
            -5.0598251819610596e-01 5.0359320640563965e-01</leafValues></_>
        <_>
          <internalNodes>
            0 -1 72 -78071560 -37699568 43168561 386994449 -24606546
            -1096233926 -346492949 -70771011</internalNodes>
          <leafValues>
            -6.1164510250091553e-01 4.4763493537902832e-01</leafValues></_>
        <_>
          <internalNodes>
            0 -1 112 -224140565 -754859901 -1065303805 -1023164285
            -1035816222 -1023158517 1074676874 -217063445</internalNodes>
          <leafValues>
            -4.6775713562965393e-01 5.3075420856475830e-01</leafValues></_>
        <_>
          <internalNodes>
            0 -1 32 274724959 -2000667520 -666690721 1004041693
            -1930470945 -935541540 -655392769 -875701921</internalNodes>
          <leafValues>
            -5.5195808410644531e-01 4.2761787772178650e-01</leafValues></_>
        <_>
          <internalNodes>
            0 -1 69 285236432 -553052757 385933279 1598640447
            -1677076280 -1895661568 454949375 455021555</internalNodes>
          <leafValues>
            -6.9790005683898926e-01 3.5321226716041565e-01</leafValues></_>
        <_>
          <internalNodes>
            0 -1 14 -1364201940 -551572976 -271717137 -4199678
            1327225326 -810584579 -1883649144 -3158840</internalNodes>
          <leafValues>
            -6.1508405208587646e-01 3.5875511169433594e-01</leafValues></_>
        <_>
          <internalNodes>
            0 -1 60 -244075279 -749731774 354931679 1367277905 675344560
            -1341652982 1494602239 458973343</internalNodes>
          <leafValues>
            -4.8460990190505981e-01 4.4022065401077271e-01</leafValues></_>
        <_>
          <internalNodes>
            0 -1 8 -290803969 -354488578 1250879095 1333757695
            -142608673 -202936354 -201400851 -8388914</internalNodes>
          <leafValues>
            -4.3564966320991516e-01 5.2048659324645996e-01</leafValues></_></weakClassifiers></_>
    <!-- stage 4 -->
    <_>
      <maxWeakCount>10</maxWeakCount>
      <stageThreshold>-1.4801161289215088e+00</stageThreshold>
      <weakClassifiers>
        <_>
          <internalNodes>
            0 -1 101 -104602998 -146737142 -1329414070 -707797045
            1346564298 -268386166 1347414239 -202377489</internalNodes>
          <leafValues>
            -4.6651971340179443e-01 5.4174208641052246e-01</leafValues></_>
        <_>
          <internalNodes>
            0 -1 5 -13686658 -1086738 -33422674 -1565906262 -744496466
            -140655029 -268435713 -4353</internalNodes>
          <leafValues>
            -5.9980082511901855e-01 3.9144423604011536e-01</leafValues></_>
        <_>
          <internalNodes>
            0 -1 56 -262410081 -49237921 273862911 2136830175 -804212581
            -1727364979 1092983231 488177835</internalNodes>
          <leafValues>
            -5.5607682466506958e-01 4.1353335976600647e-01</leafValues></_>
        <_>
          <internalNodes>
            0 -1 71 -1143932680 -539332480 -2124840709 -69340964
            -1131886342 -6340965 8388767 -1141255169</internalNodes>
          <leafValues>
            -5.7807135581970215e-01 3.8815814256668091e-01</leafValues></_>
        <_>
          <internalNodes>
            0 -1 15 -2012813057 -603977489 571443423 542720625
            -1534191169 -362083905 -1931562497 -1940923393</internalNodes>
          <leafValues>
            -6.0763049125671387e-01 3.5362756252288818e-01</leafValues></_>
        <_>
          <internalNodes>
            0 -1 124 -221781494 -788282842 32770 -788274637 -1069381494
            -804158974 4407306 -212862033</internalNodes>
          <leafValues>
            -4.9454313516616821e-01 4.4592905044555664e-01</leafValues></_>
        <_>
          <internalNodes>
            0 -1 53 -3679285 2144598955 16843522 -145233534 -1341449590
            822280192 16843658 -1329</internalNodes>
          <leafValues>
            -4.0881842374801636e-01 5.3833454847335815e-01</leafValues></_>
        <_>
          <internalNodes>
            0 -1 91 -537145089 -720642615 52576543 521355599 -619999778
            176817674 462129595 1572863947</internalNodes>
          <leafValues>
            -4.8444917798042297e-01 4.2253297567367554e-01</leafValues></_>
        <_>
          <internalNodes>
            0 -1 135 -1075966194 1037509642 1073651158 324742856
            -1098923546 -15946110 -5571672 -1079277396</internalNodes>
          <leafValues>
            -5.6661057472229004e-01 3.5428354144096375e-01</leafValues></_>
        <_>
          <internalNodes>
            0 -1 102 -87561526 -805060480 21209154 1635897538 1073799882
            33616006 1359077514 -477633817</internalNodes>
          <leafValues>
            -5.0727880001068115e-01 4.2567056417465210e-01</leafValues></_></weakClassifiers></_>
    <!-- stage 5 -->
    <_>
      <maxWeakCount>13</maxWeakCount>
      <stageThreshold>-1.3638217449188232e+00</stageThreshold>
      <weakClassifiers>
        <_>
          <internalNodes>
            0 -1 21 -1347950934 -3159926 -880787222 -1324406 -1725746
            -40116074 1875108044 -3150132</internalNodes>
          <leafValues>
            -5.8352941274642944e-01 4.1123968362808228e-01</leafValues></_>
        <_>
          <internalNodes>
            0 -1 81 1358953727 1342998720 1350171903 1360324828
            -644891905 -626284406 -1181746497 -632299297</internalNodes>
          <leafValues>
            -4.7723856568336487e-01 4.2945727705955505e-01</leafValues></_>
        <_>
          <internalNodes>
            0 -1 88 -204478261 -754737014 268632138 285458434
            -1060904822 229509 -803503926 -750007605</internalNodes>
          <leafValues>
            -4.2116922140121460e-01 4.9223196506500244e-01</leafValues></_>
        <_>
          <internalNodes>
            0 -1 59 -137316272 -1078939008 9576599 -676003403
            -1148521746 -6553982 33554942 -1081595139</internalNodes>
          <leafValues>
            -6.1750644445419312e-01 3.6430910229682922e-01</leafValues></_>
        <_>
          <internalNodes>
            0 -1 112 -221252949 1090636323 1933739592 285442571
            -268189046 33760809 1074448035 -821822565</internalNodes>
          <leafValues>
            -4.4999000430107117e-01 4.1040110588073730e-01</leafValues></_>
        <_>
          <internalNodes>
            0 -1 136 -825359346 1608466463 -896283713 -10812489
            -2147348813 -80041330 -1603093 -71595093</internalNodes>
          <leafValues>
            -4.9879711866378784e-01 3.7726387381553650e-01</leafValues></_>
        <_>
          <internalNodes>
            0 -1 107 -208106870 -7335682 494537755 2108817594 -99971446
            452988035 1295957386 523225243</internalNodes>
          <leafValues>
            -6.0952639579772949e-01 3.2990086078643799e-01</leafValues></_>
        <_>
          <internalNodes>
            0 -1 67 -235408421 -2149028 16814546 1426946775 1358999786
            1124614536 1392636927 -12582917</internalNodes>
          <leafValues>
            -4.2523387074470520e-01 4.5307874679565430e-01</leafValues></_>
        <_>
          <internalNodes>
            0 -1 63 430002386 -6942506 807515376 -337796751 -1265835800
            -611417928 1543823339 533698219</internalNodes>
          <leafValues>
            -6.1851036548614502e-01 2.9944857954978943e-01</leafValues></_>
        <_>
          <internalNodes>
            0 -1 37 -1901082422 1094854282 544080117 1344789636
            -1981904232 -1983189944 9355418 -80753925</internalNodes>
          <leafValues>
            -4.5566567778587341e-01 4.1779625415802002e-01</leafValues></_>
        <_>
          <internalNodes>
            0 -1 118 2120481868 -1870626794 -716890806 1373051711
            -83952950 -1999633268 1516863114 178244027</internalNodes>
          <leafValues>
            -5.5578851699829102e-01 3.5669362545013428e-01</leafValues></_>
        <_>
          <internalNodes>
            0 -1 47 -130852817 271668209 -629222657 -581578379
            -260352593 142485481 -495203393 492172563</internalNodes>
          <leafValues>
            -4.9882096052169800e-01 3.6023804545402527e-01</leafValues></_>
        <_>
          <internalNodes>
            0 -1 125 -347868534 -720684928 -1879029760 960561440
            -2067262750 -594476540 1073979530 1397488523</internalNodes>
          <leafValues>
            -5.3602385520935059e-01 3.4282404184341431e-01</leafValues></_></weakClassifiers></_>
    <!-- stage 6 -->
    <_>
      <maxWeakCount>14</maxWeakCount>
      <stageThreshold>-1.4177358150482178e+00</stageThreshold>
      <weakClassifiers>
        <_>
          <internalNodes>
            0 -1 11 -119537665 10497702 -16781313 -1325400397 -129
            -1394147337 -69476777 -1996488961</internalNodes>
          <leafValues>
            -4.4099378585815430e-01 4.7729450464248657e-01</leafValues></_>
        <_>
          <internalNodes>
            0 -1 83 386096607 -552973086 521887711 1597988859 -619979826
            -1617977718 522190847 -552625153</internalNodes>
          <leafValues>
            -4.1088831424713135e-01 4.7962960600852966e-01</leafValues></_>
        <_>
          <internalNodes>
            0 -1 133 -328464369 -681755737 -159530241 -20957 -654324593
            -151825 -588591937 -7688533</internalNodes>
          <leafValues>
            -4.0360489487648010e-01 4.7115522623062134e-01</leafValues></_>
        <_>
          <internalNodes>
            0 -1 74 -204735521 -745275453 1073766400 -5278901
            -2146715509 285276346 -1073481013 -207619121</internalNodes>
          <leafValues>
            -3.2866659760475159e-01 5.1533603668212891e-01</leafValues></_>
        <_>
          <internalNodes>
            0 -1 120 -589509412 -48370467 219584757 1576900254 983403658
            513935292 93421704 -1178600273</internalNodes>
          <leafValues>
            -4.3767142295837402e-01 3.8546288013458252e-01</leafValues></_>
        <_>
          <internalNodes>
            0 -1 51 -1696661505 302029720 -115935233 -207957225
            445602235 136843002 1324104687 465305215</internalNodes>
          <leafValues>
            -5.3637057542800903e-01 3.3019334077835083e-01</leafValues></_>
        <_>
          <internalNodes>
            0 -1 40 -11600898 2009366544 -1014761569 -150040370
            -547882821 -79880094 895348991 993259526</internalNodes>
          <leafValues>
            -4.7450119256973267e-01 3.3488228917121887e-01</leafValues></_>
        <_>
          <internalNodes>
            0 -1 94 2087434378 1895899136 832753856 1900360179 -40981558
            -2013259702 -712116276 -137365537</internalNodes>
          <leafValues>
            -5.1591396331787109e-01 3.3716860413551331e-01</leafValues></_>
        <_>
          <internalNodes>
            0 -1 38 -204504438 761785162 -1574919968 1884778659
            -79956018 218759746 -691585281 1434187775</internalNodes>
          <leafValues>
            -5.5063802003860474e-01 2.9503002762794495e-01</leafValues></_>
        <_>
          <internalNodes>
            0 -1 36 -595535670 -108257140 1308668119 423973496
            -1194533665 -936486471 -1475589381 267384935</internalNodes>
          <leafValues>
            -4.6606805920600891e-01 3.5684964060783386e-01</leafValues></_>
        <_>
          <internalNodes>
            0 -1 130 -74725238 -267718506 285410307 -1073512126
            -2138535446 268469382 1091426458 -217055541</internalNodes>
          <leafValues>
            -4.3379005789756775e-01 3.8805255293846130e-01</leafValues></_>
        <_>
          <internalNodes>
            0 -1 103 -24907573 -797464077 924178179 -1069498358
            -981213013 -1073493590 1124527563 -355468597</internalNodes>
          <leafValues>
            -3.5822784900665283e-01 4.6282538771629333e-01</leafValues></_>
        <_>
          <internalNodes>
            0 -1 95 -639880996 -715646906 268451905 -135573071
            -299078162 -888249790 924794511 -9445441</internalNodes>
          <leafValues>
            -5.4278886318206787e-01 3.2587021589279175e-01</leafValues></_>
        <_>
          <internalNodes>
            0 -1 28 -288430346 -10395476 1142172923 1998676335
            -127951369 -15974215 1396202399 1599297767</internalNodes>
          <leafValues>
            -5.1510840654373169e-01 3.1472030282020569e-01</leafValues></_></weakClassifiers></_>
    <!-- stage 7 -->
    <_>
      <maxWeakCount>15</maxWeakCount>
      <stageThreshold>-1.1259803771972656e+00</stageThreshold>
      <weakClassifiers>
        <_>
          <internalNodes>
            0 -1 13 -288428289 -1154326 149858559 -269571346 -671088641
            -34817 -257 -4609</internalNodes>
          <leafValues>
            -3.1992602348327637e-01 5.5779129266738892e-01</leafValues></_>
        <_>
          <internalNodes>
            0 -1 117 528685823 999366271 261314559 2143111167
            -1726898241 -1615902977 -1111883809 -1077969923</internalNodes>
          <leafValues>
            -4.1558232903480530e-01 4.2202877998352051e-01</leafValues></_>
        <_>
          <internalNodes>
            0 -1 31 -16777474 -371054080 -186106710 2087985388
            -117443393 -370672926 -31538466 -587206913</internalNodes>
          <leafValues>
            -4.4512814283370972e-01 3.5372108221054077e-01</leafValues></_>
        <_>
          <internalNodes>
            0 -1 90 -67372310 -748487836 -676732792 -10231813 -931996757
            1048761 299870651 -77871665</internalNodes>
          <leafValues>
            -3.8960596919059753e-01 4.0974646806716919e-01</leafValues></_>
        <_>
          <internalNodes>
            0 -1 57 -263237386 -1732138962 -654446611 1364328255
            -2004985153 -277904802 -17847569 1499331187</internalNodes>
          <leafValues>
            -4.9527043104171753e-01 2.8291818499565125e-01</leafValues></_>
        <_>
          <internalNodes>
            0 -1 1 -1368391681 42976990 1072953343 -169 -272900193
            81455091 -35660299 -403768396</internalNodes>
          <leafValues>
            -3.7617859244346619e-01 3.9828181266784668e-01</leafValues></_>
        <_>
          <internalNodes>
            0 -1 99 -667160323 -575893495 -1689895517 1359041621
            237997742 -898980149 -613712897 416182270</internalNodes>
          <leafValues>
            -4.1741958260536194e-01 3.7306961417198181e-01</leafValues></_>
        <_>
          <internalNodes>
            0 -1 75 -121442304 -611405704 1449173522 290456482
            -573648420 172635970 1231266954 1229957762</internalNodes>
          <leafValues>
            -5.8177214860916138e-01 2.6433825492858887e-01</leafValues></_>
        <_>
          <internalNodes>
            0 -1 54 607813375 -2003822918 -705167873 1509556184
            208012539 14680729 94179003 -2000684485</internalNodes>
          <leafValues>
            -5.5799663066864014e-01 2.6533293724060059e-01</leafValues></_>
        <_>
          <internalNodes>
            0 -1 76 -67633410 1608416475 -1240428520 2042081032
            433651645 343966971 907148974 1407559483</internalNodes>
          <leafValues>
            -4.9021083116531372e-01 3.1165826320648193e-01</leafValues></_>
        <_>
          <internalNodes>
            0 -1 114 -435953469 -1694379931 1831190551 -2113416875
            -91036501 1999000686 1221261999 -1056456769</internalNodes>
          <leafValues>
            -3.7641379237174988e-01 4.0711200237274170e-01</leafValues></_>
        <_>
          <internalNodes>
            0 -1 12 2147430191 271646683 -21037091 -110035009 -46186683
            -1426262037 -131209 -1728774945</internalNodes>
          <leafValues>
            -3.8841181993484497e-01 3.9654317498207092e-01</leafValues></_>
        <_>
          <internalNodes>
            0 -1 34 2145563442 -6065326 151009199 1863563111 -296420414
            -91989686 172324750 789005826</internalNodes>
          <leafValues>
            -5.3984129428863525e-01 2.7352425456047058e-01</leafValues></_>
        <_>
          <internalNodes>
            0 -1 48 -73448250 -1689395441 -868794222 -6471469 -611990390
            -1056963902 -1090014529 1599558071</internalNodes>
          <leafValues>
            -5.2965390682220459e-01 2.9565268754959106e-01</leafValues></_>
        <_>
          <internalNodes>
            0 -1 105 -14943445 -1684059628 203380181 323360967 51112867
            139135561 315345549 -67124522</internalNodes>
          <leafValues>
            -3.9396077394485474e-01 3.9670932292938232e-01</leafValues></_></weakClassifiers></_>
    <!-- stage 8 -->
    <_>
      <maxWeakCount>16</maxWeakCount>
      <stageThreshold>-1.6870399713516235e+00</stageThreshold>
      <weakClassifiers>
        <_>
          <internalNodes>
            0 -1 62 -785173709 -1060097285 288562163 1442003443
            -1413760069 -1964328454 -1141131349 -1948257555</internalNodes>
          <leafValues>
            -2.6622638106346130e-01 5.1532429456710815e-01</leafValues></_>
        <_>
          <internalNodes>
            0 -1 9 -1862271233 13561759 -1080035329 1020264189
            -587727171 -1395658853 -553673501 -1932526340</internalNodes>
          <leafValues>
            -4.6203833818435669e-01 3.2902419567108154e-01</leafValues></_>
        <_>
          <internalNodes>
            0 -1 66 -137628201 -217844345 285294785 50559439 -251465062
            285253760 -1814826262 -1</internalNodes>
          <leafValues>
            -3.4236836433410645e-01 4.1100221872329712e-01</leafValues></_>
        <_>
          <internalNodes>
            0 -1 96 137059551 -5419561 522051583 530521951 -1425438054
            -74776508 222034937 522892023</internalNodes>
          <leafValues>
            -4.9966901540756226e-01 2.8915730118751526e-01</leafValues></_>
        <_>
          <internalNodes>
            0 -1 86 -205262134 -905188853 -913835845 1342423171
            -355474733 1074479139 1359724746 1493946506</internalNodes>
          <leafValues>
            -4.3748661875724792e-01 3.2317963242530823e-01</leafValues></_>
        <_>
          <internalNodes>
            0 -1 128 -320025009 -274875 -803149097 1595671215 -543175681
            -276863305 -1129518641 -1355437329</internalNodes>
          <leafValues>
            -3.9137092232704163e-01 3.5321736335754395e-01</leafValues></_>
        <_>
          <internalNodes>
            0 -1 126 -37494784 -1585336286 1663107073 1495498752
            -356014710 452984832 1107916239 1393541291</internalNodes>
          <leafValues>
            -4.7020155191421509e-01 3.0844926834106445e-01</leafValues></_>
        <_>
          <internalNodes>
            0 -1 16 947786335 -125257142 618274629 -1735738521
            -859873857 -93281790 -18109713 -389099942</internalNodes>
          <leafValues>
            -5.4020625352859497e-01 2.2736494243144989e-01</leafValues></_>
        <_>
          <internalNodes>
            0 -1 121 -620248960 -741638144 -979549945 1472700675
            1132562062 1078084107 286510843 -1009786449</internalNodes>
          <leafValues>
            -3.8859638571739197e-01 3.5959929227828979e-01</leafValues></_>
        <_>
          <internalNodes>
            0 -1 73 -84873539 -1109853475 352458001 1393885585
            -1465351670 -1440544065 1027148479 -13096668</internalNodes>
          <leafValues>
            -3.5407102108001709e-01 3.8706979155540466e-01</leafValues></_>
        <_>
          <internalNodes>
            0 -1 65 -544222837 -174365801 1429207427 1377534467
            -795883349 1359299607 1296269995 -347372925</internalNodes>
          <leafValues>
            -3.1124591827392578e-01 4.6174779534339905e-01</leafValues></_>
        <_>
          <internalNodes>
            0 -1 45 -1060124153 -152392945 -478419573 -202637982
            -503323058 1111839830 322434047 -749215761</internalNodes>
          <leafValues>
            -3.1690549850463867e-01 4.3752634525299072e-01</leafValues></_>
        <_>
          <internalNodes>
            0 -1 6 2012995583 413171471 -293666817 -33849473 2146859125
            -1080885251 -268435585 -1125060777</internalNodes>
          <leafValues>
            -3.2867765426635742e-01 4.3775063753128052e-01</leafValues></_>
        <_>
          <internalNodes>
            0 -1 30 -1574181777 1324017228 -390897569 2061500021
            2022826907 -2006845770 -400557619 -937428543</internalNodes>
          <leafValues>
            -4.2773625254631042e-01 3.4643888473510742e-01</leafValues></_>
        <_>
          <internalNodes>
            0 -1 55 -545579426 2147111002 -1391778062 1970483827
            -1248868214 -267354048 -77744389 -1659223689</internalNodes>
          <leafValues>
            -3.5346290469169617e-01 4.1086664795875549e-01</leafValues></_>
        <_>
          <internalNodes>
            0 -1 137 -270070269 -79399082 764087892 -1522344312
            -1501934268 1308442203 1530353474 -85989420</internalNodes>
          <leafValues>
            -4.3874123692512512e-01 3.1202438473701477e-01</leafValues></_></weakClassifiers></_>
    <!-- stage 9 -->
    <_>
      <maxWeakCount>17</maxWeakCount>
      <stageThreshold>-1.0254930257797241e+00</stageThreshold>
      <weakClassifiers>
        <_>
          <internalNodes>
            0 -1 104 -67931958 -707768248 -1065303864 -586296189
            -261950838 1346387970 -1609912082 -1048577</internalNodes>
          <leafValues>
            -4.2062076926231384e-01 3.7588408589363098e-01</leafValues></_>
        <_>
          <internalNodes>
            0 -1 7 -17897729 -1178910 -292622721 -9638202 -135266306
            -135302147 -135790593 -3145729</internalNodes>
          <leafValues>
            -3.0135717988014221e-01 4.7315654158592224e-01</leafValues></_>
        <_>
          <internalNodes>
            0 -1 111 461921683 -1157096550 1027300831 1597333211
            -6562309 -72328998 -1187275297 2134900735</internalNodes>
          <leafValues>
            -4.4096368551254272e-01 3.1627550721168518e-01</leafValues></_>
        <_>
          <internalNodes>
            0 -1 127 -923860981 -143704593 1878462071 -4217857
            -286298881 -86021 -286430482 -273757202</internalNodes>
          <leafValues>
            -3.3988508582115173e-01 4.0557083487510681e-01</leafValues></_>
        <_>
          <internalNodes>
            0 -1 138 -1963061754 -1342260312 -1370608321 1038282172
            -882966496 -273450209 -343946377 -33554587</internalNodes>
          <leafValues>
            -4.6879690885543823e-01 2.8419056534767151e-01</leafValues></_>
        <_>
          <internalNodes>
            0 -1 77 -619070646 -246325268 1122440 2131083763 1082753176
            2048 186100387 2139073535</internalNodes>
          <leafValues>
            -4.6977064013481140e-01 3.0074298381805420e-01</leafValues></_>
        <_>
          <internalNodes>
            0 -1 25 2137997311 995130322 1566098933 -34541664 1616791357
            -1191641104 -33642083 416603760</internalNodes>
          <leafValues>
            -4.3884989619255066e-01 2.9900884628295898e-01</leafValues></_>
        <_>
          <internalNodes>
            0 -1 110 -1693832318 -153153022 34603041 1397199489
            -204872534 -631364666 -1009780997 1397215383</internalNodes>
          <leafValues>
            -5.1680022478103638e-01 2.3386973142623901e-01</leafValues></_>
        <_>
          <internalNodes>
            0 -1 33 -491001426 -2102465821 -1666717460 1885856551
            -1497373265 1182004393 285728683 -715139091</internalNodes>
          <leafValues>
            -4.7892531752586365e-01 2.5663489103317261e-01</leafValues></_>
        <_>
          <internalNodes>
            0 -1 0 -89237025 -1830042 686685183 725289851 -1346377109
            585643716 -135598357 -1962946657</internalNodes>
          <leafValues>
            -3.3300527930259705e-01 3.8549989461898804e-01</leafValues></_>
        <_>
          <internalNodes>
            0 -1 87 -1143244293 -590619444 1342206016 -548814386
            -771637746 134251586 -780027254 -6295585</internalNodes>
          <leafValues>
            -3.0533742904663086e-01 4.3959495425224304e-01</leafValues></_>
        <_>
          <internalNodes>
            0 -1 43 2105537791 -16124593 2128601087 -8914753 -1170661217
            -1173620551 1404121855 -77639297</internalNodes>
          <leafValues>
            -2.7491641044616699e-01 4.9754983186721802e-01</leafValues></_>
        <_>
          <internalNodes>
            0 -1 68 -1153385736 -170715944 -1307528942 -140643413
            -31919526 -1021751152 -1425294609 -785928194</internalNodes>
          <leafValues>
            -5.3048378229141235e-01 2.4682745337486267e-01</leafValues></_>
        <_>
          <internalNodes>
            0 -1 124 -340790613 -1171028261 -738146301 -804547974
            -2008925046 -800604160 1216839722 -70255665</internalNodes>
          <leafValues>
            -2.7808532118797302e-01 4.9355810880661011e-01</leafValues></_>
        <_>
          <internalNodes>
            0 -1 92 -521321745 -1733055955 -1201014274 140091824
            1305693407 -96105 -71568385 -81467407</internalNodes>
          <leafValues>
            -3.7880742549896240e-01 3.5125446319580078e-01</leafValues></_>
        <_>
          <internalNodes>
            0 -1 19 -844160434 -1154607574 99238287 1806314022
            -514591393 -135088143 -1588662277 -271622149</internalNodes>
          <leafValues>
            -5.2945989370346069e-01 2.5087395310401917e-01</leafValues></_>
        <_>
          <internalNodes>
            0 -1 132 -1010638848 -115679232 -1199273934 -173973462
            -1072895858 1443631232 -1072707336 1376776747</internalNodes>
          <leafValues>
            -5.4109627008438110e-01 2.5019574165344238e-01</leafValues></_></weakClassifiers></_>
    <!-- stage 10 -->
    <_>
      <maxWeakCount>17</maxWeakCount>
      <stageThreshold>-1.1014593839645386e+00</stageThreshold>
      <weakClassifiers>
        <_>
          <internalNodes>
            0 -1 70 397041144 1569247946 1293671390 1608505786
            -909058577 -577938214 150207996 429900283</internalNodes>
          <leafValues>
            -4.0732985734939575e-01 3.7785527110099792e-01</leafValues></_>
        <_>
          <internalNodes>
            0 -1 17 -286595346 -135798098 -420551070 -7354685 -472910900
            -243321697 -809044276 -3735672</internalNodes>
          <leafValues>
            -5.2662581205368042e-01 2.5068637728691101e-01</leafValues></_>
        <_>
          <internalNodes>
            0 -1 106 -15208276 -3754946 -544752632 -657729 -1069561665
            138412209 -1712333569 -69740553</internalNodes>
          <leafValues>
            -3.7478774785995483e-01 3.4682399034500122e-01</leafValues></_>
        <_>
          <internalNodes>
            0 -1 109 51183815 -102280737 435556317 1063132413 529564814
            -1081930255 -1074856197 -1081222669</internalNodes>
          <leafValues>
            -4.0554067492485046e-01 3.1717860698699951e-01</leafValues></_>
        <_>
          <internalNodes>
            0 -1 44 -1829253425 -1161131729 -630587681 -94247597
            43470223 184176527 451731423 -84935489</internalNodes>
          <leafValues>
            -3.7254297733306885e-01 3.3421680331230164e-01</leafValues></_>
        <_>
          <internalNodes>
            0 -1 82 -77898146 -8489093 1209998938 -11115361 -854487809
            -1794091938 -870861635 -6838577</internalNodes>
          <leafValues>
            -3.2430937886238098e-01 4.0494513511657715e-01</leafValues></_>
        <_>
          <internalNodes>
            0 -1 119 -135285110 -807425264 570427936 1124624258
            -737701500 33816992 1074045320 1399844811</internalNodes>
          <leafValues>
            -4.2850220203399658e-01 3.1120726466178894e-01</leafValues></_>
        <_>
          <internalNodes>
            0 -1 42 -206575613 -1063131445 -192945533 -152066241
            -6291798 1206007487 825742763 -216006691</internalNodes>
          <leafValues>
            -3.2313722372055054e-01 3.6970242857933044e-01</leafValues></_>
        <_>
          <internalNodes>
            0 -1 139 376702257 -52233 729574741 -343965894 -630446663
            -137414709 -1375991077 -49320</internalNodes>
          <leafValues>
            -3.4707677364349365e-01 3.5816133022308350e-01</leafValues></_>
        <_>
          <internalNodes>
            0 -1 20 -189989385 -603429249 -901948417 -1168428769
            -70451329 -1394706119 -71321345 -2005927175</internalNodes>
          <leafValues>
            -3.5449719429016113e-01 3.5583546757698059e-01</leafValues></_>
        <_>
          <internalNodes>
            0 -1 80 -772824957 -786455999 -738164712 1359999011
            -1026850806 -1039445984 1347109514 -206585653</internalNodes>
          <leafValues>
            -3.4556970000267029e-01 3.8570624589920044e-01</leafValues></_>
        <_>
          <internalNodes>
            0 -1 122 -58150272 1540989825 1091645505 862398665
            -200766818 727327107 1060877770 1806695374</internalNodes>
          <leafValues>
            -4.5755192637443542e-01 2.9397335648536682e-01</leafValues></_>
        <_>
          <internalNodes>
            0 -1 18 -185122857 1009282956 -126766183 1576920272
            1607696213 -1460175727 -33554647 -2001405515</internalNodes>
          <leafValues>
            -3.8214069604873657e-01 3.3102536201477051e-01</leafValues></_>
        <_>
          <internalNodes>
            0 -1 41 1032025342 1802756295 1597400243 2133295075
            1165742322 -572820234 1065308592 2070369719</internalNodes>
          <leafValues>
            -5.0054073333740234e-01 2.6297968626022339e-01</leafValues></_>
        <_>
          <internalNodes>
            0 -1 49 997241040 -1124867398 -1277592033 -4329763 -34553832
            -98918399 -1173202498 -80627303</internalNodes>
          <leafValues>
            -5.1201868057250977e-01 2.5946462154388428e-01</leafValues></_>
        <_>
          <internalNodes>
            0 -1 35 -2102938909 -374603858 -1162890505 -123355489
            -1216905225 -36509989 -68685920 -336658716</internalNodes>
          <leafValues>
            -2.8179407119750977e-01 4.5349499583244324e-01</leafValues></_>
        <_>
          <internalNodes>
            0 -1 113 -117918568 -303035364 -1378189895 1034029310
            -1279096594 389022125 392399018 535355069</internalNodes>
          <leafValues>
            -6.0266947746276855e-01 2.1285992860794067e-01</leafValues></_></weakClassifiers></_>
    <!-- stage 11 -->
    <_>
      <maxWeakCount>19</maxWeakCount>
      <stageThreshold>-1.2562133073806763e+00</stageThreshold>
      <weakClassifiers>
        <_>
          <internalNodes>
            0 -1 129 -1460671793 -33583537 -2063694129 1417739951
            -18874625 -4097 -1124729345 1549069055</internalNodes>
          <leafValues>
            -3.0071076750755310e-01 4.2492917180061340e-01</leafValues></_>
        <_>
          <internalNodes>
            0 -1 27 -17826113 1221521066 -658621793 2029517755
            -554172681 -319817737 2130697983 -50331649</internalNodes>
          <leafValues>
            -3.4240388870239258e-01 3.7554818391799927e-01</leafValues></_>
        <_>
          <internalNodes>
            0 -1 52 -349183478 -678761893 -382832382 -215753878
            -231751413 1195397443 1678767279 1937207279</internalNodes>
          <leafValues>
            -5.1262700557708740e-01 2.2991466522216797e-01</leafValues></_>
        <_>
          <internalNodes>
            0 -1 134 -999683069 -57593 -2175265 -213958729 -1060189089
            -205486055 -319304513 -6118230</internalNodes>
          <leafValues>
            -3.4518730640411377e-01 3.5008031129837036e-01</leafValues></_>
        <_>
          <internalNodes>
            0 -1 89 -70254849 -640754954 -1341988862 -712251505
            -650053650 -666337073 -93586726 -3150081</internalNodes>
          <leafValues>
            -3.0504873394966125e-01 4.0632307529449463e-01</leafValues></_>
        <_>
          <internalNodes>
            0 -1 96 420552149 -273738249 455955455 1598003707 -544653105
            -1683420215 1008593919 792444882</internalNodes>
          <leafValues>
            -4.8561257123947144e-01 2.3016457259654999e-01</leafValues></_>
        <_>
          <internalNodes>
            0 -1 115 -70279158 -199433726 1482711184 1364714175
            -599669870 1133891973 -700124170 -685787157</internalNodes>
          <leafValues>
            -3.8859236240386963e-01 2.9783657193183899e-01</leafValues></_>
        <_>
          <internalNodes>
            0 -1 22 572486367 -1710981964 854047671 990475161
            -1174413317 -901881782 -1932547153 -825298273</internalNodes>
          <leafValues>
            -4.5005100965499878e-01 2.5490877032279968e-01</leafValues></_>
        <_>
          <internalNodes>
            0 -1 29 -456184082 675817070 1020266640 1358712482
            2135635771 -1065554005 -37176588 -50399278</internalNodes>
          <leafValues>
            -5.1920628547668457e-01 2.2360116243362427e-01</leafValues></_>
        <_>
          <internalNodes>
            0 -1 61 -537431041 -6305827 28672 1465717153 -207381874
            268972032 1410060427 -539006577</internalNodes>
          <leafValues>
            -2.7961438894271851e-01 4.3090733885765076e-01</leafValues></_>
        <_>
          <internalNodes>
            0 -1 2 -1343883265 -1364530510 -2499083 -437260695
            -392857625 1652544927 -840122208 -978917932</internalNodes>
          <leafValues>
            -4.3417599797248840e-01 2.7055341005325317e-01</leafValues></_>
        <_>
          <internalNodes>
            0 -1 50 -1200161724 -1176330409 -82855059 286497172
            -2006290932 -1161416982 -388297811 1057994767</internalNodes>
          <leafValues>
            -4.3031170964241028e-01 2.7924251556396484e-01</leafValues></_>
        <_>
          <internalNodes>
            0 -1 103 -137631093 -892166113 1108461327 -754741174
            -636496765 1091566280 1342686275 -657989405</internalNodes>
          <leafValues>
            -3.3369883894920349e-01 3.7231436371803284e-01</leafValues></_>
        <_>
          <internalNodes>
            0 -1 58 -83821840 -1616854615 1279129462 1601466743
            -612172752 235735436 436373998 440466140</internalNodes>
          <leafValues>
            -5.9374129772186279e-01 2.0226204395294189e-01</leafValues></_>
        <_>
          <internalNodes>
            0 -1 108 406686255 -1145729463 576122894 -1081057916
            -104377153 -1107866237 1031797735 -1417095056</internalNodes>
          <leafValues>
            -4.1458284854888916e-01 2.9688593745231628e-01</leafValues></_>
        <_>
          <internalNodes>
            0 -1 85 -134033280 -1701654141 -1325304612 -747243743
            -1576802110 -492321750 63554015 -753942390</internalNodes>
          <leafValues>
            -3.6109673976898193e-01 3.5249817371368408e-01</leafValues></_>
        <_>
          <internalNodes>
            0 -1 100 -2096150877 -1302605053 -714098501 -1074531421
            -414480213 -882651134 1141370219 1426510472</internalNodes>
          <leafValues>
            -3.8302624225616455e-01 3.1984543800354004e-01</leafValues></_>
        <_>
          <internalNodes>
            0 -1 78 -287135552 -172429232 -49874311 1360404650
            -912413586 159416997 1358432456 1233758442</internalNodes>
          <leafValues>
            -5.0362747907638550e-01 2.4360314011573792e-01</leafValues></_>
        <_>
          <internalNodes>
            0 -1 3 826344445 -1813644939 -1085937699 -33767849
            -1682610346 -1160340784 -1230373892 -1149227280</internalNodes>
          <leafValues>
            -3.6674201488494873e-01 3.5673096776008606e-01</leafValues></_></weakClassifiers></_></stages>
  <features>
    <_>
      <rect>
        0 0 11 6</rect></_>
    <_>
      <rect>
        1 1 5 3</rect></_>
    <_>
      <rect>
        1 3 5 2</rect></_>
    <_>
      <rect>
        2 5 2 3</rect></_>
    <_>
      <rect>
        2 6 7 2</rect></_>
    <_>
      <rect>
        2 6 7 4</rect></_>
    <_>
      <rect>
        2 7 3 3</rect></_>
    <_>
      <rect>
        2 7 5 1</rect></_>
    <_>
      <rect>
        2 7 6 1</rect></_>
    <_>
      <rect>
        3 3 3 3</rect></_>
    <_>
      <rect>
        3 3 10 5</rect></_>
    <_>
      <rect>
        3 5 3 3</rect></_>
    <_>
      <rect>
        3 8 3 3</rect></_>
    <_>
      <rect>
        3 8 5 1</rect></_>
    <_>
      <rect>
        4 0 6 4</rect></_>
    <_>
      <rect>
        4 0 10 5</rect></_>
    <_>
      <rect>
        4 3 9 4</rect></_>
    <_>
      <rect>
        4 4 5 2</rect></_>
    <_>
      <rect>
        4 6 2 2</rect></_>
    <_>
      <rect>
        4 8 6 2</rect></_>
    <_>
      <rect>
        5 0 9 5</rect></_>
    <_>
      <rect>
        5 2 5 3</rect></_>
    <_>
      <rect>
        5 4 9 4</rect></_>
    <_>
      <rect>
        5 6 5 1</rect></_>
    <_>
      <rect>
        5 7 9 2</rect></_>
    <_>
      <rect>
        5 9 2 3</rect></_>
    <_>
      <rect>
        6 4 2 3</rect></_>
    <_>
      <rect>
        6 6 2 2</rect></_>
    <_>
      <rect>
        6 7 7 1</rect></_>
    <_>
      <rect>
        6 8 2 2</rect></_>
    <_>
      <rect>
        7 3 2 2</rect></_>
    <_>
      <rect>
        7 4 2 4</rect></_>
    <_>
      <rect>
        7 4 8 4</rect></_>
    <_>
      <rect>
        7 5 2 1</rect></_>
    <_>
      <rect>
        7 6 5 2</rect></_>
    <_>
      <rect>
        8 0 3 2</rect></_>
    <_>
      <rect>
        8 0 10 6</rect></_>
    <_>
      <rect>
        8 5 1 2</rect></_>
    <_>
      <rect>
        8 6 2 2</rect></_>
    <_>
      <rect>
        8 7 5 1</rect></_>
    <_>
      <rect>
        8 8 4 1</rect></_>
    <_>
      <rect>
        9 5 5 2</rect></_>
    <_>
      <rect>
        11 3 2 1</rect></_>
    <_>
      <rect>
        11 3 5 3</rect></_>
    <_>
      <rect>
        11 3 8 3</rect></_>
    <_>
      <rect>
        11 4 2 1</rect></_>
    <_>
      <rect>
        11 5 7 2</rect></_>
    <_>
      <rect>
        11 5 7 4</rect></_>
    <_>
      <rect>
        11 6 3 1</rect></_>
    <_>
      <rect>
        11 6 5 2</rect></_>
    <_>
      <rect>
        11 8 8 1</rect></_>
    <_>
      <rect>
        12 3 6 3</rect></_>
    <_>
      <rect>
        12 4 2 1</rect></_>
    <_>
      <rect>
        12 4 2 3</rect></_>
    <_>
      <rect>
        12 4 6 3</rect></_>
    <_>
      <rect>
        12 6 3 1</rect></_>
    <_>
      <rect>
        12 6 4 1</rect></_>
    <_>
      <rect>
        12 7 8 2</rect></_>
    <_>
      <rect>
        12 8 3 1</rect></_>
    <_>
      <rect>
        12 8 4 1</rect></_>
    <_>
      <rect>
        12 10 5 1</rect></_>
    <_>
      <rect>
        13 3 2 4</rect></_>
    <_>
      <rect>
        13 6 7 1</rect></_>
    <_>
      <rect>
        13 7 3 1</rect></_>
    <_>
      <rect>
        13 8 4 1</rect></_>
    <_>
      <rect>
        14 4 1 3</rect></_>
    <_>
      <rect>
        14 4 2 3</rect></_>
    <_>
      <rect>
        14 4 2 4</rect></_>
    <_>
      <rect>
        14 6 3 2</rect></_>
    <_>
      <rect>
        14 7 3 1</rect></_>
    <_>
      <rect>
        14 7 5 1</rect></_>
    <_>
      <rect>
        14 8 3 1</rect></_>
    <_>
      <rect>
        14 8 4 1</rect></_>
    <_>
      <rect>
        14 8 5 1</rect></_>
    <_>
      <rect>
        15 2 2 4</rect></_>
    <_>
      <rect>
        15 3 1 2</rect></_>
    <_>
      <rect>
        15 3 2 2</rect></_>
    <_>
      <rect>
        15 3 2 5</rect></_>
    <_>
      <rect>
        15 4 1 2</rect></_>
    <_>
      <rect>
        15 4 1 3</rect></_>
    <_>
      <rect>
        15 5 1 3</rect></_>
    <_>
      <rect>
        15 5 5 3</rect></_>
    <_>
      <rect>
        15 6 2 1</rect></_>
    <_>
      <rect>
        15 7 3 1</rect></_>
    <_>
      <rect>
        15 8 3 1</rect></_>
    <_>
      <rect>
        15 9 1 1</rect></_>
    <_>
      <rect>
        16 1 1 4</rect></_>
    <_>
      <rect>
        16 3 2 4</rect></_>
    <_>
      <rect>
        16 4 1 3</rect></_>
    <_>
      <rect>
        16 4 2 3</rect></_>
    <_>
      <rect>
        16 5 2 1</rect></_>
    <_>
      <rect>
        16 5 2 2</rect></_>
    <_>
      <rect>
        16 5 6 4</rect></_>
    <_>
      <rect>
        16 6 2 2</rect></_>
    <_>
      <rect>
        16 6 2 3</rect></_>
    <_>
      <rect>
        16 6 3 2</rect></_>
    <_>
      <rect>
        16 7 2 1</rect></_>
    <_>
      <rect>
        16 7 3 1</rect></_>
    <_>
      <rect>
        16 8 2 1</rect></_>
    <_>
      <rect>
        16 8 5 1</rect></_>
    <_>
      <rect>
        17 1 2 2</rect></_>
    <_>
      <rect>
        17 2 2 4</rect></_>
    <_>
      <rect>
        17 3 1 4</rect></_>
    <_>
      <rect>
        17 4 1 3</rect></_>
    <_>
      <rect>
        17 4 2 3</rect></_>
    <_>
      <rect>
        17 5 1 2</rect></_>
    <_>
      <rect>
        17 5 2 1</rect></_>
    <_>
      <rect>
        17 6 1 1</rect></_>
    <_>
      <rect>
        17 6 6 4</rect></_>
    <_>
      <rect>
        17 7 1 1</rect></_>
    <_>
      <rect>
        17 7 1 3</rect></_>
    <_>
      <rect>
        17 7 2 1</rect></_>
    <_>
      <rect>
        18 4 1 3</rect></_>
    <_>
      <rect>
        18 6 1 1</rect></_>
    <_>
      <rect>
        18 6 1 2</rect></_>
    <_>
      <rect>
        18 6 1 3</rect></_>
    <_>
      <rect>
        18 6 2 1</rect></_>
    <_>
      <rect>
        18 7 1 1</rect></_>
    <_>
      <rect>
        18 9 5 1</rect></_>
    <_>
      <rect>
        18 10 1 2</rect></_>
    <_>
      <rect>
        19 6 1 1</rect></_>
    <_>
      <rect>
        19 10 1 1</rect></_>
    <_>
      <rect>
        20 4 1 2</rect></_>
    <_>
      <rect>
        20 4 1 3</rect></_>
    <_>
      <rect>
        20 5 1 3</rect></_>
    <_>
      <rect>
        20 6 1 3</rect></_>
    <_>
      <rect>
        20 9 1 2</rect></_>
    <_>
      <rect>
        21 0 4 3</rect></_>
    <_>
      <rect>
        21 0 4 6</rect></_>
    <_>
      <rect>
        21 3 4 4</rect></_>
    <_>
      <rect>
        21 4 1 3</rect></_>
    <_>
      <rect>
        21 5 1 3</rect></_>
    <_>
      <rect>
        21 8 1 2</rect></_>
    <_>
      <rect>
        22 0 4 4</rect></_>
    <_>
      <rect>
        23 0 4 4</rect></_>
    <_>
      <rect>
        23 3 5 5</rect></_>
    <_>
      <rect>
        24 0 4 5</rect></_>
    <_>
      <rect>
        25 7 4 2</rect></_>
    <_>
      <rect>
        25 8 3 3</rect></_>
    <_>
      <rect>
        28 5 2 4</rect></_></features></cascade>
</opencv_storage>
