<?xml version="1.0"?>
<opencv_storage>
<cascade>
  <stageType>BOOST</stageType>
  <featureType>LBP</featureType>
  <height>18</height>
  <width>38</width>
  <stageParams>
    <boostType>GAB</boostType>
    <minHitRate>9.9900001287460327e-01</minHitRate>
    <maxFalseAlarm>4.0000000596046448e-01</maxFalseAlarm>
    <weightTrimRate>9.4999999999999996e-01</weightTrimRate>
    <maxDepth>1</maxDepth>
    <maxWeakCount>100</maxWeakCount></stageParams>
  <featureParams>
    <maxCatCount>256</maxCatCount>
    <featSize>1</featSize></featureParams>
  <stageNum>12</stageNum>
  <stages>
    <!-- stage 0 -->
    <_>
      <maxWeakCount>5</maxWeakCount>
      <stageThreshold>-9.0642464160919189e-01</stageThreshold>
      <weakClassifiers>
        <_>
          <internalNodes>
            0 -1 103 -666845056 -112197632 45101073 -581889775
            -2004842360 -90660120 -389485825 -70400806</internalNodes>
          <leafValues>
            -8.3281284570693970e-01 8.5795801877975464e-01</leafValues></_>
        <_>
          <internalNodes>
            0 -1 20 -454890770 -7682586 671612938 253886506 -360464898
            -88896257 -846672213 -269488689</internalNodes>
          <leafValues>
            -7.5230765342712402e-01 6.6360348463058472e-01</leafValues></_>
        <_>
          <internalNodes>
            0 -1 91 -239013744 -108003328 -1878521377 -44608367
            -1442805016 -1180661543 134253307 -1148581665</internalNodes>
          <leafValues>
            -7.1893084049224854e-01 6.5828788280487061e-01</leafValues></_>
        <_>
          <internalNodes>
            0 -1 35 -1864961281 1476431872 1345830911 -788277907
            -931802113 -2004877128 -1660953601 -872429313</internalNodes>
          <leafValues>
            -5.9911209344863892e-01 7.0127242803573608e-01</leafValues></_>
        <_>
          <internalNodes>
            0 -1 98 -741351294 1359413248 16384 1359151106 -1069318006 0
            196746 -749739893</internalNodes>
          <leafValues>
            -5.7415127754211426e-01 6.9635426998138428e-01</leafValues></_></weakClassifiers></_>
    <!-- stage 1 -->
    <_>
      <maxWeakCount>7</maxWeakCount>
      <stageThreshold>-1.7935000658035278e+00</stageThreshold>
      <weakClassifiers>
        <_>
          <internalNodes>
            0 -1 119 -268386176 -250572800 -384773667 -35789372
            -1065295704 -70655318 -2004292882 -20193073</internalNodes>
          <leafValues>
            -7.1463638544082642e-01 6.4861613512039185e-01</leafValues></_>
        <_>
          <internalNodes>
            0 -1 4 -856765697 -928866049 -2113507713 -1427264913
            -117507073 -1465330945 -286273537 -823132161</internalNodes>
          <leafValues>
            -6.7777866125106812e-01 5.7146227359771729e-01</leafValues></_>
        <_>
          <internalNodes>
            0 -1 26 -152637714 -35208532 84296717 -544276252 -1093889538
            -68484800 1531351007 -2145649</internalNodes>
          <leafValues>
            -6.1587256193161011e-01 5.6769698858261108e-01</leafValues></_>
        <_>
          <internalNodes>
            0 -1 149 -212868478 -804724734 -2143240192 1359184387
            -1073430142 268501120 -1073233918 -209722677</internalNodes>
          <leafValues>
            -5.2549564838409424e-01 6.5543138980865479e-01</leafValues></_>
        <_>
          <internalNodes>
            0 -1 108 -254817621 -788361206 -1073674240 1090765315
            1086554250 0 1074235530 -213130613</internalNodes>
          <leafValues>
            -4.9593088030815125e-01 6.5090805292129517e-01</leafValues></_>
        <_>
          <internalNodes>
            0 -1 77 276844760 -6614887 385929435 1607422431 -2146842440
            -1156906806 402779131 529486331</internalNodes>
          <leafValues>
            -7.0407080650329590e-01 4.4197496771812439e-01</leafValues></_>
        <_>
          <internalNodes>
            0 -1 134 -209461110 -771652478 1073741834 1073971203
            -1040162686 164947 64011 -1018176801</internalNodes>
          <leafValues>
            -6.0389465093612671e-01 4.9641042947769165e-01</leafValues></_></weakClassifiers></_>
    <!-- stage 2 -->
    <_>
      <maxWeakCount>9</maxWeakCount>
      <stageThreshold>-1.2162400484085083e+00</stageThreshold>
      <weakClassifiers>
        <_>
          <internalNodes>
            0 -1 9 548335327 48425198 585826303 143454190 -1157632513
            -319904018 -16777217 -269484033</internalNodes>
          <leafValues>
            -5.5555558204650879e-01 6.4249002933502197e-01</leafValues></_>
        <_>
          <internalNodes>
            0 -1 44 -413080838 -11332995 1073750267 1594040575
            -217917958 -4259678 143867 2064347391</internalNodes>
          <leafValues>
            -5.8739697933197021e-01 5.0585508346557617e-01</leafValues></_>
        <_>
          <internalNodes>
            0 -1 18 -17826049 -2136035670 -50333953 -389021953
            -553648513 -861929473 -67110665 -923800833</internalNodes>
          <leafValues>
            -4.9622735381126404e-01 5.2080476284027100e-01</leafValues></_>
        <_>
          <internalNodes>
            0 -1 101 385963483 -16756606 488709599 1595871263
            -1693939250 -821420404 186572799 521083867</internalNodes>
          <leafValues>
            -6.3490545749664307e-01 4.3670117855072021e-01</leafValues></_>
        <_>
          <internalNodes>
            0 -1 113 -87494456 -45559744 8437960 -754854131 -528293206
            -1727807352 -1171596565 -1048577</internalNodes>
          <leafValues>
            -7.1347427368164062e-01 3.6958578228950500e-01</leafValues></_>
        <_>
          <internalNodes>
            0 -1 114 -687351054 -746339135 135331995 386470339
            -913800712 -1953954936 252417723 252674991</internalNodes>
          <leafValues>
            -6.2050592899322510e-01 3.6450898647308350e-01</leafValues></_>
        <_>
          <internalNodes>
            0 -1 112 -137891189 1365753859 1077957376 1360777222
            -1073495870 272988160 1091013066 -741344277</internalNodes>
          <leafValues>
            -4.4060134887695312e-01 5.4894942045211792e-01</leafValues></_>
        <_>
          <internalNodes>
            0 -1 55 1069311 271583859 951255039 1441947647 70914303
            812651972 475856895 1350300671</internalNodes>
          <leafValues>
            -6.5139132738113403e-01 3.7524515390396118e-01</leafValues></_>
        <_>
          <internalNodes>
            0 -1 95 -139730774 1392738323 84104208 285427712 -805085014
            419512833 269077130 -752092533</internalNodes>
          <leafValues>
            -5.1809698343276978e-01 4.1016459465026855e-01</leafValues></_></weakClassifiers></_>
    <!-- stage 3 -->
    <_>
      <maxWeakCount>11</maxWeakCount>
      <stageThreshold>-1.8182866573333740e+00</stageThreshold>
      <weakClassifiers>
        <_>
          <internalNodes>
            0 -1 23 -1343247638 -546070 -45866 -4206930 -270536977
            -10754 -269497142 -1061172</internalNodes>
          <leafValues>
            -4.2709678411483765e-01 6.1642229557037354e-01</leafValues></_>
        <_>
          <internalNodes>
            0 -1 92 -58140456 -3145712 587214899 319885585 -125253400
            -4488533 -121066561 -5418087</internalNodes>
          <leafValues>
            -6.5948754549026489e-01 4.1866847872734070e-01</leafValues></_>
        <_>
          <internalNodes>
            0 -1 124 -70257973 -792477630 16958985 -1073495933
            1073987723 180370 1090765322 -749734981</internalNodes>
          <leafValues>
            -4.6028992533683777e-01 5.4251337051391602e-01</leafValues></_>
        <_>
          <internalNodes>
            0 -1 159 -926152689 -548409681 -1259451649 -3308753
            -857813825 -1270053 -17109761 -273764689</internalNodes>
          <leafValues>
            -4.5540338754653931e-01 5.1466631889343262e-01</leafValues></_>
        <_>
          <internalNodes>
            0 -1 142 -800857462 -1073626622 268472482 1346617370 188554
            1073971206 1074327722 -687080469</internalNodes>
          <leafValues>
            -5.2712124586105347e-01 4.3400123715400696e-01</leafValues></_>
        <_>
          <internalNodes>
            0 -1 117 1001084383 1470322111 520952319 1562318815
            -2010529074 -24181363 520732155 521112311</internalNodes>
          <leafValues>
            -5.7246196269989014e-01 3.4672009944915771e-01</leafValues></_>
        <_>
          <internalNodes>
            0 -1 28 -284694866 -2136161618 -360514818 -829428993
            267250667 -2050241597 -814889234 -942682161</internalNodes>
          <leafValues>
            -5.7056361436843872e-01 3.5752195119857788e-01</leafValues></_>
        <_>
          <internalNodes>
            0 -1 89 -574365054 1363251264 1161889024 1363480711
            -922308474 1073758240 17007754 1124844427</internalNodes>
          <leafValues>
            -5.5994969606399536e-01 3.3665063977241516e-01</leafValues></_>
        <_>
          <internalNodes>
            0 -1 148 -939005814 -788283382 1073792194 -854865885
            -939359606 1342226656 1342423178 -546312449</internalNodes>
          <leafValues>
            -4.7039180994033813e-01 4.1511672735214233e-01</leafValues></_>
        <_>
          <internalNodes>
            0 -1 99 274652127 413278768 441765855 320494554 143481597
            -1986375175 48880127 452983551</internalNodes>
          <leafValues>
            -5.3689461946487427e-01 3.8448971509933472e-01</leafValues></_>
        <_>
          <internalNodes>
            0 -1 110 -70547282 -618820729 221187739 2138520350 695438078
            437849373 983506602 2147479294</internalNodes>
          <leafValues>
            -5.4977101087570190e-01 3.3295753598213196e-01</leafValues></_></weakClassifiers></_>
    <!-- stage 4 -->
    <_>
      <maxWeakCount>13</maxWeakCount>
      <stageThreshold>-1.7933676242828369e+00</stageThreshold>
      <weakClassifiers>
        <_>
          <internalNodes>
            0 -1 19 -269816082 -672158994 -1372920090 -1347515730
            -438309137 -39185 -846213940 -289</internalNodes>
          <leafValues>
            -4.6009245514869690e-01 5.5630803108215332e-01</leafValues></_>
        <_>
          <internalNodes>
            0 -1 129 285933785 -1075904129 396040703 1073288703
            489654463 -1073805163 -1661297733 -1073754113</internalNodes>
          <leafValues>
            -4.9695050716400146e-01 4.3134757876396179e-01</leafValues></_>
        <_>
          <internalNodes>
            0 -1 133 -1039930742 -1073495542 -1056587325 -1056709909
            -1073683798 -771518309 1073989770 -11543841</internalNodes>
          <leafValues>
            -4.7085633873939514e-01 4.2912188172340393e-01</leafValues></_>
        <_>
          <internalNodes>
            0 -1 78 -783098406 405295288 1571877119 1503253491
            -907687700 -1734737474 1096343294 454840570</internalNodes>
          <leafValues>
            -5.1017254590988159e-01 3.8832867145538330e-01</leafValues></_>
        <_>
          <internalNodes>
            0 -1 137 -744760104 -150217406 260638744 -73685317
            -2012511061 -1971320422 453089466 -1685086209</internalNodes>
          <leafValues>
            -4.4469413161277771e-01 4.1949537396430969e-01</leafValues></_>
        <_>
          <internalNodes>
            0 -1 154 -223616894 -217229118 -1064721901 -787250565
            -670322006 -535846742 1073988266 1393554059</internalNodes>
          <leafValues>
            -4.8801660537719727e-01 3.5719472169876099e-01</leafValues></_>
        <_>
          <internalNodes>
            0 -1 15 -169411586 -140350846 262832127 -284356882 -12582929
            -15213451 -1076891649 -336593153</internalNodes>
          <leafValues>
            -4.0044328570365906e-01 4.6403667330741882e-01</leafValues></_>
        <_>
          <internalNodes>
            0 -1 163 -1093754354 1930929935 -1466951906 -546435324
            -876427449 -35994925 -610276131 -8860</internalNodes>
          <leafValues>
            -4.7327363491058350e-01 3.7933143973350525e-01</leafValues></_>
        <_>
          <internalNodes>
            0 -1 43 -264052190 -16260478 -1064591109 -1256742833
            -536809334 -100525424 306680539 2004046361</internalNodes>
          <leafValues>
            -5.5292373895645142e-01 2.9233661293983459e-01</leafValues></_>
        <_>
          <internalNodes>
            0 -1 84 -669000257 -671078230 -707002369 2044311750
            1155331839 -1870003538 -357056513 -1684284473</internalNodes>
          <leafValues>
            -3.6221370100975037e-01 4.7157037258148193e-01</leafValues></_>
        <_>
          <internalNodes>
            0 -1 102 -242167656 -80682846 -2130382375 -652938288
            -355794981 -89722965 151562459 -880095080</internalNodes>
          <leafValues>
            -5.3566396236419678e-01 3.3090987801551819e-01</leafValues></_>
        <_>
          <internalNodes>
            0 -1 87 -487595510 -134485169 593087168 -680003629 32168079
            1104217156 1282187 1462203295</internalNodes>
          <leafValues>
            -5.8622205257415771e-01 2.9525217413902283e-01</leafValues></_>
        <_>
          <internalNodes>
            0 -1 62 -470826462 -204738557 -530914806 1931730242
            -244606070 1951860243 386397161 2001171417</internalNodes>
          <leafValues>
            -5.6668698787689209e-01 3.0605202913284302e-01</leafValues></_></weakClassifiers></_>
    <!-- stage 5 -->
    <_>
      <maxWeakCount>15</maxWeakCount>
      <stageThreshold>-1.2384905815124512e+00</stageThreshold>
      <weakClassifiers>
        <_>
          <internalNodes>
            0 -1 37 -288375122 -469064982 7602344 1422655560 -258
            -370151770 -16843521 -50331649</internalNodes>
          <leafValues>
            -3.4611451625823975e-01 5.8364748954772949e-01</leafValues></_>
        <_>
          <internalNodes>
            0 -1 76 1358917887 -1867269413 -1873674337 1359345501
            -654341889 -1193286913 -50332673 1566048247</internalNodes>
          <leafValues>
            -3.9826345443725586e-01 4.7502595186233521e-01</leafValues></_>
        <_>
          <internalNodes>
            0 -1 96 -70517809 -246287549 51200 -1319896097 -2146901270
            268492936 -217843510 -2097157</internalNodes>
          <leafValues>
            -3.7142270803451538e-01 4.5846980810165405e-01</leafValues></_>
        <_>
          <internalNodes>
            0 -1 156 -631109630 -547912413 2016600479 2141652655
            -1304537905 -1145108001 -1376081153 -1079079249</internalNodes>
          <leafValues>
            -4.8617327213287354e-01 3.5779473185539246e-01</leafValues></_>
        <_>
          <internalNodes>
            0 -1 77 -1258073896 -1082175243 -1650721549 -2097281
            -2062688008 -1882210074 424214267 534452223</internalNodes>
          <leafValues>
            -5.7177650928497314e-01 2.8113442659378052e-01</leafValues></_>
        <_>
          <internalNodes>
            0 -1 122 -16318846 1574487296 1524489823 -581043939
            -599278904 -2013144575 -32507377 169598655</internalNodes>
          <leafValues>
            -5.1968204975128174e-01 2.7392622828483582e-01</leafValues></_>
        <_>
          <internalNodes>
            0 -1 33 -2113148689 36630470 -139595649 -168824177
            1721760495 -1896091161 -1740119379 -867698103</internalNodes>
          <leafValues>
            -4.2042538523674011e-01 3.8534286618232727e-01</leafValues></_>
        <_>
          <internalNodes>
            0 -1 146 -503061878 -267792350 1073987675 1431393795
            1083097731 303284826 1142156703 -766512193</internalNodes>
          <leafValues>
            -4.1209423542022705e-01 3.6472374200820923e-01</leafValues></_>
        <_>
          <internalNodes>
            0 -1 21 -155576481 808494390 -793732257 -1326121754
            -25199805 -1185491081 -117927849 -1196098577</internalNodes>
          <leafValues>
            -5.0511437654495239e-01 2.9156550765037537e-01</leafValues></_>
        <_>
          <internalNodes>
            0 -1 103 -1147606904 -2768704 924844659 -1758461631
            -926414648 -7095622 -1429935622 -72562724</internalNodes>
          <leafValues>
            -6.7348921298980713e-01 2.3674701154232025e-01</leafValues></_>
        <_>
          <internalNodes>
            0 -1 86 -203427421 -1118595645 -704002733 1495749895
            1141041290 1677922561 1091534979 -217062769</internalNodes>
          <leafValues>
            -3.2388800382614136e-01 4.8734045028686523e-01</leafValues></_>
        <_>
          <internalNodes>
            0 -1 31 12474591 -1845464876 -1867316769 2069330197
            1526683871 -1169899488 -1668423681 -540291621</internalNodes>
          <leafValues>
            -4.4631433486938477e-01 3.4628668427467346e-01</leafValues></_>
        <_>
          <internalNodes>
            0 -1 130 -800873974 -788279230 1074090241 1527380083
            1073980074 -2146756703 -2101091777 -144704057</internalNodes>
          <leafValues>
            -4.4271022081375122e-01 3.6213958263397217e-01</leafValues></_>
        <_>
          <internalNodes>
            0 -1 17 -1884558294 -145390686 -141334663 -2412640
            1976296441 -682894157 46335196 -1212169268</internalNodes>
          <leafValues>
            -4.8255681991577148e-01 3.1194341182708740e-01</leafValues></_>
        <_>
          <internalNodes>
            0 -1 121 -261975936 -779123584 2076133908 -783824879
            1241838041 -2104761650 -368576514 1125056514</internalNodes>
          <leafValues>
            -5.8660739660263062e-01 2.5327435135841370e-01</leafValues></_></weakClassifiers></_>
    <!-- stage 6 -->
    <_>
      <maxWeakCount>16</maxWeakCount>
      <stageThreshold>-1.1490682363510132e+00</stageThreshold>
      <weakClassifiers>
        <_>
          <internalNodes>
            0 -1 13 -421073153 -1137942 178704127 -273749458 -152043521
            -135535619 2146435071 -11554817</internalNodes>
          <leafValues>
            -1.8326172232627869e-01 6.5006387233734131e-01</leafValues></_>
        <_>
          <internalNodes>
            0 -1 24 -922953505 -1979698437 46029407 282704351 -357580801
            -1901930085 -318767105 -1929379841</internalNodes>
          <leafValues>
            -4.8562771081924438e-01 3.5178333520889282e-01</leafValues></_>
        <_>
          <internalNodes>
            0 -1 75 -748687266 1595561174 270233747 1935373055
            -1274707826 -1257766908 36682175 352911583</internalNodes>
          <leafValues>
            -5.9141522645950317e-01 2.5864642858505249e-01</leafValues></_>
        <_>
          <internalNodes>
            0 -1 30 -84952325 618833574 -600002436 -117706505 -687866788
            -302520649 -117453225 -385876225</internalNodes>
          <leafValues>
            -4.1532003879547119e-01 3.6664268374443054e-01</leafValues></_>
        <_>
          <internalNodes>
            0 -1 124 -691025781 -804405173 -1873689087 -1073512438
            1359069194 -2079879133 1107422955 -909131025</internalNodes>
          <leafValues>
            -3.8590103387832642e-01 3.8739684224128723e-01</leafValues></_>
        <_>
          <internalNodes>
            0 -1 131 353522651 -7777630 421222879 1603623639 -585392230
            -1635049830 -1642886145 2140141035</internalNodes>
          <leafValues>
            -4.8851570487022400e-01 2.8842353820800781e-01</leafValues></_>
        <_>
          <internalNodes>
            0 -1 90 -35909448 -570779478 495458331 -5885031 -21034790
            -99968502 135016191 -1076906054</internalNodes>
          <leafValues>
            -4.9482133984565735e-01 2.9587647318840027e-01</leafValues></_>
        <_>
          <internalNodes>
            0 -1 59 -604025140 -78877464 -1407779182 -35928874
            -276446010 -50331648 -1625032513 -44609221</internalNodes>
          <leafValues>
            -4.1727384924888611e-01 3.4668385982513428e-01</leafValues></_>
        <_>
          <internalNodes>
            0 -1 53 -492836313 -521167081 -243897855 -203162883
            -67114593 2003066269 1130361567 -143130997</internalNodes>
          <leafValues>
            -3.5023611783981323e-01 4.2754930257797241e-01</leafValues></_>
        <_>
          <internalNodes>
            0 -1 6 946827259 956235439 -1660981315 427815678 91742197
            -1191231491 -1192755881 -1997013251</internalNodes>
          <leafValues>
            -3.2895326614379883e-01 4.1646084189414978e-01</leafValues></_>
        <_>
          <internalNodes>
            0 -1 67 -180355621 1431424911 1342181696 1906382323
            2067452456 1073741832 -502685054 -180357665</internalNodes>
          <leafValues>
            -3.3096182346343994e-01 4.2600479722023010e-01</leafValues></_>
        <_>
          <internalNodes>
            0 -1 166 -928510969 -161241 -823015593 -50264245 -654408450
            -70466917 -1057650753 -929004374</internalNodes>
          <leafValues>
            -4.0506544709205627e-01 3.5742685198783875e-01</leafValues></_>
        <_>
          <internalNodes>
            0 -1 81 -1611009831 -1617403776 22289823 1037517189
            -37028104 -271594846 50387455 -1626113095</internalNodes>
          <leafValues>
            -3.4946408867835999e-01 4.1259038448333740e-01</leafValues></_>
        <_>
          <internalNodes>
            0 -1 134 -147851093 -1694258673 -729784661 -1073638781
            1892581554 -805288182 1342950058 -343146769</internalNodes>
          <leafValues>
            -3.3324339985847473e-01 4.2817425727844238e-01</leafValues></_>
        <_>
          <internalNodes>
            0 -1 27 -345239980 2060924602 937567486 -526112614 -49718059
            -170117307 -246219525 -155785297</internalNodes>
          <leafValues>
            -4.9983331561088562e-01 2.9890337586402893e-01</leafValues></_>
        <_>
          <internalNodes>
            0 -1 49 1886812183 1880404432 -585942027 -317599472
            1627150815 1353756824 1090189951 1531048958</internalNodes>
          <leafValues>
            -5.5096018314361572e-01 2.4545320868492126e-01</leafValues></_></weakClassifiers></_>
    <!-- stage 7 -->
    <_>
      <maxWeakCount>18</maxWeakCount>
      <stageThreshold>-1.1203750371932983e+00</stageThreshold>
      <weakClassifiers>
        <_>
          <internalNodes>
            0 -1 38 -8455170 -1089854934 251 534643199 -67127813
            1064764425 656895 1064246271</internalNodes>
          <leafValues>
            -2.5482130050659180e-01 5.3941959142684937e-01</leafValues></_>
        <_>
          <internalNodes>
            0 -1 155 -1060175825 -10498051 -289716513 -282737 -553800225
            -283201 -268497153 -275862546</internalNodes>
          <leafValues>
            -3.1910344958305359e-01 4.7302916646003723e-01</leafValues></_>
        <_>
          <internalNodes>
            0 -1 106 -67116293 -1156996437 386646239 285315083
            -788796790 278593544 1347403978 -640949621</internalNodes>
          <leafValues>
            -3.0401396751403809e-01 4.7905221581459045e-01</leafValues></_>
        <_>
          <internalNodes>
            0 -1 25 -422910258 -270211346 -292755346 -1249586 -461181732
            -67400194 -539131408 -3151939</internalNodes>
          <leafValues>
            -5.5587399005889893e-01 2.6452714204788208e-01</leafValues></_>
        <_>
          <internalNodes>
            0 -1 143 -597901092 -33687403 -1657233955 1509555421
            747867272 733613431 33653386 -88343889</internalNodes>
          <leafValues>
            -4.0098372101783752e-01 3.5476404428482056e-01</leafValues></_>
        <_>
          <internalNodes>
            0 -1 10 -143687681 956333936 -557065 -573505678 -1150137
            -56043529 -606109837 -1461666832</internalNodes>
          <leafValues>
            -3.6176633834838867e-01 4.0063920617103577e-01</leafValues></_>
        <_>
          <internalNodes>
            0 -1 150 -1024749841 -546100657 147777791 -1414874214
            -571482421 -1284338575 -59899922 -1157578768</internalNodes>
          <leafValues>
            -3.6729305982589722e-01 3.6245116591453552e-01</leafValues></_>
        <_>
          <internalNodes>
            0 -1 58 -1047535097 -521212209 -2112371126 -536157269
            -524296017 1661098585 58443691 1900280569</internalNodes>
          <leafValues>
            -4.8020237684249878e-01 2.9390129446983337e-01</leafValues></_>
        <_>
          <internalNodes>
            0 -1 120 -254228264 -36436904 269222165 1427198997
            -1465087826 -1430288178 1215228671 -74952420</internalNodes>
          <leafValues>
            -5.7848870754241943e-01 2.3935414850711823e-01</leafValues></_>
        <_>
          <internalNodes>
            0 -1 157 -1072987648 -667244413 4694485 823370023
            -2146711159 180651174 599753415 1394598607</internalNodes>
          <leafValues>
            -4.7422301769256592e-01 2.8404146432876587e-01</leafValues></_>
        <_>
          <internalNodes>
            0 -1 88 -204230177 -249300997 562090130 856686555
            -1291142662 285249698 -242488886 -2097665</internalNodes>
          <leafValues>
            -3.1939223408699036e-01 4.2229795455932617e-01</leafValues></_>
        <_>
          <internalNodes>
            0 -1 105 -1702174070 -610123442 307763200 1397424130
            172482744 512278530 17664650 1397748415</internalNodes>
          <leafValues>
            -4.6088245511054993e-01 2.8751531243324280e-01</leafValues></_>
        <_>
          <internalNodes>
            0 -1 56 -660022017 -82787376 -25112108 -103455889
            -1730514241 178864792 -1627745573 452948991</internalNodes>
          <leafValues>
            -3.9398869872093201e-01 3.2384914159774780e-01</leafValues></_>
        <_>
          <internalNodes>
            0 -1 66 -1039727853 -247607369 -148785229 -5528838
            -2085049414 -832782157 -955254789 -941764290</internalNodes>
          <leafValues>
            -3.0204620957374573e-01 4.4064766168594360e-01</leafValues></_>
        <_>
          <internalNodes>
            0 -1 46 -526073754 -1122937794 -1751982593 1462301913
            -94659882 2066746484 910417823 2136592938</internalNodes>
          <leafValues>
            -4.4658562541007996e-01 3.1138503551483154e-01</leafValues></_>
        <_>
          <internalNodes>
            0 -1 70 -169377149 -71572729 -1068279393 1764434467
            1229963466 1544470597 93315210 -649362805</internalNodes>
          <leafValues>
            -3.3075854182243347e-01 4.1033378243446350e-01</leafValues></_>
        <_>
          <internalNodes>
            0 -1 167 -1955688945 -1277444483 -1894896257 -1757409328
            2063519488 1064781631 -595603851 -11523</internalNodes>
          <leafValues>
            -3.1028786301612854e-01 4.1832002997398376e-01</leafValues></_>
        <_>
          <internalNodes>
            0 -1 7 956259325 544257908 -966789288 -114435366 961964924
            -1158197285 -68161280 143832849</internalNodes>
          <leafValues>
            -5.1922279596328735e-01 2.6825699210166931e-01</leafValues></_></weakClassifiers></_>
    <!-- stage 8 -->
    <_>
      <maxWeakCount>21</maxWeakCount>
      <stageThreshold>-1.3633493185043335e+00</stageThreshold>
      <weakClassifiers>
        <_>
          <internalNodes>
            0 -1 2 1860888287 -1907474 -290533633 -3224030 -540018689
            -1347538 -674956289 -3215874</internalNodes>
          <leafValues>
            -6.7145533859729767e-02 6.7211472988128662e-01</leafValues></_>
        <_>
          <internalNodes>
            0 -1 117 522936279 -542812781 524247039 1606377471
            -1080047395 -7648050 -1625292805 -542113793</internalNodes>
          <leafValues>
            -3.0919378995895386e-01 4.4240182638168335e-01</leafValues></_>
        <_>
          <internalNodes>
            0 -1 40 -87037746 -1060437494 2017200168 1414607232
            -461379841 -387627960 -706807301 -572522753</internalNodes>
          <leafValues>
            -4.2195436358451843e-01 3.2244488596916199e-01</leafValues></_>
        <_>
          <internalNodes>
            0 -1 158 -234100085 -234102270 1342298123 -805121526 575695
            147714 1078055119 -217058417</internalNodes>
          <leafValues>
            -3.2091382145881653e-01 4.0293267369270325e-01</leafValues></_>
        <_>
          <internalNodes>
            0 -1 147 -390410545 -539015505 619745023 223389408 -19137545
            -1145327421 -1680015361 -1083069704</internalNodes>
          <leafValues>
            -3.9977592229843140e-01 3.1498548388481140e-01</leafValues></_>
        <_>
          <internalNodes>
            0 -1 127 -72621329 -705572626 822083594 992681343 598272239
            293797928 61430509 -4195585</internalNodes>
          <leafValues>
            -3.2418224215507507e-01 3.6396801471710205e-01</leafValues></_>
        <_>
          <internalNodes>
            0 -1 32 201845423 1103268047 -1720197121 -34603065
            -2027427845 753386981 -1465156657 -309338687</internalNodes>
          <leafValues>
            -3.4184408187866211e-01 3.5607987642288208e-01</leafValues></_>
        <_>
          <internalNodes>
            0 -1 71 -365960670 -218667349 -416058614 2136080360
            1693450215 1104171595 1077391531 1359475515</internalNodes>
          <leafValues>
            -5.2647000551223755e-01 2.3614208400249481e-01</leafValues></_>
        <_>
          <internalNodes>
            0 -1 118 -1727795054 -78512796 352972145 -546969163
            -365167942 -73400341 -1969493825 -1960837417</internalNodes>
          <leafValues>
            -3.1262889504432678e-01 3.7830287218093872e-01</leafValues></_>
        <_>
          <internalNodes>
            0 -1 79 1882976818 808434278 1961598809 1346730893
            1755277359 -322975383 -307643393 455076211</internalNodes>
          <leafValues>
            -4.7136285901069641e-01 2.4717673659324646e-01</leafValues></_>
        <_>
          <internalNodes>
            0 -1 109 -1008207354 -225996153 668459144 1475836903
            1355012779 1141309568 268550286 91444363</internalNodes>
          <leafValues>
            -5.1293170452117920e-01 2.3437604308128357e-01</leafValues></_>
        <_>
          <internalNodes>
            0 -1 74 -18136958 -76391809 -576761672 2066961663 -78163831
            -1694133515 -1917085441 -1154246689</internalNodes>
          <leafValues>
            -3.5681307315826416e-01 3.3648437261581421e-01</leafValues></_>
        <_>
          <internalNodes>
            0 -1 41 -1909725046 1204798984 1480384136 1886115619
            480226650 1281690693 -2069237506 -820654436</internalNodes>
          <leafValues>
            -4.1461357474327087e-01 2.9563334584236145e-01</leafValues></_>
        <_>
          <internalNodes>
            0 -1 3 -555801227 1920873215 -285700259 -1301623073
            -117490307 1692361015 -222368905 -151322689</internalNodes>
          <leafValues>
            -3.8640761375427246e-01 3.1133216619491577e-01</leafValues></_>
        <_>
          <internalNodes>
            0 -1 168 -286322937 1735520115 781142621 2011602632
            1322533952 2141673237 1265579330 -164</internalNodes>
          <leafValues>
            -3.2928144931793213e-01 3.7546285986900330e-01</leafValues></_>
        <_>
          <internalNodes>
            0 -1 69 414965727 -1734298302 -727786765 -71762224 149819375
            136990267 1341375839 683595471</internalNodes>
          <leafValues>
            -4.9008032679557800e-01 2.5183397531509399e-01</leafValues></_>
        <_>
          <internalNodes>
            0 -1 125 -357045622 -86519231 1532976540 168755389
            -816930165 93655179 269798058 -1962948118</internalNodes>
          <leafValues>
            -3.9673110842704773e-01 3.2306483387947083e-01</leafValues></_>
        <_>
          <internalNodes>
            0 -1 152 -118497149 -1018769725 -1073556431 297820723
            -1869612630 -1695395806 -767842661 -769920069</internalNodes>
          <leafValues>
            -2.7814209461212158e-01 4.4836458563804626e-01</leafValues></_>
        <_>
          <internalNodes>
            0 -1 100 -188296142 -687660173 120195763 1461534715
            -876533517 -2135371533 2079225 188225471</internalNodes>
          <leafValues>
            -5.2245593070983887e-01 2.4746936559677124e-01</leafValues></_>
        <_>
          <internalNodes>
            0 -1 50 -916589067 -1686775815 -1234461494 -1689783407
            -2101208951 -1461937183 -690078321 173080533</internalNodes>
          <leafValues>
            -3.7671840190887451e-01 3.3850011229515076e-01</leafValues></_>
        <_>
          <internalNodes>
            0 -1 85 -2085903053 -441875460 -270798581 -779361286
            -2517653 1328709501 -1020730785 -182461973</internalNodes>
          <leafValues>
            -2.9203420877456665e-01 4.4460588693618774e-01</leafValues></_></weakClassifiers></_>
    <!-- stage 9 -->
    <_>
      <maxWeakCount>21</maxWeakCount>
      <stageThreshold>-1.0835775136947632e+00</stageThreshold>
      <weakClassifiers>
        <_>
          <internalNodes>
            0 -1 138 387129023 993353663 221871615 2142723967
            -1104453634 -1078763590 -1078263810 -1077968913</internalNodes>
          <leafValues>
            -1.7351795732975006e-01 5.6595528125762939e-01</leafValues></_>
        <_>
          <internalNodes>
            0 -1 1 -1886912513 34535079 -1612726785 -270008321
            -855646219 83589083 -838994443 -2053112363</internalNodes>
          <leafValues>
            -4.2170155048370361e-01 3.4133633971214294e-01</leafValues></_>
        <_>
          <internalNodes>
            0 -1 160 -318797681 -16577 -192942417 -266285137 -189281121
            -524801 -54526497 -186322961</internalNodes>
          <leafValues>
            -3.3664497733116150e-01 3.9476254582405090e-01</leafValues></_>
        <_>
          <internalNodes>
            0 -1 123 -523507061 -1031552854 -1610356062 1368647874
            1073994667 1074524777 1359015946 -205001013</internalNodes>
          <leafValues>
            -3.3392864465713501e-01 3.6015540361404419e-01</leafValues></_>
        <_>
          <internalNodes>
            0 -1 22 2111799295 1060156368 -679741481 -39518764
            -111416355 -1143284240 -272663570 -1195853640</internalNodes>
          <leafValues>
            -3.8007876276969910e-01 3.2700592279434204e-01</leafValues></_>
        <_>
          <internalNodes>
            0 -1 45 -272441094 -82787754 -768122633 859156595 -9440525
            -1573695247 1986059199 2003137141</internalNodes>
          <leafValues>
            -4.4781020283699036e-01 2.7526000142097473e-01</leafValues></_>
        <_>
          <internalNodes>
            0 -1 111 -108011333 -107101397 257119327 402719618
            -784883541 809173274 1344662026 -8783302</internalNodes>
          <leafValues>
            -2.9824998974800110e-01 3.8081738352775574e-01</leafValues></_>
        <_>
          <internalNodes>
            0 -1 141 -636755318 1342434218 302186219 1125296139
            -2096371678 590793376 2067507899 -81538311</internalNodes>
          <leafValues>
            -3.6932697892189026e-01 2.8798294067382812e-01</leafValues></_>
        <_>
          <internalNodes>
            0 -1 11 -91694849 -103933846 1823349433 870259071 -72360193
            -319906828 -1141342209 -1880457729</internalNodes>
          <leafValues>
            -3.0015784502029419e-01 3.7180548906326294e-01</leafValues></_>
        <_>
          <internalNodes>
            0 -1 57 -744496349 -471350290 -245370550 -759301285
            -285212881 384997035 -1482959877 -416091921</internalNodes>
          <leafValues>
            -3.0020636320114136e-01 3.9125201106071472e-01</leafValues></_>
        <_>
          <internalNodes>
            0 -1 94 -118951808 -236934488 1431697625 423625762
            -607155764 1355808909 1375273100 1082821323</internalNodes>
          <leafValues>
            -5.1522791385650635e-01 2.3072524368762970e-01</leafValues></_>
        <_>
          <internalNodes>
            0 -1 68 -606446081 1002050696 -545923081 -82257037 145426571
            186276123 147688447 466618103</internalNodes>
          <leafValues>
            -4.5407864451408386e-01 2.3281536996364594e-01</leafValues></_>
        <_>
          <internalNodes>
            0 -1 64 -1627300646 -551005109 -216288805 2101771511
            -31672128 -1890658170 1041682415 524775367</internalNodes>
          <leafValues>
            -4.6556913852691650e-01 2.4411846697330475e-01</leafValues></_>
        <_>
          <internalNodes>
            0 -1 54 -1426071281 -156237917 2045996393 -143917189
            -1325669953 1885476311 -1870668817 -227017217</internalNodes>
          <leafValues>
            -2.8816998004913330e-01 3.9892172813415527e-01</leafValues></_>
        <_>
          <internalNodes>
            0 -1 8 -398172337 268466503 -1086996065 2102588199 118979398
            -1657147565 -44335207 941684707</internalNodes>
          <leafValues>
            -4.4445529580116272e-01 2.6804894208908081e-01</leafValues></_>
        <_>
          <internalNodes>
            0 -1 151 -61877685 -266621945 1570816273 -732474862
            -1315969381 1096223245 1093125274 -112203637</internalNodes>
          <leafValues>
            -2.8620010614395142e-01 4.1768053174018860e-01</leafValues></_>
        <_>
          <internalNodes>
            0 -1 51 -721595154 -1204038614 -541330548 -1191060685
            1376738411 292739557 33363947 2033368698</internalNodes>
          <leafValues>
            -4.5111322402954102e-01 2.8111785650253296e-01</leafValues></_>
        <_>
          <internalNodes>
            0 -1 139 1359052931 -775896867 -44508529 -405447227
            1745609144 -1074137717 -224143813 -1965040570</internalNodes>
          <leafValues>
            -3.1358513236045837e-01 3.8261726498603821e-01</leafValues></_>
        <_>
          <internalNodes>
            0 -1 128 -642252792 -522498 1872239915 2040004784
            -1556961142 923799451 494114218 489103499</internalNodes>
          <leafValues>
            -6.5665572881698608e-01 1.8119712173938751e-01</leafValues></_>
        <_>
          <internalNodes>
            0 -1 132 -247275006 1968226816 606290 1364283908 -758082942
            16974464 -1290761554 2064601583</internalNodes>
          <leafValues>
            -5.0704783201217651e-01 2.2321309149265289e-01</leafValues></_>
        <_>
          <internalNodes>
            0 -1 97 968414456 -593702414 -2147431016 -15600649
            -1228498724 -2079799134 1493232318 -19406867</internalNodes>
          <leafValues>
            -4.2993652820587158e-01 2.7437812089920044e-01</leafValues></_></weakClassifiers></_>
    <!-- stage 10 -->
    <_>
      <maxWeakCount>21</maxWeakCount>
      <stageThreshold>-1.1557360887527466e+00</stageThreshold>
      <weakClassifiers>
        <_>
          <internalNodes>
            0 -1 0 -33587617 544091791 -420692225 -521212161 -2049
            16773055 -37355521 -990904578</internalNodes>
          <leafValues>
            -3.4989503026008606e-01 4.8207923769950867e-01</leafValues></_>
        <_>
          <internalNodes>
            0 -1 162 -926023613 -2281489 -321057569 -2118905 -394477313
            -16869889 -52589313 -1347507057</internalNodes>
          <leafValues>
            -3.8500747084617615e-01 3.5076904296875000e-01</leafValues></_>
        <_>
          <internalNodes>
            0 -1 126 -17828700 -76663894 -873468760 -9437457 -2139624961
            138412211 1500768767 -8961</internalNodes>
          <leafValues>
            -3.5159185528755188e-01 3.6013013124465942e-01</leafValues></_>
        <_>
          <internalNodes>
            0 -1 63 -749997846 -145229881 285215371 -148923913
            -248335734 1895895040 50569963 -67108865</internalNodes>
          <leafValues>
            -3.3649346232414246e-01 3.3562925457954407e-01</leafValues></_>
        <_>
          <internalNodes>
            0 -1 91 -460592 -6620512 -1935376167 -34503503 -1169643288
            -3437661 -2004842241 -72842755</internalNodes>
          <leafValues>
            -5.3742319345474243e-01 1.9667902588844299e-01</leafValues></_>
        <_>
          <internalNodes>
            0 -1 161 -1414879314 -1073856600 1856251758 -1079857156
            -2381845 -1175728179 -1347420683 -33558539</internalNodes>
          <leafValues>
            -3.8963484764099121e-01 2.8135642409324646e-01</leafValues></_>
        <_>
          <internalNodes>
            0 -1 112 -103812125 -263982829 268564503 1359553858
            -800604021 -1052122816 1083130991 -748960885</internalNodes>
          <leafValues>
            -2.8928419947624207e-01 3.7449774146080017e-01</leafValues></_>
        <_>
          <internalNodes>
            0 -1 72 1576928511 -645910470 1501552511 -572812486
            1222394031 -661611845 -1796986389 -921830081</internalNodes>
          <leafValues>
            -3.3946767449378967e-01 2.9657518863677979e-01</leafValues></_>
        <_>
          <internalNodes>
            0 -1 83 86705467 -285227956 -873107585 -5278725 -1490832289
            -928350345 -211557541 -239349025</internalNodes>
          <leafValues>
            -2.6825883984565735e-01 3.9735254645347595e-01</leafValues></_>
        <_>
          <internalNodes>
            0 -1 47 -355539254 -146800030 -500636966 -3512793 1665810854
            -770546110 2060941055 1934561361</internalNodes>
          <leafValues>
            -4.6630755066871643e-01 2.3480957746505737e-01</leafValues></_>
        <_>
          <internalNodes>
            0 -1 144 -7427438 1493754520 858005632 1562914496 155231416
            178528256 328467662 2146435055</internalNodes>
          <leafValues>
            -4.3570351600646973e-01 2.2039166092872620e-01</leafValues></_>
        <_>
          <internalNodes>
            0 -1 153 -1460425845 -1869927746 -1985735111 -574645313
            -1198265446 527796 801603514 499105263</internalNodes>
          <leafValues>
            -3.8290137052536011e-01 2.8251823782920837e-01</leafValues></_>
        <_>
          <internalNodes>
            0 -1 42 -1444175186 1190061070 -400535830 1357111333
            1054817893 1179870031 -1015283761 1920202751</internalNodes>
          <leafValues>
            -5.2905195951461792e-01 2.0308308303356171e-01</leafValues></_>
        <_>
          <internalNodes>
            0 -1 52 -1191888266 -670738319 -1160265756 -581574879
            683641471 -1139200599 983546361 -715784335</internalNodes>
          <leafValues>
            -3.6689966917037964e-01 2.8519976139068604e-01</leafValues></_>
        <_>
          <internalNodes>
            0 -1 104 -1878856574 -804536175 1555662021 1460007239
            -1038552886 -273951506 66311935 -811605109</internalNodes>
          <leafValues>
            -3.1701236963272095e-01 3.4890547394752502e-01</leafValues></_>
        <_>
          <internalNodes>
            0 -1 135 -50821976 -482402 152704188 1035479133 -141424470
            453117181 46236810 866881758</internalNodes>
          <leafValues>
            -5.6589359045028687e-01 2.1057315170764923e-01</leafValues></_>
        <_>
          <internalNodes>
            0 -1 136 -318512061 -750317097 -905207051 -2096890299
            451672163 1268863427 1118751643 -292565297</internalNodes>
          <leafValues>
            -2.9998585581779480e-01 3.8162797689437866e-01</leafValues></_>
        <_>
          <internalNodes>
            0 -1 95 -24121157 -803481949 -2059149094 1091117058
            -1054875478 -805130110 72868362 -213138769</internalNodes>
          <leafValues>
            -2.9519075155258179e-01 3.7146997451782227e-01</leafValues></_>
        <_>
          <internalNodes>
            0 -1 140 -2146336765 -1884442021 1429610867 -783325857
            -1619297953 -1344821309 -1714691849 17354890</internalNodes>
          <leafValues>
            -3.7879753112792969e-01 2.9545354843139648e-01</leafValues></_>
        <_>
          <internalNodes>
            0 -1 82 -1050982912 -221521025 -52969384 -1814825047
            -493163169 1273026546 885475838 1395061036</internalNodes>
          <leafValues>
            -4.4177374243736267e-01 2.3724709451198578e-01</leafValues></_>
        <_>
          <internalNodes>
            0 -1 5 411023167 947016543 -1126697969 -33555748 -1805402875
            -1103101973 2145336915 -1459618315</internalNodes>
          <leafValues>
            -3.3536168932914734e-01 3.3352708816528320e-01</leafValues></_></weakClassifiers></_>
    <!-- stage 11 -->
    <_>
      <maxWeakCount>23</maxWeakCount>
      <stageThreshold>-1.2509663105010986e+00</stageThreshold>
      <weakClassifiers>
        <_>
          <internalNodes>
            0 -1 101 327228895 -7712534 530275807 521623295 -40166193
            -7447331 -1626341377 504354815</internalNodes>
          <leafValues>
            -2.2796833515167236e-01 5.1846688985824585e-01</leafValues></_>
        <_>
          <internalNodes>
            0 -1 12 180302719 42235068 -1495844385 181173608 -1371550753
            -290460994 -269221921 -287315969</internalNodes>
          <leafValues>
            -5.0595790147781372e-01 2.6181888580322266e-01</leafValues></_>
        <_>
          <internalNodes>
            0 -1 115 -34836260 -707993208 268435677 -538094129
            -537954390 -37064792 -145260801 -263233</internalNodes>
          <leafValues>
            -4.4738551974296570e-01 2.4148789048194885e-01</leafValues></_>
        <_>
          <internalNodes>
            0 -1 48 -1557140977 -976749585 -148635713 -201326657
            -117441025 -1 -231735361 -201338419</internalNodes>
          <leafValues>
            -2.4692697823047638e-01 4.5592725276947021e-01</leafValues></_>
        <_>
          <internalNodes>
            0 -1 14 2004302845 890257207 -111748233 -34539682 -740987019
            -34169225 -18880004 -1125056522</internalNodes>
          <leafValues>
            -3.3110785484313965e-01 3.3760386705398560e-01</leafValues></_>
        <_>
          <internalNodes>
            0 -1 136 -368581629 -15367851 -820519881 -2096937401
            -221289749 995037478 -359742742 -288895561</internalNodes>
          <leafValues>
            -3.1896191835403442e-01 3.4178021550178528e-01</leafValues></_>
        <_>
          <internalNodes>
            0 -1 60 -168824700 -238994637 -235192559 286522143 -81016054
            -75600001 -1628829172 453655407</internalNodes>
          <leafValues>
            -4.0644708275794983e-01 2.5532123446464539e-01</leafValues></_>
        <_>
          <internalNodes>
            0 -1 107 -255152046 -740247336 -1275349569 298332248
            -1376155187 348785406 1576503466 2079894266</internalNodes>
          <leafValues>
            -4.4442263245582581e-01 2.5008800625801086e-01</leafValues></_>
        <_>
          <internalNodes>
            0 -1 93 -220737828 1893662679 -199573830 -738214120
            1081720057 1342751218 352578099 2013253307</internalNodes>
          <leafValues>
            -3.9560967683792114e-01 2.4322891235351562e-01</leafValues></_>
        <_>
          <internalNodes>
            0 -1 165 -926151593 -10731713 1023407487 -13381717
            -991818629 -1676961 417304315 -712373721</internalNodes>
          <leafValues>
            -3.4601873159408569e-01 3.0152872204780579e-01</leafValues></_>
        <_>
          <internalNodes>
            0 -1 116 -394968857 -1365732679 712111272 500217745
            -136448521 -856583 1871675387 724661745</internalNodes>
          <leafValues>
            -3.8480395078659058e-01 2.5223615765571594e-01</leafValues></_>
        <_>
          <internalNodes>
            0 -1 34 -336600113 -2047938677 1291808191 -69862647
            -338202625 -463471884 1573388143 -42467451</internalNodes>
          <leafValues>
            -2.6239493489265442e-01 3.8804811239242554e-01</leafValues></_>
        <_>
          <internalNodes>
            0 -1 145 -2147311614 -1967611176 386040721 1135335803
            -1406666033 436343428 -1577322770 28295851</internalNodes>
          <leafValues>
            -4.4825494289398193e-01 2.2896955907344818e-01</leafValues></_>
        <_>
          <internalNodes>
            0 -1 39 315306754 -623494973 -1187359232 -141948152
            -88348417 -288368725 685150432 -8756848</internalNodes>
          <leafValues>
            -4.1372328996658325e-01 2.3699332773685455e-01</leafValues></_>
        <_>
          <internalNodes>
            0 -1 65 -542090600 -273016192 1087718519 -705227024
            -628437060 -1685116756 33557241 -809485639</internalNodes>
          <leafValues>
            -4.6260127425193787e-01 2.1044087409973145e-01</leafValues></_>
        <_>
          <internalNodes>
            0 -1 80 1535371009 -1213730750 -405281877 -672714748
            -1962317328 -1622446956 101439723 1401585994</internalNodes>
          <leafValues>
            -3.5912591218948364e-01 2.8472632169723511e-01</leafValues></_>
        <_>
          <internalNodes>
            0 -1 36 -286899602 675539690 2087084712 2024698030
            -1432884963 -2075670974 -93328393 -1067484161</internalNodes>
          <leafValues>
            -5.4863274097442627e-01 1.8473640084266663e-01</leafValues></_>
        <_>
          <internalNodes>
            0 -1 73 -288407286 -202182289 -144441518 1924267930
            1682553039 1074790726 -516576839 1644527007</internalNodes>
          <leafValues>
            -4.6884900331497192e-01 2.0861628651618958e-01</leafValues></_>
        <_>
          <internalNodes>
            0 -1 164 -1480610225 388362196 -889811377 -904159536
            -156605949 -419377320 -293733507 -398725259</internalNodes>
          <leafValues>
            -3.1438732147216797e-01 3.2758590579032898e-01</leafValues></_>
        <_>
          <internalNodes>
            0 -1 61 2821903 -886428841 -597365857 -1027674420 -616606374
            37387837 -414559459 -227553729</internalNodes>
          <leafValues>
            -2.9283744096755981e-01 3.4594246745109558e-01</leafValues></_>
        <_>
          <internalNodes>
            0 -1 16 204315959 290200783 -1116209221 2075687671
            1189988177 -17846795 -319871951 -1140017692</internalNodes>
          <leafValues>
            -2.9410266876220703e-01 3.4955835342407227e-01</leafValues></_>
        <_>
          <internalNodes>
            0 -1 29 1551784063 -335532017 -260522149 809837023
            -1148199685 -1408971200 -892667013 -1876422607</internalNodes>
          <leafValues>
            -4.0991985797882080e-01 2.6357463002204895e-01</leafValues></_>
        <_>
          <internalNodes>
            0 -1 108 -368088437 -83386293 -747773793 1124830115
            -747641174 -2125217720 352660106 -750782007</internalNodes>
          <leafValues>
            -3.1954526901245117e-01 3.2712328433990479e-01</leafValues></_></weakClassifiers></_></stages>
  <features>
    <_>
      <rect>
        0 6 5 2</rect></_>
    <_>
      <rect>
        1 2 5 2</rect></_>
    <_>
      <rect>
        1 6 6 1</rect></_>
    <_>
      <rect>
        1 8 5 3</rect></_>
    <_>
      <rect>
        2 2 10 4</rect></_>
    <_>
      <rect>
        2 3 3 3</rect></_>
    <_>
      <rect>
        2 4 3 2</rect></_>
    <_>
      <rect>
        2 5 3 3</rect></_>
    <_>
      <rect>
        2 5 3 4</rect></_>
    <_>
      <rect>
        2 5 10 4</rect></_>
    <_>
      <rect>
        2 8 3 3</rect></_>
    <_>
      <rect>
        3 0 11 6</rect></_>
    <_>
      <rect>
        3 6 10 3</rect></_>
    <_>
      <rect>
        3 8 5 1</rect></_>
    <_>
      <rect>
        3 9 3 3</rect></_>
    <_>
      <rect>
        3 9 6 1</rect></_>
    <_>
      <rect>
        4 0 3 2</rect></_>
    <_>
      <rect>
        4 0 6 4</rect></_>
    <_>
      <rect>
        4 4 3 3</rect></_>
    <_>
      <rect>
        4 5 5 2</rect></_>
    <_>
      <rect>
        4 5 6 3</rect></_>
    <_>
      <rect>
        4 6 3 4</rect></_>
    <_>
      <rect>
        4 7 2 3</rect></_>
    <_>
      <rect>
        5 0 5 4</rect></_>
    <_>
      <rect>
        5 1 9 5</rect></_>
    <_>
      <rect>
        5 4 5 1</rect></_>
    <_>
      <rect>
        5 6 5 1</rect></_>
    <_>
      <rect>
        5 9 5 3</rect></_>
    <_>
      <rect>
        6 3 3 3</rect></_>
    <_>
      <rect>
        6 4 8 3</rect></_>
    <_>
      <rect>
        6 5 2 3</rect></_>
    <_>
      <rect>
        6 5 8 3</rect></_>
    <_>
      <rect>
        7 2 2 2</rect></_>
    <_>
      <rect>
        7 3 2 2</rect></_>
    <_>
      <rect>
        7 5 2 1</rect></_>
    <_>
      <rect>
        7 5 8 3</rect></_>
    <_>
      <rect>
        7 6 2 2</rect></_>
    <_>
      <rect>
        7 6 2 3</rect></_>
    <_>
      <rect>
        7 8 6 1</rect></_>
    <_>
      <rect>
        8 0 5 3</rect></_>
    <_>
      <rect>
        8 4 2 4</rect></_>
    <_>
      <rect>
        8 5 1 2</rect></_>
    <_>
      <rect>
        8 6 2 1</rect></_>
    <_>
      <rect>
        8 6 5 1</rect></_>
    <_>
      <rect>
        8 7 4 1</rect></_>
    <_>
      <rect>
        8 7 5 1</rect></_>
    <_>
      <rect>
        8 7 6 1</rect></_>
    <_>
      <rect>
        8 8 3 1</rect></_>
    <_>
      <rect>
        9 1 2 2</rect></_>
    <_>
      <rect>
        9 5 7 3</rect></_>
    <_>
      <rect>
        9 6 8 4</rect></_>
    <_>
      <rect>
        9 6 9 2</rect></_>
    <_>
      <rect>
        9 6 9 3</rect></_>
    <_>
      <rect>
        10 4 2 1</rect></_>
    <_>
      <rect>
        10 5 2 1</rect></_>
    <_>
      <rect>
        11 0 7 5</rect></_>
    <_>
      <rect>
        11 0 7 6</rect></_>
    <_>
      <rect>
        11 3 2 1</rect></_>
    <_>
      <rect>
        11 4 2 1</rect></_>
    <_>
      <rect>
        11 6 3 1</rect></_>
    <_>
      <rect>
        11 8 9 1</rect></_>
    <_>
      <rect>
        12 4 1 1</rect></_>
    <_>
      <rect>
        12 4 2 1</rect></_>
    <_>
      <rect>
        12 5 2 3</rect></_>
    <_>
      <rect>
        12 7 4 1</rect></_>
    <_>
      <rect>
        12 8 4 1</rect></_>
    <_>
      <rect>
        13 0 1 2</rect></_>
    <_>
      <rect>
        13 3 2 4</rect></_>
    <_>
      <rect>
        13 3 5 3</rect></_>
    <_>
      <rect>
        13 3 6 3</rect></_>
    <_>
      <rect>
        13 4 1 3</rect></_>
    <_>
      <rect>
        13 4 2 1</rect></_>
    <_>
      <rect>
        13 4 5 3</rect></_>
    <_>
      <rect>
        13 5 2 1</rect></_>
    <_>
      <rect>
        13 6 2 1</rect></_>
    <_>
      <rect>
        13 6 3 1</rect></_>
    <_>
      <rect>
        13 6 7 3</rect></_>
    <_>
      <rect>
        13 7 3 1</rect></_>
    <_>
      <rect>
        13 7 6 1</rect></_>
    <_>
      <rect>
        13 7 7 2</rect></_>
    <_>
      <rect>
        13 8 2 1</rect></_>
    <_>
      <rect>
        13 8 3 1</rect></_>
    <_>
      <rect>
        14 1 2 2</rect></_>
    <_>
      <rect>
        14 3 1 1</rect></_>
    <_>
      <rect>
        14 3 5 4</rect></_>
    <_>
      <rect>
        14 4 1 1</rect></_>
    <_>
      <rect>
        14 4 1 3</rect></_>
    <_>
      <rect>
        14 4 2 1</rect></_>
    <_>
      <rect>
        14 4 2 3</rect></_>
    <_>
      <rect>
        14 5 1 3</rect></_>
    <_>
      <rect>
        14 6 4 2</rect></_>
    <_>
      <rect>
        14 8 3 1</rect></_>
    <_>
      <rect>
        14 8 4 1</rect></_>
    <_>
      <rect>
        15 3 2 2</rect></_>
    <_>
      <rect>
        15 4 1 2</rect></_>
    <_>
      <rect>
        15 4 1 3</rect></_>
    <_>
      <rect>
        15 4 2 3</rect></_>
    <_>
      <rect>
        15 4 3 3</rect></_>
    <_>
      <rect>
        15 5 1 3</rect></_>
    <_>
      <rect>
        15 5 5 2</rect></_>
    <_>
      <rect>
        15 6 3 1</rect></_>
    <_>
      <rect>
        15 7 3 1</rect></_>
    <_>
      <rect>
        15 8 2 1</rect></_>
    <_>
      <rect>
        15 8 3 1</rect></_>
    <_>
      <rect>
        15 9 1 1</rect></_>
    <_>
      <rect>
        15 9 1 2</rect></_>
    <_>
      <rect>
        16 3 1 3</rect></_>
    <_>
      <rect>
        16 4 1 2</rect></_>
    <_>
      <rect>
        16 4 1 3</rect></_>
    <_>
      <rect>
        16 4 2 1</rect></_>
    <_>
      <rect>
        16 4 2 2</rect></_>
    <_>
      <rect>
        16 5 1 2</rect></_>
    <_>
      <rect>
        16 5 1 3</rect></_>
    <_>
      <rect>
        16 6 2 2</rect></_>
    <_>
      <rect>
        16 6 3 1</rect></_>
    <_>
      <rect>
        16 6 3 2</rect></_>
    <_>
      <rect>
        16 6 6 4</rect></_>
    <_>
      <rect>
        16 7 2 1</rect></_>
    <_>
      <rect>
        16 8 1 1</rect></_>
    <_>
      <rect>
        16 8 2 1</rect></_>
    <_>
      <rect>
        16 8 3 1</rect></_>
    <_>
      <rect>
        16 9 1 1</rect></_>
    <_>
      <rect>
        16 9 6 1</rect></_>
    <_>
      <rect>
        17 2 1 4</rect></_>
    <_>
      <rect>
        17 4 1 3</rect></_>
    <_>
      <rect>
        17 5 1 2</rect></_>
    <_>
      <rect>
        17 5 2 1</rect></_>
    <_>
      <rect>
        17 5 2 2</rect></_>
    <_>
      <rect>
        17 6 1 1</rect></_>
    <_>
      <rect>
        17 7 1 1</rect></_>
    <_>
      <rect>
        17 7 1 2</rect></_>
    <_>
      <rect>
        17 7 2 1</rect></_>
    <_>
      <rect>
        17 10 2 1</rect></_>
    <_>
      <rect>
        18 2 1 4</rect></_>
    <_>
      <rect>
        18 4 1 3</rect></_>
    <_>
      <rect>
        18 6 1 1</rect></_>
    <_>
      <rect>
        18 6 1 2</rect></_>
    <_>
      <rect>
        18 6 2 1</rect></_>
    <_>
      <rect>
        18 7 1 1</rect></_>
    <_>
      <rect>
        18 8 1 1</rect></_>
    <_>
      <rect>
        19 1 1 2</rect></_>
    <_>
      <rect>
        19 3 1 3</rect></_>
    <_>
      <rect>
        19 4 1 3</rect></_>
    <_>
      <rect>
        19 6 1 1</rect></_>
    <_>
      <rect>
        19 11 1 2</rect></_>
    <_>
      <rect>
        20 2 1 2</rect></_>
    <_>
      <rect>
        20 2 1 4</rect></_>
    <_>
      <rect>
        20 2 5 5</rect></_>
    <_>
      <rect>
        20 4 1 3</rect></_>
    <_>
      <rect>
        20 5 1 3</rect></_>
    <_>
      <rect>
        20 5 5 4</rect></_>
    <_>
      <rect>
        20 6 1 2</rect></_>
    <_>
      <rect>
        20 7 1 2</rect></_>
    <_>
      <rect>
        20 7 4 1</rect></_>
    <_>
      <rect>
        20 8 1 2</rect></_>
    <_>
      <rect>
        21 0 4 3</rect></_>
    <_>
      <rect>
        21 0 5 5</rect></_>
    <_>
      <rect>
        21 3 1 2</rect></_>
    <_>
      <rect>
        21 5 1 3</rect></_>
    <_>
      <rect>
        22 0 4 4</rect></_>
    <_>
      <rect>
        22 4 4 3</rect></_>
    <_>
      <rect>
        22 9 5 3</rect></_>
    <_>
      <rect>
        23 0 3 4</rect></_>
    <_>
      <rect>
        23 6 5 4</rect></_>
    <_>
      <rect>
        23 9 3 2</rect></_>
    <_>
      <rect>
        24 0 3 4</rect></_>
    <_>
      <rect>
        24 1 3 4</rect></_>
    <_>
      <rect>
        25 7 3 3</rect></_>
    <_>
      <rect>
        26 7 3 2</rect></_></features></cascade>
</opencv_storage>
