<?xml version="1.0"?>
<opencv_storage>
<cascade>
  <stageType>BOOST</stageType>
  <featureType>LBP</featureType>
  <height>18</height>
  <width>38</width>
  <stageParams>
    <boostType>GAB</boostType>
    <minHitRate>9.9900001287460327e-01</minHitRate>
    <maxFalseAlarm>5.0000000000000000e-01</maxFalseAlarm>
    <weightTrimRate>9.4999999999999996e-01</weightTrimRate>
    <maxDepth>1</maxDepth>
    <maxWeakCount>100</maxWeakCount></stageParams>
  <featureParams>
    <maxCatCount>256</maxCatCount>
    <featSize>1</featSize></featureParams>
  <stageNum>20</stageNum>
  <stages>
    <!-- stage 0 -->
    <_>
      <maxWeakCount>3</maxWeakCount>
      <stageThreshold>-1.1897867918014526e+00</stageThreshold>
      <weakClassifiers>
        <_>
          <internalNodes>
            0 -1 125 -801062768 -45072384 -1736404591 -45022959
            -1476359960 -90696984 -1730631425 -73430325</internalNodes>
          <leafValues>
            -8.8020563125610352e-01 7.6426118612289429e-01</leafValues></_>
        <_>
          <internalNodes>
            0 -1 137 -251596600 -246562688 16520 -721043253 -1333728086
            -553074046 -802686805 -7872513</internalNodes>
          <leafValues>
            -8.3450496196746826e-01 5.3033399581909180e-01</leafValues></_>
        <_>
          <internalNodes>
            0 -1 26 -871960850 -3161914 -1039499122 790857934 -358569222
            -272953687 -837105430 -9521</internalNodes>
          <leafValues>
            -8.3991521596908569e-01 5.2829748392105103e-01</leafValues></_></weakClassifiers></_>
    <!-- stage 1 -->
    <_>
      <maxWeakCount>5</maxWeakCount>
      <stageThreshold>-2.1404914855957031e+00</stageThreshold>
      <weakClassifiers>
        <_>
          <internalNodes>
            0 -1 96 -53423880 -72346992 -646870787 -8547919 -125263688
            -4554502 -1467963201 -5589313</internalNodes>
          <leafValues>
            -7.8881984949111938e-01 5.5569905042648315e-01</leafValues></_>
        <_>
          <internalNodes>
            0 -1 120 -758652798 -783876096 1073807360 1359421443
            -1073512318 1073741824 1074085898 -747642133</internalNodes>
          <leafValues>
            -6.8043971061706543e-01 5.6969898939132690e-01</leafValues></_>
        <_>
          <internalNodes>
            0 -1 9 -387546369 -789706001 -2068123905 988784891
            -392250369 -386990913 -1359028225 -856686593</internalNodes>
          <leafValues>
            -6.5700364112854004e-01 5.6368237733840942e-01</leafValues></_>
        <_>
          <internalNodes>
            0 -1 35 -568004918 -3750364 155633887 -546438996 -271729681
            -71695454 -1974472705 -537984373</internalNodes>
          <leafValues>
            -6.3518905639648438e-01 5.7823455333709717e-01</leafValues></_>
        <_>
          <internalNodes>
            0 -1 83 -790949729 -581005157 1342503647 2141017307
            -1275027301 -1677197176 84054719 520815803</internalNodes>
          <leafValues>
            -6.2917798757553101e-01 5.7979637384414673e-01</leafValues></_></weakClassifiers></_>
    <!-- stage 2 -->
    <_>
      <maxWeakCount>5</maxWeakCount>
      <stageThreshold>-1.2770775556564331e+00</stageThreshold>
      <weakClassifiers>
        <_>
          <internalNodes>
            0 -1 24 -353447169 -1467194660 -367263777 -1085482049
            -554967809 -286482178 -70520833 -1048833</internalNodes>
          <leafValues>
            -7.0576238632202148e-01 5.4482281208038330e-01</leafValues></_>
        <_>
          <internalNodes>
            0 -1 148 -254492456 -36682600 1426150741 1360089429
            -930551640 -1195826552 -1129652481 -73443121</internalNodes>
          <leafValues>
            -7.4144136905670166e-01 5.0792998075485229e-01</leafValues></_>
        <_>
          <internalNodes>
            0 -1 138 -637273358 -712440821 9568795 319094803 -1971209990
            -1995964287 151231419 193661339</internalNodes>
          <leafValues>
            -7.5469756126403809e-01 4.2151412367820740e-01</leafValues></_>
        <_>
          <internalNodes>
            0 -1 55 -301800718 -10534705 4239487 -241360691 -1325083911
            -281870162 33583871 2135888095</internalNodes>
          <leafValues>
            -6.9327813386917114e-01 4.4126144051551819e-01</leafValues></_>
        <_>
          <internalNodes>
            0 -1 155 -225980278 -1073560574 -800947966 17006603
            1342228994 1073905671 1090617346 -896536326</internalNodes>
          <leafValues>
            -6.5266364812850952e-01 4.8356226086616516e-01</leafValues></_></weakClassifiers></_>
    <!-- stage 3 -->
    <_>
      <maxWeakCount>6</maxWeakCount>
      <stageThreshold>-1.6799581050872803e+00</stageThreshold>
      <weakClassifiers>
        <_>
          <internalNodes>
            0 -1 5 -2097153 15868655 -2630697 -1059586049 -2098689
            -2130728353 -4194561 -2130707713</internalNodes>
          <leafValues>
            -7.1923935413360596e-01 4.2555829882621765e-01</leafValues></_>
        <_>
          <internalNodes>
            0 -1 70 -656441601 -795289358 -1797791745 -772015109
            15537407 134224634 -815811585 -637534209</internalNodes>
          <leafValues>
            -5.7243841886520386e-01 5.1232630014419556e-01</leafValues></_>
        <_>
          <internalNodes>
            0 -1 33 -288954642 -14137138 -1910471574 -16603442
            -1379602945 -287945477 -347279361 -15737889</internalNodes>
          <leafValues>
            -6.9378870725631714e-01 3.9961981773376465e-01</leafValues></_>
        <_>
          <internalNodes>
            0 -1 145 319953370 1595015818 454254431 1528525275
            -912536614 -47540006 2132531679 -551592482</internalNodes>
          <leafValues>
            -6.1456108093261719e-01 4.4124907255172729e-01</leafValues></_>
        <_>
          <internalNodes>
            0 -1 168 -1056710526 -805115773 8421705 -788435897 268693674
            -745893686 1359205963 -754459697</internalNodes>
          <leafValues>
            -5.4781717061996460e-01 5.1506990194320679e-01</leafValues></_>
        <_>
          <internalNodes>
            0 -1 164 -1073561600 -782773262 -318518817 -585125741
            -2004710742 -38027121 -2111767605 -74727281</internalNodes>
          <leafValues>
            -6.5081065893173218e-01 3.9522272348403931e-01</leafValues></_></weakClassifiers></_>
    <!-- stage 4 -->
    <_>
      <maxWeakCount>8</maxWeakCount>
      <stageThreshold>-1.5823149681091309e+00</stageThreshold>
      <weakClassifiers>
        <_>
          <internalNodes>
            0 -1 131 -78650710 -788414454 1091944512 1359069184
            -805060478 1342259328 1397213418 -740302709</internalNodes>
          <leafValues>
            -6.5180242061614990e-01 4.0621930360794067e-01</leafValues></_>
        <_>
          <internalNodes>
            0 -1 20 -1999721729 -1040178466 -1964844289 148643455
            -890307585 -928064769 -892403713 -1899036689</internalNodes>
          <leafValues>
            -7.8656142950057983e-01 3.4772655367851257e-01</leafValues></_>
        <_>
          <internalNodes>
            0 -1 91 428806360 -44101381 226622207 -539248259 -2004367224
            -1685346182 260701183 523176863</internalNodes>
          <leafValues>
            -7.4009466171264648e-01 3.5386431217193604e-01</leafValues></_>
        <_>
          <internalNodes>
            0 -1 183 -767303030 1359208970 268468224 1392706050 1237418
            268451841 1073844232 -749736993</internalNodes>
          <leafValues>
            -5.3275537490844727e-01 4.7057646512985229e-01</leafValues></_>
        <_>
          <internalNodes>
            0 -1 43 -537924886 -959504246 -185958258 -188272568
            -891295289 -1382300141 -269497201 -858788145</internalNodes>
          <leafValues>
            -5.3262710571289062e-01 4.6632659435272217e-01</leafValues></_>
        <_>
          <internalNodes>
            0 -1 75 -795683599 -548154024 286339153 1359155649
            -668405510 -47504993 16879839 252379267</internalNodes>
          <leafValues>
            -5.7170253992080688e-01 4.6816709637641907e-01</leafValues></_>
        <_>
          <internalNodes>
            0 -1 117 -69221717 -750522365 17138908 1073998467 -653285240
            1476431297 1124577450 -695483509</internalNodes>
          <leafValues>
            -4.2065688967704773e-01 5.7916122674942017e-01</leafValues></_>
        <_>
          <internalNodes>
            0 -1 110 -655851267 -472168 287315377 490303809 -930198514
            -1910372181 422178559 -1147462979</internalNodes>
          <leafValues>
            -4.8327499628067017e-01 5.2669012546539307e-01</leafValues></_></weakClassifiers></_>
    <!-- stage 5 -->
    <_>
      <maxWeakCount>8</maxWeakCount>
      <stageThreshold>-1.5496366024017334e+00</stageThreshold>
      <weakClassifiers>
        <_>
          <internalNodes>
            0 -1 107 -790627585 1356198111 -1684014081 1364541845
            -319816705 -1965043457 -68163169 1599602655</internalNodes>
          <leafValues>
            -5.9567898511886597e-01 3.8324177265167236e-01</leafValues></_>
        <_>
          <internalNodes>
            0 -1 49 -581973302 -754548534 1346372320 1359282432
            -882913585 -871380916 -269759537 -540025137</internalNodes>
          <leafValues>
            -5.2932083606719971e-01 4.5386543869972229e-01</leafValues></_>
        <_>
          <internalNodes>
            0 -1 123 521887703 -16163410 521887743 2134596575 -812725617
            -552661302 -1625292801 -1626349569</internalNodes>
          <leafValues>
            -4.6068665385246277e-01 5.0707918405532837e-01</leafValues></_>
        <_>
          <internalNodes>
            0 -1 114 -220988710 -202122305 -1870413800 -745015365
            303096568 268457401 571975835 1475867647</internalNodes>
          <leafValues>
            -5.5335587263107300e-01 4.1134983301162720e-01</leafValues></_>
        <_>
          <internalNodes>
            0 -1 186 -217324918 -775724542 285245440 1359413763
            -1065310072 134825002 -800997173 -750013713</internalNodes>
          <leafValues>
            -4.6825215220451355e-01 4.6790084242820740e-01</leafValues></_>
        <_>
          <internalNodes>
            0 -1 12 -270015762 -9441570 -865022214 -16521209 -824646420
            -274037573 -1062378548 -9452567</internalNodes>
          <leafValues>
            -5.9998100996017456e-01 3.5182818770408630e-01</leafValues></_>
        <_>
          <internalNodes>
            0 -1 147 -645873528 -142237056 -595009571 -184157871
            -1475828568 -67171858 -658462470 -10830888</internalNodes>
          <leafValues>
            -7.2552305459976196e-01 3.0963930487632751e-01</leafValues></_>
        <_>
          <internalNodes>
            0 -1 178 -880039286 -2130591581 168536859 1359188738
            -2111641430 763930 1124714635 -217064821</internalNodes>
          <leafValues>
            -5.0111865997314453e-01 4.5969441533088684e-01</leafValues></_></weakClassifiers></_>
    <!-- stage 6 -->
    <_>
      <maxWeakCount>9</maxWeakCount>
      <stageThreshold>-1.7940547466278076e+00</stageThreshold>
      <weakClassifiers>
        <_>
          <internalNodes>
            0 -1 16 -297603361 -75060058 780988159 -1094049 -146034689
            -6583152 -536870913 -2360421</internalNodes>
          <leafValues>
            -5.4078978300094604e-01 4.2279267311096191e-01</leafValues></_>
        <_>
          <internalNodes>
            0 -1 153 -238816566 -607454518 -788486646 -3146801 4247724
            -804527409 1426316014 -1049</internalNodes>
          <leafValues>
            -5.1054316759109497e-01 4.1719040274620056e-01</leafValues></_>
        <_>
          <internalNodes>
            0 -1 31 -1345327442 -1055190 -7885065 -75781470 1868558319
            -745028742 -407908660 -269496628</internalNodes>
          <leafValues>
            -6.0560870170593262e-01 3.4327438473701477e-01</leafValues></_>
        <_>
          <internalNodes>
            0 -1 135 -800333109 -804531069 28737 1090761330 -1073048894
            1342398579 1430514635 -14683713</internalNodes>
          <leafValues>
            -4.2803442478179932e-01 4.7780600190162659e-01</leafValues></_>
        <_>
          <internalNodes>
            0 -1 81 -575415297 -1683324280 367263741 456915450
            1331580911 448413928 384551675 464251498</internalNodes>
          <leafValues>
            -5.1399511098861694e-01 4.0877345204353333e-01</leafValues></_>
        <_>
          <internalNodes>
            0 -1 163 -1828185133 -1710596680 -1648664609 2132762111
            -1349871943 -74688214 -1154899973 2065647867</internalNodes>
          <leafValues>
            -5.6617987155914307e-01 3.2254403829574585e-01</leafValues></_>
        <_>
          <internalNodes>
            0 -1 179 -268189045 -1874673654 331404986 -1039119249
            -1061051510 390543234 1079232554 -204211457</internalNodes>
          <leafValues>
            -4.1916811466217041e-01 4.7194069623947144e-01</leafValues></_>
        <_>
          <internalNodes>
            0 -1 58 403200255 2109751993 -1429245698 1003870225
            -1598185729 -1993654135 -2002333697 159117759</internalNodes>
          <leafValues>
            -4.8443216085433960e-01 4.3289470672607422e-01</leafValues></_>
        <_>
          <internalNodes>
            0 -1 136 -70326134 -243649546 -478680920 -148119781
            -1062274577 -788511717 22263966 -609095201</internalNodes>
          <leafValues>
            -4.6479949355125427e-01 4.3708956241607666e-01</leafValues></_></weakClassifiers></_>
    <!-- stage 7 -->
    <_>
      <maxWeakCount>10</maxWeakCount>
      <stageThreshold>-1.6113859415054321e+00</stageThreshold>
      <weakClassifiers>
        <_>
          <internalNodes>
            0 -1 29 -552599810 -13652278 -147390721 791620238
            -1143473665 -17055841 -642778113 -3150101</internalNodes>
          <leafValues>
            -5.8488470315933228e-01 2.8272414207458496e-01</leafValues></_>
        <_>
          <internalNodes>
            0 -1 159 -69478150 -82649093 118685883 1528509115
            -1966372357 -2121758275 194480827 457153471</internalNodes>
          <leafValues>
            -6.1454451084136963e-01 3.0045521259307861e-01</leafValues></_>
        <_>
          <internalNodes>
            0 -1 155 -758125949 -1073512446 453234691 -1073495925
            1359659722 -1072988017 1074056523 -758656309</internalNodes>
          <leafValues>
            -4.5258018374443054e-01 4.1895878314971924e-01</leafValues></_>
        <_>
          <internalNodes>
            0 -1 38 -2006167425 -1978903572 -866814977 1607268321
            -790701089 -2012696627 -1203586053 -1885470721</internalNodes>
          <leafValues>
            -5.2493900060653687e-01 3.8682481646537781e-01</leafValues></_>
        <_>
          <internalNodes>
            0 -1 15 -36734977 427851003 -637809825 -235604998 -419989889
            -1129131599 -1108353025 -1461649417</internalNodes>
          <leafValues>
            -4.4274571537971497e-01 4.2149516940116882e-01</leafValues></_>
        <_>
          <internalNodes>
            0 -1 151 -117251966 -775191806 1695009177 1363910674
            1109557922 -2147187666 1110623443 -675290113</internalNodes>
          <leafValues>
            -4.6463111042976379e-01 4.2971387505531311e-01</leafValues></_>
        <_>
          <internalNodes>
            0 -1 149 -236074942 -586989288 473963999 2112852375
            -640843058 -2137735439 -1362374994 174055167</internalNodes>
          <leafValues>
            -5.2779763936996460e-01 3.7977772951126099e-01</leafValues></_>
        <_>
          <internalNodes>
            0 -1 94 -1073680894 -104341206 1646940160 1929867970
            -1072914280 1263185608 2474698 1380963203</internalNodes>
          <leafValues>
            -5.9006702899932861e-01 3.0541652441024780e-01</leafValues></_>
        <_>
          <internalNodes>
            0 -1 200 -37091826 -68269778 -783816273 1605305158
            -872955453 -7673894 -1354170778 -1343516760</internalNodes>
          <leafValues>
            -5.1998233795166016e-01 3.4503167867660522e-01</leafValues></_>
        <_>
          <internalNodes>
            0 -1 170 -141823253 -784224126 -706249539 -1593576821
            -727391006 1092065579 1074167978 -519045345</internalNodes>
          <leafValues>
            -4.2571604251861572e-01 4.5369902253150940e-01</leafValues></_></weakClassifiers></_>
    <!-- stage 8 -->
    <_>
      <maxWeakCount>10</maxWeakCount>
      <stageThreshold>-1.7184435129165649e+00</stageThreshold>
      <weakClassifiers>
        <_>
          <internalNodes>
            0 -1 21 -1191182465 13019694 -11534881 -788529954 -738738369
            -1393563137 -370151425 -1997538179</internalNodes>
          <leafValues>
            -6.6151821613311768e-01 2.1639606356620789e-01</leafValues></_>
        <_>
          <internalNodes>
            0 -1 144 397365727 -544269825 521363453 1606376927
            -1078206472 -4518449 -1089209345 -5243908</internalNodes>
          <leafValues>
            -4.3118396401405334e-01 4.4673338532447815e-01</leafValues></_>
        <_>
          <internalNodes>
            0 -1 105 -792757505 278444788 -97518725 273752000 -654443329
            -389300241 -1195397185 423755709</internalNodes>
          <leafValues>
            -5.5113410949707031e-01 3.4342774748802185e-01</leafValues></_>
        <_>
          <internalNodes>
            0 -1 171 -255074102 -708803954 -1879048056 -176045409
            1342232776 1162383882 1380358335 -4202785</internalNodes>
          <leafValues>
            -5.1093024015426636e-01 3.7489411234855652e-01</leafValues></_>
        <_>
          <internalNodes>
            0 -1 56 -303371024 -8652041 -527109961 -135024369 -9961479
            -6294858 856142462 2004308227</internalNodes>
          <leafValues>
            -5.6035602092742920e-01 2.8069293498992920e-01</leafValues></_>
        <_>
          <internalNodes>
            0 -1 86 -410009597 -781221885 2102874577 84738562 -859338078
            1392575652 1199800491 -787512689</internalNodes>
          <leafValues>
            -3.7604758143424988e-01 4.5092487335205078e-01</leafValues></_>
        <_>
          <internalNodes>
            0 -1 40 -16795985 1290791662 2025196671 1492613807
            -536887553 -387256321 2113924350 -251658241</internalNodes>
          <leafValues>
            -4.0036350488662720e-01 4.2900547385215759e-01</leafValues></_>
        <_>
          <internalNodes>
            0 -1 187 -1162371030 -29909337 -29421525 1410710327
            -369159249 -1363472215 954424991 -1645363233</internalNodes>
          <leafValues>
            -4.5643645524978638e-01 3.8009950518608093e-01</leafValues></_>
        <_>
          <internalNodes>
            0 -1 165 -783808360 -614889384 -853977123 -682142379
            -706182998 -1161059608 1238035388 -554531883</internalNodes>
          <leafValues>
            -6.3482064008712769e-01 2.7692192792892456e-01</leafValues></_>
        <_>
          <internalNodes>
            0 -1 129 -605231366 -612876566 190295078 -673325181
            281070282 7346098 58827963 1977614254</internalNodes>
          <leafValues>
            -5.9930604696273804e-01 2.4771787226200104e-01</leafValues></_></weakClassifiers></_>
    <!-- stage 9 -->
    <_>
      <maxWeakCount>13</maxWeakCount>
      <stageThreshold>-1.4624232053756714e+00</stageThreshold>
      <weakClassifiers>
        <_>
          <internalNodes>
            0 -1 204 -320172465 -22617 -226196769 -3733757 -665133489
            -18953011 -728184065 -605958481</internalNodes>
          <leafValues>
            -5.1044481992721558e-01 3.2112780213356018e-01</leafValues></_>
        <_>
          <internalNodes>
            0 -1 98 -2101025 1003216303 847314944 891277320 291434892
            277549056 298025130 2145386479</internalNodes>
          <leafValues>
            -5.2321165800094604e-01 3.2839816808700562e-01</leafValues></_>
        <_>
          <internalNodes>
            0 -1 10 -2063597569 822065883 -261359681 -1107296514
            -1394085379 -1130890321 -117982731 -1996491403</internalNodes>
          <leafValues>
            -4.3518742918968201e-01 4.0223351120948792e-01</leafValues></_>
        <_>
          <internalNodes>
            0 -1 6 -50438273 989511542 -590292033 -1326272778 -23112305
            284494359 -83899649 -255922177</internalNodes>
          <leafValues>
            -4.9090230464935303e-01 3.2177621126174927e-01</leafValues></_>
        <_>
          <internalNodes>
            0 -1 64 -1090752400 -608654800 -1113981481 -105670389
            -522178374 -98893776 -658237553 -11333103</internalNodes>
          <leafValues>
            -5.7548218965530396e-01 2.9982286691665649e-01</leafValues></_>
        <_>
          <internalNodes>
            0 -1 120 -607657981 -246689694 -801062908 50790402
            -1064316790 -1067470844 285691562 -712267037</internalNodes>
          <leafValues>
            -3.8292771577835083e-01 4.3817657232284546e-01</leafValues></_>
        <_>
          <internalNodes>
            0 -1 87 -389029366 -161240069 -491266878 1398520682
            1089137611 1077941878 -1860466536 1396167855</internalNodes>
          <leafValues>
            -5.8113521337509155e-01 2.6081112027168274e-01</leafValues></_>
        <_>
          <internalNodes>
            0 -1 194 -737965429 1397723146 -2129744089 -217398901
            545816707 16908418 1369408138 -2096108917</internalNodes>
          <leafValues>
            -3.8135442137718201e-01 4.3224000930786133e-01</leafValues></_>
        <_>
          <internalNodes>
            0 -1 2 -18429217 -152696313 -427089761 821770587 -464846851
            -439401749 -328699941 -2130777409</internalNodes>
          <leafValues>
            -4.9063339829444885e-01 3.4850224852561951e-01</leafValues></_>
        <_>
          <internalNodes>
            0 -1 46 -291191568 -2232587 480632507 663051509 -42732821
            -1073748744 1913834495 521622923</internalNodes>
          <leafValues>
            -6.0393089056015015e-01 2.5392174720764160e-01</leafValues></_>
        <_>
          <internalNodes>
            0 -1 133 -2138398192 -888485590 1729824153 1905385947
            -196101493 1107321405 -238558328 -1593313377</internalNodes>
          <leafValues>
            -4.5997667312622070e-01 3.6373662948608398e-01</leafValues></_>
        <_>
          <internalNodes>
            0 -1 166 -6833270 -612560736 185601824 1493503648
            -2142596952 151519952 598844105 2146418658</internalNodes>
          <leafValues>
            -5.1166361570358276e-01 3.2607170939445496e-01</leafValues></_>
        <_>
          <internalNodes>
            0 -1 61 -253116182 -119521184 -89137426 -213327713
            -268381178 -32877435 -1156473927 2133816255</internalNodes>
          <leafValues>
            -5.0779253244400024e-01 3.4613311290740967e-01</leafValues></_></weakClassifiers></_>
    <!-- stage 10 -->
    <_>
      <maxWeakCount>14</maxWeakCount>
      <stageThreshold>-1.7144043445587158e+00</stageThreshold>
      <weakClassifiers>
        <_>
          <internalNodes>
            0 -1 196 -386004977 -6153 -208147361 -1105013 -123802433
            -1060881 -36454657 -72683857</internalNodes>
          <leafValues>
            -5.0817233324050903e-01 3.0847212672233582e-01</leafValues></_>
        <_>
          <internalNodes>
            0 -1 44 -321967450 -926506390 -425839542 1551175914
            -54011137 -89140702 -17302818 -33557761</internalNodes>
          <leafValues>
            -5.0245773792266846e-01 3.0159881711006165e-01</leafValues></_>
        <_>
          <internalNodes>
            0 -1 76 -340008177 -135535901 -416286906 -263173 -498865777
            1197621807 -411568929 -142617681</internalNodes>
          <leafValues>
            -3.3433604240417480e-01 4.6697050333023071e-01</leafValues></_>
        <_>
          <internalNodes>
            0 -1 122 2138798686 1531990783 1276115999 2101027995
            -567284001 -1792015271 -1744725537 521602943</internalNodes>
          <leafValues>
            -5.6392282247543335e-01 2.8591519594192505e-01</leafValues></_>
        <_>
          <internalNodes>
            0 -1 193 -1629761841 -134542833 -1896952105 -1146609738
            -72359969 -1073742053 -83886178 -1079836687</internalNodes>
          <leafValues>
            -3.4135675430297852e-01 4.4552063941955566e-01</leafValues></_>
        <_>
          <internalNodes>
            0 -1 108 908808703 -644917889 1060592639 1604801015
            -1618373440 -1685388216 -1625557265 521622491</internalNodes>
          <leafValues>
            -5.0298440456390381e-01 2.9959577322006226e-01</leafValues></_>
        <_>
          <internalNodes>
            0 -1 106 -201788456 -69477688 855650945 -445386277
            -625864694 -611112300 1962572123 -79978549</internalNodes>
          <leafValues>
            -5.2756983041763306e-01 3.0114248394966125e-01</leafValues></_>
        <_>
          <internalNodes>
            0 -1 37 -1685590294 -1421358897 -1170177820 -20085017
            -892602372 -2033194465 -531768884 -3211316</internalNodes>
          <leafValues>
            -5.5308020114898682e-01 2.8994992375373840e-01</leafValues></_>
        <_>
          <internalNodes>
            0 -1 190 -250617205 -729552762 1073881749 1444665355
            -1857959701 436456579 1125109455 -73662469</internalNodes>
          <leafValues>
            -3.2629466056823730e-01 4.8953256011009216e-01</leafValues></_>
        <_>
          <internalNodes>
            0 -1 28 2003795863 1026593648 1171118431 -2336784 -75648712
            -22358372 -910697989 -1395355792</internalNodes>
          <leafValues>
            -4.3622723221778870e-01 3.7735611200332642e-01</leafValues></_>
        <_>
          <internalNodes>
            0 -1 74 701989068 -1320554759 -277909609 293453593
            -938605524 -1893441 -29226481 735038183</internalNodes>
          <leafValues>
            -4.5429736375808716e-01 3.4646469354629517e-01</leafValues></_>
        <_>
          <internalNodes>
            0 -1 119 -1290061857 1883568415 536922626 -1336581837
            -255674134 268437696 -1039497018 -1059865</internalNodes>
          <leafValues>
            -4.2573529481887817e-01 3.8642936944961548e-01</leafValues></_>
        <_>
          <internalNodes>
            0 -1 181 306422440 -904665968 -262889213 -795350170
            -963927921 1798314 1342433428 1124831239</internalNodes>
          <leafValues>
            -5.7525372505187988e-01 2.7790561318397522e-01</leafValues></_>
        <_>
          <internalNodes>
            0 -1 203 47057678 28322146 384606042 -1213848480 -16025565
            -1619079316 -1112580107 -570699440</internalNodes>
          <leafValues>
            -5.8625704050064087e-01 2.6371636986732483e-01</leafValues></_></weakClassifiers></_>
    <!-- stage 11 -->
    <_>
      <maxWeakCount>13</maxWeakCount>
      <stageThreshold>-1.6232690811157227e+00</stageThreshold>
      <weakClassifiers>
        <_>
          <internalNodes>
            0 -1 39 -487592209 -860885074 -352861486 -51380225 -25165825
            -1473511441 -320865793 -590348337</internalNodes>
          <leafValues>
            -5.3711313009262085e-01 2.4166402220726013e-01</leafValues></_>
        <_>
          <internalNodes>
            0 -1 174 931347195 1073027025 1058610685 1069383167
            -1097270017 -1078305873 -1717308513 -1077936929</internalNodes>
          <leafValues>
            -4.6452817320823669e-01 3.3362644910812378e-01</leafValues></_>
        <_>
          <internalNodes>
            0 -1 191 -855651633 -63865 -2141127475 274791675 -17
            -71313569 -123011089 1024589823</internalNodes>
          <leafValues>
            -4.1874477267265320e-01 3.5948511958122253e-01</leafValues></_>
        <_>
          <internalNodes>
            0 -1 3 -1898971137 135196299 -1086357505 -269490697
            -2021739611 1156552621 -974137391 -975307279</internalNodes>
          <leafValues>
            -4.8404201865196228e-01 3.2289242744445801e-01</leafValues></_>
        <_>
          <internalNodes>
            0 -1 188 -280239614 -519225118 -1061937152 -1052049408
            -817114743 1244266496 -1020553589 1393541835</internalNodes>
          <leafValues>
            -4.8131051659584045e-01 3.1013846397399902e-01</leafValues></_>
        <_>
          <internalNodes>
            0 -1 109 461397456 1571475080 521976538 1573641388
            -544580403 -845869957 1492731103 530536651</internalNodes>
          <leafValues>
            -5.6810808181762695e-01 2.6898097991943359e-01</leafValues></_>
        <_>
          <internalNodes>
            0 -1 198 -1058078705 -35131473 1331285497 -33557609
            -319878977 -273001285 2110730903 -812875253</internalNodes>
          <leafValues>
            -4.0457689762115479e-01 3.5306879878044128e-01</leafValues></_>
        <_>
          <internalNodes>
            0 -1 71 -12259200 -212115457 436208240 655438787 -467479512
            357303748 306880142 1407188991</internalNodes>
          <leafValues>
            -5.6705772876739502e-01 2.6496145129203796e-01</leafValues></_>
        <_>
          <internalNodes>
            0 -1 8 1602191327 2141237184 -539528193 -6001808 2097666907
            -48073741 -760417338 -1440714016</internalNodes>
          <leafValues>
            -3.9316007494926453e-01 3.7159118056297302e-01</leafValues></_>
        <_>
          <internalNodes>
            0 -1 160 -1643046767 -320055 524289053 -1076029955 533644728
            -1097199948 -1078154278 -1073913887</internalNodes>
          <leafValues>
            -4.5146575570106506e-01 3.3881360292434692e-01</leafValues></_>
        <_>
          <internalNodes>
            0 -1 118 -495983870 -497293425 1083387016 -236532226
            1090515343 1249606 269986024 1416058335</internalNodes>
          <leafValues>
            -6.3743984699249268e-01 2.4992482364177704e-01</leafValues></_>
        <_>
          <internalNodes>
            0 -1 182 -301221728 -485507070 -348614099 -1841672064
            1078659584 1109951044 1933798143 1392767915</internalNodes>
          <leafValues>
            -5.2609598636627197e-01 2.7945443987846375e-01</leafValues></_>
        <_>
          <internalNodes>
            0 -1 32 -1932051777 -33551755 -1067787841 2054299035
            -811795201 -1393905905 -452988182 -55927457</internalNodes>
          <leafValues>
            -4.6590217947959900e-01 3.1692156195640564e-01</leafValues></_></weakClassifiers></_>
    <!-- stage 12 -->
    <_>
      <maxWeakCount>15</maxWeakCount>
      <stageThreshold>-1.4017977714538574e+00</stageThreshold>
      <weakClassifiers>
        <_>
          <internalNodes>
            0 -1 67 -492836085 -202660085 -1248070193 -135269377
            -343954549 1189259640 -479206421 -142608433</internalNodes>
          <leafValues>
            -4.5668745040893555e-01 3.1444758176803589e-01</leafValues></_>
        <_>
          <internalNodes>
            0 -1 25 -285268225 -395924818 -420296451 -254808337
            -664805601 -335579493 -329389941 -856687369</internalNodes>
          <leafValues>
            -4.6103382110595703e-01 3.1957179307937622e-01</leafValues></_>
        <_>
          <internalNodes>
            0 -1 134 -2111301 -34631518 -1082687311 456070079 -973102933
            148308256 1563798074 -72631629</internalNodes>
          <leafValues>
            -3.2825428247451782e-01 4.3055251240730286e-01</leafValues></_>
        <_>
          <internalNodes>
            0 -1 103 273307135 -804742456 1308546527 1375321914
            444555195 -1095980877 1434123999 -278991941</internalNodes>
          <leafValues>
            -4.1028273105621338e-01 3.3839535713195801e-01</leafValues></_>
        <_>
          <internalNodes>
            0 -1 113 -740559905 -254084097 -771616064 -139505877
            -1878990198 21418202 -1341609334 -203960757</internalNodes>
          <leafValues>
            -3.0116525292396545e-01 4.4396036863327026e-01</leafValues></_>
        <_>
          <internalNodes>
            0 -1 13 -1275101345 811884415 -50462729 904921083 1802206559
            -1359233026 -59245193 -1996488707</internalNodes>
          <leafValues>
            -3.7765949964523315e-01 3.8333928585052490e-01</leafValues></_>
        <_>
          <internalNodes>
            0 -1 101 -615524461 -184319952 -975837829 1410834441
            -749752118 1409799429 1497861003 -955784561</internalNodes>
          <leafValues>
            -2.8916648030281067e-01 4.7332036495208740e-01</leafValues></_>
        <_>
          <internalNodes>
            0 -1 126 -107881283 -4326531 288425851 1461145877
            -1901483862 -1950544245 2079104975 -6644257</internalNodes>
          <leafValues>
            -3.3423253893852234e-01 4.3267309665679932e-01</leafValues></_>
        <_>
          <internalNodes>
            0 -1 212 184289585 -677568097 1271545111 -1342761259
            734989499 -101815617 -507676931 -32908</internalNodes>
          <leafValues>
            -4.0141612291336060e-01 3.5734704136848450e-01</leafValues></_>
        <_>
          <internalNodes>
            0 -1 161 -1064836414 1375957251 1099308065 1896349583
            -1035746142 1095354978 -1756122913 -747651102</internalNodes>
          <leafValues>
            -4.7805199027061462e-01 3.0646046996116638e-01</leafValues></_>
        <_>
          <internalNodes>
            0 -1 54 -353703186 -50052094 -69055746 -1090366546
            -281575467 -217836734 1530125311 2131195747</internalNodes>
          <leafValues>
            -5.3472548723220825e-01 2.7260458469390869e-01</leafValues></_>
        <_>
          <internalNodes>
            0 -1 177 -1968996333 -1616541166 49545013 -748684677
            -1451231557 -1144006054 -612637961 -1053824914</internalNodes>
          <leafValues>
            -3.3768850564956665e-01 4.5535942912101746e-01</leafValues></_>
        <_>
          <internalNodes>
            0 -1 42 -334508081 1137601546 -1125255175 2145124351
            1503657727 -855655041 1598893967 -867706547</internalNodes>
          <leafValues>
            -3.5695701837539673e-01 4.2279878258705139e-01</leafValues></_>
        <_>
          <internalNodes>
            0 -1 202 -462732086 1418164323 140280159 -188482341
            -488865592 -922269423 1618332366 1342657347</internalNodes>
          <leafValues>
            -5.5733597278594971e-01 2.7111461758613586e-01</leafValues></_>
        <_>
          <internalNodes>
            0 -1 184 -766252406 -767401842 -2024699816 1667744786
            -922244645 -788283192 1344527790 -217327425</internalNodes>
          <leafValues>
            -4.3599930405616760e-01 3.6022239923477173e-01</leafValues></_></weakClassifiers></_>
    <!-- stage 13 -->
    <_>
      <maxWeakCount>14</maxWeakCount>
      <stageThreshold>-1.3495812416076660e+00</stageThreshold>
      <weakClassifiers>
        <_>
          <internalNodes>
            0 -1 199 -16855409 -134219337 -570431777 -4214897
            -1428251681 -553714177 -945840385 -5274993</internalNodes>
          <leafValues>
            -4.3414419889450073e-01 3.4912830591201782e-01</leafValues></_>
        <_>
          <internalNodes>
            0 -1 144 1001085943 -1179689985 255844351 524247031 -4467233
            -5517826 -1088422145 -12861441</internalNodes>
          <leafValues>
            -3.6284419894218445e-01 3.7196156382560730e-01</leafValues></_>
        <_>
          <internalNodes>
            0 -1 17 -294728449 -11869534 751699195 -1356454364
            -185627649 -76138305 -1064449 -658117</internalNodes>
          <leafValues>
            -3.9418205618858337e-01 3.3005076646804810e-01</leafValues></_>
        <_>
          <internalNodes>
            0 -1 156 -28316158 -345622005 -1355817723 -276308481
            1158133415 1158103458 1205329583 2138559215</internalNodes>
          <leafValues>
            -4.7039899230003357e-01 2.7040255069732666e-01</leafValues></_>
        <_>
          <internalNodes>
            0 -1 22 2013230423 1024507888 -1084817937 -34554121
            -142789263 -51249291 -536872971 -1676615685</internalNodes>
          <leafValues>
            -3.4796676039695740e-01 3.7769633531570435e-01</leafValues></_>
        <_>
          <internalNodes>
            0 -1 69 -1422931441 -403505251 -499384538 -675283077
            -638063441 574637855 -1520178353 1930944474</internalNodes>
          <leafValues>
            -4.0649896860122681e-01 3.0438929796218872e-01</leafValues></_>
        <_>
          <internalNodes>
            0 -1 41 212823275 241657317 1320812535 -286272918 1715192821
            -659164305 -436995649 -1394294588</internalNodes>
          <leafValues>
            -4.2680650949478149e-01 3.0391204357147217e-01</leafValues></_>
        <_>
          <internalNodes>
            0 -1 88 -103853862 -9298113 -605185286 -147345230
            -1105885022 -999030027 -1148614424 -1153064961</internalNodes>
          <leafValues>
            -4.0042975544929504e-01 3.3614096045494080e-01</leafValues></_>
        <_>
          <internalNodes>
            0 -1 59 -204213517 -201895833 1738887066 -74128527 71932132
            -559195928 1078269249 1406235715</internalNodes>
          <leafValues>
            -4.3558683991432190e-01 3.2170140743255615e-01</leafValues></_>
        <_>
          <internalNodes>
            0 -1 143 -544562558 -1685282286 -1597976494 1900883969
            -268012872 1158160390 -609748343 1124549275</internalNodes>
          <leafValues>
            -5.5712538957595825e-01 2.4241203069686890e-01</leafValues></_>
        <_>
          <internalNodes>
            0 -1 14 1961580031 871255022 808654698 732446940 -22897223
            -1349424213 -1095779345 -276763765</internalNodes>
          <leafValues>
            -3.7706133723258972e-01 3.7523865699768066e-01</leafValues></_>
        <_>
          <internalNodes>
            0 -1 192 -393747814 -175260513 1152360477 293168539
            -2133082118 577380874 963348959 -3145745</internalNodes>
          <leafValues>
            -3.4561717510223389e-01 4.0748015046119690e-01</leafValues></_>
        <_>
          <internalNodes>
            0 -1 210 -1360656773 854920957 -305115243 934300880
            -286319314 -134386379 2145889783 -262323</internalNodes>
          <leafValues>
            -3.3107563853263855e-01 4.1084119677543640e-01</leafValues></_>
        <_>
          <internalNodes>
            0 -1 35 2124574414 -3674618 -1379210627 -143792082
            -1312808964 -1043472918 2064638941 -1096754</internalNodes>
          <leafValues>
            -4.7623366117477417e-01 2.9720795154571533e-01</leafValues></_></weakClassifiers></_>
    <!-- stage 14 -->
    <_>
      <maxWeakCount>14</maxWeakCount>
      <stageThreshold>-1.3545328378677368e+00</stageThreshold>
      <weakClassifiers>
        <_>
          <internalNodes>
            0 -1 90 -1678526029 -2146389261 -1817079013 100086779
            -1283477057 -1900889125 -1279287297 -1898978310</internalNodes>
          <leafValues>
            -5.1666182279586792e-01 1.7408181726932526e-01</leafValues></_>
        <_>
          <internalNodes>
            0 -1 65 -656942964 -1313344661 -147604057 285342063
            -1922398164 -1348055441 -1161953601 1062157215</internalNodes>
          <leafValues>
            -4.7688481211662292e-01 2.6914572715759277e-01</leafValues></_>
        <_>
          <internalNodes>
            0 -1 62 -475027701 -84934705 -4892829 -790889601 -22024273
            1886780415 -230689985 -209722627</internalNodes>
          <leafValues>
            -3.0215838551521301e-01 4.1650912165641785e-01</leafValues></_>
        <_>
          <internalNodes>
            0 -1 66 -658735617 -796904336 -198576321 -547225615
            -2134942467 -2008367579 -797582593 8124247</internalNodes>
          <leafValues>
            -4.4405353069305420e-01 2.8813573718070984e-01</leafValues></_>
        <_>
          <internalNodes>
            0 -1 132 -740298241 -586294904 -805244914 -582750753
            -683475222 -654266302 -1807228053 -1050633</internalNodes>
          <leafValues>
            -2.5930085778236389e-01 4.4742733240127563e-01</leafValues></_>
        <_>
          <internalNodes>
            0 -1 124 486641979 -551054916 1023513595 -33590927
            -1079384673 -1363415308 -1350312961 -1827683261</internalNodes>
          <leafValues>
            -2.9162460565567017e-01 4.2493057250976562e-01</leafValues></_>
        <_>
          <internalNodes>
            0 -1 27 -211845377 302034680 1315173555 1909782966
            -121670337 -1396670479 -570598731 -1864044656</internalNodes>
          <leafValues>
            -3.7620505690574646e-01 3.2620102167129517e-01</leafValues></_>
        <_>
          <internalNodes>
            0 -1 80 -365999606 -33916033 1432387342 2011880410
            -722121969 1936132286 -148898673 924278783</internalNodes>
          <leafValues>
            -5.3803491592407227e-01 2.1083983778953552e-01</leafValues></_>
        <_>
          <internalNodes>
            0 -1 214 205403955 995407487 -12886153 -1107507755 524098839
            -570528848 2042394622 -131319</internalNodes>
          <leafValues>
            -3.2612425088882446e-01 3.9042648673057556e-01</leafValues></_>
        <_>
          <internalNodes>
            0 -1 175 -818960886 -234110030 1082262018 -244780543
            -463511424 -1817706368 1092943020 1397739715</internalNodes>
          <leafValues>
            -4.8503002524375916e-01 2.6913577318191528e-01</leafValues></_>
        <_>
          <internalNodes>
            0 -1 104 -203963765 -782793151 -2058206347 1360765353
            -586419993 -246024978 1107787898 -211840085</internalNodes>
          <leafValues>
            -2.7385219931602478e-01 4.5905870199203491e-01</leafValues></_>
        <_>
          <internalNodes>
            0 -1 197 -61157817 -36231479 296797843 830524111 -1795106605
            -179396454 -1095204817 -13518219</internalNodes>
          <leafValues>
            -3.5272282361984253e-01 3.7902671098709106e-01</leafValues></_>
        <_>
          <internalNodes>
            0 -1 48 -280338262 2110677866 537657599 586031550 -825485309
            -1094769 1411911791 2011070254</internalNodes>
          <leafValues>
            -6.6036111116409302e-01 1.8886496126651764e-01</leafValues></_>
        <_>
          <internalNodes>
            0 -1 50 -2052388733 -941427958 -1636356071 -257428516
            127873279 -2064303084 -2007605714 -46401208</internalNodes>
          <leafValues>
            -3.6315000057220459e-01 3.7651842832565308e-01</leafValues></_></weakClassifiers></_>
    <!-- stage 15 -->
    <_>
      <maxWeakCount>15</maxWeakCount>
      <stageThreshold>-1.4652218818664551e+00</stageThreshold>
      <weakClassifiers>
        <_>
          <internalNodes>
            0 -1 92 515071487 -72395281 867523069 2136300537 -14820728
            -552677654 488569855 -821043205</internalNodes>
          <leafValues>
            -4.8490417003631592e-01 2.1631561219692230e-01</leafValues></_>
        <_>
          <internalNodes>
            0 -1 158 -21984100 -67368858 362290879 1033642170 -15487334
            922881779 1565903786 495914175</internalNodes>
          <leafValues>
            -6.6368645429611206e-01 1.7549020051956177e-01</leafValues></_>
        <_>
          <internalNodes>
            0 -1 176 -1828836818 -7872081 -596592513 -1188188625
            -454754401 -553922849 -322411841 -273764689</internalNodes>
          <leafValues>
            -4.3616807460784912e-01 2.6489979028701782e-01</leafValues></_>
        <_>
          <internalNodes>
            0 -1 169 -2098223101 536710685 -1157781733 1071622999
            -965744870 -1031878873 1945629211 -2081435393</internalNodes>
          <leafValues>
            -3.0716374516487122e-01 3.8149318099021912e-01</leafValues></_>
        <_>
          <internalNodes>
            0 -1 99 -177210369 -749994266 1073746564 1565384409
            1107931883 51160296 1158785467 -4212229</internalNodes>
          <leafValues>
            -2.5062617659568787e-01 4.6946239471435547e-01</leafValues></_>
        <_>
          <internalNodes>
            0 -1 4 679022655 797305053 -1171198019 -118489354 276769887
            -1432903939 -119297931 -1997020940</internalNodes>
          <leafValues>
            -4.2569869756698608e-01 2.8372275829315186e-01</leafValues></_>
        <_>
          <internalNodes>
            0 -1 36 1984569966 -2073074642 41200846 -129585426
            -618185047 -63711653 -16912017 -252248321</internalNodes>
          <leafValues>
            -5.0102859735488892e-01 2.4697272479534149e-01</leafValues></_>
        <_>
          <internalNodes>
            0 -1 60 578288383 1388442353 1845855229 -586845423 138302395
            3275243 917239999 1326255639</internalNodes>
          <leafValues>
            -4.3023157119750977e-01 2.8868877887725830e-01</leafValues></_>
        <_>
          <internalNodes>
            0 -1 172 -36142956 -2609668 1429380349 -15065633 1672644857
            2065828265 -986020421 536729341</internalNodes>
          <leafValues>
            -5.2012169361114502e-01 2.2433939576148987e-01</leafValues></_>
        <_>
          <internalNodes>
            0 -1 117 -177241437 -1874614997 -2075541299 -796403705
            -238057077 352375361 1392753838 -1014857335</internalNodes>
          <leafValues>
            -3.5041233897209167e-01 3.6078849434852600e-01</leafValues></_>
        <_>
          <internalNodes>
            0 -1 93 -1191185674 -179699729 -592188517 1364972321
            -1965344239 -120673091 1842274207 -547505319</internalNodes>
          <leafValues>
            -3.3973616361618042e-01 3.8368663191795349e-01</leafValues></_>
        <_>
          <internalNodes>
            0 -1 102 -1683484456 -780091096 -1878523532 -1109722177
            2010305736 -1715425286 1076903158 -1660258694</internalNodes>
          <leafValues>
            -5.6551414728164673e-01 2.0740269124507904e-01</leafValues></_>
        <_>
          <internalNodes>
            0 -1 180 1359151355 -1687224045 -692390537 -71617177
            1768928702 -301992449 -69486374 -70563969</internalNodes>
          <leafValues>
            -2.4593795835971832e-01 5.2672857046127319e-01</leafValues></_>
        <_>
          <internalNodes>
            0 -1 154 1704364716 1585893118 722372724 -17039385
            1369606137 1390578175 1628561914 1441134426</internalNodes>
          <leafValues>
            -5.3228205442428589e-01 2.6164719462394714e-01</leafValues></_>
        <_>
          <internalNodes>
            0 -1 76 -1561345269 -310283357 -414188148 -872745105
            -496768629 1196573223 1191294431 1733739909</internalNodes>
          <leafValues>
            -4.6000403165817261e-01 2.9851740598678589e-01</leafValues></_></weakClassifiers></_>
    <!-- stage 16 -->
    <_>
      <maxWeakCount>15</maxWeakCount>
      <stageThreshold>-1.5716706514358521e+00</stageThreshold>
      <weakClassifiers>
        <_>
          <internalNodes>
            0 -1 1 -353633553 -584184218 -296028929 -3889617 1973255167
            -148019681 -8078351 -1149441</internalNodes>
          <leafValues>
            -4.2516070604324341e-01 2.6677578687667847e-01</leafValues></_>
        <_>
          <internalNodes>
            0 -1 128 -356323190 -1951206035 569536895 6862781 -66394225
            177882069 2076161922 1107273479</internalNodes>
          <leafValues>
            -5.0586187839508057e-01 2.2371339797973633e-01</leafValues></_>
        <_>
          <internalNodes>
            0 -1 68 -1967587329 44758258 -1978140173 -739049609
            234049001 35701755 1400590335 183754484</internalNodes>
          <leafValues>
            -5.6090807914733887e-01 1.9679632782936096e-01</leafValues></_>
        <_>
          <internalNodes>
            0 -1 206 1213136897 -16777401 -36717569 2113924951
            -590383213 -1778911235 -168304897 -252772565</internalNodes>
          <leafValues>
            -2.8958073258399963e-01 4.0586462616920471e-01</leafValues></_>
        <_>
          <internalNodes>
            0 -1 127 -775428699 -337005777 -242757379 -135269453
            -964824337 -967887507 1701307565 1137369741</internalNodes>
          <leafValues>
            -3.6296606063842773e-01 3.1704804301261902e-01</leafValues></_>
        <_>
          <internalNodes>
            0 -1 95 -604972880 -8198008 71457277 1325506433 -538380584
            -272635318 64830 218258805</internalNodes>
          <leafValues>
            -6.3268417119979858e-01 2.1186563372612000e-01</leafValues></_>
        <_>
          <internalNodes>
            0 -1 19 67370877 67303261 -1085190211 -32946 202896821
            1694366499 -951114543 -355632420</internalNodes>
          <leafValues>
            -4.2738184332847595e-01 2.7022457122802734e-01</leafValues></_>
        <_>
          <internalNodes>
            0 -1 157 -143658482 -148049145 -142086100 -1835841 9947069
            135833565 -1048071441 -78129921</internalNodes>
          <leafValues>
            -3.4868031740188599e-01 3.3530709147453308e-01</leafValues></_>
        <_>
          <internalNodes>
            0 -1 141 -1663743249 -1101843906 712954986 -1711098768
            -608978449 -1128794179 -1462829868 672192944</internalNodes>
          <leafValues>
            -5.2643382549285889e-01 2.2297848761081696e-01</leafValues></_>
        <_>
          <internalNodes>
            0 -1 116 -205476672 -202849268 -217343791 21176763
            -1376943666 1526857927 82292108 1482616550</internalNodes>
          <leafValues>
            -5.1641851663589478e-01 2.5297567248344421e-01</leafValues></_>
        <_>
          <internalNodes>
            0 -1 195 -1073659896 -704549884 1182863643 -213413171
            -2121677409 -687454175 1736830687 -1020264565</internalNodes>
          <leafValues>
            -3.9299198985099792e-01 3.0106878280639648e-01</leafValues></_>
        <_>
          <internalNodes>
            0 -1 213 206441779 2008480579 -1948834253 -1087603024
            1600024465 -545788353 2137252283 -202441028</internalNodes>
          <leafValues>
            -3.1768283247947693e-01 3.8950166106224060e-01</leafValues></_>
        <_>
          <internalNodes>
            0 -1 57 1358309606 -439625206 1618480876 -50508570
            1527519340 -578794516 1483361532 1353482187</internalNodes>
          <leafValues>
            -5.7204353809356689e-01 2.0289787650108337e-01</leafValues></_>
        <_>
          <internalNodes>
            0 -1 170 -749209437 -1022909821 -720376345 4424455
            -751049590 -1061977818 -2046313557 -267917349</internalNodes>
          <leafValues>
            -3.2779964804649353e-01 3.7892803549766541e-01</leafValues></_>
        <_>
          <internalNodes>
            0 -1 53 -1342160314 -689088789 1913024122 -7806227 8425506
            -84643641 387888351 1965453817</internalNodes>
          <leafValues>
            -5.4448580741882324e-01 2.3567642271518707e-01</leafValues></_></weakClassifiers></_>
    <!-- stage 17 -->
    <_>
      <maxWeakCount>16</maxWeakCount>
      <stageThreshold>-1.3345258235931396e+00</stageThreshold>
      <weakClassifiers>
        <_>
          <internalNodes>
            0 -1 82 -683713057 -740337921 -144723749 -2329925
            -1249380918 -1537113877 -12190209 -1624833537</internalNodes>
          <leafValues>
            -4.4026654958724976e-01 2.5019246339797974e-01</leafValues></_>
        <_>
          <internalNodes>
            0 -1 173 -838604473 -553161451 749655797 -1356635115
            -290550274 -6062593 -1360621841 -275788801</internalNodes>
          <leafValues>
            -2.8762662410736084e-01 3.9605206251144409e-01</leafValues></_>
        <_>
          <internalNodes>
            0 -1 51 -1011880017 -1026625561 -851784498 -167772673
            -122969841 1625792365 -96478725 -697303057</internalNodes>
          <leafValues>
            -3.1915575265884399e-01 3.5778090357780457e-01</leafValues></_>
        <_>
          <internalNodes>
            0 -1 30 2012717911 1060173648 -104804003 -724460 -47497872
            -1079312399 -369232148 -1672216304</internalNodes>
          <leafValues>
            -3.8545885682106018e-01 2.9060032963752747e-01</leafValues></_>
        <_>
          <internalNodes>
            0 -1 205 -1060142073 -1093751957 -286591139 -779764129
            -875938467 -13959429 -109352374 1900146555</internalNodes>
          <leafValues>
            -3.1110453605651855e-01 3.5653051733970642e-01</leafValues></_>
        <_>
          <internalNodes>
            0 -1 189 -5263712 2032724388 1433147184 -46554564 774384208
            444605096 1734137694 1595929595</internalNodes>
          <leafValues>
            -4.4535490870475769e-01 2.3012350499629974e-01</leafValues></_>
        <_>
          <internalNodes>
            0 -1 111 -770313516 1025078047 610271447 1546677972
            1519139854 -751870505 1879128799 722079883</internalNodes>
          <leafValues>
            -4.6563312411308289e-01 2.5428506731987000e-01</leafValues></_>
        <_>
          <internalNodes>
            0 -1 34 -277994322 -146828437 101318702 50755326 -357576209
            -10820037 -1013991186 -821312801</internalNodes>
          <leafValues>
            -6.4368629455566406e-01 1.2857510149478912e-01</leafValues></_>
        <_>
          <internalNodes>
            0 -1 72 -799018785 -93885701 -1099632699 268561904
            -390116741 -1157629057 -1696858163 -15204426</internalNodes>
          <leafValues>
            -3.1073161959648132e-01 3.8116285204887390e-01</leafValues></_>
        <_>
          <internalNodes>
            0 -1 79 196611 -85239425 -1614826693 -266199107 -1887709153
            1445612919 -626925865 -478171394</internalNodes>
          <leafValues>
            -3.2302841544151306e-01 3.6248981952667236e-01</leafValues></_>
        <_>
          <internalNodes>
            0 -1 97 32482696 -5840911 -740889056 -71305285 -1266881068
            1057584 565642633 1193722540</internalNodes>
          <leafValues>
            -5.2963322401046753e-01 2.4418731033802032e-01</leafValues></_>
        <_>
          <internalNodes>
            0 -1 112 1476229897 830487946 27987331 -1812350999
            1034287547 -1075052553 -403834957 -67505263</internalNodes>
          <leafValues>
            -3.2462891936302185e-01 3.8270023465156555e-01</leafValues></_>
        <_>
          <internalNodes>
            0 -1 207 205980981 -680690833 1308459007 1873964022
            1417615231 -554360907 -67226113 -98040992</internalNodes>
          <leafValues>
            -3.4204405546188354e-01 3.5288935899734497e-01</leafValues></_>
        <_>
          <internalNodes>
            0 -1 85 -101714977 -651772977 -677048118 -782389157
            -611321428 151077888 -1288831797 -28257</internalNodes>
          <leafValues>
            -2.5600951910018921e-01 4.9791088700294495e-01</leafValues></_>
        <_>
          <internalNodes>
            0 -1 164 134348817 -779914249 -844294689 -107109963
            -1912600167 -4480426 -1549408455 -75377641</internalNodes>
          <leafValues>
            -3.7319406867027283e-01 3.3866330981254578e-01</leafValues></_>
        <_>
          <internalNodes>
            0 -1 0 -1899560977 -1366900092 -208323433 -1082529960
            1118067117 8981121 -753341739 42780901</internalNodes>
          <leafValues>
            -5.3935420513153076e-01 2.4071772396564484e-01</leafValues></_></weakClassifiers></_>
    <!-- stage 18 -->
    <_>
      <maxWeakCount>15</maxWeakCount>
      <stageThreshold>-1.5341918468475342e+00</stageThreshold>
      <weakClassifiers>
        <_>
          <internalNodes>
            0 -1 145 -1684316193 -543621430 521756639 -304129 -572788257
            -582812196 1869471487 -10519298</internalNodes>
          <leafValues>
            -4.2077261209487915e-01 2.4989907443523407e-01</leafValues></_>
        <_>
          <internalNodes>
            0 -1 47 -537985169 -144564064 -126391073 -5852454 -203439617
            -134924235 857691647 1864340627</internalNodes>
          <leafValues>
            -3.3692112565040588e-01 3.1531009078025818e-01</leafValues></_>
        <_>
          <internalNodes>
            0 -1 201 -520106865 -1187057 -1371911285 -1129517265
            -33566769 -1094877190 -53096609 -326959188</internalNodes>
          <leafValues>
            -3.1670093536376953e-01 3.3787664771080017e-01</leafValues></_>
        <_>
          <internalNodes>
            0 -1 121 -269488342 -143458305 1676660045 -277611541
            1081593759 -805281803 163553503 -74066753</internalNodes>
          <leafValues>
            -2.9810148477554321e-01 3.6102822422981262e-01</leafValues></_>
        <_>
          <internalNodes>
            0 -1 152 -2103468015 -1954677793 -1624256673 -1822039427
            -285236644 -1975652993 -738856708 -1038105093</internalNodes>
          <leafValues>
            -2.5980508327484131e-01 4.0589797496795654e-01</leafValues></_>
        <_>
          <internalNodes>
            0 -1 142 -238033981 -749253165 -988860085 -715690009
            -1860215841 -1073608293 -1055927971 -1008731922</internalNodes>
          <leafValues>
            -2.9568806290626526e-01 4.1492304205894470e-01</leafValues></_>
        <_>
          <internalNodes>
            0 -1 11 686784463 805322740 -302556413 -1795164282
            -1535284393 -1468283989 -370312170 136377969</internalNodes>
          <leafValues>
            -5.8754086494445801e-01 1.8742200732231140e-01</leafValues></_>
        <_>
          <internalNodes>
            0 -1 130 -89474854 -170782040 1944588541 968950009
            -1830846233 467796187 1979623586 1257171624</internalNodes>
          <leafValues>
            -4.7375327348709106e-01 2.4922548234462738e-01</leafValues></_>
        <_>
          <internalNodes>
            0 -1 77 5186867 -959460547 -1880158881 -1012046209
            -1266696449 -413178076 -967614601 -227549383</internalNodes>
          <leafValues>
            -2.9994127154350281e-01 3.9196380972862244e-01</leafValues></_>
        <_>
          <internalNodes>
            0 -1 150 -160435188 -1877936309 1045661447 824022147
            2140634638 148961022 648019466 135393051</internalNodes>
          <leafValues>
            -5.6270837783813477e-01 2.1259884536266327e-01</leafValues></_>
        <_>
          <internalNodes>
            0 -1 84 -283393529 -556797177 -348202558 -542115990
            -159914073 1206276239 -1033899575 -143297027</internalNodes>
          <leafValues>
            -3.6125737428665161e-01 3.2894507050514221e-01</leafValues></_>
        <_>
          <internalNodes>
            0 -1 140 405000786 -1849556154 -802025103 -549239941
            -1246906597 -1987199282 -397672483 -1721769515</internalNodes>
          <leafValues>
            -3.5561433434486389e-01 3.2243156433105469e-01</leafValues></_>
        <_>
          <internalNodes>
            0 -1 167 1107531011 -227925597 -1017380865 -544352381
            59679727 -1432115259 69718987 58868096</internalNodes>
          <leafValues>
            -4.1345399618148804e-01 2.8574767708778381e-01</leafValues></_>
        <_>
          <internalNodes>
            0 -1 45 -1840753414 -619129808 -602513955 1564545885
            -163038744 1039172736 1283586237 1503199548</internalNodes>
          <leafValues>
            -4.9331343173980713e-01 2.4616634845733643e-01</leafValues></_>
        <_>
          <internalNodes>
            0 -1 89 -765494049 1433435903 -761332129 2071555935
            -1516305014 -451607479 -1757939209 -583166723</internalNodes>
          <leafValues>
            -3.1591635942459106e-01 4.1040536761283875e-01</leafValues></_></weakClassifiers></_>
    <!-- stage 19 -->
    <_>
      <maxWeakCount>18</maxWeakCount>
      <stageThreshold>-1.5095723867416382e+00</stageThreshold>
      <weakClassifiers>
        <_>
          <internalNodes>
            0 -1 7 -1 -16712270 -189023297 -33761296 2104218613
            -89539901 -41440322 -1191641374</internalNodes>
          <leafValues>
            -4.1536337137222290e-01 2.4714519083499908e-01</leafValues></_>
        <_>
          <internalNodes>
            0 -1 209 204669971 1609524269 -576192557 -637537514
            1607986687 -71713538 -337666609 -1073029394</internalNodes>
          <leafValues>
            -3.0964335799217224e-01 3.3430296182632446e-01</leafValues></_>
        <_>
          <internalNodes>
            0 -1 123 968169431 -7841046 1066485759 -1179948042
            -1616983921 -6861750 -1081017345 1594870490</internalNodes>
          <leafValues>
            -3.9550572633743286e-01 2.6052740216255188e-01</leafValues></_>
        <_>
          <internalNodes>
            0 -1 162 -555035904 -234723838 -881818856 1394283291
            -1903304312 -565641120 -964038209 1393545919</internalNodes>
          <leafValues>
            -4.7258710861206055e-01 2.1939910948276520e-01</leafValues></_>
        <_>
          <internalNodes>
            0 -1 63 1793541152 -1028723281 -185496442 -337466630
            -268470200 1449221415 -1057076213 1081572223</internalNodes>
          <leafValues>
            -5.8556592464447021e-01 1.8651521205902100e-01</leafValues></_>
        <_>
          <internalNodes>
            0 -1 211 -1363269321 -149280805 -600690915 -1376244840
            1919560575 -67276963 2147101373 -4207512</internalNodes>
          <leafValues>
            -3.1504121422767639e-01 3.5198184847831726e-01</leafValues></_>
        <_>
          <internalNodes>
            0 -1 186 -349177189 -1072978781 -956111838 1075302915
            -1073698325 1494775331 -1044307765 -347360581</internalNodes>
          <leafValues>
            -2.8732264041900635e-01 3.9476609230041504e-01</leafValues></_>
        <_>
          <internalNodes>
            0 -1 139 -1397985044 -712208342 27529412 -135768577
            -319883290 1542062856 -1124148229 -1241845313</internalNodes>
          <leafValues>
            -5.3572249412536621e-01 2.2723209857940674e-01</leafValues></_>
        <_>
          <internalNodes>
            0 -1 52 -902837621 1875728522 -674767457 -58722975
            -1350571194 -838925153 -903350153 -881337601</internalNodes>
          <leafValues>
            -3.3962586522102356e-01 3.4271031618118286e-01</leafValues></_>
        <_>
          <internalNodes>
            0 -1 100 -400523264 -406733260 -1624516231 359858432
            -22445624 1362235473 1624151177 1368424586</internalNodes>
          <leafValues>
            -5.7146441936492920e-01 2.1263346076011658e-01</leafValues></_>
        <_>
          <internalNodes>
            0 -1 23 67340607 419330993 -147141861 2133063639 619844573
            -56140897 -655089741 -1435601756</internalNodes>
          <leafValues>
            -3.4840103983879089e-01 3.4079784154891968e-01</leafValues></_>
        <_>
          <internalNodes>
            0 -1 73 681657544 -76458916 -1870091364 -16471787
            -1120474488 -815952250 1043737563 1594970951</internalNodes>
          <leafValues>
            -5.9880751371383667e-01 1.8720594048500061e-01</leafValues></_>
        <_>
          <internalNodes>
            0 -1 146 -669016062 -2143034874 -1770459087 -1828220926
            -194899518 310808968 -605672221 1376776978</internalNodes>
          <leafValues>
            -5.3166162967681885e-01 2.0815373957157135e-01</leafValues></_>
        <_>
          <internalNodes>
            0 -1 115 -67372129 -1282884725 188416011 -1149109411
            1652732799 57017775 -2033992758 -1647754</internalNodes>
          <leafValues>
            -2.6939600706100464e-01 4.3311494588851929e-01</leafValues></_>
        <_>
          <internalNodes>
            0 -1 18 788144725 -19514211 778706159 -1204649252 1776018171
            1913146161 -53678866 -176359825</internalNodes>
          <leafValues>
            -4.0447241067886353e-01 2.9710114002227783e-01</leafValues></_>
        <_>
          <internalNodes>
            0 -1 185 -1406982125 -580912305 -549530863 2004070829
            1731717023 534119119 -167803497 -269493509</internalNodes>
          <leafValues>
            -2.7004200220108032e-01 4.5104557275772095e-01</leafValues></_>
        <_>
          <internalNodes>
            0 -1 78 -212108321 -9225 494941971 1367703535 -221263366
            -666299119 1071098506 -1048609</internalNodes>
          <leafValues>
            -1.9897505640983582e-01 5.5953562259674072e-01</leafValues></_>
        <_>
          <internalNodes>
            0 -1 208 -1028849647 -708903654 483219699 -612645069
            -117711949 -1157677634 796344201 -681413750</internalNodes>
          <leafValues>
            -3.1335663795471191e-01 3.7606829404830933e-01</leafValues></_></weakClassifiers></_></stages>
  <features>
    <_>
      <rect>
        0 0 6 3</rect></_>
    <_>
      <rect>
        0 6 6 1</rect></_>
    <_>
      <rect>
        1 0 11 5</rect></_>
    <_>
      <rect>
        1 2 5 2</rect></_>
    <_>
      <rect>
        1 3 3 2</rect></_>
    <_>
      <rect>
        1 5 4 3</rect></_>
    <_>
      <rect>
        1 6 5 4</rect></_>
    <_>
      <rect>
        1 7 3 3</rect></_>
    <_>
      <rect>
        1 9 3 3</rect></_>
    <_>
      <rect>
        2 0 10 5</rect></_>
    <_>
      <rect>
        2 2 3 3</rect></_>
    <_>
      <rect>
        2 3 3 4</rect></_>
    <_>
      <rect>
        2 4 7 2</rect></_>
    <_>
      <rect>
        2 6 3 2</rect></_>
    <_>
      <rect>
        2 6 12 4</rect></_>
    <_>
      <rect>
        2 7 3 3</rect></_>
    <_>
      <rect>
        2 7 6 1</rect></_>
    <_>
      <rect>
        2 8 6 1</rect></_>
    <_>
      <rect>
        2 11 5 2</rect></_>
    <_>
      <rect>
        3 1 4 2</rect></_>
    <_>
      <rect>
        3 1 10 5</rect></_>
    <_>
      <rect>
        3 4 3 3</rect></_>
    <_>
      <rect>
        3 9 3 3</rect></_>
    <_>
      <rect>
        4 0 3 2</rect></_>
    <_>
      <rect>
        4 4 10 4</rect></_>
    <_>
      <rect>
        4 5 3 3</rect></_>
    <_>
      <rect>
        4 5 5 2</rect></_>
    <_>
      <rect>
        4 8 2 2</rect></_>
    <_>
      <rect>
        4 8 2 3</rect></_>
    <_>
      <rect>
        4 8 6 2</rect></_>
    <_>
      <rect>
        4 9 2 3</rect></_>
    <_>
      <rect>
        5 0 5 4</rect></_>
    <_>
      <rect>
        5 2 9 4</rect></_>
    <_>
      <rect>
        5 5 5 1</rect></_>
    <_>
      <rect>
        5 5 5 3</rect></_>
    <_>
      <rect>
        5 6 5 1</rect></_>
    <_>
      <rect>
        5 9 3 2</rect></_>
    <_>
      <rect>
        6 3 4 2</rect></_>
    <_>
      <rect>
        6 3 9 5</rect></_>
    <_>
      <rect>
        6 5 2 2</rect></_>
    <_>
      <rect>
        6 8 2 2</rect></_>
    <_>
      <rect>
        7 0 3 2</rect></_>
    <_>
      <rect>
        7 3 2 2</rect></_>
    <_>
      <rect>
        7 4 2 3</rect></_>
    <_>
      <rect>
        7 4 2 4</rect></_>
    <_>
      <rect>
        7 5 7 3</rect></_>
    <_>
      <rect>
        7 7 6 1</rect></_>
    <_>
      <rect>
        7 8 4 1</rect></_>
    <_>
      <rect>
        7 8 7 1</rect></_>
    <_>
      <rect>
        8 3 2 4</rect></_>
    <_>
      <rect>
        8 4 1 2</rect></_>
    <_>
      <rect>
        8 4 2 1</rect></_>
    <_>
      <rect>
        8 5 1 2</rect></_>
    <_>
      <rect>
        8 6 5 1</rect></_>
    <_>
      <rect>
        8 7 3 1</rect></_>
    <_>
      <rect>
        8 7 4 1</rect></_>
    <_>
      <rect>
        8 7 5 1</rect></_>
    <_>
      <rect>
        8 10 2 2</rect></_>
    <_>
      <rect>
        9 0 9 6</rect></_>
    <_>
      <rect>
        9 4 5 2</rect></_>
    <_>
      <rect>
        9 5 8 4</rect></_>
    <_>
      <rect>
        9 6 5 1</rect></_>
    <_>
      <rect>
        10 3 2 1</rect></_>
    <_>
      <rect>
        10 5 2 1</rect></_>
    <_>
      <rect>
        10 6 6 2</rect></_>
    <_>
      <rect>
        10 8 9 1</rect></_>
    <_>
      <rect>
        11 1 7 5</rect></_>
    <_>
      <rect>
        11 3 2 1</rect></_>
    <_>
      <rect>
        11 3 7 3</rect></_>
    <_>
      <rect>
        11 4 2 1</rect></_>
    <_>
      <rect>
        11 4 7 3</rect></_>
    <_>
      <rect>
        11 5 2 2</rect></_>
    <_>
      <rect>
        11 6 8 3</rect></_>
    <_>
      <rect>
        11 7 4 1</rect></_>
    <_>
      <rect>
        11 8 9 1</rect></_>
    <_>
      <rect>
        11 9 5 1</rect></_>
    <_>
      <rect>
        12 3 2 1</rect></_>
    <_>
      <rect>
        12 4 1 1</rect></_>
    <_>
      <rect>
        12 4 2 3</rect></_>
    <_>
      <rect>
        12 5 1 1</rect></_>
    <_>
      <rect>
        12 5 2 1</rect></_>
    <_>
      <rect>
        12 5 6 2</rect></_>
    <_>
      <rect>
        12 6 3 1</rect></_>
    <_>
      <rect>
        12 6 4 1</rect></_>
    <_>
      <rect>
        13 3 2 1</rect></_>
    <_>
      <rect>
        13 3 2 4</rect></_>
    <_>
      <rect>
        13 4 1 3</rect></_>
    <_>
      <rect>
        13 4 2 1</rect></_>
    <_>
      <rect>
        13 6 2 1</rect></_>
    <_>
      <rect>
        13 6 3 1</rect></_>
    <_>
      <rect>
        13 6 7 1</rect></_>
    <_>
      <rect>
        13 7 3 1</rect></_>
    <_>
      <rect>
        13 7 4 1</rect></_>
    <_>
      <rect>
        13 7 7 2</rect></_>
    <_>
      <rect>
        13 8 1 2</rect></_>
    <_>
      <rect>
        13 8 3 1</rect></_>
    <_>
      <rect>
        13 8 4 1</rect></_>
    <_>
      <rect>
        14 2 2 2</rect></_>
    <_>
      <rect>
        14 3 2 3</rect></_>
    <_>
      <rect>
        14 3 2 5</rect></_>
    <_>
      <rect>
        14 4 1 2</rect></_>
    <_>
      <rect>
        14 4 1 3</rect></_>
    <_>
      <rect>
        14 4 4 3</rect></_>
    <_>
      <rect>
        14 4 5 3</rect></_>
    <_>
      <rect>
        14 5 1 3</rect></_>
    <_>
      <rect>
        14 5 6 4</rect></_>
    <_>
      <rect>
        14 6 3 2</rect></_>
    <_>
      <rect>
        14 6 6 3</rect></_>
    <_>
      <rect>
        14 7 3 1</rect></_>
    <_>
      <rect>
        14 7 5 1</rect></_>
    <_>
      <rect>
        14 8 5 1</rect></_>
    <_>
      <rect>
        14 9 4 1</rect></_>
    <_>
      <rect>
        14 12 8 2</rect></_>
    <_>
      <rect>
        15 2 2 4</rect></_>
    <_>
      <rect>
        15 3 2 2</rect></_>
    <_>
      <rect>
        15 3 2 3</rect></_>
    <_>
      <rect>
        15 4 1 2</rect></_>
    <_>
      <rect>
        15 4 1 3</rect></_>
    <_>
      <rect>
        15 4 2 1</rect></_>
    <_>
      <rect>
        15 4 2 3</rect></_>
    <_>
      <rect>
        15 5 1 3</rect></_>
    <_>
      <rect>
        15 5 2 1</rect></_>
    <_>
      <rect>
        15 6 2 1</rect></_>
    <_>
      <rect>
        15 7 3 1</rect></_>
    <_>
      <rect>
        15 8 1 1</rect></_>
    <_>
      <rect>
        15 8 3 1</rect></_>
    <_>
      <rect>
        15 8 4 1</rect></_>
    <_>
      <rect>
        16 1 2 2</rect></_>
    <_>
      <rect>
        16 3 1 2</rect></_>
    <_>
      <rect>
        16 3 2 2</rect></_>
    <_>
      <rect>
        16 4 1 2</rect></_>
    <_>
      <rect>
        16 4 1 3</rect></_>
    <_>
      <rect>
        16 4 2 3</rect></_>
    <_>
      <rect>
        16 5 1 1</rect></_>
    <_>
      <rect>
        16 5 1 2</rect></_>
    <_>
      <rect>
        16 5 1 3</rect></_>
    <_>
      <rect>
        16 5 2 1</rect></_>
    <_>
      <rect>
        16 6 2 2</rect></_>
    <_>
      <rect>
        16 6 3 1</rect></_>
    <_>
      <rect>
        16 6 3 2</rect></_>
    <_>
      <rect>
        16 6 4 1</rect></_>
    <_>
      <rect>
        16 6 6 4</rect></_>
    <_>
      <rect>
        16 7 1 2</rect></_>
    <_>
      <rect>
        16 7 1 3</rect></_>
    <_>
      <rect>
        16 7 2 1</rect></_>
    <_>
      <rect>
        16 7 3 1</rect></_>
    <_>
      <rect>
        16 8 1 2</rect></_>
    <_>
      <rect>
        16 8 2 1</rect></_>
    <_>
      <rect>
        16 8 3 1</rect></_>
    <_>
      <rect>
        16 9 6 1</rect></_>
    <_>
      <rect>
        16 9 7 1</rect></_>
    <_>
      <rect>
        16 10 1 1</rect></_>
    <_>
      <rect>
        17 1 1 2</rect></_>
    <_>
      <rect>
        17 2 2 4</rect></_>
    <_>
      <rect>
        17 3 2 2</rect></_>
    <_>
      <rect>
        17 4 1 3</rect></_>
    <_>
      <rect>
        17 4 2 1</rect></_>
    <_>
      <rect>
        17 5 2 1</rect></_>
    <_>
      <rect>
        17 6 1 1</rect></_>
    <_>
      <rect>
        17 6 2 1</rect></_>
    <_>
      <rect>
        17 7 1 1</rect></_>
    <_>
      <rect>
        17 7 1 2</rect></_>
    <_>
      <rect>
        17 7 1 3</rect></_>
    <_>
      <rect>
        17 7 2 1</rect></_>
    <_>
      <rect>
        17 8 1 1</rect></_>
    <_>
      <rect>
        17 8 2 1</rect></_>
    <_>
      <rect>
        17 11 1 2</rect></_>
    <_>
      <rect>
        18 0 2 2</rect></_>
    <_>
      <rect>
        18 2 1 4</rect></_>
    <_>
      <rect>
        18 4 1 1</rect></_>
    <_>
      <rect>
        18 4 1 3</rect></_>
    <_>
      <rect>
        18 4 2 3</rect></_>
    <_>
      <rect>
        18 6 1 1</rect></_>
    <_>
      <rect>
        18 6 1 2</rect></_>
    <_>
      <rect>
        18 7 1 1</rect></_>
    <_>
      <rect>
        18 9 1 2</rect></_>
    <_>
      <rect>
        19 0 6 4</rect></_>
    <_>
      <rect>
        19 1 1 2</rect></_>
    <_>
      <rect>
        19 3 1 3</rect></_>
    <_>
      <rect>
        19 4 1 3</rect></_>
    <_>
      <rect>
        19 8 1 1</rect></_>
    <_>
      <rect>
        19 8 1 2</rect></_>
    <_>
      <rect>
        19 9 1 2</rect></_>
    <_>
      <rect>
        20 3 1 4</rect></_>
    <_>
      <rect>
        20 4 1 3</rect></_>
    <_>
      <rect>
        20 5 1 1</rect></_>
    <_>
      <rect>
        20 5 1 3</rect></_>
    <_>
      <rect>
        20 5 5 2</rect></_>
    <_>
      <rect>
        20 9 1 2</rect></_>
    <_>
      <rect>
        20 9 1 3</rect></_>
    <_>
      <rect>
        21 4 1 3</rect></_>
    <_>
      <rect>
        21 4 4 4</rect></_>
    <_>
      <rect>
        21 5 1 2</rect></_>
    <_>
      <rect>
        21 5 5 4</rect></_>
    <_>
      <rect>
        21 6 1 2</rect></_>
    <_>
      <rect>
        21 9 1 1</rect></_>
    <_>
      <rect>
        22 0 4 4</rect></_>
    <_>
      <rect>
        22 3 4 5</rect></_>
    <_>
      <rect>
        23 0 3 3</rect></_>
    <_>
      <rect>
        23 0 4 5</rect></_>
    <_>
      <rect>
        23 3 5 5</rect></_>
    <_>
      <rect>
        23 5 4 3</rect></_>
    <_>
      <rect>
        23 8 2 2</rect></_>
    <_>
      <rect>
        23 8 5 3</rect></_>
    <_>
      <rect>
        24 2 3 4</rect></_>
    <_>
      <rect>
        24 4 2 3</rect></_>
    <_>
      <rect>
        25 4 2 2</rect></_>
    <_>
      <rect>
        26 0 3 3</rect></_>
    <_>
      <rect>
        26 3 2 2</rect></_>
    <_>
      <rect>
        26 5 1 2</rect></_>
    <_>
      <rect>
        26 8 2 3</rect></_>
    <_>
      <rect>
        27 8 2 3</rect></_>
    <_>
      <rect>
        28 6 2 4</rect></_>
    <_>
      <rect>
        28 7 2 2</rect></_>
    <_>
      <rect>
        29 10 2 2</rect></_></features></cascade>
</opencv_storage>
