<?xml version="1.0"?>
<opencv_storage>
<cascade>
  <stageType>BOOST</stageType>
  <featureType>LBP</featureType>
  <height>18</height>
  <width>38</width>
  <stageParams>
    <boostType>GAB</boostType>
    <minHitRate>9.9900001287460327e-01</minHitRate>
    <maxFalseAlarm>5.0000000000000000e-01</maxFalseAlarm>
    <weightTrimRate>9.4999999999999996e-01</weightTrimRate>
    <maxDepth>1</maxDepth>
    <maxWeakCount>100</maxWeakCount></stageParams>
  <featureParams>
    <maxCatCount>256</maxCatCount>
    <featSize>1</featSize></featureParams>
  <stageNum>12</stageNum>
  <stages>
    <!-- stage 0 -->
    <_>
      <maxWeakCount>3</maxWeakCount>
      <stageThreshold>-8.8168191909790039e-01</stageThreshold>
      <weakClassifiers>
        <_>
          <internalNodes>
            0 -1 44 -783761280 -149913600 66747 -750317245 -2134849400
            -544497661 -2134340949 -2360081</internalNodes>
          <leafValues>
            -8.2787650823593140e-01 7.1644610166549683e-01</leafValues></_>
        <_>
          <internalNodes>
            0 -1 9 37404927 134513904 102749 453838129 -1931765249
            -1970789736 -1735671585 -3153921</internalNodes>
          <leafValues>
            -6.8197399377822876e-01 7.4906247854232788e-01</leafValues></_>
        <_>
          <internalNodes>
            0 -1 12 -917519634 -2136244094 -2011152158 770731 -669349649
            -914128805 -766666245 -959452433</internalNodes>
          <leafValues>
            -8.0286788940429688e-01 6.4571726322174072e-01</leafValues></_></weakClassifiers></_>
    <!-- stage 1 -->
    <_>
      <maxWeakCount>4</maxWeakCount>
      <stageThreshold>-1.3215715885162354e+00</stageThreshold>
      <weakClassifiers>
        <_>
          <internalNodes>
            0 -1 45 -669986600 -582680440 1342193745 1364529233
            -1736408952 -1734868854 -1845388661 -74743601</internalNodes>
          <leafValues>
            -7.8937727212905884e-01 7.1014493703842163e-01</leafValues></_>
        <_>
          <internalNodes>
            0 -1 56 -238819126 -788426622 -2077336478 1363395153
            1396875306 286486866 1078649578 -150215749</internalNodes>
          <leafValues>
            -6.8147361278533936e-01 7.1654087305068970e-01</leafValues></_>
        <_>
          <internalNodes>
            0 -1 34 -252739446 -754728830 -1069486023 1360524155
            277201034 67158336 1073791530 -749734689</internalNodes>
          <leafValues>
            -6.0653251409530640e-01 7.5731670856475830e-01</leafValues></_>
        <_>
          <internalNodes>
            0 -1 62 -766786934 1401631906 272908483 425838599 155288266
            1141036234 1413597405 -616571397</internalNodes>
          <leafValues>
            -6.0729485750198364e-01 7.5581181049346924e-01</leafValues></_></weakClassifiers></_>
    <!-- stage 2 -->
    <_>
      <maxWeakCount>5</maxWeakCount>
      <stageThreshold>-1.0113888978958130e+00</stageThreshold>
      <weakClassifiers>
        <_>
          <internalNodes>
            0 -1 29 -623382310 -245694453 -1873641319 1998260339
            -1878949240 -2013261824 1073859259 521863643</internalNodes>
          <leafValues>
            -7.5196850299835205e-01 5.7335734367370605e-01</leafValues></_>
        <_>
          <internalNodes>
            0 -1 1 -355554561 -836726650 1217692287 -659678981
            -393312005 -863076198 -1071449109 -825236801</internalNodes>
          <leafValues>
            -7.2388190031051636e-01 5.8072823286056519e-01</leafValues></_>
        <_>
          <internalNodes>
            0 -1 26 -95895440 2109870272 541147221 -107413295 -930445142
            -1970667392 -1039105301 -1146592625</internalNodes>
          <leafValues>
            -7.8110694885253906e-01 5.1381790637969971e-01</leafValues></_>
        <_>
          <internalNodes>
            0 -1 10 -10042706 -1761086 1073741836 1258505939 -1195120453
            -1056929661 1245939887 -542381173</internalNodes>
          <leafValues>
            -6.6325557231903076e-01 6.2016457319259644e-01</leafValues></_>
        <_>
          <internalNodes>
            0 -1 28 -787758966 -754819000 3196160 1426440578 -1064648566
            1216479232 1342214538 -955260925</internalNodes>
          <leafValues>
            -6.6447085142135620e-01 6.2540388107299805e-01</leafValues></_></weakClassifiers></_>
    <!-- stage 3 -->
    <_>
      <maxWeakCount>5</maxWeakCount>
      <stageThreshold>-8.2531273365020752e-01</stageThreshold>
      <weakClassifiers>
        <_>
          <internalNodes>
            0 -1 6 -353375521 -905838462 -1065184231 78307458
            -1937515009 -398229494 -1903466485 -1932529441</internalNodes>
          <leafValues>
            -7.3668342828750610e-01 5.3533565998077393e-01</leafValues></_>
        <_>
          <internalNodes>
            0 -1 53 -1065098622 -1065253502 1074413825 -721186805
            -1073569654 -2113928830 1074193547 -741352821</internalNodes>
          <leafValues>
            -6.4887750148773193e-01 6.2006980180740356e-01</leafValues></_>
        <_>
          <internalNodes>
            0 -1 18 -354170674 -1012151646 -362094431 -802968568
            -671170320 56450520 1986549215 -87297073</internalNodes>
          <leafValues>
            -5.8433538675308228e-01 6.4991772174835205e-01</leafValues></_>
        <_>
          <internalNodes>
            0 -1 61 -792206710 -1874787836 25273344 1371570186 167955114
            -2147483456 1073807506 -7875893</internalNodes>
          <leafValues>
            -6.2940013408660889e-01 6.1107027530670166e-01</leafValues></_>
        <_>
          <internalNodes>
            0 -1 30 -547831592 -615399424 16777499 -553481469 -888688504
            -937917814 -1596601861 -751844181</internalNodes>
          <leafValues>
            -7.0073980093002319e-01 5.7359182834625244e-01</leafValues></_></weakClassifiers></_>
    <!-- stage 4 -->
    <_>
      <maxWeakCount>6</maxWeakCount>
      <stageThreshold>-1.5955994129180908e+00</stageThreshold>
      <weakClassifiers>
        <_>
          <internalNodes>
            0 -1 43 832771551 -577301359 159472095 1561548767
            -1708484405 -1148518008 1057618427 1061138367</internalNodes>
          <leafValues>
            -6.6351604461669922e-01 5.3788590431213379e-01</leafValues></_>
        <_>
          <internalNodes>
            0 -1 22 495640575 445155456 423186879 529223717 329749503
            163135505 1292921342 466600122</internalNodes>
          <leafValues>
            -6.9493520259857178e-01 4.6757864952087402e-01</leafValues></_>
        <_>
          <internalNodes>
            0 -1 52 -121057044 -707440192 285753352 1360910557
            -611655442 -2104762278 -1685920792 -67114001</internalNodes>
          <leafValues>
            -7.3476803302764893e-01 4.3404233455657959e-01</leafValues></_>
        <_>
          <internalNodes>
            0 -1 4 1626790143 -163281778 -2145084721 146993536
            -2079551746 -894958334 -70673169 -829764610</internalNodes>
          <leafValues>
            -6.7943942546844482e-01 4.8343878984451294e-01</leafValues></_>
        <_>
          <internalNodes>
            0 -1 49 -209456373 1345059498 1901395898 1202188898
            1359131051 319020459 1430637707 -1008999245</internalNodes>
          <leafValues>
            -5.1756125688552856e-01 7.0025676488876343e-01</leafValues></_>
        <_>
          <internalNodes>
            0 -1 31 453022172 1527971928 353411007 2101149909
            -2004833313 -429913447 407476987 466176130</internalNodes>
          <leafValues>
            -6.3955664634704590e-01 5.3210675716400146e-01</leafValues></_></weakClassifiers></_>
    <!-- stage 5 -->
    <_>
      <maxWeakCount>5</maxWeakCount>
      <stageThreshold>-9.3098682165145874e-01</stageThreshold>
      <weakClassifiers>
        <_>
          <internalNodes>
            0 -1 0 -457006865 -729150383 1050879 944372317 -1427575809
            -1937223253 -402080769 -827737349</internalNodes>
          <leafValues>
            -6.6733068227767944e-01 4.8352625966072083e-01</leafValues></_>
        <_>
          <internalNodes>
            0 -1 19 966248592 -116141582 -1743237993 1595670876
            939563256 -1084218119 780712411 1063860473</internalNodes>
          <leafValues>
            -7.1757578849792480e-01 4.7918617725372314e-01</leafValues></_>
        <_>
          <internalNodes>
            0 -1 59 2025026527 2001805174 293673433 2107065055
            -208793458 -1741356863 -1576359201 -1078261174</internalNodes>
          <leafValues>
            -5.6438040733337402e-01 5.7300013303756714e-01</leafValues></_>
        <_>
          <internalNodes>
            0 -1 63 -230448510 -266083702 1346371655 1393893383
            -1878999032 1342382082 1351524518 -212865861</internalNodes>
          <leafValues>
            -5.9957540035247803e-01 5.6627720594406128e-01</leafValues></_>
        <_>
          <internalNodes>
            0 -1 8 -833887538 -710441743 740789999 -882671416
            -1744770867 -14053174 -1425945956 -541340522</internalNodes>
          <leafValues>
            -6.7036205530166626e-01 5.2437222003936768e-01</leafValues></_></weakClassifiers></_>
    <!-- stage 6 -->
    <_>
      <maxWeakCount>6</maxWeakCount>
      <stageThreshold>-1.2711300849914551e+00</stageThreshold>
      <weakClassifiers>
        <_>
          <internalNodes>
            0 -1 34 -750263678 285409424 -1073676272 -788414333
            1073971592 -570425344 1073971850 -202383221</internalNodes>
          <leafValues>
            -5.8035713434219360e-01 5.1936447620391846e-01</leafValues></_>
        <_>
          <internalNodes>
            0 -1 13 1539371218 -788004342 318931295 462102670
            -2147479405 -1694281338 436289931 1528760555</internalNodes>
          <leafValues>
            -6.0057502985000610e-01 5.0980800390243530e-01</leafValues></_>
        <_>
          <internalNodes>
            0 -1 50 -502284118 -1329473534 4359171 -2130345854
            1073795203 1258307594 4311210 -74454309</internalNodes>
          <leafValues>
            -6.1400890350341797e-01 5.2044403553009033e-01</leafValues></_>
        <_>
          <internalNodes>
            0 -1 58 -742264070 -750648936 1388395696 -752680815
            142641342 167772290 -1190426214 -552887637</internalNodes>
          <leafValues>
            -5.6605595350265503e-01 5.8546340465545654e-01</leafValues></_>
        <_>
          <internalNodes>
            0 -1 47 -233848822 1362845706 1651310945 -677197055
            -1576337270 -2103431936 40880779 -754462209</internalNodes>
          <leafValues>
            -4.9639695882797241e-01 6.5463918447494507e-01</leafValues></_>
        <_>
          <internalNodes>
            0 -1 37 -20786630 -595322860 294657181 1494421585
            -1744271266 -1206386448 -1174284113 252700906</internalNodes>
          <leafValues>
            -7.4869066476821899e-01 4.7588092088699341e-01</leafValues></_></weakClassifiers></_>
    <!-- stage 7 -->
    <_>
      <maxWeakCount>7</maxWeakCount>
      <stageThreshold>-8.9896970987319946e-01</stageThreshold>
      <weakClassifiers>
        <_>
          <internalNodes>
            0 -1 15 -724047634 -1054627294 -267911142 -737869654
            -766574389 -56625114 -763264805 -118491397</internalNodes>
          <leafValues>
            -6.1904764175415039e-01 4.4414657354354858e-01</leafValues></_>
        <_>
          <internalNodes>
            0 -1 54 -389888506 -546223096 -2113924769 655247428
            -1164719877 -640546549 -1903516705 -272905477</internalNodes>
          <leafValues>
            -6.1395841836929321e-01 4.4918060302734375e-01</leafValues></_>
        <_>
          <internalNodes>
            0 -1 42 -212930310 -754848537 645922963 387668309
            -1957967430 -1973251703 35487927 187666329</internalNodes>
          <leafValues>
            -6.9483196735382080e-01 3.9977243542671204e-01</leafValues></_>
        <_>
          <internalNodes>
            0 -1 40 -750002005 -1878852598 -790509456 428315298
            -983830398 -665796590 -704130368 -81005589</internalNodes>
          <leafValues>
            -4.3413686752319336e-01 6.7679727077484131e-01</leafValues></_>
        <_>
          <internalNodes>
            0 -1 20 1393235930 -143190781 4211272 1394340343 -484386118
            234881024 17011769 2135653263</internalNodes>
          <leafValues>
            -6.1652904748916626e-01 4.6226072311401367e-01</leafValues></_>
        <_>
          <internalNodes>
            0 -1 64 -54808957 -1847083646 414146219 -582877255
            -1086325185 -1978876066 -1631586625 -665849938</internalNodes>
          <leafValues>
            -5.1677387952804565e-01 5.8608460426330566e-01</leafValues></_>
        <_>
          <internalNodes>
            0 -1 65 541787178 1934172291 -1995292363 2098429960
            -1601167185 -896892927 -394032978 -501045685</internalNodes>
          <leafValues>
            -6.2462949752807617e-01 5.1059669256210327e-01</leafValues></_></weakClassifiers></_>
    <!-- stage 8 -->
    <_>
      <maxWeakCount>7</maxWeakCount>
      <stageThreshold>-1.0282511711120605e+00</stageThreshold>
      <weakClassifiers>
        <_>
          <internalNodes>
            0 -1 14 168206986 -519405342 1074287638 -592455390
            -868898069 -1415348213 -426251633 -993015858</internalNodes>
          <leafValues>
            -7.6011157035827637e-01 2.9645389318466187e-01</leafValues></_>
        <_>
          <internalNodes>
            0 -1 55 -259814710 1375911939 -1052129529 -788422086
            -805117918 332038211 285469386 -210775605</internalNodes>
          <leafValues>
            -5.7762819528579712e-01 4.4895079731941223e-01</leafValues></_>
        <_>
          <internalNodes>
            0 -1 17 -28941826 2017600034 -2141142435 797704233 602120361
            -83754976 1395032831 1601126429</internalNodes>
          <leafValues>
            -6.7339420318603516e-01 3.8436552882194519e-01</leafValues></_>
        <_>
          <internalNodes>
            0 -1 60 233082091 1162423971 33567951 363890244 -334575425
            -1149072959 -1876569093 -10622035</internalNodes>
          <leafValues>
            -5.6949985027313232e-01 4.7836691141128540e-01</leafValues></_>
        <_>
          <internalNodes>
            0 -1 38 -129704803 -547770303 286327189 1996820869
            -1406197622 -1164173125 522946955 -1081484289</internalNodes>
          <leafValues>
            -5.1685750484466553e-01 5.5000448226928711e-01</leafValues></_>
        <_>
          <internalNodes>
            0 -1 32 -740313957 -215616544 -1258948123 1092945315
            -716744029 268994643 827228682 -579870513</internalNodes>
          <leafValues>
            -4.3874374032020569e-01 6.5219700336456299e-01</leafValues></_>
        <_>
          <internalNodes>
            0 -1 35 -930921758 -745062390 -1605304255 1641533585
            -2118416160 -1870575604 64868606 2076954699</internalNodes>
          <leafValues>
            -6.2302732467651367e-01 4.9243703484535217e-01</leafValues></_></weakClassifiers></_>
    <!-- stage 9 -->
    <_>
      <maxWeakCount>7</maxWeakCount>
      <stageThreshold>-1.2522554397583008e+00</stageThreshold>
      <weakClassifiers>
        <_>
          <internalNodes>
            0 -1 59 832254355 500517331 59380093 2007978395 -1304616289
            -1280435552 -1316292353 -1148494641</internalNodes>
          <leafValues>
            -6.3066953420639038e-01 3.8051623106002808e-01</leafValues></_>
        <_>
          <internalNodes>
            0 -1 11 -1898975521 -2080338298 -2008333617 -460794113
            -849873922 -376766462 -837836638 -892352288</internalNodes>
          <leafValues>
            -6.3963443040847778e-01 3.8625052571296692e-01</leafValues></_>
        <_>
          <internalNodes>
            0 -1 24 -237283617 -786902945 -778980707 -742788629
            -1794015060 -16414441 -2137395985 389883550</internalNodes>
          <leafValues>
            -5.5412900447845459e-01 4.3244978785514832e-01</leafValues></_>
        <_>
          <internalNodes>
            0 -1 23 -655700643 402706552 324490583 467947607 106843597
            28855358 1221445065 1490412264</internalNodes>
          <leafValues>
            -6.3645011186599731e-01 4.1858550906181335e-01</leafValues></_>
        <_>
          <internalNodes>
            0 -1 2 703919087 494313552 -1056599751 2130822224 -908889862
            -390561224 -614950456 -1204785088</internalNodes>
          <leafValues>
            -5.4206085205078125e-01 4.7560042142868042e-01</leafValues></_>
        <_>
          <internalNodes>
            0 -1 3 -894698289 -2147097914 -1182551937 -972562040
            -508299557 1152568463 -238556490 -995109488</internalNodes>
          <leafValues>
            -7.1316385269165039e-01 3.6140438914299011e-01</leafValues></_>
        <_>
          <internalNodes>
            0 -1 27 -561991560 365953191 33591515 354097940 33562764
            -1944977272 999484575 1829759503</internalNodes>
          <leafValues>
            -5.8894777297973633e-01 4.5501196384429932e-01</leafValues></_></weakClassifiers></_>
    <!-- stage 10 -->
    <_>
      <maxWeakCount>7</maxWeakCount>
      <stageThreshold>-1.5859518051147461e+00</stageThreshold>
      <weakClassifiers>
        <_>
          <internalNodes>
            0 -1 33 -790627073 -795309368 2027945983 293986248
            -537198977 -2437124 -851443777 -5</internalNodes>
          <leafValues>
            -4.6467816829681396e-01 5.4513484239578247e-01</leafValues></_>
        <_>
          <internalNodes>
            0 -1 57 -893128505 -616213183 -545045307 -716733951
            -22551314 -145001261 -359882801 -347342193</internalNodes>
          <leafValues>
            -4.0170323848724365e-01 6.0999542474746704e-01</leafValues></_>
        <_>
          <internalNodes>
            0 -1 51 -552862590 -545009530 1095227520 -46055385
            -804793976 131073 1364324747 1278150543</internalNodes>
          <leafValues>
            -6.2543302774429321e-01 4.0583375096321106e-01</leafValues></_>
        <_>
          <internalNodes>
            0 -1 7 -26481825 2017665230 39617703 -1865241373 916220598
            -21592938 -334002033 -253231713</internalNodes>
          <leafValues>
            -5.6600254774093628e-01 4.6777778863906860e-01</leafValues></_>
        <_>
          <internalNodes>
            0 -1 46 -251087638 -2146205628 -1990106767 1363481600
            -1199324544 -2105359222 -931073045 1192214794</internalNodes>
          <leafValues>
            -6.0541975498199463e-01 4.9644687771797180e-01</leafValues></_>
        <_>
          <internalNodes>
            0 -1 39 -91520894 -1056202350 -1996300136 25190624
            1158535436 298483714 1346470034 -609255378</internalNodes>
          <leafValues>
            -5.6241476535797119e-01 4.9376189708709717e-01</leafValues></_>
        <_>
          <internalNodes>
            0 -1 48 -808906616 -150422400 1249026577 1360228584
            -420749175 -2096935160 -1045912855 -676336801</internalNodes>
          <leafValues>
            -4.7197994589805603e-01 5.6979405879974365e-01</leafValues></_></weakClassifiers></_>
    <!-- stage 11 -->
    <_>
      <maxWeakCount>8</maxWeakCount>
      <stageThreshold>-1.2557622194290161e+00</stageThreshold>
      <weakClassifiers>
        <_>
          <internalNodes>
            0 -1 36 -1817747489 -542943505 423321599 521084878 -78995761
            -619754034 -541065217 -70254625</internalNodes>
          <leafValues>
            -4.3434342741966248e-01 5.1428574323654175e-01</leafValues></_>
        <_>
          <internalNodes>
            0 -1 66 -277737970 -247060045 -1828497401 1532710734
            -96282746 -77626846 1646780359 -81800784</internalNodes>
          <leafValues>
            -5.4281288385391235e-01 4.0196871757507324e-01</leafValues></_>
        <_>
          <internalNodes>
            0 -1 21 -553321775 -543960542 16995931 1573257282 -922468612
            -49276727 151575547 990216842</internalNodes>
          <leafValues>
            -5.5644071102142334e-01 3.9447349309921265e-01</leafValues></_>
        <_>
          <internalNodes>
            0 -1 62 -78910806 302053026 245827 1902371486 -2112625942
            -1072576510 1076445215 -614729989</internalNodes>
          <leafValues>
            -4.8028489947319031e-01 4.8680347204208374e-01</leafValues></_>
        <_>
          <internalNodes>
            0 -1 41 -1059333 -544750139 262867851 1470095231 -209011985
            287425487 -1891701058 -4194433</internalNodes>
          <leafValues>
            -3.3495754003524780e-01 6.7267215251922607e-01</leafValues></_>
        <_>
          <internalNodes>
            0 -1 16 -696130838 -82927484 816031863 -14957117 -1073415694
            -2096942975 290022207 -9221946</internalNodes>
          <leafValues>
            -5.3712898492813110e-01 4.5159220695495605e-01</leafValues></_>
        <_>
          <internalNodes>
            0 -1 25 -127777073 -558742654 -1521772553 -620752702
            1652598020 713897985 -1784624002 -1881163591</internalNodes>
          <leafValues>
            -5.4303568601608276e-01 4.5894885063171387e-01</leafValues></_>
        <_>
          <internalNodes>
            0 -1 5 -454420452 -1975909185 -2144708066 -1439251826
            -1608970018 268568602 -767327749 -20983313</internalNodes>
          <leafValues>
            -7.3008358478546143e-01 3.5759967565536499e-01</leafValues></_></weakClassifiers></_></stages>
  <features>
    <_>
      <rect>
        2 0 11 5</rect></_>
    <_>
      <rect>
        2 2 10 4</rect></_>
    <_>
      <rect>
        2 12 3 2</rect></_>
    <_>
      <rect>
        3 3 4 2</rect></_>
    <_>
      <rect>
        3 6 10 4</rect></_>
    <_>
      <rect>
        3 8 5 3</rect></_>
    <_>
      <rect>
        4 5 3 3</rect></_>
    <_>
      <rect>
        4 9 3 2</rect></_>
    <_>
      <rect>
        5 4 5 2</rect></_>
    <_>
      <rect>
        5 4 9 4</rect></_>
    <_>
      <rect>
        5 5 5 2</rect></_>
    <_>
      <rect>
        6 3 2 3</rect></_>
    <_>
      <rect>
        6 4 3 3</rect></_>
    <_>
      <rect>
        6 9 5 1</rect></_>
    <_>
      <rect>
        7 3 2 3</rect></_>
    <_>
      <rect>
        7 6 2 3</rect></_>
    <_>
      <rect>
        7 6 4 1</rect></_>
    <_>
      <rect>
        7 8 4 1</rect></_>
    <_>
      <rect>
        8 10 1 1</rect></_>
    <_>
      <rect>
        9 7 5 1</rect></_>
    <_>
      <rect>
        10 4 3 3</rect></_>
    <_>
      <rect>
        10 8 3 1</rect></_>
    <_>
      <rect>
        12 5 6 2</rect></_>
    <_>
      <rect>
        12 5 7 2</rect></_>
    <_>
      <rect>
        12 6 4 1</rect></_>
    <_>
      <rect>
        13 2 8 4</rect></_>
    <_>
      <rect>
        13 8 4 1</rect></_>
    <_>
      <rect>
        13 11 4 1</rect></_>
    <_>
      <rect>
        14 3 1 4</rect></_>
    <_>
      <rect>
        14 6 3 1</rect></_>
    <_>
      <rect>
        14 6 3 2</rect></_>
    <_>
      <rect>
        14 7 5 1</rect></_>
    <_>
      <rect>
        15 4 1 3</rect></_>
    <_>
      <rect>
        15 4 5 4</rect></_>
    <_>
      <rect>
        15 5 1 3</rect></_>
    <_>
      <rect>
        15 5 3 1</rect></_>
    <_>
      <rect>
        15 7 3 1</rect></_>
    <_>
      <rect>
        15 7 4 2</rect></_>
    <_>
      <rect>
        15 8 4 1</rect></_>
    <_>
      <rect>
        16 2 1 4</rect></_>
    <_>
      <rect>
        16 4 1 3</rect></_>
    <_>
      <rect>
        16 5 2 2</rect></_>
    <_>
      <rect>
        16 6 3 1</rect></_>
    <_>
      <rect>
        16 7 2 1</rect></_>
    <_>
      <rect>
        16 8 2 1</rect></_>
    <_>
      <rect>
        16 8 3 1</rect></_>
    <_>
      <rect>
        16 9 1 1</rect></_>
    <_>
      <rect>
        16 10 1 1</rect></_>
    <_>
      <rect>
        16 12 1 1</rect></_>
    <_>
      <rect>
        17 2 1 4</rect></_>
    <_>
      <rect>
        17 4 1 3</rect></_>
    <_>
      <rect>
        17 4 2 1</rect></_>
    <_>
      <rect>
        17 6 2 2</rect></_>
    <_>
      <rect>
        17 7 1 2</rect></_>
    <_>
      <rect>
        18 0 6 6</rect></_>
    <_>
      <rect>
        18 2 1 4</rect></_>
    <_>
      <rect>
        18 4 1 3</rect></_>
    <_>
      <rect>
        18 6 1 2</rect></_>
    <_>
      <rect>
        18 6 2 1</rect></_>
    <_>
      <rect>
        18 7 1 1</rect></_>
    <_>
      <rect>
        19 3 5 5</rect></_>
    <_>
      <rect>
        19 4 1 3</rect></_>
    <_>
      <rect>
        20 4 1 3</rect></_>
    <_>
      <rect>
        20 5 1 3</rect></_>
    <_>
      <rect>
        20 6 5 2</rect></_>
    <_>
      <rect>
        21 0 4 3</rect></_>
    <_>
      <rect>
        24 4 4 4</rect></_></features></cascade>
</opencv_storage>
