<?xml version="1.0"?>
<opencv_storage>
<cascade>
  <stageType>BOOST</stageType>
  <featureType>LBP</featureType>
  <height>18</height>
  <width>38</width>
  <stageParams>
    <boostType>GAB</boostType>
    <minHitRate>9.9900001287460327e-01</minHitRate>
    <maxFalseAlarm>5.0000000000000000e-01</maxFalseAlarm>
    <weightTrimRate>9.4999999999999996e-01</weightTrimRate>
    <maxDepth>1</maxDepth>
    <maxWeakCount>100</maxWeakCount></stageParams>
  <featureParams>
    <maxCatCount>256</maxCatCount>
    <featSize>1</featSize></featureParams>
  <stageNum>17</stageNum>
  <stages>
    <!-- stage 0 -->
    <_>
      <maxWeakCount>5</maxWeakCount>
      <stageThreshold>-2.5698516368865967e+00</stageThreshold>
      <weakClassifiers>
        <_>
          <internalNodes>
            0 -1 99 -658456432 -45072384 -1734307367 -36634607
            -2013230936 -105373463 -2000115201 -6561045</internalNodes>
          <leafValues>
            -8.9478564262390137e-01 6.9310986995697021e-01</leafValues></_>
        <_>
          <internalNodes>
            0 -1 110 -239021888 -750680960 276856969 1426182347
            -226301526 -1807171454 -1850742597 -10493953</internalNodes>
          <leafValues>
            -8.2590365409851074e-01 4.7435104846954346e-01</leafValues></_>
        <_>
          <internalNodes>
            0 -1 19 -320409874 -607139698 -1979023122 627280078
            -358503429 -424467029 -811874066 -268439809</internalNodes>
          <leafValues>
            -8.0142366886138916e-01 4.9673566222190857e-01</leafValues></_>
        <_>
          <internalNodes>
            0 -1 76 -259985192 -783265771 1879068699 1599558045
            -1610563399 -1987043149 83953835 154338059</internalNodes>
          <leafValues>
            -7.7018809318542480e-01 5.1458477973937988e-01</leafValues></_>
        <_>
          <internalNodes>
            0 -1 95 -766517214 -788013056 115712 1393020931 -1068646262
            -2130690046 491658 -749739325</internalNodes>
          <leafValues>
            -5.7570999860763550e-01 6.5702599287033081e-01</leafValues></_></weakClassifiers></_>
    <!-- stage 1 -->
    <_>
      <maxWeakCount>5</maxWeakCount>
      <stageThreshold>-1.2971680164337158e+00</stageThreshold>
      <weakClassifiers>
        <_>
          <internalNodes>
            0 -1 80 -665790224 -67612528 1479772415 -8552015 -125794054
            -72832806 -2004834049 -4546817</internalNodes>
          <leafValues>
            -8.2646840810775757e-01 4.8015189170837402e-01</leafValues></_>
        <_>
          <internalNodes>
            0 -1 147 -1069292918 -1073504126 1375874058 1090732098
            -1072504694 114696 1414758538 -212864017</internalNodes>
          <leafValues>
            -6.7260783910751343e-01 5.3588759899139404e-01</leafValues></_>
        <_>
          <internalNodes>
            0 -1 27 -286332178 -657805650 -1465218898 12855454 -5121
            1660941247 -17831169 -1</internalNodes>
          <leafValues>
            -7.5149005651473999e-01 4.7794443368911743e-01</leafValues></_>
        <_>
          <internalNodes>
            0 -1 67 -803374861 -581107687 -785857313 1595883963
            -1811894086 -1408696294 84084927 487522379</internalNodes>
          <leafValues>
            -6.9475066661834717e-01 4.9774393439292908e-01</leafValues></_>
        <_>
          <internalNodes>
            0 -1 131 -2147450880 -772616169 -880768597 -13926175
            -2147442006 -5209878 -2111116326 -74800245</internalNodes>
          <leafValues>
            -7.5284099578857422e-01 4.9558764696121216e-01</leafValues></_></weakClassifiers></_>
    <!-- stage 2 -->
    <_>
      <maxWeakCount>6</maxWeakCount>
      <stageThreshold>-1.6672731637954712e+00</stageThreshold>
      <weakClassifiers>
        <_>
          <internalNodes>
            0 -1 28 -117507329 -657952008 -295732225 -570590949
            -85987329 -393677570 -1049601 -3408129</internalNodes>
          <leafValues>
            -6.8860018253326416e-01 5.7719928026199341e-01</leafValues></_>
        <_>
          <internalNodes>
            0 -1 114 -657669928 -7270192 1963021661 1431392597
            -930576248 -91256693 -288436481 -3188531</internalNodes>
          <leafValues>
            -6.9714975357055664e-01 4.4542863965034485e-01</leafValues></_>
        <_>
          <internalNodes>
            0 -1 30 -143725846 -72826678 8964861 -548666642 -1077292034
            -73692773 -338773509 -3445297</internalNodes>
          <leafValues>
            -5.9656429290771484e-01 4.9432769417762756e-01</leafValues></_>
        <_>
          <internalNodes>
            0 -1 1 -318804225 -391248833 -2007642369 -268981573
            -957350401 -808460869 -285411329 -808649221</internalNodes>
          <leafValues>
            -5.2809894084930420e-01 5.4161179065704346e-01</leafValues></_>
        <_>
          <internalNodes>
            0 -1 78 -1660862256 -8056616 420073723 2136986823
            -1996388192 -1090385750 461630347 522914291</internalNodes>
          <leafValues>
            -6.9751572608947754e-01 4.3774020671844482e-01</leafValues></_>
        <_>
          <internalNodes>
            0 -1 138 -16320264 -620521988 -1759829832 -577013861
            184851128 159451800 -1986807381 -1081140801</internalNodes>
          <leafValues>
            -6.0094994306564331e-01 4.7094509005546570e-01</leafValues></_></weakClassifiers></_>
    <!-- stage 3 -->
    <_>
      <maxWeakCount>6</maxWeakCount>
      <stageThreshold>-1.8691406250000000e+00</stageThreshold>
      <weakClassifiers>
        <_>
          <internalNodes>
            0 -1 105 -216801141 -788283390 1351073920 1359208450
            -804929398 49344 1363787978 -749737813</internalNodes>
          <leafValues>
            -6.7922836542129517e-01 4.0440598130226135e-01</leafValues></_>
        <_>
          <internalNodes>
            0 -1 13 -1059157249 -358077709 1792772863 -1738959141
            -373359361 -1393762565 -357172225 -857735169</internalNodes>
          <leafValues>
            -6.9088065624237061e-01 4.0258669853210449e-01</leafValues></_>
        <_>
          <internalNodes>
            0 -1 20 -213455250 -34943762 1242320524 -16209270
            -1425476660 -2777607 1598341837 -15776785</internalNodes>
          <leafValues>
            -6.8704152107238770e-01 3.8736602663993835e-01</leafValues></_>
        <_>
          <internalNodes>
            0 -1 68 -76498736 -542004096 211 1572801469 -605504310
            -6594904 34093823 -1892784134</internalNodes>
          <leafValues>
            -6.6489285230636597e-01 3.7353581190109253e-01</leafValues></_>
        <_>
          <internalNodes>
            0 -1 111 -1052654862 -777813214 52625459 489904435
            -2138863110 -1987538289 168495353 185568247</internalNodes>
          <leafValues>
            -7.3309743404388428e-01 3.6132124066352844e-01</leafValues></_>
        <_>
          <internalNodes>
            0 -1 18 -829427969 -1597232502 -118239145 -119611653
            -829988099 -1967209777 -489194921 -856694657</internalNodes>
          <leafValues>
            -5.7204169034957886e-01 4.6075618267059326e-01</leafValues></_></weakClassifiers></_>
    <!-- stage 4 -->
    <_>
      <maxWeakCount>8</maxWeakCount>
      <stageThreshold>-1.6258991956710815e+00</stageThreshold>
      <weakClassifiers>
        <_>
          <internalNodes>
            0 -1 95 -171458430 -783818752 1073774592 1396941059
            -1073483638 1073750018 1073971403 -136315937</internalNodes>
          <leafValues>
            -6.9476741552352905e-01 3.0222842097282410e-01</leafValues></_>
        <_>
          <internalNodes>
            0 -1 112 -1685368609 -148946433 1057718271 1595889663
            -1685336694 -1097921400 -1088831493 -1077937921</internalNodes>
          <leafValues>
            -4.9896347522735596e-01 5.2294558286666870e-01</leafValues></_>
        <_>
          <internalNodes>
            0 -1 108 -531635550 -783851501 1073803776 1359438095
            -796662072 1342754832 272732330 -753929557</internalNodes>
          <leafValues>
            -5.3380596637725830e-01 4.7202566266059875e-01</leafValues></_>
        <_>
          <internalNodes>
            0 -1 14 -1427355393 176977118 584637821 177012543 -289736705
            -894897714 -1096032257 -1882193921</internalNodes>
          <leafValues>
            -6.9211399555206299e-01 3.6081802845001221e-01</leafValues></_>
        <_>
          <internalNodes>
            0 -1 137 -754193781 -805208062 -754925437 1090642179
            1073931146 320028674 1074191498 -788274645</internalNodes>
          <leafValues>
            -5.2435863018035889e-01 4.9014610052108765e-01</leafValues></_>
        <_>
          <internalNodes>
            0 -1 89 -644818736 -6690784 -1731650441 -183386927
            -1434400566 -71760693 -1602221893 -354550295</internalNodes>
          <leafValues>
            -6.5074247121810913e-01 3.6895594000816345e-01</leafValues></_>
        <_>
          <internalNodes>
            0 -1 32 -292557138 -972051796 -1744401185 -253233521
            -20323633 -1059601462 -89134369 -108011318</internalNodes>
          <leafValues>
            -4.9646008014678955e-01 5.0143861770629883e-01</leafValues></_>
        <_>
          <internalNodes>
            0 -1 149 -750262134 -788479998 1114114 -783832405 -800961920
            5333120 622666 -582487349</internalNodes>
          <leafValues>
            -5.4551136493682861e-01 4.4861868023872375e-01</leafValues></_></weakClassifiers></_>
    <!-- stage 5 -->
    <_>
      <maxWeakCount>8</maxWeakCount>
      <stageThreshold>-1.4834898710250854e+00</stageThreshold>
      <weakClassifiers>
        <_>
          <internalNodes>
            0 -1 7 -363925761 -12524410 -1896943905 -1881389 -91504641
            -933727 1873149935 -10485857</internalNodes>
          <leafValues>
            -6.0464113950729370e-01 3.4697356820106506e-01</leafValues></_>
        <_>
          <internalNodes>
            0 -1 45 -799149313 -804218155 -652480001 -616169507 14418175
            407914717 -1706033217 1497496573</internalNodes>
          <leafValues>
            -5.6862992048263550e-01 4.1496995091438293e-01</leafValues></_>
        <_>
          <internalNodes>
            0 -1 121 -208932726 -749999414 -2105360186 -3408125 49356
            -1073688504 1364702175 -69207041</internalNodes>
          <leafValues>
            -4.9283629655838013e-01 4.3952319025993347e-01</leafValues></_>
        <_>
          <internalNodes>
            0 -1 86 -236719117 -780041536 1943130355 1405161631
            -1585466373 -2012444134 969931743 189776271</internalNodes>
          <leafValues>
            -5.1562380790710449e-01 4.1371333599090576e-01</leafValues></_>
        <_>
          <internalNodes>
            0 -1 36 -17831190 1743225002 146931780 1356922914 1531964651
            -297033181 -352458017 -989862145</internalNodes>
          <leafValues>
            -5.3579086065292358e-01 4.1498225927352905e-01</leafValues></_>
        <_>
          <internalNodes>
            0 -1 57 -201341734 -14924714 -385644296 -136846629
            -142360440 -250593151 -15206149 2037727927</internalNodes>
          <leafValues>
            -5.9257781505584717e-01 3.4235736727714539e-01</leafValues></_>
        <_>
          <internalNodes>
            0 -1 102 -679350144 -707191776 -939524096 1369388066
            -2044154738 804353 373720271 1399811983</internalNodes>
          <leafValues>
            -6.1350375413894653e-01 3.4434008598327637e-01</leafValues></_>
        <_>
          <internalNodes>
            0 -1 84 -740842813 -784125951 -419151397 1360465987
            -913579542 1342443665 1093898382 -547361873</internalNodes>
          <leafValues>
            -3.5671633481979370e-01 5.7584142684936523e-01</leafValues></_></weakClassifiers></_>
    <!-- stage 6 -->
    <_>
      <maxWeakCount>9</maxWeakCount>
      <stageThreshold>-1.9710359573364258e+00</stageThreshold>
      <weakClassifiers>
        <_>
          <internalNodes>
            0 -1 38 -406327566 -138414081 -2491265 -147588623 -13649477
            -5792261 1005829119 2138534571</internalNodes>
          <leafValues>
            -6.6540879011154175e-01 2.1322314441204071e-01</leafValues></_>
        <_>
          <internalNodes>
            0 -1 50 -51316488 -1146045904 -49417729 -6553829 -670932742
            -1173347790 -111289349 -12897525</internalNodes>
          <leafValues>
            -6.2156653404235840e-01 3.0010163784027100e-01</leafValues></_>
        <_>
          <internalNodes>
            0 -1 113 1026071546 1504211418 823255803 1438376882
            -304300550 -570763526 1363090395 151771903</internalNodes>
          <leafValues>
            -5.9867382049560547e-01 3.0592927336692810e-01</leafValues></_>
        <_>
          <internalNodes>
            0 -1 26 -202969522 -573053346 -1571886386 -68760017
            -362828626 -207951939 -645548580 -70787361</internalNodes>
          <leafValues>
            -5.4513478279113770e-01 3.8829135894775391e-01</leafValues></_>
        <_>
          <internalNodes>
            0 -1 164 -808713210 -537252215 -620300289 -67155029
            -894507697 -273806354 -1486116865 -81588721</internalNodes>
          <leafValues>
            -5.1482385396957397e-01 3.7625154852867126e-01</leafValues></_>
        <_>
          <internalNodes>
            0 -1 126 -2101365 -1275623403 1421689241 19267611 1475078890
            1256657288 1219086986 -605035573</internalNodes>
          <leafValues>
            -3.6373960971832275e-01 5.4743367433547974e-01</leafValues></_>
        <_>
          <internalNodes>
            0 -1 6 -1195376801 150731847 -1130627105 369097727
            -186651209 -1394086145 -35127706 -1999635275</internalNodes>
          <leafValues>
            -4.5460933446884155e-01 4.1868638992309570e-01</leafValues></_>
        <_>
          <internalNodes>
            0 -1 120 -766778709 -937705337 1350822014 -1073495886
            1393070466 1091194547 1073857679 -76546453</internalNodes>
          <leafValues>
            -3.9588883519172668e-01 4.7866910696029663e-01</leafValues></_>
        <_>
          <internalNodes>
            0 -1 130 -1291185701 -1828562005 523836767 1596940281
            -620039525 -578134886 966991515 464517598</internalNodes>
          <leafValues>
            -5.2908551692962646e-01 3.6055049300193787e-01</leafValues></_></weakClassifiers></_>
    <!-- stage 7 -->
    <_>
      <maxWeakCount>11</maxWeakCount>
      <stageThreshold>-1.3739303350448608e+00</stageThreshold>
      <weakClassifiers>
        <_>
          <internalNodes>
            0 -1 87 -654314753 1350392575 -117440513 1431699357
            -356516865 -88089953 -68157441 -547356737</internalNodes>
          <leafValues>
            -5.7579618692398071e-01 3.1091701984405518e-01</leafValues></_>
        <_>
          <internalNodes>
            0 -1 96 -656154398 -179093437 1880432875 -570986329
            -2002016120 -1736429173 -1717184261 -1712325649</internalNodes>
          <leafValues>
            -4.6782910823822021e-01 3.8660147786140442e-01</leafValues></_>
        <_>
          <internalNodes>
            0 -1 0 -553682057 573189742 -599879201 -1594696466
            -556041729 16775903 -69207041 -1594428673</internalNodes>
          <leafValues>
            -6.7607134580612183e-01 2.5817266106605530e-01</leafValues></_>
        <_>
          <internalNodes>
            0 -1 88 413749468 -545041225 968187379 1600083405
            -2003860288 -1920827200 1602477055 522130942</internalNodes>
          <leafValues>
            -6.3085609674453735e-01 3.0178144574165344e-01</leafValues></_>
        <_>
          <internalNodes>
            0 -1 64 -135269429 2004873163 318804098 1399160199
            -405820790 268439552 -1291072566 -2114097</internalNodes>
          <leafValues>
            -3.4800344705581665e-01 5.0931096076965332e-01</leafValues></_>
        <_>
          <internalNodes>
            0 -1 42 -1068790134 1328220800 -1705778817 1414492369
            -523776038 1272318154 -489752417 -76030001</internalNodes>
          <leafValues>
            -4.5768541097640991e-01 3.8059750199317932e-01</leafValues></_>
        <_>
          <internalNodes>
            0 -1 136 -767057270 -788272638 -528282613 1078034946
            1079067242 1395380610 1073914539 -611321845</internalNodes>
          <leafValues>
            -4.5252114534378052e-01 3.9254793524742126e-01</leafValues></_>
        <_>
          <internalNodes>
            0 -1 56 -1811948033 -1700597110 1542413310 459992831
            507207679 1122634458 209435351 200998398</internalNodes>
          <leafValues>
            -5.2881300449371338e-01 3.3667036890983582e-01</leafValues></_>
        <_>
          <internalNodes>
            0 -1 97 -587722664 -572982104 15487163 1570329818
            -1084339717 -80876886 182310127 -1152413765</internalNodes>
          <leafValues>
            -5.4630219936370850e-01 3.1390255689620972e-01</leafValues></_>
        <_>
          <internalNodes>
            0 -1 141 -653735912 -537279011 -2064394768 -1718037282
            -1469150066 993798761 52922760 -1146487378</internalNodes>
          <leafValues>
            -5.1276195049285889e-01 3.4420195221900940e-01</leafValues></_>
        <_>
          <internalNodes>
            0 -1 118 -720783214 1528041472 593027159 -48905953
            -1857518418 -805298112 856221663 453184991</internalNodes>
          <leafValues>
            -5.0952178239822388e-01 3.6353904008865356e-01</leafValues></_></weakClassifiers></_>
    <!-- stage 8 -->
    <_>
      <maxWeakCount>12</maxWeakCount>
      <stageThreshold>-1.5025895833969116e+00</stageThreshold>
      <weakClassifiers>
        <_>
          <internalNodes>
            0 -1 148 -20992369 -2376817 -386407281 -720312385 -20971521
            -13361 -288621313 -3147025</internalNodes>
          <leafValues>
            -5.3691411018371582e-01 3.2971906661987305e-01</leafValues></_>
        <_>
          <internalNodes>
            0 -1 82 -170397223 -216795943 16830464 285471699 -222119190
            285245602 -1328831794 -69206017</internalNodes>
          <leafValues>
            -4.0596914291381836e-01 3.9933305978775024e-01</leafValues></_>
        <_>
          <internalNodes>
            0 -1 11 -1996489025 -1864110017 2095052727 -36177249
            1210832343 -386400327 -17303021 -1997538243</internalNodes>
          <leafValues>
            -4.3246957659721375e-01 3.8492247462272644e-01</leafValues></_>
        <_>
          <internalNodes>
            0 -1 139 991387103 1033723002 487817203 2109700575
            -1181311062 -1119917381 -1079378177 -1077936129</internalNodes>
          <leafValues>
            -4.0439337491989136e-01 3.9782145619392395e-01</leafValues></_>
        <_>
          <internalNodes>
            0 -1 156 -800068982 -546659840 1346388778 -1052539901
            1073915914 1078106281 268796939 -166211061</internalNodes>
          <leafValues>
            -4.0322196483612061e-01 4.3594893813133240e-01</leafValues></_>
        <_>
          <internalNodes>
            0 -1 132 -24215030 -752697173 201999104 1367539714
            -521160278 -83887129 -29400447 1125106187</internalNodes>
          <leafValues>
            -5.7649451494216919e-01 2.4946294724941254e-01</leafValues></_>
        <_>
          <internalNodes>
            0 -1 9 -33604097 939555966 -268648457 2110914547 -43550768
            -1128464523 -99346 -1933248589</internalNodes>
          <leafValues>
            -3.7905699014663696e-01 4.1607984900474548e-01</leafValues></_>
        <_>
          <internalNodes>
            0 -1 155 -785727488 -237386470 1628556275 -586212929
            -2139029078 -284412531 566351599 -1022647925</internalNodes>
          <leafValues>
            -4.1720804572105408e-01 3.8581672310829163e-01</leafValues></_>
        <_>
          <internalNodes>
            0 -1 81 -252970804 -250043235 -149440033 301038905
            -2112912758 -1968632018 -339760433 1028336048</internalNodes>
          <leafValues>
            -4.9377191066741943e-01 3.2755333185195923e-01</leafValues></_>
        <_>
          <internalNodes>
            0 -1 55 -11801888 -2629093 1142096570 1461919366 -14627428
            2097349632 419444942 1407188991</internalNodes>
          <leafValues>
            -5.5230569839477539e-01 2.9835954308509827e-01</leafValues></_>
        <_>
          <internalNodes>
            0 -1 59 -1166061345 -1871694854 -663441425 1342241553
            -2009373569 -1963475201 -893398049 1494527697</internalNodes>
          <leafValues>
            -4.8709830641746521e-01 3.4788039326667786e-01</leafValues></_>
        <_>
          <internalNodes>
            0 -1 31 -2033193297 8810471 -580125699 -73409537 -805311747
            553183359 39798753 -909128499</internalNodes>
          <leafValues>
            -4.6863001585006714e-01 3.6152502894401550e-01</leafValues></_></weakClassifiers></_>
    <!-- stage 9 -->
    <_>
      <maxWeakCount>10</maxWeakCount>
      <stageThreshold>-1.5355252027511597e+00</stageThreshold>
      <weakClassifiers>
        <_>
          <internalNodes>
            0 -1 161 -587330545 -539004929 -71318049 -8401025 -452989697
            -67185189 -537941505 -72691797</internalNodes>
          <leafValues>
            -5.6641823053359985e-01 2.3954060673713684e-01</leafValues></_>
        <_>
          <internalNodes>
            0 -1 41 -540030262 -657751414 1344344290 1355886768
            -675283714 -729157428 -203429137 1573904335</internalNodes>
          <leafValues>
            -5.1985627412796021e-01 2.7061417698860168e-01</leafValues></_>
        <_>
          <internalNodes>
            0 -1 25 -1968547073 -1968417812 -1169008835 2111632861
            -1058341121 -1410414612 -25477185 -1882461717</internalNodes>
          <leafValues>
            -5.0181198120117188e-01 2.9039642214775085e-01</leafValues></_>
        <_>
          <internalNodes>
            0 -1 106 -70518305 -708648710 -1879019512 -784082001
            -737609478 -1072655868 -771034168 -3155985</internalNodes>
          <leafValues>
            -3.1916284561157227e-01 4.8020732402801514e-01</leafValues></_>
        <_>
          <internalNodes>
            0 -1 112 1001345951 -4236813 1002143743 1071603711
            -274740858 -542438323 -1088430085 -574636561</internalNodes>
          <leafValues>
            -3.7159544229507446e-01 4.0538552403450012e-01</leafValues></_>
        <_>
          <internalNodes>
            0 -1 4 284160351 813021087 -606109967 -35717475 1078973428
            -1197564931 -859312144 -1997015856</internalNodes>
          <leafValues>
            -4.0114456415176392e-01 3.6484137177467346e-01</leafValues></_>
        <_>
          <internalNodes>
            0 -1 117 -788282718 -796425020 -1828265472 1360842753
            589791360 42378120 1090699435 1131410383</internalNodes>
          <leafValues>
            -5.3273463249206543e-01 3.0418965220451355e-01</leafValues></_>
        <_>
          <internalNodes>
            0 -1 10 708193111 -1330086281 -246087713 -1331635330
            -206348971 -529107643 -237284481 278199935</internalNodes>
          <leafValues>
            -6.0009670257568359e-01 2.6005592942237854e-01</leafValues></_>
        <_>
          <internalNodes>
            0 -1 91 -229398390 1927212959 412289050 -142763259 424401115
            1621828090 467610314 1498740906</internalNodes>
          <leafValues>
            -5.4888248443603516e-01 2.7042710781097412e-01</leafValues></_>
        <_>
          <internalNodes>
            0 -1 144 -326377342 -1008615392 -468107057 -787672813
            1728106378 592847886 1642251215 -612374577</internalNodes>
          <leafValues>
            -3.9541202783584595e-01 3.8445034623146057e-01</leafValues></_></weakClassifiers></_>
    <!-- stage 10 -->
    <_>
      <maxWeakCount>12</maxWeakCount>
      <stageThreshold>-1.6519480943679810e+00</stageThreshold>
      <weakClassifiers>
        <_>
          <internalNodes>
            0 -1 98 1069243871 -542483826 1069113343 -544383297 -7418161
            -7577662 -1096810497 -544219393</internalNodes>
          <leafValues>
            -5.7971698045730591e-01 1.6594202816486359e-01</leafValues></_>
        <_>
          <internalNodes>
            0 -1 146 -386086193 -537580371 -1608713505 1032888905
            -67118129 -4463921 -1150632993 -1080758275</internalNodes>
          <leafValues>
            -4.2551910877227783e-01 3.3128049969673157e-01</leafValues></_>
        <_>
          <internalNodes>
            0 -1 32 -22024465 -934547806 -193508618 -252712203 -17170699
            -925933305 -9450337 -657469705</internalNodes>
          <leafValues>
            -4.1429719328880310e-01 3.4322795271873474e-01</leafValues></_>
        <_>
          <internalNodes>
            0 -1 103 -488970558 1979377338 -710108624 -173017185 557210
            1343774203 857187321 1945630651</internalNodes>
          <leafValues>
            -5.1307368278503418e-01 2.6960307359695435e-01</leafValues></_>
        <_>
          <internalNodes>
            0 -1 127 -55016424 -201846020 1002183983 398065726
            -1170560116 1593846444 1430643128 532482253</internalNodes>
          <leafValues>
            -6.9151890277862549e-01 2.1658396720886230e-01</leafValues></_>
        <_>
          <internalNodes>
            0 -1 93 -170155893 -767315928 1359343776 285311619
            1397211786 286027777 1163387018 -746329397</internalNodes>
          <leafValues>
            -3.8119390606880188e-01 3.6065599322319031e-01</leafValues></_>
        <_>
          <internalNodes>
            0 -1 47 -788836099 -773857803 1088287231 1350424285
            1487675391 -900415499 6551001 1427925</internalNodes>
          <leafValues>
            -5.3331583738327026e-01 2.5396627187728882e-01</leafValues></_>
        <_>
          <internalNodes>
            0 -1 49 -1561624569 -1595409457 -1174951672 1903165273
            -67383425 1885491228 -1319376929 -679486241</internalNodes>
          <leafValues>
            -3.8856041431427002e-01 3.6993122100830078e-01</leafValues></_>
        <_>
          <internalNodes>
            0 -1 46 -1564016639 -533730354 -1628938141 -178062345
            1675319661 1433538906 -637928465 1400340479</internalNodes>
          <leafValues>
            -4.5280545949935913e-01 3.0933248996734619e-01</leafValues></_>
        <_>
          <internalNodes>
            0 -1 39 381591594 -5281622 3409119 350635410 -1106600641
            -1079302642 254744959 -1085125458</internalNodes>
          <leafValues>
            -5.5503392219543457e-01 2.5619915127754211e-01</leafValues></_>
        <_>
          <internalNodes>
            0 -1 74 -606092149 -48000797 -982000129 1094918154
            -800732230 1342664965 1355534543 -81813373</internalNodes>
          <leafValues>
            -3.5600322484970093e-01 4.3299090862274170e-01</leafValues></_>
        <_>
          <internalNodes>
            0 -1 149 -161504629 -2113681824 1666633834 -1793594870
            -805047930 -1017679325 152036043 -183502129</internalNodes>
          <leafValues>
            -3.0133602023124695e-01 4.6898216009140015e-01</leafValues></_></weakClassifiers></_>
    <!-- stage 11 -->
    <_>
      <maxWeakCount>13</maxWeakCount>
      <stageThreshold>-1.5336712598800659e+00</stageThreshold>
      <weakClassifiers>
        <_>
          <internalNodes>
            0 -1 158 -319027185 -574626001 -52475361 -20721 -654923521
            -17045505 -34625345 -72634641</internalNodes>
          <leafValues>
            -5.7297950983047485e-01 1.3134850561618805e-01</leafValues></_>
        <_>
          <internalNodes>
            0 -1 44 -488447234 -16412419 12644603 -134749473 -2207297
            -4771641 268497915 2001695991</internalNodes>
          <leafValues>
            -5.7405501604080200e-01 2.1601428091526031e-01</leafValues></_>
        <_>
          <internalNodes>
            0 -1 166 -1414656502 402075502 -808245314 -1747579904
            -394591482 2147449687 -67108873 -33588011</internalNodes>
          <leafValues>
            -4.8087739944458008e-01 2.7209579944610596e-01</leafValues></_>
        <_>
          <internalNodes>
            0 -1 109 -345047158 -211627113 -1074804310 -343736717
            -2005551444 -932183937 301201647 -618149921</internalNodes>
          <leafValues>
            -3.6409136652946472e-01 3.7273672223091125e-01</leafValues></_>
        <_>
          <internalNodes>
            0 -1 23 -1446007090 -1595757848 2011559935 -1477982484
            -876087815 -1565919831 -389722740 -422654004</internalNodes>
          <leafValues>
            -5.8250176906585693e-01 2.4112750589847565e-01</leafValues></_>
        <_>
          <internalNodes>
            0 -1 8 1734604663 352374132 -364919394 -34472118 -169314330
            -1142755534 -536981756 952130903</internalNodes>
          <leafValues>
            -4.8335787653923035e-01 2.7139195799827576e-01</leafValues></_>
        <_>
          <internalNodes>
            0 -1 52 -507788541 -1007688817 -185346073 -168962501
            -478701845 1136781183 -216538161 -746592803</internalNodes>
          <leafValues>
            -3.3047914505004883e-01 4.3800500035285950e-01</leafValues></_>
        <_>
          <internalNodes>
            0 -1 90 -923211576 -1181187888 -636280519 823202129
            -934492024 -7370085 -124060757 -3392588</internalNodes>
          <leafValues>
            -6.5872871875762939e-01 2.0351812243461609e-01</leafValues></_>
        <_>
          <internalNodes>
            0 -1 108 -506732221 -758946977 -1073685355 -733519477
            -2134772054 1342558224 1497624759 -73400605</internalNodes>
          <leafValues>
            -3.6245250701904297e-01 4.0029048919677734e-01</leafValues></_>
        <_>
          <internalNodes>
            0 -1 83 1564368095 -669468518 1426022391 -719077446
            477730815 -1533238422 920114687 -74122433</internalNodes>
          <leafValues>
            -3.4770292043685913e-01 3.9748138189315796e-01</leafValues></_>
        <_>
          <internalNodes>
            0 -1 157 -366239077 -95436081 -1002077543 -533229277
            1261873867 197701 1503103727 -498427217</internalNodes>
          <leafValues>
            -3.2518878579139709e-01 4.2909854650497437e-01</leafValues></_>
        <_>
          <internalNodes>
            0 -1 72 -173563678 -202135313 -989816242 -1209895172
            -217737918 1083572295 1124731335 459752597</internalNodes>
          <leafValues>
            -5.5301851034164429e-01 2.6381924748420715e-01</leafValues></_>
        <_>
          <internalNodes>
            0 -1 143 -402438144 -73628985 -56745869 -581987657
            -1072697297 1078633122 1078692057 1108066827</internalNodes>
          <leafValues>
            -5.3673070669174194e-01 2.4597424268722534e-01</leafValues></_></weakClassifiers></_>
    <!-- stage 12 -->
    <_>
      <maxWeakCount>13</maxWeakCount>
      <stageThreshold>-1.3629422187805176e+00</stageThreshold>
      <weakClassifiers>
        <_>
          <internalNodes>
            0 -1 15 -286331153 -1397014 249998079 -269606170 -134246401
            -134783489 -16781573 -3649</internalNodes>
          <leafValues>
            -6.1351865530014038e-01 7.5352743268013000e-02</leafValues></_>
        <_>
          <internalNodes>
            0 -1 124 -205261086 -217714493 49290 -175779122 -528420114
            1346437442 -1517300853 -68157457</internalNodes>
          <leafValues>
            -4.6132290363311768e-01 2.6420414447784424e-01</leafValues></_>
        <_>
          <internalNodes>
            0 -1 53 488310015 990500319 171397119 -438608129 287178922
            151666938 336220347 522011126</internalNodes>
          <leafValues>
            -5.7960367202758789e-01 2.1447484195232391e-01</leafValues></_>
        <_>
          <internalNodes>
            0 -1 165 -385905573 -671109557 -1938006433 -730997861
            -1060639489 -17838347 -385945093 1343356766</internalNodes>
          <leafValues>
            -3.1300866603851318e-01 4.0855219960212708e-01</leafValues></_>
        <_>
          <internalNodes>
            0 -1 129 -1064574334 -784075065 1073967345 -1017675826
            1095483520 1392724002 1171243035 -1050680405</internalNodes>
          <leafValues>
            -4.6383306384086609e-01 2.6221814751625061e-01</leafValues></_>
        <_>
          <internalNodes>
            0 -1 35 -1609650486 -1549475254 -495464196 -800067133
            -141560945 -1874339451 -159536145 -933763456</internalNodes>
          <leafValues>
            -5.3286767005920410e-01 2.3530794680118561e-01</leafValues></_>
        <_>
          <internalNodes>
            0 -1 60 1001409744 -15527718 2092973254 -684685544
            -1097336680 -616839442 1326509819 488595443</internalNodes>
          <leafValues>
            -5.3926920890808105e-01 2.3699736595153809e-01</leafValues></_>
        <_>
          <internalNodes>
            0 -1 66 -2113470453 -882162582 -1494282625 -488744454
            -597965489 370564639 -1530441686 -134219265</internalNodes>
          <leafValues>
            -3.8567641377449036e-01 3.5483688116073608e-01</leafValues></_>
        <_>
          <internalNodes>
            0 -1 71 -144985121 2064908023 -752635552 1460024819
            -750022518 2013352000 -95771669 -45632517</internalNodes>
          <leafValues>
            -3.0526396632194519e-01 4.3909695744514465e-01</leafValues></_>
        <_>
          <internalNodes>
            0 -1 2 2138928639 2132869010 -83886090 -721292 -167772161
            -35602566 -302350416 -1127170256</internalNodes>
          <leafValues>
            -3.1387114524841309e-01 4.3667614459991455e-01</leafValues></_>
        <_>
          <internalNodes>
            0 -1 135 -637274485 -800850229 -943614909 -887948917
            -1064597829 -756875363 1460100154 -3417121</internalNodes>
          <leafValues>
            -3.0601474642753601e-01 4.5024168491363525e-01</leafValues></_>
        <_>
          <internalNodes>
            0 -1 43 386936950 924054177 1066430587 1059531703 -13930402
            -350601621 -566919235 2118193938</internalNodes>
          <leafValues>
            -4.8317158222198486e-01 2.8785741329193115e-01</leafValues></_>
        <_>
          <internalNodes>
            0 -1 3 -1899304209 -225539346 785434875 -431051537
            -310640795 1969996329 -41113157 -469762057</internalNodes>
          <leafValues>
            -4.6711084246635437e-01 2.9929229617118835e-01</leafValues></_></weakClassifiers></_>
    <!-- stage 13 -->
    <_>
      <maxWeakCount>15</maxWeakCount>
      <stageThreshold>-1.7451828718185425e+00</stageThreshold>
      <weakClassifiers>
        <_>
          <internalNodes>
            0 -1 168 -1342566601 -656387 -269779105 -68141136 2113807359
            -8388775 -335548421 -3</internalNodes>
          <leafValues>
            -5.1140993833541870e-01 2.4378585815429688e-01</leafValues></_>
        <_>
          <internalNodes>
            0 -1 77 -244059661 -1010118006 938729975 1464840925
            -67767297 -1983124753 -1145046049 -1882194961</internalNodes>
          <leafValues>
            -3.4862190485000610e-01 3.7891212105751038e-01</leafValues></_>
        <_>
          <internalNodes>
            0 -1 61 -587202834 -107231382 -592225396 353500417
            -1168117825 -1086870204 -35651697 1600125697</internalNodes>
          <leafValues>
            -3.9578378200531006e-01 3.1417036056518555e-01</leafValues></_>
        <_>
          <internalNodes>
            0 -1 34 -526127125 1076031467 -553779589 -198181125
            -81789521 -999295235 -570713155 -446693555</internalNodes>
          <leafValues>
            -3.5132727026939392e-01 3.6171138286590576e-01</leafValues></_>
        <_>
          <internalNodes>
            0 -1 152 -285259057 967338735 -1897378737 -1980059907 -17705
            -1153896664 -270336001 -1413939944</internalNodes>
          <leafValues>
            -3.2929611206054688e-01 3.7504333257675171e-01</leafValues></_>
        <_>
          <internalNodes>
            0 -1 65 -364123902 -3412141 -549531956 -743703222 -151589617
            1729324367 657847771 1935108015</internalNodes>
          <leafValues>
            -5.3005546331405640e-01 2.1886734664440155e-01</leafValues></_>
        <_>
          <internalNodes>
            0 -1 22 2010480471 2138584048 -143790081 -33558732
            -136975425 -33619983 2146254782 -1176216880</internalNodes>
          <leafValues>
            -3.2668015360832214e-01 3.9173090457916260e-01</leafValues></_>
        <_>
          <internalNodes>
            0 -1 134 -2094301163 -1413514245 -1141918817 801104887
            -1956713219 -1904792513 -513280277 -939786257</internalNodes>
          <leafValues>
            -3.0979940295219421e-01 4.1949516534805298e-01</leafValues></_>
        <_>
          <internalNodes>
            0 -1 116 -758000948 -749502911 -734691713 2133319451
            -85524978 -2001810648 -559027222 174061391</internalNodes>
          <leafValues>
            -4.5241475105285645e-01 3.0291068553924561e-01</leafValues></_>
        <_>
          <internalNodes>
            0 -1 94 -1146094129 -118030895 -1837065983 -1733168645
            -359732530 -1865936766 -1437863998 -537002033</internalNodes>
          <leafValues>
            -3.0290877819061279e-01 4.4531774520874023e-01</leafValues></_>
        <_>
          <internalNodes>
            0 -1 115 -1207873024 -804724544 -366783592 1393514819
            -399856208 -2000957505 -863504385 1129250818</internalNodes>
          <leafValues>
            -6.2599283456802368e-01 2.0564168691635132e-01</leafValues></_>
        <_>
          <internalNodes>
            0 -1 51 -1505877997 -806620417 -470835209 -646058125
            -1476667658 -1644253289 649068255 -1015159016</internalNodes>
          <leafValues>
            -3.3580192923545837e-01 3.9320936799049377e-01</leafValues></_>
        <_>
          <internalNodes>
            0 -1 138 -2044723208 -542673050 -955109352 2077946879
            126853052 -2097117707 188197034 -1145072641</internalNodes>
          <leafValues>
            -4.0934738516807556e-01 3.2533386349678040e-01</leafValues></_>
        <_>
          <internalNodes>
            0 -1 145 149817422 1039878451 -1082045939 -43621105
            -1433531720 -1074794898 -872477112 -366444500</internalNodes>
          <leafValues>
            -5.0846517086029053e-01 2.5513055920600891e-01</leafValues></_>
        <_>
          <internalNodes>
            0 -1 33 -297276189 -890328342 -561204508 269481807
            -832575386 -2075691065 -295780601 -251661361</internalNodes>
          <leafValues>
            -4.9504557251930237e-01 2.5060808658599854e-01</leafValues></_></weakClassifiers></_>
    <!-- stage 14 -->
    <_>
      <maxWeakCount>15</maxWeakCount>
      <stageThreshold>-1.3796983957290649e+00</stageThreshold>
      <weakClassifiers>
        <_>
          <internalNodes>
            0 -1 128 -1755899945 -2138629 1069307263 -1074964481
            -1107486209 -1073867779 -1080098817 -1074798593</internalNodes>
          <leafValues>
            -5.5357980728149414e-01 1.3426265120506287e-01</leafValues></_>
        <_>
          <internalNodes>
            0 -1 17 -760341761 -401851653 -398237473 -1158335981
            -286663681 -1345393669 -1494108433 -1903235169</internalNodes>
          <leafValues>
            -4.7410213947296143e-01 2.4571157991886139e-01</leafValues></_>
        <_>
          <internalNodes>
            0 -1 5 -1644167169 807595903 -1112563817 -101066818
            -1377439297 -1107318497 -38028473 -1459749145</internalNodes>
          <leafValues>
            -3.4291961789131165e-01 3.4925973415374756e-01</leafValues></_>
        <_>
          <internalNodes>
            0 -1 122 -540547926 -19511569 -472393492 -434110785
            445303802 277485446 1405090715 2012741487</internalNodes>
          <leafValues>
            -4.3830439448356628e-01 2.7906593680381775e-01</leafValues></_>
        <_>
          <internalNodes>
            0 -1 130 327245275 -703966246 -1179560481 -4367395
            -549792294 -541501926 -1171187461 2145254877</internalNodes>
          <leafValues>
            -3.8042184710502625e-01 3.3851730823516846e-01</leafValues></_>
        <_>
          <internalNodes>
            0 -1 159 -222041470 -670907259 1409515693 1931597978
            942052011 672330284 290650296 -753927249</internalNodes>
          <leafValues>
            -3.7106454372406006e-01 3.4536719322204590e-01</leafValues></_>
        <_>
          <internalNodes>
            0 -1 75 1934741706 -136071477 1079318665 1905092956
            1262684362 -99548464 322971614 1606382255</internalNodes>
          <leafValues>
            -4.6146476268768311e-01 2.5850200653076172e-01</leafValues></_>
        <_>
          <internalNodes>
            0 -1 167 202318899 -538215557 -1637884073 -548044993
            -918600955 -399245508 -2891797 1649139850</internalNodes>
          <leafValues>
            -3.5268348455429077e-01 3.5239923000335693e-01</leafValues></_>
        <_>
          <internalNodes>
            0 -1 160 -1393046001 229270984 -1898996224 -1979655596
            -18099381 -91761695 -355477361 -857016415</internalNodes>
          <leafValues>
            -4.3272832036018372e-01 2.8543752431869507e-01</leafValues></_>
        <_>
          <internalNodes>
            0 -1 48 -743464541 -471864338 -214440965 -145626693
            -67701779 -268976394 -202381825 -487665491</internalNodes>
          <leafValues>
            -2.9632338881492615e-01 4.3898659944534302e-01</leafValues></_>
        <_>
          <internalNodes>
            0 -1 92 -192875072 -722278222 -444883812 1564615274
            -70275964 265177196 1573816360 1505993626</internalNodes>
          <leafValues>
            -4.9257135391235352e-01 2.7163720130920410e-01</leafValues></_>
        <_>
          <internalNodes>
            0 -1 62 -1744773645 1534622623 -155264145 -34375883
            -994521861 -655855966 229832126 491879671</internalNodes>
          <leafValues>
            -4.2332300543785095e-01 2.8778514266014099e-01</leafValues></_>
        <_>
          <internalNodes>
            0 -1 104 -752181093 -74270536 -1913005857 298393886
            -707008018 465240771 1467656394 2026557038</internalNodes>
          <leafValues>
            -4.1942861676216125e-01 3.1354269385337830e-01</leafValues></_>
        <_>
          <internalNodes>
            0 -1 101 -362024446 -775564030 -534527873 1527640857
            587391387 -2144435960 7849610 1399837955</internalNodes>
          <leafValues>
            -4.5401060581207275e-01 2.8661608695983887e-01</leafValues></_>
        <_>
          <internalNodes>
            0 -1 58 467679984 -153437680 -1686024743 -583028079
            -1462998341 -496069 303116279 -544974085</internalNodes>
          <leafValues>
            -4.9127241969108582e-01 2.6770567893981934e-01</leafValues></_></weakClassifiers></_>
    <!-- stage 15 -->
    <_>
      <maxWeakCount>14</maxWeakCount>
      <stageThreshold>-1.7406502962112427e+00</stageThreshold>
      <weakClassifiers>
        <_>
          <internalNodes>
            0 -1 85 -106657 -892929 -549568801 -20449538 -1613242369
            -1114274595 -1354908225 -1625843777</internalNodes>
          <leafValues>
            -4.9276527762413025e-01 2.2332015633583069e-01</leafValues></_>
        <_>
          <internalNodes>
            0 -1 24 -1074795858 -45945106 2107997670 -1644822
            -1435579140 -177522965 534761156 -22532</internalNodes>
          <leafValues>
            -4.7717005014419556e-01 2.2463721036911011e-01</leafValues></_>
        <_>
          <internalNodes>
            0 -1 162 -390462449 -8474641 1040025087 -617730897 -27518113
            -33625466 -545285889 -358184721</internalNodes>
          <leafValues>
            -3.9561635255813599e-01 2.9215267300605774e-01</leafValues></_>
        <_>
          <internalNodes>
            0 -1 119 -1073221213 -339477625 -21784581 -68168605
            -989334097 191066375 1677588391 1472459907</internalNodes>
          <leafValues>
            -3.5116067528724670e-01 3.2413372397422791e-01</leafValues></_>
        <_>
          <internalNodes>
            0 -1 79 -5189584 -374316384 -2141955587 -207630379 -2306312
            -13644566 4232172 254292852</internalNodes>
          <leafValues>
            -6.2497735023498535e-01 2.0554789900779724e-01</leafValues></_>
        <_>
          <internalNodes>
            0 -1 16 -33589385 957366196 -15009891 -115146956 -121032907
            -1124834832 -1476492 83900112</internalNodes>
          <leafValues>
            -4.2424213886260986e-01 2.8425806760787964e-01</leafValues></_>
        <_>
          <internalNodes>
            0 -1 133 -211027030 -204916732 1024492160 1963529032
            -23480096 47185920 330331627 2080371199</internalNodes>
          <leafValues>
            -4.2576408386230469e-01 2.6189917325973511e-01</leafValues></_>
        <_>
          <internalNodes>
            0 -1 142 -2145142797 135479611 1068640159 995434351
            1748679163 -1106223951 -1465210213 1068212191</internalNodes>
          <leafValues>
            -4.2210590839385986e-01 2.7612304687500000e-01</leafValues></_>
        <_>
          <internalNodes>
            0 -1 29 -823737690 -2131825138 1850207758 1825500783
            -260575485 618910859 1457386387 -1059588129</internalNodes>
          <leafValues>
            -7.0683670043945312e-01 1.6451466083526611e-01</leafValues></_>
        <_>
          <internalNodes>
            0 -1 169 -1967452409 2112814577 -1096863938 -538275752
            -1351545082 -1209271425 1861898239 -675</internalNodes>
          <leafValues>
            -3.4466186165809631e-01 3.5123312473297119e-01</leafValues></_>
        <_>
          <internalNodes>
            0 -1 100 -801984318 -650001260 -618446049 -574361353
            1347546228 -809771029 2042623999 -616578333</internalNodes>
          <leafValues>
            -3.2230335474014282e-01 3.7719541788101196e-01</leafValues></_>
        <_>
          <internalNodes>
            0 -1 54 1931721386 -148804321 18927778 285547553 -247221622
            1093664772 -268363134 2069599195</internalNodes>
          <leafValues>
            -4.3241021037101746e-01 2.8771641850471497e-01</leafValues></_>
        <_>
          <internalNodes>
            0 -1 150 -1161843673 1494219439 -1128514657 -719735873
            -1146373401 -1103238194 -171966517 -577372177</internalNodes>
          <leafValues>
            -3.0762562155723572e-01 4.1306617856025696e-01</leafValues></_>
        <_>
          <internalNodes>
            0 -1 163 -355621170 2038719580 -1940599459 1611933486
            -536919200 2056469888 -61916801 828435952</internalNodes>
          <leafValues>
            -5.3298467397689819e-01 2.4019053578376770e-01</leafValues></_></weakClassifiers></_>
    <!-- stage 16 -->
    <_>
      <maxWeakCount>16</maxWeakCount>
      <stageThreshold>-1.5431803464889526e+00</stageThreshold>
      <weakClassifiers>
        <_>
          <internalNodes>
            0 -1 140 -1590719941 187672095 927200059 863219159
            -2089816513 -12892354 -134220385 -1076898561</internalNodes>
          <leafValues>
            -5.1038962602615356e-01 1.5042017400264740e-01</leafValues></_>
        <_>
          <internalNodes>
            0 -1 21 -33587205 1070644080 -35782693 2100428661 -545263635
            -86245444 -110262210 -1461668872</internalNodes>
          <leafValues>
            -3.6205264925956726e-01 3.0636757612228394e-01</leafValues></_>
        <_>
          <internalNodes>
            0 -1 37 -1274363254 -36216181 -1295035777 -221546261
            -804925301 -99299126 -266346261 1434411723</internalNodes>
          <leafValues>
            -4.5449998974800110e-01 2.3969076573848724e-01</leafValues></_>
        <_>
          <internalNodes>
            0 -1 170 2138580272 -684904135 -973521921 2065513326
            1798258109 -75818370 2139037619 737096216</internalNodes>
          <leafValues>
            -5.1035988330841064e-01 2.1458683907985687e-01</leafValues></_>
        <_>
          <internalNodes>
            0 -1 107 -185079617 -547906403 -2110109 465506593 -237524933
            297468945 1933560539 -116940245</internalNodes>
          <leafValues>
            -2.6130267977714539e-01 4.3538609147071838e-01</leafValues></_>
        <_>
          <internalNodes>
            0 -1 70 -203177201 -68455765 -228590836 -136699323
            -1073220597 1128787881 1460795341 1474254749</internalNodes>
          <leafValues>
            -3.5998955368995667e-01 3.2246464490890503e-01</leafValues></_>
        <_>
          <internalNodes>
            0 -1 154 -1655221231 -669899841 2096302099 -1111519447
            -218636868 10024112 -578567 143650703</internalNodes>
          <leafValues>
            -3.7566947937011719e-01 2.9681533575057983e-01</leafValues></_>
        <_>
          <internalNodes>
            0 -1 12 215957493 415194751 2098674687 1566572353 1289184197
            -134092431 -1401094511 -1932208992</internalNodes>
          <leafValues>
            -3.5989320278167725e-01 3.0712667107582092e-01</leafValues></_>
        <_>
          <internalNodes>
            0 -1 69 1043357663 -1702754230 2108874623 -72679657 79645951
            136333486 418799039 1386241209</internalNodes>
          <leafValues>
            -5.0855445861816406e-01 2.2665166854858398e-01</leafValues></_>
        <_>
          <internalNodes>
            0 -1 151 -66075101 -758273641 -1004207081 85250183
            1409336795 1078280192 -514899798 -481304437</internalNodes>
          <leafValues>
            -3.6392706632614136e-01 3.2779753208160400e-01</leafValues></_>
        <_>
          <internalNodes>
            0 -1 123 -336595989 -255139837 -13382366 -1055653751
            -933290597 -799292843 -1023349813 -926555482</internalNodes>
          <leafValues>
            -2.7582049369812012e-01 4.1699630022048950e-01</leafValues></_>
        <_>
          <internalNodes>
            0 -1 153 818621994 416848343 496971525 1440483927 -387991124
            8434585 -1612312914 165260923</internalNodes>
          <leafValues>
            -5.4732614755630493e-01 2.1313321590423584e-01</leafValues></_>
        <_>
          <internalNodes>
            0 -1 73 170592819 -420263813 -1079319681 -169793034
            -277106945 1177583487 -451757209 -685793601</internalNodes>
          <leafValues>
            -3.0879119038581848e-01 3.8169386982917786e-01</leafValues></_>
        <_>
          <internalNodes>
            0 -1 125 1358647551 485518523 -1125452177 -603940203
            929856510 -1736562660 -1085350173 -1156401288</internalNodes>
          <leafValues>
            -3.8085418939590454e-01 3.1848528981208801e-01</leafValues></_>
        <_>
          <internalNodes>
            0 -1 63 34406455 -1009847345 -1896662185 -741343277
            -1359157479 534294015 854825925 -411242839</internalNodes>
          <leafValues>
            -3.5626184940338135e-01 3.3873921632766724e-01</leafValues></_>
        <_>
          <internalNodes>
            0 -1 40 1984065640 -269180190 187654267 -1218507032
            587432519 -11635465 353653759 2071668318</internalNodes>
          <leafValues>
            -4.7226515412330627e-01 2.7907809615135193e-01</leafValues></_></weakClassifiers></_></stages>
  <features>
    <_>
      <rect>
        0 6 5 3</rect></_>
    <_>
      <rect>
        1 1 10 4</rect></_>
    <_>
      <rect>
        1 7 3 3</rect></_>
    <_>
      <rect>
        1 9 5 1</rect></_>
    <_>
      <rect>
        2 3 3 2</rect></_>
    <_>
      <rect>
        2 4 3 3</rect></_>
    <_>
      <rect>
        2 5 3 2</rect></_>
    <_>
      <rect>
        2 7 6 1</rect></_>
    <_>
      <rect>
        2 8 3 3</rect></_>
    <_>
      <rect>
        2 9 3 2</rect></_>
    <_>
      <rect>
        2 9 4 3</rect></_>
    <_>
      <rect>
        3 1 3 4</rect></_>
    <_>
      <rect>
        3 2 3 2</rect></_>
    <_>
      <rect>
        3 2 10 4</rect></_>
    <_>
      <rect>
        3 3 10 5</rect></_>
    <_>
      <rect>
        3 8 5 1</rect></_>
    <_>
      <rect>
        3 12 3 2</rect></_>
    <_>
      <rect>
        4 0 9 5</rect></_>
    <_>
      <rect>
        4 4 3 3</rect></_>
    <_>
      <rect>
        4 5 5 2</rect></_>
    <_>
      <rect>
        4 5 6 1</rect></_>
    <_>
      <rect>
        4 7 2 3</rect></_>
    <_>
      <rect>
        4 9 2 3</rect></_>
    <_>
      <rect>
        5 1 4 3</rect></_>
    <_>
      <rect>
        5 2 5 2</rect></_>
    <_>
      <rect>
        5 3 10 5</rect></_>
    <_>
      <rect>
        5 4 5 2</rect></_>
    <_>
      <rect>
        5 5 4 4</rect></_>
    <_>
      <rect>
        5 5 9 3</rect></_>
    <_>
      <rect>
        5 6 3 1</rect></_>
    <_>
      <rect>
        5 6 5 1</rect></_>
    <_>
      <rect>
        6 1 3 2</rect></_>
    <_>
      <rect>
        6 5 2 2</rect></_>
    <_>
      <rect>
        6 7 2 1</rect></_>
    <_>
      <rect>
        7 3 2 2</rect></_>
    <_>
      <rect>
        7 4 2 2</rect></_>
    <_>
      <rect>
        7 5 2 3</rect></_>
    <_>
      <rect>
        7 6 6 1</rect></_>
    <_>
      <rect>
        7 7 6 1</rect></_>
    <_>
      <rect>
        7 8 7 1</rect></_>
    <_>
      <rect>
        7 9 4 1</rect></_>
    <_>
      <rect>
        8 3 2 4</rect></_>
    <_>
      <rect>
        8 5 1 2</rect></_>
    <_>
      <rect>
        8 6 6 2</rect></_>
    <_>
      <rect>
        8 7 4 1</rect></_>
    <_>
      <rect>
        9 4 8 4</rect></_>
    <_>
      <rect>
        9 6 2 1</rect></_>
    <_>
      <rect>
        9 7 7 3</rect></_>
    <_>
      <rect>
        10 0 2 2</rect></_>
    <_>
      <rect>
        10 4 2 1</rect></_>
    <_>
      <rect>
        10 6 6 2</rect></_>
    <_>
      <rect>
        11 1 1 2</rect></_>
    <_>
      <rect>
        11 3 2 1</rect></_>
    <_>
      <rect>
        11 3 5 3</rect></_>
    <_>
      <rect>
        11 4 2 4</rect></_>
    <_>
      <rect>
        11 5 2 2</rect></_>
    <_>
      <rect>
        11 5 7 2</rect></_>
    <_>
      <rect>
        11 6 3 1</rect></_>
    <_>
      <rect>
        11 6 5 2</rect></_>
    <_>
      <rect>
        11 6 8 3</rect></_>
    <_>
      <rect>
        11 7 4 1</rect></_>
    <_>
      <rect>
        11 7 9 2</rect></_>
    <_>
      <rect>
        12 0 6 5</rect></_>
    <_>
      <rect>
        12 1 1 2</rect></_>
    <_>
      <rect>
        12 3 2 4</rect></_>
    <_>
      <rect>
        12 4 2 1</rect></_>
    <_>
      <rect>
        12 5 1 1</rect></_>
    <_>
      <rect>
        12 6 4 1</rect></_>
    <_>
      <rect>
        12 8 4 1</rect></_>
    <_>
      <rect>
        13 1 5 4</rect></_>
    <_>
      <rect>
        13 2 2 1</rect></_>
    <_>
      <rect>
        13 2 2 4</rect></_>
    <_>
      <rect>
        13 3 3 1</rect></_>
    <_>
      <rect>
        13 4 1 1</rect></_>
    <_>
      <rect>
        13 4 1 3</rect></_>
    <_>
      <rect>
        13 5 2 4</rect></_>
    <_>
      <rect>
        13 6 4 1</rect></_>
    <_>
      <rect>
        13 6 6 1</rect></_>
    <_>
      <rect>
        13 7 3 1</rect></_>
    <_>
      <rect>
        13 8 3 1</rect></_>
    <_>
      <rect>
        13 8 4 1</rect></_>
    <_>
      <rect>
        13 8 7 1</rect></_>
    <_>
      <rect>
        14 4 2 3</rect></_>
    <_>
      <rect>
        14 4 5 3</rect></_>
    <_>
      <rect>
        14 5 1 3</rect></_>
    <_>
      <rect>
        14 6 2 1</rect></_>
    <_>
      <rect>
        14 6 5 1</rect></_>
    <_>
      <rect>
        14 6 6 3</rect></_>
    <_>
      <rect>
        14 7 3 1</rect></_>
    <_>
      <rect>
        14 8 3 1</rect></_>
    <_>
      <rect>
        14 8 4 1</rect></_>
    <_>
      <rect>
        15 2 2 3</rect></_>
    <_>
      <rect>
        15 4 1 2</rect></_>
    <_>
      <rect>
        15 4 1 3</rect></_>
    <_>
      <rect>
        15 4 2 3</rect></_>
    <_>
      <rect>
        15 5 1 3</rect></_>
    <_>
      <rect>
        15 5 3 1</rect></_>
    <_>
      <rect>
        15 6 4 2</rect></_>
    <_>
      <rect>
        15 7 3 1</rect></_>
    <_>
      <rect>
        15 8 3 1</rect></_>
    <_>
      <rect>
        15 9 1 1</rect></_>
    <_>
      <rect>
        15 10 1 1</rect></_>
    <_>
      <rect>
        15 11 1 1</rect></_>
    <_>
      <rect>
        16 3 2 2</rect></_>
    <_>
      <rect>
        16 4 1 2</rect></_>
    <_>
      <rect>
        16 4 1 3</rect></_>
    <_>
      <rect>
        16 4 2 3</rect></_>
    <_>
      <rect>
        16 5 1 2</rect></_>
    <_>
      <rect>
        16 5 1 3</rect></_>
    <_>
      <rect>
        16 5 2 1</rect></_>
    <_>
      <rect>
        16 6 2 2</rect></_>
    <_>
      <rect>
        16 6 3 1</rect></_>
    <_>
      <rect>
        16 7 2 1</rect></_>
    <_>
      <rect>
        16 7 4 1</rect></_>
    <_>
      <rect>
        16 8 3 1</rect></_>
    <_>
      <rect>
        16 9 1 1</rect></_>
    <_>
      <rect>
        16 9 6 1</rect></_>
    <_>
      <rect>
        16 10 1 1</rect></_>
    <_>
      <rect>
        16 11 3 1</rect></_>
    <_>
      <rect>
        17 1 2 2</rect></_>
    <_>
      <rect>
        17 2 1 4</rect></_>
    <_>
      <rect>
        17 2 2 4</rect></_>
    <_>
      <rect>
        17 3 2 2</rect></_>
    <_>
      <rect>
        17 4 1 3</rect></_>
    <_>
      <rect>
        17 4 2 3</rect></_>
    <_>
      <rect>
        17 4 5 4</rect></_>
    <_>
      <rect>
        17 5 1 2</rect></_>
    <_>
      <rect>
        17 6 1 1</rect></_>
    <_>
      <rect>
        17 7 1 1</rect></_>
    <_>
      <rect>
        17 7 1 2</rect></_>
    <_>
      <rect>
        17 7 2 1</rect></_>
    <_>
      <rect>
        17 8 1 1</rect></_>
    <_>
      <rect>
        17 8 1 2</rect></_>
    <_>
      <rect>
        17 11 1 2</rect></_>
    <_>
      <rect>
        18 1 1 2</rect></_>
    <_>
      <rect>
        18 2 1 4</rect></_>
    <_>
      <rect>
        18 3 1 4</rect></_>
    <_>
      <rect>
        18 4 1 3</rect></_>
    <_>
      <rect>
        18 6 2 1</rect></_>
    <_>
      <rect>
        18 7 1 1</rect></_>
    <_>
      <rect>
        19 4 1 1</rect></_>
    <_>
      <rect>
        19 6 1 1</rect></_>
    <_>
      <rect>
        19 7 1 1</rect></_>
    <_>
      <rect>
        19 8 1 2</rect></_>
    <_>
      <rect>
        19 10 1 1</rect></_>
    <_>
      <rect>
        20 0 5 3</rect></_>
    <_>
      <rect>
        20 3 5 5</rect></_>
    <_>
      <rect>
        20 4 1 3</rect></_>
    <_>
      <rect>
        20 4 5 3</rect></_>
    <_>
      <rect>
        20 5 1 3</rect></_>
    <_>
      <rect>
        20 5 4 2</rect></_>
    <_>
      <rect>
        20 6 1 2</rect></_>
    <_>
      <rect>
        20 6 5 4</rect></_>
    <_>
      <rect>
        20 7 4 1</rect></_>
    <_>
      <rect>
        20 8 5 1</rect></_>
    <_>
      <rect>
        20 9 1 1</rect></_>
    <_>
      <rect>
        21 5 1 3</rect></_>
    <_>
      <rect>
        21 6 1 2</rect></_>
    <_>
      <rect>
        22 0 4 4</rect></_>
    <_>
      <rect>
        22 5 1 3</rect></_>
    <_>
      <rect>
        22 8 5 2</rect></_>
    <_>
      <rect>
        23 0 4 4</rect></_>
    <_>
      <rect>
        23 1 4 4</rect></_>
    <_>
      <rect>
        23 5 3 4</rect></_>
    <_>
      <rect>
        24 0 4 5</rect></_>
    <_>
      <rect>
        24 4 2 4</rect></_>
    <_>
      <rect>
        25 8 4 3</rect></_>
    <_>
      <rect>
        26 5 1 2</rect></_>
    <_>
      <rect>
        26 9 2 3</rect></_>
    <_>
      <rect>
        26 9 3 2</rect></_>
    <_>
      <rect>
        28 3 2 5</rect></_></features></cascade>
</opencv_storage>
