<?xml version="1.0"?>
<opencv_storage>
<cascade>
  <stageType>BOOST</stageType>
  <featureType>LBP</featureType>
  <height>18</height>
  <width>38</width>
  <stageParams>
    <boostType>GAB</boostType>
    <minHitRate>9.9900001287460327e-01</minHitRate>
    <maxFalseAlarm>5.0000000000000000e-01</maxFalseAlarm>
    <weightTrimRate>9.4999999999999996e-01</weightTrimRate>
    <maxDepth>1</maxDepth>
    <maxWeakCount>100</maxWeakCount></stageParams>
  <featureParams>
    <maxCatCount>256</maxCatCount>
    <featSize>1</featSize></featureParams>
  <stageNum>10</stageNum>
  <stages>
    <!-- stage 0 -->
    <_>
      <maxWeakCount>3</maxWeakCount>
      <stageThreshold>-1.2361581325531006e+00</stageThreshold>
      <weakClassifiers>
        <_>
          <internalNodes>
            0 -1 29 -579809040 -573570928 268521695 -2158191 -1065320262
            -91619189 -938964293 -4218709</internalNodes>
          <leafValues>
            -9.3284595012664795e-01 5.8265584707260132e-01</leafValues></_>
        <_>
          <internalNodes>
            0 -1 11 -528430882 -11779950 2271 1594737299 -293025031
            -12025670 369200063 -75510629</internalNodes>
          <leafValues>
            -8.1129628419876099e-01 5.6886118650436401e-01</leafValues></_>
        <_>
          <internalNodes>
            0 -1 50 -641146752 -11485184 -2096310853 -183385711
            -2138535766 1809239203 -2104951813 -69506385</internalNodes>
          <leafValues>
            -8.7217336893081665e-01 5.3570377826690674e-01</leafValues></_></weakClassifiers></_>
    <!-- stage 1 -->
    <_>
      <maxWeakCount>5</maxWeakCount>
      <stageThreshold>-1.5073266029357910e+00</stageThreshold>
      <weakClassifiers>
        <_>
          <internalNodes>
            0 -1 7 -16777473 -1999983914 -262679585 -590348577 -85983249
            -290750213 -18875713 -889192705</internalNodes>
          <leafValues>
            -8.6110347509384155e-01 2.9127052426338196e-01</leafValues></_>
        <_>
          <internalNodes>
            0 -1 38 -221253494 -771252222 1073811584 1426292995
            -1056726902 131072 285721514 -204473377</internalNodes>
          <leafValues>
            -7.3668634891510010e-01 5.2327269315719604e-01</leafValues></_>
        <_>
          <internalNodes>
            0 -1 41 -125515576 -68150720 1978670079 -1648291791
            -1967619928 -21020417 -610759681 -1056769</internalNodes>
          <leafValues>
            -8.2978248596191406e-01 4.4764792919158936e-01</leafValues></_>
        <_>
          <internalNodes>
            0 -1 34 -763373345 -581236005 1412556831 1398742271
            -904135749 -1156382309 33992127 456871391</internalNodes>
          <leafValues>
            -7.3709833621978760e-01 5.3986704349517822e-01</leafValues></_>
        <_>
          <internalNodes>
            0 -1 8 -419534082 -59937 -1500896734 -2071723862 -286785537
            1893625487 -285544710 -33554689</internalNodes>
          <leafValues>
            -7.7199530601501465e-01 5.1854610443115234e-01</leafValues></_></weakClassifiers></_>
    <!-- stage 2 -->
    <_>
      <maxWeakCount>6</maxWeakCount>
      <stageThreshold>-1.9226166009902954e+00</stageThreshold>
      <weakClassifiers>
        <_>
          <internalNodes>
            0 -1 9 -251725057 -84477826 -281804833 -37096641 -1
            -324362241 -68424705 -6291489</internalNodes>
          <leafValues>
            -8.2024246454238892e-01 3.1013917922973633e-01</leafValues></_>
        <_>
          <internalNodes>
            0 -1 27 -1122380584 -4255522 1568398815 1607589215
            -1920366360 -1624768264 453770239 525199871</internalNodes>
          <leafValues>
            -7.9810738563537598e-01 3.0030155181884766e-01</leafValues></_>
        <_>
          <internalNodes>
            0 -1 3 -387544321 -1073202439 1758382715 686537471
            -268443649 -1429700609 -755105793 -824180785</internalNodes>
          <leafValues>
            -7.3429524898529053e-01 4.0601491928100586e-01</leafValues></_>
        <_>
          <internalNodes>
            0 -1 54 -640811014 -70258134 730476785 -542911745
            -1618363749 -1643406707 -1690764357 -1617190917</internalNodes>
          <leafValues>
            -5.4927021265029907e-01 6.1173272132873535e-01</leafValues></_>
        <_>
          <internalNodes>
            0 -1 13 -2003899730 -1978741052 -901187078 1942471823
            -290717713 -294722090 -376635905 -53485621</internalNodes>
          <leafValues>
            -7.1971642971038818e-01 4.7705945372581482e-01</leafValues></_>
        <_>
          <internalNodes>
            0 -1 37 -213126677 -783025461 268472544 -249335079
            -1677659414 1879068946 -234630326 -2097153</internalNodes>
          <leafValues>
            -5.2977544069290161e-01 6.3797080516815186e-01</leafValues></_></weakClassifiers></_>
    <!-- stage 3 -->
    <_>
      <maxWeakCount>6</maxWeakCount>
      <stageThreshold>-1.9757779836654663e+00</stageThreshold>
      <weakClassifiers>
        <_>
          <internalNodes>
            0 -1 47 -1279307297 -675324417 -1791763457 -541073921
            -105259521 -4259677 -1617625089 -4195589</internalNodes>
          <leafValues>
            -7.9783582687377930e-01 2.2057369351387024e-01</leafValues></_>
        <_>
          <internalNodes>
            0 -1 10 -757075713 416045308 -460071425 994959349 -119538689
            -1971002628 -1174418689 -1882194977</internalNodes>
          <leafValues>
            -6.5640753507614136e-01 4.2508748173713684e-01</leafValues></_>
        <_>
          <internalNodes>
            0 -1 43 -2637182 -1859403582 -1056472960 285310986
            -1073561461 294914 1392747560 -682638709</internalNodes>
          <leafValues>
            -6.5331947803497314e-01 4.4820755720138550e-01</leafValues></_>
        <_>
          <internalNodes>
            0 -1 30 -246818064 1363152912 923907893 1564546517 2629760
            -2146959326 151779723 455807035</internalNodes>
          <leafValues>
            -7.3359620571136475e-01 3.8739356398582458e-01</leafValues></_>
        <_>
          <internalNodes>
            0 -1 4 -251666721 142738154 2120211455 -1731209729
            -1484786769 -1268785729 -105197975 -1929380097</internalNodes>
          <leafValues>
            -6.4165806770324707e-01 4.7585320472717285e-01</leafValues></_>
        <_>
          <internalNodes>
            0 -1 48 1528323674 -82816862 1360730715 2136677331
            -1181615170 -611809574 2034659327 526350539</internalNodes>
          <leafValues>
            -7.3146182298660278e-01 4.0934491157531738e-01</leafValues></_></weakClassifiers></_>
    <!-- stage 4 -->
    <_>
      <maxWeakCount>7</maxWeakCount>
      <stageThreshold>-1.4123294353485107e+00</stageThreshold>
      <weakClassifiers>
        <_>
          <internalNodes>
            0 -1 44 -238028821 -716713321 62131 1402428747 -1073027445
            -901369147 -720635189 -3147041</internalNodes>
          <leafValues>
            -7.7321153879165649e-01 2.8904429078102112e-01</leafValues></_>
        <_>
          <internalNodes>
            0 -1 52 -209464630 -771098400 952189320 -7351574 268485326
            1073756169 294635726 -538969089</internalNodes>
          <leafValues>
            -7.1228015422821045e-01 3.2817435264587402e-01</leafValues></_>
        <_>
          <internalNodes>
            0 -1 19 1492844543 -1837047814 2028535295 -745278981
            1241726447 182983855 232770815 1483981823</internalNodes>
          <leafValues>
            -6.6118258237838745e-01 4.1252788901329041e-01</leafValues></_>
        <_>
          <internalNodes>
            0 -1 60 -1030504310 -781991406 1090798594 1963054281
            1884155563 -1861839866 1355530475 -10488977</internalNodes>
          <leafValues>
            -5.7023113965988159e-01 5.0334131717681885e-01</leafValues></_>
        <_>
          <internalNodes>
            0 -1 59 -197992318 -789593888 1086571454 -783556477
            -2113748342 1479754255 1109322382 -748698705</internalNodes>
          <leafValues>
            -5.2125632762908936e-01 5.4516714811325073e-01</leafValues></_>
        <_>
          <internalNodes>
            0 -1 46 -2101018632 1196537318 529076401 1197412795
            -913593922 -1953773051 191048703 261033919</internalNodes>
          <leafValues>
            -7.5151693820953369e-01 3.7288513779640198e-01</leafValues></_>
        <_>
          <internalNodes>
            0 -1 32 -712260990 -240267072 1470159249 1359053985
            204443818 1166499881 -784269142 -683163646</internalNodes>
          <leafValues>
            -5.6977051496505737e-01 4.6332231163978577e-01</leafValues></_></weakClassifiers></_>
    <!-- stage 5 -->
    <_>
      <maxWeakCount>7</maxWeakCount>
      <stageThreshold>-1.7063019275665283e+00</stageThreshold>
      <weakClassifiers>
        <_>
          <internalNodes>
            0 -1 47 -1145055265 -4236877 -1625292801 -536879105
            -1078206977 -4208385 -15081477 -4194305</internalNodes>
          <leafValues>
            -7.5928294658660889e-01 1.8435753881931305e-01</leafValues></_>
        <_>
          <internalNodes>
            0 -1 5 -1347424530 -77749590 -1613631745 -8392984 -317986321
            -169354593 -807287332 -1060899</internalNodes>
          <leafValues>
            -6.9548439979553223e-01 2.9204437136650085e-01</leafValues></_>
        <_>
          <internalNodes>
            0 -1 26 352280575 1342990026 1577054207 367783835 -657216033
            -658593030 152038655 -1145309249</internalNodes>
          <leafValues>
            -5.5274331569671631e-01 4.5577558875083923e-01</leafValues></_>
        <_>
          <internalNodes>
            0 -1 62 -865335287 -140629161 -858544385 -68703345
            -1971430659 -625025139 207523566 -89481685</internalNodes>
          <leafValues>
            -5.6480681896209717e-01 4.1786080598831177e-01</leafValues></_>
        <_>
          <internalNodes>
            0 -1 40 -255143488 -239013432 -2113740897 322163667
            -1293226102 -779560069 -1163171077 -679510033</internalNodes>
          <leafValues>
            -6.8441480398178101e-01 3.7942621111869812e-01</leafValues></_>
        <_>
          <internalNodes>
            0 -1 17 -792006450 -153620451 -235678981 1934619825
            -268009330 -234876793 -1521868289 1952411891</internalNodes>
          <leafValues>
            -6.9466006755828857e-01 3.3640125393867493e-01</leafValues></_>
        <_>
          <internalNodes>
            0 -1 31 -359691904 -470814806 -178918744 1735916696
            1131865039 658926842 1620369579 124776958</internalNodes>
          <leafValues>
            -7.6354646682739258e-01 2.7489402890205383e-01</leafValues></_></weakClassifiers></_>
    <!-- stage 6 -->
    <_>
      <maxWeakCount>7</maxWeakCount>
      <stageThreshold>-2.1935212612152100e+00</stageThreshold>
      <weakClassifiers>
        <_>
          <internalNodes>
            0 -1 57 -1212197377 2143246335 -1080008705 -37790721
            -1081102117 -1147446529 -1079246853 -4195585</internalNodes>
          <leafValues>
            -7.7078777551651001e-01 1.5734266489744186e-02</leafValues></_>
        <_>
          <internalNodes>
            0 -1 0 -940572673 -1941114893 1877999613 -1343226377
            -848314369 201633771 -1161297993 -286265601</internalNodes>
          <leafValues>
            -6.0035264492034912e-01 3.3955997228622437e-01</leafValues></_>
        <_>
          <internalNodes>
            0 -1 35 -117443841 -791029107 -33686051 1427443084
            -1460528385 -1426370817 -1646280705 526384863</internalNodes>
          <leafValues>
            -5.3326618671417236e-01 4.2516601085662842e-01</leafValues></_>
        <_>
          <internalNodes>
            0 -1 45 -253244792 -68621830 221220056 -146015973
            -1069553013 -1472184113 958396587 -69213185</internalNodes>
          <leafValues>
            -5.0429254770278931e-01 4.4811716675758362e-01</leafValues></_>
        <_>
          <internalNodes>
            0 -1 1 -2065701121 551534315 -46149129 2044050111 1825406207
            -1463050290 -72897045 14679021</internalNodes>
          <leafValues>
            -6.5912646055221558e-01 3.7449711561203003e-01</leafValues></_>
        <_>
          <internalNodes>
            0 -1 24 -1714466594 -136769285 50258171 -108273837
            -1124284184 -1616159178 350136479 466572059</internalNodes>
          <leafValues>
            -6.8795317411422729e-01 3.1550931930541992e-01</leafValues></_>
        <_>
          <internalNodes>
            0 -1 58 -922760465 -572554499 181199594 333463805 -376439081
            -1075131681 -131470337 -606737425</internalNodes>
          <leafValues>
            -4.7482866048812866e-01 5.1230138540267944e-01</leafValues></_></weakClassifiers></_>
    <!-- stage 7 -->
    <_>
      <maxWeakCount>8</maxWeakCount>
      <stageThreshold>-1.7701221704483032e+00</stageThreshold>
      <weakClassifiers>
        <_>
          <internalNodes>
            0 -1 36 -67109889 -536887329 411763403 2065687115 -884100097
            354126547 -1016868213 -69209121</internalNodes>
          <leafValues>
            -7.5456500053405762e-01 9.2936800792813301e-03</leafValues></_>
        <_>
          <internalNodes>
            0 -1 14 -17913094 -1400852826 -1741251334 -60684118
            -875036929 -1363293506 -31499526 -839975169</internalNodes>
          <leafValues>
            -7.7414935827255249e-01 1.5963302552700043e-01</leafValues></_>
        <_>
          <internalNodes>
            0 -1 63 -871495674 -586172514 1837472959 1066778542
            -1947743306 -271598801 -25179206 -148205657</internalNodes>
          <leafValues>
            -6.4697849750518799e-01 2.8431329131126404e-01</leafValues></_>
        <_>
          <internalNodes>
            0 -1 25 -801804240 -1078690061 5265617 1411389299 -338128137
            -806647065 4791775 453641342</internalNodes>
          <leafValues>
            -6.5746814012527466e-01 3.2029455900192261e-01</leafValues></_>
        <_>
          <internalNodes>
            0 -1 51 -661942270 -32989182 1140989954 1091240714
            -448020326 919564 -746614374 1400883103</internalNodes>
          <leafValues>
            -6.8396621942520142e-01 2.9161062836647034e-01</leafValues></_>
        <_>
          <internalNodes>
            0 -1 18 2028982527 811883773 -577276178 1431698900
            -2001809157 16511725 -1143350531 -548074511</internalNodes>
          <leafValues>
            -5.6880211830139160e-01 3.7567180395126343e-01</leafValues></_>
        <_>
          <internalNodes>
            0 -1 12 122151662 -403706202 1963517158 -75057842 -872677893
            -335957037 -674248228 -1477514336</internalNodes>
          <leafValues>
            -6.8888497352600098e-01 2.9469066858291626e-01</leafValues></_>
        <_>
          <internalNodes>
            0 -1 42 -858393384 -537109536 1427200409 1393905729
            -2009954136 -1349965141 1872338943 -1612998211</internalNodes>
          <leafValues>
            -6.0781633853912354e-01 3.4917613863945007e-01</leafValues></_></weakClassifiers></_>
    <!-- stage 8 -->
    <_>
      <maxWeakCount>8</maxWeakCount>
      <stageThreshold>-1.9708254337310791e+00</stageThreshold>
      <weakClassifiers>
        <_>
          <internalNodes>
            0 -1 61 -204741973 -615519709 -737615837 -788011485
            -800986965 -669286269 1103362187 -210765105</internalNodes>
          <leafValues>
            -7.5568336248397827e-01 -3.5683203488588333e-02</leafValues></_>
        <_>
          <internalNodes>
            0 -1 22 -2142454 -679818485 -571450450 2002680474 -87570033
            1950417198 1964627343 1981774847</internalNodes>
          <leafValues>
            -7.2584187984466553e-01 1.7639854550361633e-01</leafValues></_>
        <_>
          <internalNodes>
            0 -1 47 866980057 -676505177 -1692805154 532504063
            -1617179185 -826472263 960430043 -1383072257</internalNodes>
          <leafValues>
            -5.8822071552276611e-01 3.3146727085113525e-01</leafValues></_>
        <_>
          <internalNodes>
            0 -1 53 -11799893 -1070489574 -175285221 540738 1459733451
            -649731933 1078053327 -663750721</internalNodes>
          <leafValues>
            -4.2280271649360657e-01 4.9312108755111694e-01</leafValues></_>
        <_>
          <internalNodes>
            0 -1 55 350169839 -665687327 -51235076 1547728477 -564413283
            -614471493 -1420834625 1258290927</internalNodes>
          <leafValues>
            -5.9161889553070068e-01 3.5721692442893982e-01</leafValues></_>
        <_>
          <internalNodes>
            0 -1 15 646704845 579333869 -456409605 1587925471 1054867181
            2041430493 2011558133 -364588820</internalNodes>
          <leafValues>
            -5.7914155721664429e-01 3.7528988718986511e-01</leafValues></_>
        <_>
          <internalNodes>
            0 -1 2 -136347817 805315444 -1109975841 1500555156
            1098629962 -46532537 -1157854997 -1674445897</internalNodes>
          <leafValues>
            -5.1054650545120239e-01 4.0985438227653503e-01</leafValues></_>
        <_>
          <internalNodes>
            0 -1 20 -714611262 -27815936 268550272 1975892952
            -1816528246 -989855672 1360119986 2134628683</internalNodes>
          <leafValues>
            -5.9623873233795166e-01 3.5195401310920715e-01</leafValues></_></weakClassifiers></_>
    <!-- stage 9 -->
    <_>
      <maxWeakCount>9</maxWeakCount>
      <stageThreshold>-1.9206767082214355e+00</stageThreshold>
      <weakClassifiers>
        <_>
          <internalNodes>
            0 -1 39 -10793 -545794593 464716115 1065344983 -7865409
            152832427 -1146647925 -1</internalNodes>
          <leafValues>
            -7.6295882463455200e-01 -6.2550768256187439e-02</leafValues></_>
        <_>
          <internalNodes>
            0 -1 6 -934376321 -402103609 -320261378 985279231 -269819905
            -823367429 -823264257 -825425921</internalNodes>
          <leafValues>
            -7.3295766115188599e-01 1.4210352301597595e-01</leafValues></_>
        <_>
          <internalNodes>
            0 -1 21 -1821449470 -623971482 -478741656 -136582192
            -478150904 1161983875 -210243170 1918362875</internalNodes>
          <leafValues>
            -7.3300695419311523e-01 2.2369803488254547e-01</leafValues></_>
        <_>
          <internalNodes>
            0 -1 49 286940624 1436614594 461099507 1467680179 -321159478
            -537339698 311262200 1545467647</internalNodes>
          <leafValues>
            -6.7879509925842285e-01 3.0020299553871155e-01</leafValues></_>
        <_>
          <internalNodes>
            0 -1 16 -1070127966 -1882331068 8529956 -630460917 -77414002
            -970238757 1731125759 -33555973</internalNodes>
          <leafValues>
            -4.8933091759681702e-01 3.7709617614746094e-01</leafValues></_>
        <_>
          <internalNodes>
            0 -1 28 918246899 -1618780689 464639999 1608458361
            -561708028 -1710273892 -553848069 486931531</internalNodes>
          <leafValues>
            -5.4069811105728149e-01 3.8556292653083801e-01</leafValues></_>
        <_>
          <internalNodes>
            0 -1 56 -70610742 -584983856 275284128 -687686171 276844104
            1090769054 1133569791 -539033617</internalNodes>
          <leafValues>
            -6.6532230377197266e-01 2.9730820655822754e-01</leafValues></_>
        <_>
          <internalNodes>
            0 -1 33 -223612277 -720575904 -805109759 1360524175
            1084481931 -930121770 1091547531 -547387141</internalNodes>
          <leafValues>
            -4.0987387299537659e-01 4.8928713798522949e-01</leafValues></_>
        <_>
          <internalNodes>
            0 -1 23 -82838550 -145064467 408203402 -699111521 -798952776
            -888089436 862823423 2064665983</internalNodes>
          <leafValues>
            -5.9084981679916382e-01 3.4586909413337708e-01</leafValues></_></weakClassifiers></_></stages>
  <features>
    <_>
      <rect>
        0 1 6 2</rect></_>
    <_>
      <rect>
        2 5 3 2</rect></_>
    <_>
      <rect>
        2 8 3 3</rect></_>
    <_>
      <rect>
        3 2 10 4</rect></_>
    <_>
      <rect>
        3 5 3 3</rect></_>
    <_>
      <rect>
        4 0 6 4</rect></_>
    <_>
      <rect>
        4 0 9 5</rect></_>
    <_>
      <rect>
        4 3 3 4</rect></_>
    <_>
      <rect>
        4 5 5 4</rect></_>
    <_>
      <rect>
        4 5 10 3</rect></_>
    <_>
      <rect>
        5 4 10 4</rect></_>
    <_>
      <rect>
        5 7 5 1</rect></_>
    <_>
      <rect>
        6 2 4 2</rect></_>
    <_>
      <rect>
        6 4 3 2</rect></_>
    <_>
      <rect>
        6 6 2 3</rect></_>
    <_>
      <rect>
        7 0 3 2</rect></_>
    <_>
      <rect>
        8 9 1 1</rect></_>
    <_>
      <rect>
        9 6 5 1</rect></_>
    <_>
      <rect>
        10 5 8 4</rect></_>
    <_>
      <rect>
        11 3 7 3</rect></_>
    <_>
      <rect>
        11 4 2 4</rect></_>
    <_>
      <rect>
        12 4 2 1</rect></_>
    <_>
      <rect>
        12 5 2 1</rect></_>
    <_>
      <rect>
        12 5 3 1</rect></_>
    <_>
      <rect>
        12 7 3 1</rect></_>
    <_>
      <rect>
        12 9 5 1</rect></_>
    <_>
      <rect>
        13 4 6 3</rect></_>
    <_>
      <rect>
        13 7 3 1</rect></_>
    <_>
      <rect>
        13 7 4 1</rect></_>
    <_>
      <rect>
        13 8 4 1</rect></_>
    <_>
      <rect>
        13 10 4 1</rect></_>
    <_>
      <rect>
        14 2 2 2</rect></_>
    <_>
      <rect>
        14 3 1 4</rect></_>
    <_>
      <rect>
        14 5 1 3</rect></_>
    <_>
      <rect>
        14 6 3 1</rect></_>
    <_>
      <rect>
        14 7 6 2</rect></_>
    <_>
      <rect>
        15 3 2 3</rect></_>
    <_>
      <rect>
        15 4 2 3</rect></_>
    <_>
      <rect>
        15 5 1 3</rect></_>
    <_>
      <rect>
        15 5 2 2</rect></_>
    <_>
      <rect>
        15 6 2 2</rect></_>
    <_>
      <rect>
        15 8 3 1</rect></_>
    <_>
      <rect>
        15 8 4 1</rect></_>
    <_>
      <rect>
        16 4 1 3</rect></_>
    <_>
      <rect>
        16 5 1 3</rect></_>
    <_>
      <rect>
        16 5 2 1</rect></_>
    <_>
      <rect>
        16 6 3 1</rect></_>
    <_>
      <rect>
        16 7 2 1</rect></_>
    <_>
      <rect>
        16 7 3 1</rect></_>
    <_>
      <rect>
        16 7 4 1</rect></_>
    <_>
      <rect>
        16 8 2 1</rect></_>
    <_>
      <rect>
        16 11 1 1</rect></_>
    <_>
      <rect>
        17 2 2 4</rect></_>
    <_>
      <rect>
        17 4 1 3</rect></_>
    <_>
      <rect>
        17 6 3 1</rect></_>
    <_>
      <rect>
        18 2 5 4</rect></_>
    <_>
      <rect>
        18 4 2 3</rect></_>
    <_>
      <rect>
        18 7 1 1</rect></_>
    <_>
      <rect>
        19 2 5 5</rect></_>
    <_>
      <rect>
        19 10 1 1</rect></_>
    <_>
      <rect>
        20 4 1 3</rect></_>
    <_>
      <rect>
        20 5 1 3</rect></_>
    <_>
      <rect>
        23 0 4 4</rect></_>
    <_>
      <rect>
        24 1 4 4</rect></_></features></cascade>
</opencv_storage>
