<?xml version="1.0"?>
<opencv_storage>
<cascade>
  <stageType>BOOST</stageType>
  <featureType>LBP</featureType>
  <height>18</height>
  <width>38</width>
  <stageParams>
    <boostType>GAB</boostType>
    <minHitRate>9.9900001287460327e-01</minHitRate>
    <maxFalseAlarm>4.0000000596046448e-01</maxFalseAlarm>
    <weightTrimRate>9.4999999999999996e-01</weightTrimRate>
    <maxDepth>1</maxDepth>
    <maxWeakCount>100</maxWeakCount></stageParams>
  <featureParams>
    <maxCatCount>256</maxCatCount>
    <featSize>1</featSize></featureParams>
  <stageNum>15</stageNum>
  <stages>
    <!-- stage 0 -->
    <_>
      <maxWeakCount>4</maxWeakCount>
      <stageThreshold>-1.8106404542922974e+00</stageThreshold>
      <weakClassifiers>
        <_>
          <internalNodes>
            0 -1 92 -113196848 -40878080 -1850699301 -11468783
            -1476359000 -90688888 -1730631233 -284437</internalNodes>
          <leafValues>
            -9.0086209774017334e-01 7.0877945423126221e-01</leafValues></_>
        <_>
          <internalNodes>
            0 -1 63 -201272613 -115797995 -2146348289 1430069461
            -536827733 -670040056 35007 526319679</internalNodes>
          <leafValues>
            -8.0751472711563110e-01 5.5512642860412598e-01</leafValues></_>
        <_>
          <internalNodes>
            0 -1 14 -926628610 -608124781 33556735 -1355972450
            -1374563911 -1162739528 -599208261 -268706821</internalNodes>
          <leafValues>
            -6.9744747877120972e-01 6.7119437456130981e-01</leafValues></_>
        <_>
          <internalNodes>
            0 -1 101 -796331840 -720646016 -2147446652 -586968885
            -1035949398 -603405694 -601494789 -7348225</internalNodes>
          <leafValues>
            -7.6745742559432983e-01 5.9792947769165039e-01</leafValues></_></weakClassifiers></_>
    <!-- stage 1 -->
    <_>
      <maxWeakCount>5</maxWeakCount>
      <stageThreshold>-2.3603165149688721e+00</stageThreshold>
      <weakClassifiers>
        <_>
          <internalNodes>
            0 -1 80 -40841008 -7237472 1361986047 -2241417 -92217096
            -71597927 -2146923777 -74716993</internalNodes>
          <leafValues>
            -8.5823214054107666e-01 4.9975478649139404e-01</leafValues></_>
        <_>
          <internalNodes>
            0 -1 23 -158544178 -538967990 -1920971570 -3505426
            -334692357 -76693318 -880784385 -11801105</internalNodes>
          <leafValues>
            -8.1504696607589722e-01 4.8550340533256531e-01</leafValues></_>
        <_>
          <internalNodes>
            0 -1 128 -1069293430 -1325276030 16793664 -788275133
            1073782922 268484616 1346830474 -143657989</internalNodes>
          <leafValues>
            -6.5890091657638550e-01 6.2272512912750244e-01</leafValues></_>
        <_>
          <internalNodes>
            0 -1 34 -286332694 -1065180534 541065344 1350837474
            2085540786 1959582 -120652070 -100663361</internalNodes>
          <leafValues>
            -7.6830106973648071e-01 5.3167998790740967e-01</leafValues></_>
        <_>
          <internalNodes>
            0 -1 24 -889306369 -259507464 721059839 -544343169
            -889266433 -2002074374 -536870913 -806692865</internalNodes>
          <leafValues>
            -5.6038582324981689e-01 6.7522221803665161e-01</leafValues></_></weakClassifiers></_>
    <!-- stage 2 -->
    <_>
      <maxWeakCount>7</maxWeakCount>
      <stageThreshold>-1.2865325212478638e+00</stageThreshold>
      <weakClassifiers>
        <_>
          <internalNodes>
            0 -1 115 -662648616 -3041152 1293242845 -673902315
            -926381910 -74463089 -875894021 -269105</internalNodes>
          <leafValues>
            -8.4771889448165894e-01 3.1250000000000000e-01</leafValues></_>
        <_>
          <internalNodes>
            0 -1 13 -926483713 -930740146 -1608114693 -1463852485
            -25231873 -319887938 -22347777 -825230593</internalNodes>
          <leafValues>
            -7.6418185234069824e-01 4.6802482008934021e-01</leafValues></_>
        <_>
          <internalNodes>
            0 -1 85 -741875478 -788152192 -1073683440 1363641859
            -1073504118 -2147483646 1074381450 -741348721</internalNodes>
          <leafValues>
            -6.0424822568893433e-01 6.4669656753540039e-01</leafValues></_>
        <_>
          <internalNodes>
            0 -1 98 -753942358 -788414462 -1060962176 1380122626
            -1002192766 0 1073905834 -750525765</internalNodes>
          <leafValues>
            -6.0295248031616211e-01 5.8459597826004028e-01</leafValues></_>
        <_>
          <internalNodes>
            0 -1 88 -750529798 -717073261 1125257907 1462849885
            -1870491461 -1467940719 151245051 456851627</internalNodes>
          <leafValues>
            -6.6151595115661621e-01 5.5387884378433228e-01</leafValues></_>
        <_>
          <internalNodes>
            0 -1 33 -470825238 -925982518 -1337290550 1373307040
            1754000058 -607140855 -157820673 -17826817</internalNodes>
          <leafValues>
            -6.7751151323318481e-01 5.2782481908798218e-01</leafValues></_>
        <_>
          <internalNodes>
            0 -1 119 -972570486 -700348798 1392527496 -1878880229
            -536163702 1074996298 1074064042 -611329329</internalNodes>
          <leafValues>
            -6.9458681344985962e-01 5.0604116916656494e-01</leafValues></_></weakClassifiers></_>
    <!-- stage 3 -->
    <_>
      <maxWeakCount>7</maxWeakCount>
      <stageThreshold>-1.3871675729751587e+00</stageThreshold>
      <weakClassifiers>
        <_>
          <internalNodes>
            0 -1 15 -353440001 -3611926 244199135 -271809010 -407114753
            -4194321 -71578625 -4208129</internalNodes>
          <leafValues>
            -7.2254335880279541e-01 3.1073445081710815e-01</leafValues></_>
        <_>
          <internalNodes>
            0 -1 103 -1683271209 -542173797 532635135 532632031
            -1416901157 -1685126451 1069153791 -1087652865</internalNodes>
          <leafValues>
            -5.5383396148681641e-01 5.2379548549652100e-01</leafValues></_>
        <_>
          <internalNodes>
            0 -1 20 -1882222866 -1333046 -1901075233 -4217174 1862266591
            -3215891 -1381243158 -3160884</internalNodes>
          <leafValues>
            -6.9920307397842407e-01 3.8802894949913025e-01</leafValues></_>
        <_>
          <internalNodes>
            0 -1 29 283079423 138957494 1545338367 -2138506347
            -1496351841 -2003898698 -924057601 -574095457</internalNodes>
          <leafValues>
            -6.2514442205429077e-01 4.2465037107467651e-01</leafValues></_>
        <_>
          <internalNodes>
            0 -1 92 -638529336 -136771392 -1324207757 -15478504
            -387150616 -2114536 436771519 -69552901</internalNodes>
          <leafValues>
            -7.0708978176116943e-01 4.0537729859352112e-01</leafValues></_>
        <_>
          <internalNodes>
            0 -1 66 -642723591 -783138814 1602572503 352654163
            -2109439832 -1333788672 269048287 1594573279</internalNodes>
          <leafValues>
            -5.3454184532165527e-01 4.9178096652030945e-01</leafValues></_>
        <_>
          <internalNodes>
            0 -1 2 -18910113 3342939 1829974487 -2065967669 -11538313
            -2000713133 -121644266 -2132809251</internalNodes>
          <leafValues>
            -6.5420657396316528e-01 4.0774908661842346e-01</leafValues></_></weakClassifiers></_>
    <!-- stage 4 -->
    <_>
      <maxWeakCount>8</maxWeakCount>
      <stageThreshold>-1.8805488348007202e+00</stageThreshold>
      <weakClassifiers>
        <_>
          <internalNodes>
            0 -1 72 1358426879 -792874285 -252313601 1364590549
            -1125123345 -1193594643 -1112540161 1499462619</internalNodes>
          <leafValues>
            -7.1354013681411743e-01 2.0694509148597717e-01</leafValues></_>
        <_>
          <internalNodes>
            0 -1 79 495146196 -5828133 221601243 1597464059 -1668496248
            -1895366520 -1624507397 522128379</internalNodes>
          <leafValues>
            -7.3316055536270142e-01 2.7355778217315674e-01</leafValues></_>
        <_>
          <internalNodes>
            0 -1 108 -1073495414 1346611202 268558346 554090638 32938
            1350780003 1073799210 -749747413</internalNodes>
          <leafValues>
            -6.5110945701599121e-01 3.6162033677101135e-01</leafValues></_>
        <_>
          <internalNodes>
            0 -1 7 -276107602 -552213274 -1408701698 -614471033
            -191825169 -542397011 -991214372 -9699602</internalNodes>
          <leafValues>
            -5.8121359348297119e-01 4.0879827737808228e-01</leafValues></_>
        <_>
          <internalNodes>
            0 -1 140 -836107250 -543249394 -375945729 1474662287
            -1192456481 -1634953016 -1141667602 -72578897</internalNodes>
          <leafValues>
            -6.1270630359649658e-01 3.6857977509498596e-01</leafValues></_>
        <_>
          <internalNodes>
            0 -1 126 -770972982 -1056783694 16931538 1124327754 23167656
            12489403 39561362 -752094261</internalNodes>
          <leafValues>
            -5.0637841224670410e-01 4.6671938896179199e-01</leafValues></_>
        <_>
          <internalNodes>
            0 -1 78 -3939 2147455199 -1165815568 523174389 -1954932513
            429462161 -1149259025 -537154625</internalNodes>
          <leafValues>
            -4.4491398334503174e-01 5.3133392333984375e-01</leafValues></_>
        <_>
          <internalNodes>
            0 -1 57 535547839 841541102 -576786465 -612707665 1272532734
            178391217 210444031 179861950</internalNodes>
          <leafValues>
            -6.2668108940124512e-01 3.8265752792358398e-01</leafValues></_></weakClassifiers></_>
    <!-- stage 5 -->
    <_>
      <maxWeakCount>8</maxWeakCount>
      <stageThreshold>-1.8206357955932617e+00</stageThreshold>
      <weakClassifiers>
        <_>
          <internalNodes>
            0 -1 86 -224921366 -235691293 1879307434 -706530089
            -2000647974 -1731088248 -1716528641 -8705</internalNodes>
          <leafValues>
            -6.9300997257232666e-01 1.9710843265056610e-01</leafValues></_>
        <_>
          <internalNodes>
            0 -1 104 -1727900454 -552990182 420699615 1599823743
            -644097317 -72778406 453082110 522157279</internalNodes>
          <leafValues>
            -6.8537402153015137e-01 2.9044780135154724e-01</leafValues></_>
        <_>
          <internalNodes>
            0 -1 27 -152043777 -324097374 -353698049 -188227603
            -605028609 -328220930 -570425345 -909115649</internalNodes>
          <leafValues>
            -4.8237922787666321e-01 4.8990756273269653e-01</leafValues></_>
        <_>
          <internalNodes>
            0 -1 64 -132609928 -48713520 -182919969 -7088007 -98696966
            -23447390 555547135 -1086745701</internalNodes>
          <leafValues>
            -6.1006927490234375e-01 3.5235106945037842e-01</leafValues></_>
        <_>
          <internalNodes>
            0 -1 123 -607397672 -754721174 526354872 -1331333
            -1971085318 16850155 -1954825797 -1615873025</internalNodes>
          <leafValues>
            -4.5977684855461121e-01 4.9173653125762939e-01</leafValues></_>
        <_>
          <internalNodes>
            0 -1 52 2135396514 -211314618 50410640 -246987838
            -1241010006 1411579904 589954 1934594259</internalNodes>
          <leafValues>
            -5.9661322832107544e-01 3.8589081168174744e-01</leafValues></_>
        <_>
          <internalNodes>
            0 -1 4 -1293543553 1926249140 -294987521 -1327452417
            1653586814 -971777041 -77082661 -1561134353</internalNodes>
          <leafValues>
            -5.9962886571884155e-01 3.3481112122535706e-01</leafValues></_>
        <_>
          <internalNodes>
            0 -1 132 -99882878 -69867326 -1071464447 -1052122752
            -502552446 170431170 1092869066 1393549867</internalNodes>
          <leafValues>
            -6.0082191228866577e-01 3.6129128932952881e-01</leafValues></_></weakClassifiers></_>
    <!-- stage 6 -->
    <_>
      <maxWeakCount>10</maxWeakCount>
      <stageThreshold>-1.7879739999771118e+00</stageThreshold>
      <weakClassifiers>
        <_>
          <internalNodes>
            0 -1 141 -1058037553 -2103553 -723400481 -136328529
            -122696481 -5129 -119734529 -33558805</internalNodes>
          <leafValues>
            -6.1231529712677002e-01 3.0657893419265747e-01</leafValues></_>
        <_>
          <internalNodes>
            0 -1 63 -243271589 -178293153 -258738949 2004576223
            -66477941 -133960568 285588671 358433503</internalNodes>
          <leafValues>
            -6.2235659360885620e-01 2.7603578567504883e-01</leafValues></_>
        <_>
          <internalNodes>
            0 -1 28 -363860246 -1597077878 -594768312 -125042937
            -1050753 -2001739800 2129381375 -825229369</internalNodes>
          <leafValues>
            -6.2030684947967529e-01 3.0354005098342896e-01</leafValues></_>
        <_>
          <internalNodes>
            0 -1 65 -1438611320 -74120560 -893386575 1595413248
            -387270486 -6559557 -1430757441 -71804435</internalNodes>
          <leafValues>
            -6.5340179204940796e-01 3.2015001773834229e-01</leafValues></_>
        <_>
          <internalNodes>
            0 -1 99 -1060117877 -720944621 1074324577 1360745235
            -1072971070 1476756628 1363647211 -3158369</internalNodes>
          <leafValues>
            -4.0928551554679871e-01 5.0269109010696411e-01</leafValues></_>
        <_>
          <internalNodes>
            0 -1 48 -792961537 810598640 -63466081 -42599451 1085823231
            138960112 -2064810245 1514526325</internalNodes>
          <leafValues>
            -5.7913690805435181e-01 3.5676622390747070e-01</leafValues></_>
        <_>
          <internalNodes>
            0 -1 100 -202407798 -71631973 1577953336 -77858149
            1883749055 1079128086 836077711 -79965281</internalNodes>
          <leafValues>
            -4.8083508014678955e-01 4.1202303767204285e-01</leafValues></_>
        <_>
          <internalNodes>
            0 -1 12 217054711 413660728 -666381319 -1140851747
            -333721905 -1666331185 -865081513 -1999638923</internalNodes>
          <leafValues>
            -4.9294120073318481e-01 4.2197299003601074e-01</leafValues></_>
        <_>
          <internalNodes>
            0 -1 43 -121717014 -1854220858 -28173462 293723034 726345774
            -1371849941 -1986507969 1801956107</internalNodes>
          <leafValues>
            -5.6207972764968872e-01 3.4433746337890625e-01</leafValues></_>
        <_>
          <internalNodes>
            0 -1 71 -102016870 -671934550 -1984621356 -176737134
            -1319908762 -1388243529 -1144275715 -8940545</internalNodes>
          <leafValues>
            -4.5198902487754822e-01 4.2816987633705139e-01</leafValues></_></weakClassifiers></_>
    <!-- stage 7 -->
    <_>
      <maxWeakCount>12</maxWeakCount>
      <stageThreshold>-1.3063795566558838e+00</stageThreshold>
      <weakClassifiers>
        <_>
          <internalNodes>
            0 -1 5 -17830145 -6126354 -1373196545 -9548114 -69667841
            -69016582 -808600593 -1970209</internalNodes>
          <leafValues>
            -6.2578290700912476e-01 2.1624714136123657e-01</leafValues></_>
        <_>
          <internalNodes>
            0 -1 21 -864047361 -871888681 -1468552481 -1871632333
            -1461720065 -1360068641 1088289787 -858914885</internalNodes>
          <leafValues>
            -5.7350385189056396e-01 2.8303703665733337e-01</leafValues></_>
        <_>
          <internalNodes>
            0 -1 119 -205260149 -754810368 -1048451761 1073842187
            1347668618 -1822343102 1343089830 -770980081</internalNodes>
          <leafValues>
            -4.2945143580436707e-01 4.0191718935966492e-01</leafValues></_>
        <_>
          <internalNodes>
            0 -1 11 1462722423 822132396 -944514185 -40831494 -137625729
            -55836746 -976229740 -2003763809</internalNodes>
          <leafValues>
            -4.6645581722259521e-01 3.8157227635383606e-01</leafValues></_>
        <_>
          <internalNodes>
            0 -1 76 -355470806 -206617719 -1047807064 2075882323
            1081733679 1096828703 6652303 599246523</internalNodes>
          <leafValues>
            -6.0250520706176758e-01 3.1206092238426208e-01</leafValues></_>
        <_>
          <internalNodes>
            0 -1 113 -1146988271 -83356270 227630559 1505319639
            -1256616262 -644349559 -1903097093 2046819786</internalNodes>
          <leafValues>
            -5.5458271503448486e-01 3.3368584513664246e-01</leafValues></_>
        <_>
          <internalNodes>
            0 -1 31 -338696209 -1066472790 -3145747 -1052737 -138416129
            -920649985 -9441313 -436353593</internalNodes>
          <leafValues>
            -4.2341989278793335e-01 4.5581719279289246e-01</leafValues></_>
        <_>
          <internalNodes>
            0 -1 85 -317216182 4382752 -1073553344 -971816447 1483194506
            1342193795 268558344 -615265729</internalNodes>
          <leafValues>
            -5.2291178703308105e-01 3.7607830762863159e-01</leafValues></_>
        <_>
          <internalNodes>
            0 -1 139 -359759282 -48952638 749781087 -1178334555
            -1248679717 1876659155 -2005475622 1050726141</internalNodes>
          <leafValues>
            -6.1258816719055176e-01 2.9498085379600525e-01</leafValues></_>
        <_>
          <internalNodes>
            0 -1 37 1682085826 -153427766 33659135 1930332898 856225175
            -1290280105 728392907 991909887</internalNodes>
          <leafValues>
            -6.0688364505767822e-01 2.9095393419265747e-01</leafValues></_>
        <_>
          <internalNodes>
            0 -1 107 -209768224 -1755694958 1074790448 1951990051
            -1832376694 211814916 1096334210 2146424767</internalNodes>
          <leafValues>
            -5.8124351501464844e-01 3.0015155673027039e-01</leafValues></_>
        <_>
          <internalNodes>
            0 -1 47 -1338813837 -75009417 353812529 -678029518
            1880510680 -352845737 1145505119 2069853779</internalNodes>
          <leafValues>
            -5.2621465921401978e-01 3.4605151414871216e-01</leafValues></_></weakClassifiers></_>
    <!-- stage 8 -->
    <_>
      <maxWeakCount>13</maxWeakCount>
      <stageThreshold>-1.4914492368698120e+00</stageThreshold>
      <weakClassifiers>
        <_>
          <internalNodes>
            0 -1 136 -770972981 -213398833 -719592521 -1043861349
            -1069311745 229527 1498402971 -3412001</internalNodes>
          <leafValues>
            -5.8766955137252808e-01 2.3803278803825378e-01</leafValues></_>
        <_>
          <internalNodes>
            0 -1 124 951803903 967924433 816405503 2143124991
            -1148682310 -1146463272 -1114047493 -1079017985</internalNodes>
          <leafValues>
            -4.8225086927413940e-01 3.4145194292068481e-01</leafValues></_>
        <_>
          <internalNodes>
            0 -1 9 -290467841 145632942 -427876614 -860959025 1743642559
            1691352991 -1075972995 -992084739</internalNodes>
          <leafValues>
            -6.9292467832565308e-01 2.5058710575103760e-01</leafValues></_>
        <_>
          <internalNodes>
            0 -1 144 -1345450354 -1156925714 -1644034218 -1713337784
            -614731953 -1610773825 -85209123 -69223468</internalNodes>
          <leafValues>
            -5.0233751535415649e-01 3.4858965873718262e-01</leafValues></_>
        <_>
          <internalNodes>
            0 -1 70 -36715902 -75661309 -144332319 1364410513 -492189558
            1359348161 34128014 -887127421</internalNodes>
          <leafValues>
            -4.3372967839241028e-01 4.0093371272087097e-01</leafValues></_>
        <_>
          <internalNodes>
            0 -1 84 -678172005 -918323141 -2135895855 285442179
            -547360352 -1856984875 1627865392 -502269234</internalNodes>
          <leafValues>
            -3.6811679601669312e-01 4.5550721883773804e-01</leafValues></_>
        <_>
          <internalNodes>
            0 -1 135 -2134241778 -65235161 -740946619 2091065870
            1558454363 -8717892 -8738594 -819021297</internalNodes>
          <leafValues>
            -5.8231830596923828e-01 2.8724801540374756e-01</leafValues></_>
        <_>
          <internalNodes>
            0 -1 32 2146430863 -1884360945 -838877235 1532993502
            -268718081 -923795481 -546834731 -209717263</internalNodes>
          <leafValues>
            -3.8008847832679749e-01 4.4508734345436096e-01</leafValues></_>
        <_>
          <internalNodes>
            0 -1 96 -454628182 -1780732762 -109754352 1608507275
            17365757 290473215 990740874 1659889647</internalNodes>
          <leafValues>
            -6.0250151157379150e-01 3.0630311369895935e-01</leafValues></_>
        <_>
          <internalNodes>
            0 -1 93 -14287621 -402915 1897215409 1461389749 -1997635380
            -873951489 1801844207 -32527393</internalNodes>
          <leafValues>
            -3.9398872852325439e-01 4.8908492922782898e-01</leafValues></_>
        <_>
          <internalNodes>
            0 -1 16 1971258743 -1319092440 -737093317 -181339185
            1191311125 -1359611589 -320091805 -1803493822</internalNodes>
          <leafValues>
            -4.8664280772209167e-01 3.9313694834709167e-01</leafValues></_>
        <_>
          <internalNodes>
            0 -1 74 -5179183 -5169248 17332701 1943903961 -333317
            -1622168821 50515678 522853777</internalNodes>
          <leafValues>
            -4.7621470689773560e-01 3.7445318698883057e-01</leafValues></_>
        <_>
          <internalNodes>
            0 -1 61 1492670686 -1870595934 -1621492321 -89626946
            1089947835 -2132768016 1454132119 453949021</internalNodes>
          <leafValues>
            -6.7643088102340698e-01 2.5494933128356934e-01</leafValues></_></weakClassifiers></_>
    <!-- stage 9 -->
    <_>
      <maxWeakCount>12</maxWeakCount>
      <stageThreshold>-1.3016813993453979e+00</stageThreshold>
      <weakClassifiers>
        <_>
          <internalNodes>
            0 -1 10 -16785409 285208575 -536871969 -33554473 -68684969
            -1460671505 -1191941 -1459618825</internalNodes>
          <leafValues>
            -6.2854778766632080e-01 1.3377754390239716e-01</leafValues></_>
        <_>
          <internalNodes>
            0 -1 102 -809246982 1393758027 154339891 1462178609
            -1920745565 -1954525782 530553279 252648431</internalNodes>
          <leafValues>
            -6.3855838775634766e-01 2.0478673279285431e-01</leafValues></_>
        <_>
          <internalNodes>
            0 -1 110 -204487549 -1071644605 1426454087 -1073545013
            -720910333 67557387 1078063275 -892933157</internalNodes>
          <leafValues>
            -4.1185516119003296e-01 3.6865004897117615e-01</leafValues></_>
        <_>
          <internalNodes>
            0 -1 30 1110435311 1189792876 -839657539 -174097611
            -844497921 -806897759 1185934319 -1924139892</internalNodes>
          <leafValues>
            -4.1086998581886292e-01 3.9672505855560303e-01</leafValues></_>
        <_>
          <internalNodes>
            0 -1 106 -113196912 -78528000 -537305637 -3844143
            -2104973078 -29453 -87244850 -2167075</internalNodes>
          <leafValues>
            -6.2128627300262451e-01 2.5508180260658264e-01</leafValues></_>
        <_>
          <internalNodes>
            0 -1 109 -74481458 -157409042 -1725265398 -5244724 570621886
            42571817 1797505791 -84937746</internalNodes>
          <leafValues>
            -4.1433441638946533e-01 3.7761828303337097e-01</leafValues></_>
        <_>
          <internalNodes>
            0 -1 129 -503076182 -56626815 -996664774 658875547
            1749860526 547389596 1619656858 -355471633</internalNodes>
          <leafValues>
            -4.6348753571510315e-01 3.4547573328018188e-01</leafValues></_>
        <_>
          <internalNodes>
            0 -1 51 -232607736 2034748923 -2048223626 527612671
            -556282146 326583531 256837642 1195892108</internalNodes>
          <leafValues>
            -6.1150580644607544e-01 2.6376464962959290e-01</leafValues></_>
        <_>
          <internalNodes>
            0 -1 142 175572103 -28595865 -1071681545 -1657027890
            1224675255 -16796213 -775483668 -288695631</internalNodes>
          <leafValues>
            -4.2229494452476501e-01 3.8421189785003662e-01</leafValues></_>
        <_>
          <internalNodes>
            0 -1 45 -1568168146 -406134034 910750474 -134553713
            -33627681 -411576143 1923072751 -1071128948</internalNodes>
          <leafValues>
            -4.7306868433952332e-01 3.5642406344413757e-01</leafValues></_>
        <_>
          <internalNodes>
            0 -1 41 -710530982 -145964992 13825791 -145231489 1160813144
            -578781048 1074286263 1493826493</internalNodes>
          <leafValues>
            -6.0192900896072388e-01 2.5852620601654053e-01</leafValues></_>
        <_>
          <internalNodes>
            0 -1 36 911193910 -561241 407905320 -197741842 2014887787
            -108398754 1784966123 -51314718</internalNodes>
          <leafValues>
            -4.8195722699165344e-01 3.2323762774467468e-01</leafValues></_></weakClassifiers></_>
    <!-- stage 10 -->
    <_>
      <maxWeakCount>13</maxWeakCount>
      <stageThreshold>-1.6444844007492065e+00</stageThreshold>
      <weakClassifiers>
        <_>
          <internalNodes>
            0 -1 118 1356857087 -658553089 -391315969 -595525905
            -593575937 -4463989 465566175 -25297925</internalNodes>
          <leafValues>
            -6.0918283462524414e-01 1.0879749804735184e-01</leafValues></_>
        <_>
          <internalNodes>
            0 -1 58 -145237540 -264193 -738590574 1455882263 -279717656
            1409750016 -4356948 1535107070</internalNodes>
          <leafValues>
            -5.4115694761276245e-01 2.3913875222206116e-01</leafValues></_>
        <_>
          <internalNodes>
            0 -1 97 -1165319974 -746542858 -741342477 1070774485
            -3495768 455835899 1399327370 1576987375</internalNodes>
          <leafValues>
            -5.6208467483520508e-01 2.5045335292816162e-01</leafValues></_>
        <_>
          <internalNodes>
            0 -1 8 -41953281 811775991 -11966113 1031602070 -15728877
            -40371203 -825230367 -1997284353</internalNodes>
          <leafValues>
            -3.8832068443298340e-01 3.9150753617286682e-01</leafValues></_>
        <_>
          <internalNodes>
            0 -1 69 1517985416 -149684741 -1179189198 1396380594
            -551817748 100685400 999234459 1461933630</internalNodes>
          <leafValues>
            -6.0709613561630249e-01 2.4736025929450989e-01</leafValues></_>
        <_>
          <internalNodes>
            0 -1 39 109808779 1330637698 1476120559 -135301518
            1317007311 -1880105137 -2130973953 -1055005</internalNodes>
          <leafValues>
            -3.6521163582801819e-01 4.1887739300727844e-01</leafValues></_>
        <_>
          <internalNodes>
            0 -1 127 -103299005 -646873040 -352074171 -34130829
            -502541669 -668409824 1075822602 1376506403</internalNodes>
          <leafValues>
            -4.8066312074661255e-01 3.1729710102081299e-01</leafValues></_>
        <_>
          <internalNodes>
            0 -1 145 -1366160126 -545304017 802506267 2144273158
            -374062060 -1371606422 -337649921 -1343550396</internalNodes>
          <leafValues>
            -5.5417072772979736e-01 2.8798928856849670e-01</leafValues></_>
        <_>
          <internalNodes>
            0 -1 112 -560447848 -42466657 1905418044 1071325436
            -284515622 705824490 487572939 497944702</internalNodes>
          <leafValues>
            -7.2224134206771851e-01 2.1154038608074188e-01</leafValues></_>
        <_>
          <internalNodes>
            0 -1 35 -274694 -1220936201 -1094136642 491877207
            -1414013959 -52624705 2138159071 1599239571</internalNodes>
          <leafValues>
            -4.8014467954635620e-01 3.0899411439895630e-01</leafValues></_>
        <_>
          <internalNodes>
            0 -1 98 -574111094 -1056456534 -599636744 -1022123998
            -789855582 1343771695 -1055485270 -72887670</internalNodes>
          <leafValues>
            -4.2195516824722290e-01 3.8272985816001892e-01</leafValues></_>
        <_>
          <internalNodes>
            0 -1 91 -1727819477 -545400583 254389759 -149061211
            800763135 -1140883521 757825471 -879803389</internalNodes>
          <leafValues>
            -3.3375573158264160e-01 4.8348611593246460e-01</leafValues></_>
        <_>
          <internalNodes>
            0 -1 1 -301298565 -899274082 1794319018 176620177 -272900181
            -941501551 -1680673857 -996611586</internalNodes>
          <leafValues>
            -6.8652558326721191e-01 2.4592049419879913e-01</leafValues></_></weakClassifiers></_>
    <!-- stage 11 -->
    <_>
      <maxWeakCount>14</maxWeakCount>
      <stageThreshold>-1.7187240123748779e+00</stageThreshold>
      <weakClassifiers>
        <_>
          <internalNodes>
            0 -1 122 -393742521 -549325483 -274025001 -282634681
            -296747529 -1074825929 -72359441 -296753169</internalNodes>
          <leafValues>
            -5.7747197151184082e-01 1.4855071902275085e-01</leafValues></_>
        <_>
          <internalNodes>
            0 -1 94 -45613436 -714008669 -590348971 -571083561 -88081492
            -2137466057 -288892818 178249279</internalNodes>
          <leafValues>
            -5.0622868537902832e-01 2.5202047824859619e-01</leafValues></_>
        <_>
          <internalNodes>
            0 -1 40 -726678390 -773075254 1352822944 1412649250
            -504893458 -645708988 -374420518 1573868543</internalNodes>
          <leafValues>
            -5.7114672660827637e-01 2.4341019988059998e-01</leafValues></_>
        <_>
          <internalNodes>
            0 -1 46 -1024990705 -966529265 -227019254 -205037857
            -356519941 1667753391 1744170397 -159919635</internalNodes>
          <leafValues>
            -3.5398769378662109e-01 3.8522690534591675e-01</leafValues></_>
        <_>
          <internalNodes>
            0 -1 3 1439661951 1023458794 -841624073 -35596068 1119877733
            -1397623943 -44875812 -1474232338</internalNodes>
          <leafValues>
            -3.7933474779129028e-01 3.6943450570106506e-01</leafValues></_>
        <_>
          <internalNodes>
            0 -1 83 -125132416 -69171205 -350572611 818423887 -212868731
            253538135 1891579264 1343925130</internalNodes>
          <leafValues>
            -6.2701362371444702e-01 2.2283913195133209e-01</leafValues></_>
        <_>
          <internalNodes>
            0 -1 131 -84170581 -12847105 2147302331 -570572803
            -1615086675 -1602076773 -1113739348 -1664242901</internalNodes>
          <leafValues>
            -3.3957874774932861e-01 4.4006463885307312e-01</leafValues></_>
        <_>
          <internalNodes>
            0 -1 137 -1436694801 717163239 1627014471 20987496
            -458318849 -890616879 -1387593729 826583537</internalNodes>
          <leafValues>
            -4.7677806019783020e-01 3.1447973847389221e-01</leafValues></_>
        <_>
          <internalNodes>
            0 -1 138 -2109603833 -524293 502497275 -738655745 789547995
            -805872661 721404254 -873935382</internalNodes>
          <leafValues>
            -3.8686552643775940e-01 3.9855161309242249e-01</leafValues></_>
        <_>
          <internalNodes>
            0 -1 42 -1025069330 -246258976 -502996226 -161865504
            1263260394 -94304768 1662450943 2012955222</internalNodes>
          <leafValues>
            -5.8851373195648193e-01 2.4412502348423004e-01</leafValues></_>
        <_>
          <internalNodes>
            0 -1 133 -206577408 -1037848180 218317073 1401525664
            -875568089 1076811016 1294464863 1125119455</internalNodes>
          <leafValues>
            -5.0688487291336060e-01 2.8995123505592346e-01</leafValues></_>
        <_>
          <internalNodes>
            0 -1 59 -548679254 2078270953 25211656 429091563 -1312783158
            486549504 856001026 -338707553</internalNodes>
          <leafValues>
            -4.5228818058967590e-01 3.3395904302597046e-01</leafValues></_>
        <_>
          <internalNodes>
            0 -1 50 104278583 1254063671 -396611329 284785179
            -1343280853 -416658856 -708502524 -782509586</internalNodes>
          <leafValues>
            -4.0910908579826355e-01 3.7734860181808472e-01</leafValues></_>
        <_>
          <internalNodes>
            0 -1 89 -787677068 -71339300 503124019 -50433 -538596131
            -1627582772 -1668248337 -351605265</internalNodes>
          <leafValues>
            -3.8616806268692017e-01 4.0992218255996704e-01</leafValues></_></weakClassifiers></_>
    <!-- stage 12 -->
    <_>
      <maxWeakCount>14</maxWeakCount>
      <stageThreshold>-1.1738259792327881e+00</stageThreshold>
      <weakClassifiers>
        <_>
          <internalNodes>
            0 -1 103 -1078504457 -37792261 1069506037 -10273 -4728883
            -1326137 -1483344909 -1048861</internalNodes>
          <leafValues>
            -5.7503789663314819e-01 1.5782983601093292e-01</leafValues></_>
        <_>
          <internalNodes>
            0 -1 17 -1099473665 1017166523 -52955897 2147475484
            -226517505 -1128570981 -926060551 148761700</internalNodes>
          <leafValues>
            -5.4325938224792480e-01 2.2738128900527954e-01</leafValues></_>
        <_>
          <internalNodes>
            0 -1 60 417226235 -927403782 -438436481 -778486853 216138905
            -2009568654 345989117 -30476353</internalNodes>
          <leafValues>
            -4.4975861907005310e-01 2.7933123707771301e-01</leafValues></_>
        <_>
          <internalNodes>
            0 -1 95 -1024265342 -67437575 1810955131 1105240317
            -974735226 191019910 2036855170 1407185290</internalNodes>
          <leafValues>
            -4.4875329732894897e-01 3.1657627224922180e-01</leafValues></_>
        <_>
          <internalNodes>
            0 -1 22 -1620066386 -1913202 -175839388 -1645598 2040623079
            -120530563 -772947487 -134224671</internalNodes>
          <leafValues>
            -5.0747561454772949e-01 2.7994379401206970e-01</leafValues></_>
        <_>
          <internalNodes>
            0 -1 68 -903090417 -855711025 2147482600 -2101486
            -1065889881 1113739019 -1837763089 -675551319</internalNodes>
          <leafValues>
            -3.5966801643371582e-01 3.8249507546424866e-01</leafValues></_>
        <_>
          <internalNodes>
            0 -1 81 -562181044 -1277956194 1027415483 297066449
            722397834 -348939613 797964895 426445321</internalNodes>
          <leafValues>
            -5.3090506792068481e-01 2.4932470917701721e-01</leafValues></_>
        <_>
          <internalNodes>
            0 -1 125 285282307 -645809136 -11806735 -648585392
            1889468827 -1645314082 -1149632562 -112212017</internalNodes>
          <leafValues>
            -3.7447956204414368e-01 3.8018420338630676e-01</leafValues></_>
        <_>
          <internalNodes>
            0 -1 114 452675647 -1165355943 -328092585 -229034191
            2128057599 -1433415798 -389023249 -1979129968</internalNodes>
          <leafValues>
            -4.2624804377555847e-01 3.4689420461654663e-01</leafValues></_>
        <_>
          <internalNodes>
            0 -1 77 -672955773 -787129257 -683339580 1360071974
            -207619150 -1593469688 1414234811 1648599319</internalNodes>
          <leafValues>
            -3.9312011003494263e-01 3.7884294986724854e-01</leafValues></_>
        <_>
          <internalNodes>
            0 -1 56 -789228297 150206582 -11143971 160543615 -793717932
            -1604025180 1127308794 158015582</internalNodes>
          <leafValues>
            -5.2787548303604126e-01 2.6103395223617554e-01</leafValues></_>
        <_>
          <internalNodes>
            0 -1 148 543884115 1610006143 -1228968386 1609100028
            1337924533 -1110458437 -619283550 -1589449</internalNodes>
          <leafValues>
            -3.5420942306518555e-01 4.1415214538574219e-01</leafValues></_>
        <_>
          <internalNodes>
            0 -1 38 -18286386 1539578320 -248679956 999359213 -367355681
            -1902073702 -1909534546 132307933</internalNodes>
          <leafValues>
            -4.4552928209304810e-01 3.4309047460556030e-01</leafValues></_>
        <_>
          <internalNodes>
            0 -1 87 1419902976 1572893497 1369115646 -1681884097
            -648364666 457381655 -64056954 1912070127</internalNodes>
          <leafValues>
            -5.9661197662353516e-01 2.3461727797985077e-01</leafValues></_></weakClassifiers></_>
    <!-- stage 13 -->
    <_>
      <maxWeakCount>15</maxWeakCount>
      <stageThreshold>-1.6037596464157104e+00</stageThreshold>
      <weakClassifiers>
        <_>
          <internalNodes>
            0 -1 62 -144711841 -10529570 -217582529 2146851071
            -1254759474 -1279998737 -1086981377 -1652731393</internalNodes>
          <leafValues>
            -5.9682279825210571e-01 8.2426130771636963e-02</leafValues></_>
        <_>
          <internalNodes>
            0 -1 26 -1469583385 172748687 -1182829057 -810884097
            -1073759773 -1677723148 -123111967 -1931680316</internalNodes>
          <leafValues>
            -5.1205706596374512e-01 2.3033775389194489e-01</leafValues></_>
        <_>
          <internalNodes>
            0 -1 147 1155137587 2111781887 -706521385 -210004213
            -622365441 -84673441 -144735509 -1620425685</internalNodes>
          <leafValues>
            -4.1588363051414490e-01 3.0438858270645142e-01</leafValues></_>
        <_>
          <internalNodes>
            0 -1 54 866866300 -678782802 395664891 -896535 -1097021434
            -1643297145 1067043535 521098139</internalNodes>
          <leafValues>
            -5.0795149803161621e-01 2.8750771284103394e-01</leafValues></_>
        <_>
          <internalNodes>
            0 -1 82 -205522997 954907631 -1878859638 -202669106
            -1065291014 16841063 -385294706 -68224037</internalNodes>
          <leafValues>
            -3.4565314650535583e-01 3.8686701655387878e-01</leafValues></_>
        <_>
          <internalNodes>
            0 -1 6 821496181 954957631 -1326514757 -1711284996
            -1199702537 -1157681969 -1460152457 -121774604</internalNodes>
          <leafValues>
            -3.5785448551177979e-01 3.8683065772056580e-01</leafValues></_>
        <_>
          <internalNodes>
            0 -1 73 -1291807360 -1655338812 2065162061 -1148387130
            -1962686484 -24124320 1599602682 1407960046</internalNodes>
          <leafValues>
            -5.4796302318572998e-01 2.3894147574901581e-01</leafValues></_>
        <_>
          <internalNodes>
            0 -1 53 -1062223093 -67443285 -1908677018 -405603093
            1124059210 1095916552 1734338125 -965248002</internalNodes>
          <leafValues>
            -4.3247494101524353e-01 3.1460702419281006e-01</leafValues></_>
        <_>
          <internalNodes>
            0 -1 49 36899347 -941412498 656681759 -261622855 -1390726314
            793640798 -249954439 -142616610</internalNodes>
          <leafValues>
            -3.5523125529289246e-01 3.8901787996292114e-01</leafValues></_>
        <_>
          <internalNodes>
            0 -1 67 -1014249716 -212427537 1448934744 -109126102
            -899503252 -113199969 1951384879 1412083245</internalNodes>
          <leafValues>
            -4.8925340175628662e-01 2.8469628095626831e-01</leafValues></_>
        <_>
          <internalNodes>
            0 -1 111 -226513270 -210831210 1891363456 -14961745 8379621
            154158813 163568061 1044076031</internalNodes>
          <leafValues>
            -5.4430407285690308e-01 2.6671332120895386e-01</leafValues></_>
        <_>
          <internalNodes>
            0 -1 0 2093971039 2019444479 1014498015 -1604267817
            -1223728875 -218948643 -890019461 -521212297</internalNodes>
          <leafValues>
            -4.8319187760353088e-01 2.9705426096916199e-01</leafValues></_>
        <_>
          <internalNodes>
            0 -1 105 1562990938 1568898506 1470716307 1389976312
            -333210887 -3604081 1682760178 1606418124</internalNodes>
          <leafValues>
            -5.3588962554931641e-01 2.7608877420425415e-01</leafValues></_>
        <_>
          <internalNodes>
            0 -1 134 -1078483990 -576478984 296248169 1599400368
            -274161510 988749467 1196434670 -2097201</internalNodes>
          <leafValues>
            -3.3872145414352417e-01 4.4438698887825012e-01</leafValues></_>
        <_>
          <internalNodes>
            0 -1 18 985421951 -1300213380 940742942 1070004020 -12592994
            -829528371 2145161887 -1349588460</internalNodes>
          <leafValues>
            -4.8231783509254456e-01 3.2214412093162537e-01</leafValues></_></weakClassifiers></_>
    <!-- stage 14 -->
    <_>
      <maxWeakCount>15</maxWeakCount>
      <stageThreshold>-1.2239137887954712e+00</stageThreshold>
      <weakClassifiers>
        <_>
          <internalNodes>
            0 -1 120 -167789633 -69226805 -1182719351 -470707393
            982051839 -342220294 -1467244305 -2097</internalNodes>
          <leafValues>
            -5.5804681777954102e-01 1.4048531651496887e-01</leafValues></_>
        <_>
          <internalNodes>
            0 -1 143 -865301497 -13127857 -874721413 -678981845
            -925069569 -2433317 -358627205 -459092849</internalNodes>
          <leafValues>
            -4.1763591766357422e-01 2.9538804292678833e-01</leafValues></_>
        <_>
          <internalNodes>
            0 -1 90 -1338288673 -550873376 957833173 -542474627
            -37254455 -544256122 -1828323649 -568667397</internalNodes>
          <leafValues>
            -3.5613763332366943e-01 3.4739303588867188e-01</leafValues></_>
        <_>
          <internalNodes>
            0 -1 25 -93339913 552512230 -520095489 808976343 2002202391
            -2130973445 -1462723 -2003708705</internalNodes>
          <leafValues>
            -5.1963639259338379e-01 2.4214471876621246e-01</leafValues></_>
        <_>
          <internalNodes>
            0 -1 55 -793779445 -155277457 -142650409 -134219817
            -1813252177 -956633089 -956827703 -1007686903</internalNodes>
          <leafValues>
            -2.5297769904136658e-01 4.7143304347991943e-01</leafValues></_>
        <_>
          <internalNodes>
            0 -1 75 581632315 -276103186 1576922427 1906643688 658653055
            -932020354 -487854625 -714344705</internalNodes>
          <leafValues>
            -3.0419576168060303e-01 4.2239400744438171e-01</leafValues></_>
        <_>
          <internalNodes>
            0 -1 149 756549653 2125848508 1342134143 -1210159125
            1986466233 -376969 -126582899 -537045092</internalNodes>
          <leafValues>
            -3.4429115056991577e-01 3.9264747500419617e-01</leafValues></_>
        <_>
          <internalNodes>
            0 -1 44 -722598294 1710708167 841908390 -45665490 1091084948
            318801194 1500798127 1195859790</internalNodes>
          <leafValues>
            -5.7225590944290161e-01 2.2346237301826477e-01</leafValues></_>
        <_>
          <internalNodes>
            0 -1 121 -105332552 -7854670 1563532347 2100860119
            -403062085 1797392267 -2128376696 535814109</internalNodes>
          <leafValues>
            -5.3972619771957397e-01 2.4570411443710327e-01</leafValues></_>
        <_>
          <internalNodes>
            0 -1 19 2098429429 1058319152 -182260334 -35793428
            -1679838863 -314409039 -742752012 960757840</internalNodes>
          <leafValues>
            -5.0996017456054688e-01 2.6033648848533630e-01</leafValues></_>
        <_>
          <internalNodes>
            0 -1 117 -479731125 -82083245 -9450405 -213547006
            -1038683642 1428930483 -972914526 -347084157</internalNodes>
          <leafValues>
            -2.9870757460594177e-01 4.7438326478004456e-01</leafValues></_>
        <_>
          <internalNodes>
            0 -1 116 -1820363368 278969232 -1156357219 469572851
            -1278399297 418439162 503197203 -1677787245</internalNodes>
          <leafValues>
            -4.1275963187217712e-01 3.5720872879028320e-01</leafValues></_>
        <_>
          <internalNodes>
            0 -1 146 -431028465 -560013506 -463635176 536930648
            1657637706 -1177847222 1132391952 1962933641</internalNodes>
          <leafValues>
            -4.7376790642738342e-01 3.0395907163619995e-01</leafValues></_>
        <_>
          <internalNodes>
            0 -1 150 154468407 1342101549 760430591 1508505935
            1831812761 1006332299 1866384417 -640879028</internalNodes>
          <leafValues>
            -4.0875518321990967e-01 3.3854740858078003e-01</leafValues></_>
        <_>
          <internalNodes>
            0 -1 130 -530063358 -492477918 -872089550 1141035626
            -1744459550 24834 289821883 -1877216593</internalNodes>
          <leafValues>
            -5.0488656759262085e-01 2.7893736958503723e-01</leafValues></_></weakClassifiers></_></stages>
  <features>
    <_>
      <rect>
        0 10 5 2</rect></_>
    <_>
      <rect>
        1 1 10 4</rect></_>
    <_>
      <rect>
        1 5 4 3</rect></_>
    <_>
      <rect>
        1 6 3 3</rect></_>
    <_>
      <rect>
        1 6 5 4</rect></_>
    <_>
      <rect>
        1 6 6 1</rect></_>
    <_>
      <rect>
        2 3 3 2</rect></_>
    <_>
      <rect>
        2 4 7 2</rect></_>
    <_>
      <rect>
        2 5 3 3</rect></_>
    <_>
      <rect>
        2 5 4 2</rect></_>
    <_>
      <rect>
        2 6 3 2</rect></_>
    <_>
      <rect>
        2 8 3 3</rect></_>
    <_>
      <rect>
        3 1 3 3</rect></_>
    <_>
      <rect>
        3 1 10 5</rect></_>
    <_>
      <rect>
        3 7 6 1</rect></_>
    <_>
      <rect>
        3 8 5 1</rect></_>
    <_>
      <rect>
        3 9 3 3</rect></_>
    <_>
      <rect>
        4 3 2 3</rect></_>
    <_>
      <rect>
        4 3 11 5</rect></_>
    <_>
      <rect>
        4 9 2 3</rect></_>
    <_>
      <rect>
        5 0 5 4</rect></_>
    <_>
      <rect>
        5 0 9 5</rect></_>
    <_>
      <rect>
        5 2 5 2</rect></_>
    <_>
      <rect>
        5 5 5 1</rect></_>
    <_>
      <rect>
        5 5 9 3</rect></_>
    <_>
      <rect>
        5 6 2 2</rect></_>
    <_>
      <rect>
        6 1 3 2</rect></_>
    <_>
      <rect>
        6 4 2 3</rect></_>
    <_>
      <rect>
        6 6 2 2</rect></_>
    <_>
      <rect>
        6 6 9 3</rect></_>
    <_>
      <rect>
        7 0 2 3</rect></_>
    <_>
      <rect>
        7 3 2 2</rect></_>
    <_>
      <rect>
        7 4 2 1</rect></_>
    <_>
      <rect>
        7 5 2 3</rect></_>
    <_>
      <rect>
        7 6 2 3</rect></_>
    <_>
      <rect>
        7 7 6 1</rect></_>
    <_>
      <rect>
        7 9 2 3</rect></_>
    <_>
      <rect>
        7 9 4 1</rect></_>
    <_>
      <rect>
        8 0 10 6</rect></_>
    <_>
      <rect>
        8 5 1 2</rect></_>
    <_>
      <rect>
        8 5 2 3</rect></_>
    <_>
      <rect>
        8 6 6 3</rect></_>
    <_>
      <rect>
        8 8 3 1</rect></_>
    <_>
      <rect>
        8 8 10 1</rect></_>
    <_>
      <rect>
        8 9 2 2</rect></_>
    <_>
      <rect>
        9 1 2 2</rect></_>
    <_>
      <rect>
        9 3 2 1</rect></_>
    <_>
      <rect>
        9 3 5 2</rect></_>
    <_>
      <rect>
        9 4 7 4</rect></_>
    <_>
      <rect>
        9 6 1 1</rect></_>
    <_>
      <rect>
        10 5 1 1</rect></_>
    <_>
      <rect>
        11 3 2 2</rect></_>
    <_>
      <rect>
        11 3 2 4</rect></_>
    <_>
      <rect>
        11 4 2 1</rect></_>
    <_>
      <rect>
        11 7 5 1</rect></_>
    <_>
      <rect>
        12 0 2 2</rect></_>
    <_>
      <rect>
        12 3 6 1</rect></_>
    <_>
      <rect>
        12 3 6 3</rect></_>
    <_>
      <rect>
        12 4 2 2</rect></_>
    <_>
      <rect>
        12 4 2 3</rect></_>
    <_>
      <rect>
        12 4 6 3</rect></_>
    <_>
      <rect>
        12 5 6 3</rect></_>
    <_>
      <rect>
        12 6 3 1</rect></_>
    <_>
      <rect>
        12 6 4 1</rect></_>
    <_>
      <rect>
        12 6 5 2</rect></_>
    <_>
      <rect>
        12 8 5 1</rect></_>
    <_>
      <rect>
        12 10 5 1</rect></_>
    <_>
      <rect>
        13 1 2 2</rect></_>
    <_>
      <rect>
        13 3 2 1</rect></_>
    <_>
      <rect>
        13 3 2 2</rect></_>
    <_>
      <rect>
        13 5 1 3</rect></_>
    <_>
      <rect>
        13 6 2 1</rect></_>
    <_>
      <rect>
        13 6 7 3</rect></_>
    <_>
      <rect>
        13 8 2 1</rect></_>
    <_>
      <rect>
        13 8 3 1</rect></_>
    <_>
      <rect>
        14 4 1 1</rect></_>
    <_>
      <rect>
        14 4 2 1</rect></_>
    <_>
      <rect>
        14 5 1 3</rect></_>
    <_>
      <rect>
        14 5 2 2</rect></_>
    <_>
      <rect>
        14 7 3 1</rect></_>
    <_>
      <rect>
        14 8 3 1</rect></_>
    <_>
      <rect>
        14 8 7 1</rect></_>
    <_>
      <rect>
        15 2 2 4</rect></_>
    <_>
      <rect>
        15 3 1 2</rect></_>
    <_>
      <rect>
        15 4 1 3</rect></_>
    <_>
      <rect>
        15 5 1 3</rect></_>
    <_>
      <rect>
        15 5 3 1</rect></_>
    <_>
      <rect>
        15 6 1 1</rect></_>
    <_>
      <rect>
        15 6 3 1</rect></_>
    <_>
      <rect>
        15 7 1 1</rect></_>
    <_>
      <rect>
        15 7 3 1</rect></_>
    <_>
      <rect>
        15 8 1 1</rect></_>
    <_>
      <rect>
        15 8 3 1</rect></_>
    <_>
      <rect>
        15 8 4 1</rect></_>
    <_>
      <rect>
        15 9 7 1</rect></_>
    <_>
      <rect>
        16 3 1 2</rect></_>
    <_>
      <rect>
        16 3 2 2</rect></_>
    <_>
      <rect>
        16 4 1 2</rect></_>
    <_>
      <rect>
        16 4 1 3</rect></_>
    <_>
      <rect>
        16 5 1 3</rect></_>
    <_>
      <rect>
        16 5 2 1</rect></_>
    <_>
      <rect>
        16 6 2 2</rect></_>
    <_>
      <rect>
        16 6 3 1</rect></_>
    <_>
      <rect>
        16 7 2 1</rect></_>
    <_>
      <rect>
        16 7 3 1</rect></_>
    <_>
      <rect>
        16 7 4 1</rect></_>
    <_>
      <rect>
        16 8 2 1</rect></_>
    <_>
      <rect>
        16 11 1 2</rect></_>
    <_>
      <rect>
        17 2 1 4</rect></_>
    <_>
      <rect>
        17 3 2 3</rect></_>
    <_>
      <rect>
        17 4 1 3</rect></_>
    <_>
      <rect>
        17 5 2 1</rect></_>
    <_>
      <rect>
        17 6 1 1</rect></_>
    <_>
      <rect>
        17 7 2 1</rect></_>
    <_>
      <rect>
        17 7 5 3</rect></_>
    <_>
      <rect>
        17 8 2 1</rect></_>
    <_>
      <rect>
        17 12 5 2</rect></_>
    <_>
      <rect>
        18 3 1 4</rect></_>
    <_>
      <rect>
        18 3 5 4</rect></_>
    <_>
      <rect>
        18 4 1 3</rect></_>
    <_>
      <rect>
        18 5 2 2</rect></_>
    <_>
      <rect>
        18 6 1 1</rect></_>
    <_>
      <rect>
        18 6 1 2</rect></_>
    <_>
      <rect>
        18 6 2 1</rect></_>
    <_>
      <rect>
        18 7 1 1</rect></_>
    <_>
      <rect>
        18 8 1 1</rect></_>
    <_>
      <rect>
        19 3 1 3</rect></_>
    <_>
      <rect>
        19 8 1 2</rect></_>
    <_>
      <rect>
        20 4 1 3</rect></_>
    <_>
      <rect>
        20 5 1 2</rect></_>
    <_>
      <rect>
        20 5 1 3</rect></_>
    <_>
      <rect>
        20 7 5 1</rect></_>
    <_>
      <rect>
        20 8 1 2</rect></_>
    <_>
      <rect>
        20 9 1 2</rect></_>
    <_>
      <rect>
        20 11 1 2</rect></_>
    <_>
      <rect>
        21 1 5 3</rect></_>
    <_>
      <rect>
        21 4 1 3</rect></_>
    <_>
      <rect>
        21 4 4 4</rect></_>
    <_>
      <rect>
        22 0 2 2</rect></_>
    <_>
      <rect>
        22 2 4 5</rect></_>
    <_>
      <rect>
        23 0 4 5</rect></_>
    <_>
      <rect>
        23 1 3 4</rect></_>
    <_>
      <rect>
        23 2 3 2</rect></_>
    <_>
      <rect>
        24 1 3 4</rect></_>
    <_>
      <rect>
        24 8 4 3</rect></_>
    <_>
      <rect>
        25 3 4 5</rect></_>
    <_>
      <rect>
        25 8 3 2</rect></_>
    <_>
      <rect>
        26 0 2 4</rect></_>
    <_>
      <rect>
        28 8 2 2</rect></_>
    <_>
      <rect>
        29 10 2 2</rect></_>
    <_>
      <rect>
        30 6 1 2</rect></_></features></cascade>
</opencv_storage>
