<?xml version="1.0"?>
<opencv_storage>
<cascade>
  <stageType>BOOST</stageType>
  <featureType>LBP</featureType>
  <height>18</height>
  <width>38</width>
  <stageParams>
    <boostType>GAB</boostType>
    <minHitRate>9.9900001287460327e-01</minHitRate>
    <maxFalseAlarm>4.0000000596046448e-01</maxFalseAlarm>
    <weightTrimRate>9.4999999999999996e-01</weightTrimRate>
    <maxDepth>1</maxDepth>
    <maxWeakCount>100</maxWeakCount></stageParams>
  <featureParams>
    <maxCatCount>256</maxCatCount>
    <featSize>1</featSize></featureParams>
  <stageNum>11</stageNum>
  <stages>
    <!-- stage 0 -->
    <_>
      <maxWeakCount>3</maxWeakCount>
      <stageThreshold>-1.3831846714019775e+00</stageThreshold>
      <weakClassifiers>
        <_>
          <internalNodes>
            0 -1 61 -243220352 -204353408 -678570499 -278115 -796882776
            -74282846 -91571461 -7489</internalNodes>
          <leafValues>
            -9.6652144193649292e-01 5.5813956260681152e-01</leafValues></_>
        <_>
          <internalNodes>
            0 -1 62 -658452232 -572676912 420499925 1431638097
            -1400340312 -1141374789 -38690817 -1140864548</internalNodes>
          <leafValues>
            -8.8646882772445679e-01 4.4577196240425110e-01</leafValues></_>
        <_>
          <internalNodes>
            0 -1 14 -890311446 -35830642 -2111831314 -275789714
            -339022609 -390078049 -290468369 -4369</internalNodes>
          <leafValues>
            -8.6243516206741333e-01 5.1041609048843384e-01</leafValues></_></weakClassifiers></_>
    <!-- stage 1 -->
    <_>
      <maxWeakCount>5</maxWeakCount>
      <stageThreshold>-1.4031419754028320e+00</stageThreshold>
      <weakClassifiers>
        <_>
          <internalNodes>
            0 -1 54 -104793896 -539422384 -105381889 -44431 -72816390
            -71577412 -6292481 -65</internalNodes>
          <leafValues>
            -8.9463734626770020e-01 2.9989659786224365e-01</leafValues></_>
        <_>
          <internalNodes>
            0 -1 15 -2004952321 -254925586 -2038833153 1072691423
            -658767873 -290521409 -654573569 -873468177</internalNodes>
          <leafValues>
            -7.8753316402435303e-01 5.0249272584915161e-01</leafValues></_>
        <_>
          <internalNodes>
            0 -1 52 -235937150 1459986434 344064 1426564611 1073979522
            1342177280 16875946 -212861206</internalNodes>
          <leafValues>
            -6.9211035966873169e-01 5.8809816837310791e-01</leafValues></_>
        <_>
          <internalNodes>
            0 -1 17 -286266625 -2004178290 -732177253 -791682337
            -83891461 685170889 -102761793 -922751745</internalNodes>
          <leafValues>
            -6.8163079023361206e-01 5.9392082691192627e-01</leafValues></_>
        <_>
          <internalNodes>
            0 -1 67 -1073709056 -242167141 1440741791 -167912961
            -1509885782 -1400191761 -1006437393 -74457105</internalNodes>
          <leafValues>
            -8.1731575727462769e-01 5.1835191249847412e-01</leafValues></_></weakClassifiers></_>
    <!-- stage 2 -->
    <_>
      <maxWeakCount>5</maxWeakCount>
      <stageThreshold>-1.4364281892776489e+00</stageThreshold>
      <weakClassifiers>
        <_>
          <internalNodes>
            0 -1 5 -285226241 -353457409 -287319041 -83920193 -289406977
            -353378305 -352322561 -16777217</internalNodes>
          <leafValues>
            -8.6422973871231079e-01 2.2210849821567535e-01</leafValues></_>
        <_>
          <internalNodes>
            0 -1 60 -1626514979 -544403041 530389503 1562335711
            -1145975589 -1148550707 -1087701249 -1145063425</internalNodes>
          <leafValues>
            -6.7115944623947144e-01 4.5200878381729126e-01</leafValues></_>
        <_>
          <internalNodes>
            0 -1 20 -401880438 1171202346 1083595483 1426052350
            -295712022 -1010220837 -286410501 -16781345</internalNodes>
          <leafValues>
            -6.4842087030410767e-01 5.2051436901092529e-01</leafValues></_>
        <_>
          <internalNodes>
            0 -1 56 -774121302 -1876197116 1090683075 -788454902
            -2142977910 1343324224 1364168874 -753929509</internalNodes>
          <leafValues>
            -6.4637196063995361e-01 5.3172016143798828e-01</leafValues></_>
        <_>
          <internalNodes>
            0 -1 11 149858047 44740206 481759 147639022 -389030913
            -288371137 1052770047 -825237793</internalNodes>
          <leafValues>
            -8.7067651748657227e-01 4.1185456514358521e-01</leafValues></_></weakClassifiers></_>
    <!-- stage 3 -->
    <_>
      <maxWeakCount>7</maxWeakCount>
      <stageThreshold>-1.5328661203384399e+00</stageThreshold>
      <weakClassifiers>
        <_>
          <internalNodes>
            0 -1 3 -70850817 -3227442 -810913793 -9469801 -36835329
            -68950849 -1618481217 -4228165</internalNodes>
          <leafValues>
            -7.4294418096542358e-01 3.6392915248870850e-01</leafValues></_>
        <_>
          <internalNodes>
            0 -1 35 521623768 -573187846 -1250722049 -1612754439
            -1156857672 -1617229654 857643967 523178943</internalNodes>
          <leafValues>
            -7.6825207471847534e-01 3.5417228937149048e-01</leafValues></_>
        <_>
          <internalNodes>
            0 -1 64 -754195830 -586186070 1797914891 -619708981 38003626
            17728186 2033179583 1473246207</internalNodes>
          <leafValues>
            -6.7339092493057251e-01 4.2099717259407043e-01</leafValues></_>
        <_>
          <internalNodes>
            0 -1 31 1356373247 270070522 -693633633 -8555553 15288575
            -1460640477 503316479 -251694593</internalNodes>
          <leafValues>
            -6.5686142444610596e-01 4.4041350483894348e-01</leafValues></_>
        <_>
          <internalNodes>
            0 -1 33 -129771311 -37105075 -1070008353 1943007539
            -268327807 -1123577421 21047435 251856801</internalNodes>
          <leafValues>
            -5.9420776367187500e-01 4.8423218727111816e-01</leafValues></_>
        <_>
          <internalNodes>
            0 -1 16 -1966094609 -831787313 -1111099395 -272371829
            1415569919 -375394139 1268767659 -976304691</internalNodes>
          <leafValues>
            -6.3055855035781860e-01 4.4117853045463562e-01</leafValues></_>
        <_>
          <internalNodes>
            0 -1 40 -13585776 -4504416 273754365 -8847331 -1289692742
            -5647861 8425723 -1685677672</internalNodes>
          <leafValues>
            -7.1121639013290405e-01 4.4344553351402283e-01</leafValues></_></weakClassifiers></_>
    <!-- stage 4 -->
    <_>
      <maxWeakCount>8</maxWeakCount>
      <stageThreshold>-2.1123154163360596e+00</stageThreshold>
      <weakClassifiers>
        <_>
          <internalNodes>
            0 -1 65 -221263221 -750272501 -1069229281 -1056718693
            -1073495841 -717633565 1359278842 -741346321</internalNodes>
          <leafValues>
            -7.7994114160537720e-01 1.3600000739097595e-01</leafValues></_>
        <_>
          <internalNodes>
            0 -1 79 -924185585 -35969089 -472183941 -137384561
            -118388065 -112052993 -220218657 -81033045</internalNodes>
          <leafValues>
            -6.5675145387649536e-01 3.8906645774841309e-01</leafValues></_>
        <_>
          <internalNodes>
            0 -1 19 -553656598 -573766452 1447362792 1439498469
            -621283602 -61877618 1572470783 -658506497</internalNodes>
          <leafValues>
            -5.3722012042999268e-01 4.7765016555786133e-01</leafValues></_>
        <_>
          <internalNodes>
            0 -1 45 -95887144 -34011592 53682459 862139185 -1131666770
            -21058897 1057660859 -1087380855</internalNodes>
          <leafValues>
            -6.7748361825942993e-01 3.8142639398574829e-01</leafValues></_>
        <_>
          <internalNodes>
            0 -1 9 -280498486 -423129350 -820803012 -608998525
            -825244439 -384048195 -1934376756 -1060916</internalNodes>
          <leafValues>
            -7.3747521638870239e-01 3.8646847009658813e-01</leafValues></_>
        <_>
          <internalNodes>
            0 -1 71 -234635262 -805183213 1342423129 -749240865
            -537405970 1392853547 -747639105 -144705029</internalNodes>
          <leafValues>
            -6.0842639207839966e-01 4.2972946166992188e-01</leafValues></_>
        <_>
          <internalNodes>
            0 -1 59 -84215590 -579695905 1482341560 1999854847
            -888555363 -1827659329 303415482 522166271</internalNodes>
          <leafValues>
            -6.4610046148300171e-01 4.0043079853057861e-01</leafValues></_>
        <_>
          <internalNodes>
            0 -1 47 411031807 7393736 -618808075 286367649 9139455
            950830239 -325723153 189922798</internalNodes>
          <leafValues>
            -7.3579490184783936e-01 3.4822916984558105e-01</leafValues></_></weakClassifiers></_>
    <!-- stage 5 -->
    <_>
      <maxWeakCount>9</maxWeakCount>
      <stageThreshold>-1.6259154081344604e+00</stageThreshold>
      <weakClassifiers>
        <_>
          <internalNodes>
            0 -1 77 -95441233 -55505 -1104171201 -571491457 -69733377
            -4457505 -4194305 -570425345</internalNodes>
          <leafValues>
            -7.2717505693435669e-01 1.1772486567497253e-01</leafValues></_>
        <_>
          <internalNodes>
            0 -1 75 -805052278 -800855893 1080377871 -788430825
            -1002049398 1343046912 1078449162 -13637125</internalNodes>
          <leafValues>
            -6.0556989908218384e-01 3.3764407038688660e-01</leafValues></_>
        <_>
          <internalNodes>
            0 -1 10 -83887361 216411786 -153124897 -119669025 -136849153
            -931400705 -19931405 -1459618625</internalNodes>
          <leafValues>
            -5.8159255981445312e-01 3.6800804734230042e-01</leafValues></_>
        <_>
          <internalNodes>
            0 -1 41 813748464 -614737285 271669715 1901138129 -831575560
            -1091589127 151029979 453705962</internalNodes>
          <leafValues>
            -6.1382669210433960e-01 3.5915374755859375e-01</leafValues></_>
        <_>
          <internalNodes>
            0 -1 61 -251625336 -211294080 -706872370 -547358723
            -792164216 -1079264513 -1362298630 -270800900</internalNodes>
          <leafValues>
            -8.5120642185211182e-01 2.6829528808593750e-01</leafValues></_>
        <_>
          <internalNodes>
            0 -1 8 -87658241 -1613843497 -345702913 464730775 -286326785
            -355554143 -1519977473 -1895830561</internalNodes>
          <leafValues>
            -5.3181225061416626e-01 4.0884670615196228e-01</leafValues></_>
        <_>
          <internalNodes>
            0 -1 58 -240134261 -985452287 1078055763 1359812610
            -1056588136 1560782694 1356061214 -682109185</internalNodes>
          <leafValues>
            -4.2018681764602661e-01 5.6931853294372559e-01</leafValues></_>
        <_>
          <internalNodes>
            0 -1 49 -469828892 -673251341 -1751327464 -749 1406499327
            16821403 294162075 1409284015</internalNodes>
          <leafValues>
            -5.9391719102859497e-01 3.8957932591438293e-01</leafValues></_>
        <_>
          <internalNodes>
            0 -1 43 -754466656 1374109969 1366907157 1363739239
            1456410697 1359974512 84246658 -754195793</internalNodes>
          <leafValues>
            -5.8122462034225464e-01 4.0821251273155212e-01</leafValues></_></weakClassifiers></_>
    <!-- stage 6 -->
    <_>
      <maxWeakCount>9</maxWeakCount>
      <stageThreshold>-1.6234209537506104e+00</stageThreshold>
      <weakClassifiers>
        <_>
          <internalNodes>
            0 -1 6 -1124073473 -1864370305 -68157441 -572522625
            -57671681 -1125123393 -18089005 -1997537793</internalNodes>
          <leafValues>
            -7.7909272909164429e-01 -2.2264329716563225e-02</leafValues></_>
        <_>
          <internalNodes>
            0 -1 53 -1862050341 -40963414 288841693 -543303173 -82080308
            -560408114 -1658987777 -568328449</internalNodes>
          <leafValues>
            -5.3485125303268433e-01 3.7558466196060181e-01</leafValues></_>
        <_>
          <internalNodes>
            0 -1 7 -822097153 -873588481 248949503 183401179 -440406017
            -817102883 -72351745 -842399751</internalNodes>
          <leafValues>
            -6.6396880149841309e-01 3.1154558062553406e-01</leafValues></_>
        <_>
          <internalNodes>
            0 -1 30 -76832497 -5898899 -515905529 -680144897 -1342177349
            1114103695 -144705537 -749733923</internalNodes>
          <leafValues>
            -4.1923815011978149e-01 5.0586301088333130e-01</leafValues></_>
        <_>
          <internalNodes>
            0 -1 81 -827453941 -9345 -270921873 -1112070394 -27833433
            -85985933 -21005353 -89462386</internalNodes>
          <leafValues>
            -4.6740165352821350e-01 4.8387163877487183e-01</leafValues></_>
        <_>
          <internalNodes>
            0 -1 21 572762762 86763458 -370968023 -782546453 -1544832632
            -1458572782 -2086929674 -788481</internalNodes>
          <leafValues>
            -5.2568268775939941e-01 4.2113438248634338e-01</leafValues></_>
        <_>
          <internalNodes>
            0 -1 38 -356783350 -204549201 2031811562 -137626261
            -1210846229 1448093190 -217843153 1397224431</internalNodes>
          <leafValues>
            -6.4088040590286255e-01 3.5970377922058105e-01</leafValues></_>
        <_>
          <internalNodes>
            0 -1 39 454705362 -1686087514 959511991 -547907877
            -1307671904 -1618640054 973789979 390681963</internalNodes>
          <leafValues>
            -7.7118772268295288e-01 2.6677158474922180e-01</leafValues></_>
        <_>
          <internalNodes>
            0 -1 76 -87295478 -754719733 -1912332287 -805220336
            1342365890 1543586048 1209352642 -15749153</internalNodes>
          <leafValues>
            -5.6330651044845581e-01 3.8209563493728638e-01</leafValues></_></weakClassifiers></_>
    <!-- stage 7 -->
    <_>
      <maxWeakCount>10</maxWeakCount>
      <stageThreshold>-1.5668463706970215e+00</stageThreshold>
      <weakClassifiers>
        <_>
          <internalNodes>
            0 -1 74 -286314993 -6291473 -541606049 -8405201 -285529217
            -263457 -374362385 -5329010</internalNodes>
          <leafValues>
            -7.7229416370391846e-01 -2.2179363295435905e-02</leafValues></_>
        <_>
          <internalNodes>
            0 -1 2 -34635777 276889599 -8389633 1565581298 2004614517
            -1178675273 -2629643 -1730085905</internalNodes>
          <leafValues>
            -5.8374541997909546e-01 3.0465686321258545e-01</leafValues></_>
        <_>
          <internalNodes>
            0 -1 36 -2143608013 -808663225 -1190410241 -134224265
            -1146095689 1093876671 -1215908105 -201336837</internalNodes>
          <leafValues>
            -4.5821458101272583e-01 4.4947546720504761e-01</leafValues></_>
        <_>
          <internalNodes>
            0 -1 68 -502793557 -771624814 -2092433441 1342410692
            -488442574 -1039925357 1073930474 -754188561</internalNodes>
          <leafValues>
            -4.2807808518409729e-01 4.5751288533210754e-01</leafValues></_>
        <_>
          <internalNodes>
            0 -1 18 -134286342 1932135014 102803165 2032279701 -16795905
            -1073833473 50339679 795827099</internalNodes>
          <leafValues>
            -5.7727015018463135e-01 3.7962120771408081e-01</leafValues></_>
        <_>
          <internalNodes>
            0 -1 22 -286275413 -844109142 645260703 2086499119 -98573106
            749420790 1590352639 -135173</internalNodes>
          <leafValues>
            -4.3872052431106567e-01 4.7099927067756653e-01</leafValues></_>
        <_>
          <internalNodes>
            0 -1 69 -1469415408 -1619726337 684585273 1905755039
            -2133927457 528551434 -136580867 -570425601</internalNodes>
          <leafValues>
            -4.8875552415847778e-01 4.2711395025253296e-01</leafValues></_>
        <_>
          <internalNodes>
            0 -1 85 241634107 -410140677 2147450879 -805389058
            -1879326721 1027186424 -1409810433 -1049601</internalNodes>
          <leafValues>
            -3.6348584294319153e-01 5.7871979475021362e-01</leafValues></_>
        <_>
          <internalNodes>
            0 -1 32 -286268379 -135376977 -164683624 -202146949
            -357068609 1933788479 -629292561 -143175809</internalNodes>
          <leafValues>
            -4.5209765434265137e-01 4.8443901538848877e-01</leafValues></_>
        <_>
          <internalNodes>
            0 -1 44 -48758 -101622034 1576786166 1595379859 -1688752469
            -582679492 970856894 -1626107393</internalNodes>
          <leafValues>
            -4.6344971656799316e-01 4.5813232660293579e-01</leafValues></_></weakClassifiers></_>
    <!-- stage 8 -->
    <_>
      <maxWeakCount>11</maxWeakCount>
      <stageThreshold>-1.6250752210617065e+00</stageThreshold>
      <weakClassifiers>
        <_>
          <internalNodes>
            0 -1 87 211748663 -606380065 -33554689 -136479753 -543393
            -791321 -9439237 -1051653</internalNodes>
          <leafValues>
            -7.5665217638015747e-01 -3.8858830928802490e-02</leafValues></_>
        <_>
          <internalNodes>
            0 -1 4 -1898975233 -2140213515 -8397825 -134479940
            -977403905 -1527775459 -2621441 -269685515</internalNodes>
          <leafValues>
            -5.7768321037292480e-01 2.9441791772842407e-01</leafValues></_>
        <_>
          <internalNodes>
            0 -1 70 -315588440 -471505 -539758081 431491837 -434526577
            318902207 24805835 423579615</internalNodes>
          <leafValues>
            -7.4981480836868286e-01 2.2214086353778839e-01</leafValues></_>
        <_>
          <internalNodes>
            0 -1 0 -84115593 448671487 -893980717 -1296896321 -27305057
            1115679675 -4213769 -218106929</internalNodes>
          <leafValues>
            -5.3933775424957275e-01 3.3885341882705688e-01</leafValues></_>
        <_>
          <internalNodes>
            0 -1 27 1358953723 -742001259 -611713571 1342570309
            405757135 46401020 -859833345 1375697</internalNodes>
          <leafValues>
            -6.0998004674911499e-01 3.0226603150367737e-01</leafValues></_>
        <_>
          <internalNodes>
            0 -1 78 -1096555870 -227811085 -466657229 1408233743
            -880084517 1455935744 -231754101 1399841595</internalNodes>
          <leafValues>
            -5.1555800437927246e-01 3.6570754647254944e-01</leafValues></_>
        <_>
          <internalNodes>
            0 -1 83 90374455 1396666355 -1887488581 -561921 2113788799
            -1520239810 -1417873937 -12846641</internalNodes>
          <leafValues>
            -4.0544342994689941e-01 4.6572831273078918e-01</leafValues></_>
        <_>
          <internalNodes>
            0 -1 51 -70517813 -239013899 855687808 -788399787 -905270552
            588450 -3608114 -272629809</internalNodes>
          <leafValues>
            -4.1411864757537842e-01 4.7705945372581482e-01</leafValues></_>
        <_>
          <internalNodes>
            0 -1 73 -349127765 2075352567 -1718012129 2109683711
            -1087718741 756761225 -1088840017 1069267391</internalNodes>
          <leafValues>
            -5.3132206201553345e-01 3.6407017707824707e-01</leafValues></_>
        <_>
          <internalNodes>
            0 -1 28 -1064836343 -353374289 1392502527 -1183765
            -1132467281 -1031798855 595588863 -759438381</internalNodes>
          <leafValues>
            -4.2360076308250427e-01 4.8584061861038208e-01</leafValues></_>
        <_>
          <internalNodes>
            0 -1 1 -159908097 -1327259667 -1508122633 -171180193
            2062511995 -1124088907 1571285495 -2003438603</internalNodes>
          <leafValues>
            -4.2287114262580872e-01 4.9208614230155945e-01</leafValues></_></weakClassifiers></_>
    <!-- stage 9 -->
    <_>
      <maxWeakCount>11</maxWeakCount>
      <stageThreshold>-1.7344083786010742e+00</stageThreshold>
      <weakClassifiers>
        <_>
          <internalNodes>
            0 -1 82 54460467 -136448033 771472375 -675422721 -353439765
            -873476097 -69730373 -2107617</internalNodes>
          <leafValues>
            -7.3011940717697144e-01 1.9675925374031067e-02</leafValues></_>
        <_>
          <internalNodes>
            0 -1 66 503257567 -33598977 1067932151 1071603679 536600059
            -1126625323 -1082146837 -1073750017</internalNodes>
          <leafValues>
            -5.7615315914154053e-01 2.7119171619415283e-01</leafValues></_>
        <_>
          <internalNodes>
            0 -1 80 -856716033 -593762237 1076333727 1622653282 -8323
            -363602464 -436478625 1075182235</internalNodes>
          <leafValues>
            -5.1014596223831177e-01 3.5302293300628662e-01</leafValues></_>
        <_>
          <internalNodes>
            0 -1 34 -1573919993 -135282901 -202639506 2004596603
            -206579513 1144018811 659026271 1917321183</internalNodes>
          <leafValues>
            -5.4486048221588135e-01 3.1623607873916626e-01</leafValues></_>
        <_>
          <internalNodes>
            0 -1 50 -236459349 -1862143597 1699776707 1426579463
            -162816373 1090617393 1363258090 -620500305</internalNodes>
          <leafValues>
            -3.6159375309944153e-01 4.8227852582931519e-01</leafValues></_>
        <_>
          <internalNodes>
            0 -1 25 1342263807 815805187 -942146113 1392186071
            -1337862401 950111158 1371664383 5012991</internalNodes>
          <leafValues>
            -6.2970882654190063e-01 3.0604109168052673e-01</leafValues></_>
        <_>
          <internalNodes>
            0 -1 23 -503125258 -16431578 4246143 -539928865 1537734371
            -541525477 830648827 1934718579</internalNodes>
          <leafValues>
            -6.4583057165145874e-01 2.6625847816467285e-01</leafValues></_>
        <_>
          <internalNodes>
            0 -1 46 -534065151 -67392773 -140518689 1603667698
            -683672252 571151303 603034509 1931277210</internalNodes>
          <leafValues>
            -5.7340323925018311e-01 3.0455520749092102e-01</leafValues></_>
        <_>
          <internalNodes>
            0 -1 12 -124989202 -538037434 -1183132267 1005393951
            -1074804741 -292758898 -1230310517 -1896943201</internalNodes>
          <leafValues>
            -5.2462244033813477e-01 3.3957087993621826e-01</leafValues></_>
        <_>
          <internalNodes>
            0 -1 55 1606212825 -6553636 1967223225 1595496729 -833723764
            -1411480833 1006198201 -335815171</internalNodes>
          <leafValues>
            -4.2477625608444214e-01 4.4446745514869690e-01</leafValues></_>
        <_>
          <internalNodes>
            0 -1 13 -540021009 -273756593 -276414497 -320013617
            -371352338 -1006931541 -540163159 -840181283</internalNodes>
          <leafValues>
            -5.3113299608230591e-01 3.7595713138580322e-01</leafValues></_></weakClassifiers></_>
    <!-- stage 10 -->
    <_>
      <maxWeakCount>11</maxWeakCount>
      <stageThreshold>-1.8072913885116577e+00</stageThreshold>
      <weakClassifiers>
        <_>
          <internalNodes>
            0 -1 84 32969055 -1644299265 796613567 -100958345 1995685823
            -2124805 -18876417 -67108865</internalNodes>
          <leafValues>
            -7.1877765655517578e-01 2.3622047156095505e-02</leafValues></_>
        <_>
          <internalNodes>
            0 -1 48 -39030536 -1650967654 1008213233 -1109413589
            -285516129 -1093424221 -569380913 -7872833</internalNodes>
          <leafValues>
            -6.4465790987014771e-01 1.9701991975307465e-01</leafValues></_>
        <_>
          <internalNodes>
            0 -1 29 574040099 -571999555 938436407 -267399233 -153620721
            -612393601 -1208486061 -134227779</internalNodes>
          <leafValues>
            -4.4499933719635010e-01 3.8256880640983582e-01</leafValues></_>
        <_>
          <internalNodes>
            0 -1 57 -104861525 -642211799 -100675657 831324691
            -142612341 279646513 1295432361 -110628150</internalNodes>
          <leafValues>
            -3.9625835418701172e-01 4.5309114456176758e-01</leafValues></_>
        <_>
          <internalNodes>
            0 -1 24 -2094019344 -11657985 -136231461 2133829835
            -1158350118 -1285957223 -1083116618 1058161526</internalNodes>
          <leafValues>
            -5.1656210422515869e-01 3.6377868056297302e-01</leafValues></_>
        <_>
          <internalNodes>
            0 -1 63 -74792416 -1741953014 -56694256 1364173822 771761317
            -1433509205 1256161282 1359993771</internalNodes>
          <leafValues>
            -6.1040830612182617e-01 2.7298644185066223e-01</leafValues></_>
        <_>
          <internalNodes>
            0 -1 86 34800695 -1931527793 1918853119 1899199223
            -536887429 -1452835376 2071720920 -641925777</internalNodes>
          <leafValues>
            -4.4773769378662109e-01 4.0421316027641296e-01</leafValues></_>
        <_>
          <internalNodes>
            0 -1 42 -2096954877 -349286011 -637549073 1610564847
            -1558011741 1191428258 -1290932841 1463251140</internalNodes>
          <leafValues>
            -5.9641993045806885e-01 2.8591743111610413e-01</leafValues></_>
        <_>
          <internalNodes>
            0 -1 26 1895428351 809519316 2075875187 -67543192 150591743
            988578008 -641620789 536452751</internalNodes>
          <leafValues>
            -5.9710198640823364e-01 3.1045654416084290e-01</leafValues></_>
        <_>
          <internalNodes>
            0 -1 72 -145981304 -652033406 609403609 2143794767
            -607131752 -349712070 1381355587 1359725319</internalNodes>
          <leafValues>
            -6.1388438940048218e-01 2.9274350404739380e-01</leafValues></_>
        <_>
          <internalNodes>
            0 -1 37 -485760253 -153242881 -79171089 324759930 -479724593
            74591019 1459994399 1939849048</internalNodes>
          <leafValues>
            -5.3877735137939453e-01 3.2475349307060242e-01</leafValues></_></weakClassifiers></_></stages>
  <features>
    <_>
      <rect>
        1 7 5 3</rect></_>
    <_>
      <rect>
        2 5 3 2</rect></_>
    <_>
      <rect>
        2 6 3 3</rect></_>
    <_>
      <rect>
        2 6 6 1</rect></_>
    <_>
      <rect>
        3 1 4 3</rect></_>
    <_>
      <rect>
        3 2 10 4</rect></_>
    <_>
      <rect>
        3 3 3 3</rect></_>
    <_>
      <rect>
        3 3 9 3</rect></_>
    <_>
      <rect>
        4 0 9 6</rect></_>
    <_>
      <rect>
        4 2 6 3</rect></_>
    <_>
      <rect>
        4 3 3 4</rect></_>
    <_>
      <rect>
        4 6 9 3</rect></_>
    <_>
      <rect>
        5 0 11 6</rect></_>
    <_>
      <rect>
        5 3 4 2</rect></_>
    <_>
      <rect>
        5 3 5 3</rect></_>
    <_>
      <rect>
        5 4 9 4</rect></_>
    <_>
      <rect>
        6 0 3 3</rect></_>
    <_>
      <rect>
        6 4 2 3</rect></_>
    <_>
      <rect>
        7 8 6 1</rect></_>
    <_>
      <rect>
        8 4 2 4</rect></_>
    <_>
      <rect>
        8 5 1 2</rect></_>
    <_>
      <rect>
        8 6 1 1</rect></_>
    <_>
      <rect>
        8 6 1 2</rect></_>
    <_>
      <rect>
        8 7 4 1</rect></_>
    <_>
      <rect>
        8 7 6 1</rect></_>
    <_>
      <rect>
        9 0 7 5</rect></_>
    <_>
      <rect>
        9 4 7 4</rect></_>
    <_>
      <rect>
        9 7 8 3</rect></_>
    <_>
      <rect>
        10 2 2 1</rect></_>
    <_>
      <rect>
        10 4 1 1</rect></_>
    <_>
      <rect>
        10 4 2 1</rect></_>
    <_>
      <rect>
        10 4 7 3</rect></_>
    <_>
      <rect>
        10 5 2 1</rect></_>
    <_>
      <rect>
        10 6 5 1</rect></_>
    <_>
      <rect>
        11 4 2 1</rect></_>
    <_>
      <rect>
        11 7 4 1</rect></_>
    <_>
      <rect>
        12 3 1 1</rect></_>
    <_>
      <rect>
        12 3 2 1</rect></_>
    <_>
      <rect>
        12 4 2 1</rect></_>
    <_>
      <rect>
        12 7 4 1</rect></_>
    <_>
      <rect>
        12 8 4 1</rect></_>
    <_>
      <rect>
        12 9 5 1</rect></_>
    <_>
      <rect>
        13 2 2 1</rect></_>
    <_>
      <rect>
        13 4 1 3</rect></_>
    <_>
      <rect>
        13 6 2 1</rect></_>
    <_>
      <rect>
        13 8 5 1</rect></_>
    <_>
      <rect>
        14 3 1 2</rect></_>
    <_>
      <rect>
        14 5 6 4</rect></_>
    <_>
      <rect>
        14 6 4 2</rect></_>
    <_>
      <rect>
        15 3 2 2</rect></_>
    <_>
      <rect>
        15 4 1 3</rect></_>
    <_>
      <rect>
        15 4 2 3</rect></_>
    <_>
      <rect>
        15 5 1 3</rect></_>
    <_>
      <rect>
        15 7 3 1</rect></_>
    <_>
      <rect>
        15 8 3 1</rect></_>
    <_>
      <rect>
        15 8 4 1</rect></_>
    <_>
      <rect>
        16 4 1 3</rect></_>
    <_>
      <rect>
        16 5 1 2</rect></_>
    <_>
      <rect>
        16 5 1 3</rect></_>
    <_>
      <rect>
        16 6 2 1</rect></_>
    <_>
      <rect>
        16 7 2 1</rect></_>
    <_>
      <rect>
        16 8 2 1</rect></_>
    <_>
      <rect>
        16 8 3 1</rect></_>
    <_>
      <rect>
        16 9 1 2</rect></_>
    <_>
      <rect>
        17 3 2 3</rect></_>
    <_>
      <rect>
        17 4 1 3</rect></_>
    <_>
      <rect>
        17 7 1 1</rect></_>
    <_>
      <rect>
        17 8 1 1</rect></_>
    <_>
      <rect>
        18 4 1 3</rect></_>
    <_>
      <rect>
        18 5 1 1</rect></_>
    <_>
      <rect>
        18 6 1 1</rect></_>
    <_>
      <rect>
        18 7 1 2</rect></_>
    <_>
      <rect>
        18 8 1 2</rect></_>
    <_>
      <rect>
        19 7 1 1</rect></_>
    <_>
      <rect>
        20 0 5 3</rect></_>
    <_>
      <rect>
        20 4 1 3</rect></_>
    <_>
      <rect>
        20 5 1 3</rect></_>
    <_>
      <rect>
        21 5 4 2</rect></_>
    <_>
      <rect>
        21 8 1 2</rect></_>
    <_>
      <rect>
        24 1 3 4</rect></_>
    <_>
      <rect>
        24 5 2 3</rect></_>
    <_>
      <rect>
        25 5 3 3</rect></_>
    <_>
      <rect>
        25 6 1 1</rect></_>
    <_>
      <rect>
        26 4 1 1</rect></_>
    <_>
      <rect>
        27 6 1 1</rect></_>
    <_>
      <rect>
        27 9 1 2</rect></_>
    <_>
      <rect>
        28 5 1 1</rect></_>
    <_>
      <rect>
        28 5 1 2</rect></_></features></cascade>
</opencv_storage>
