<?xml version="1.0"?>
<opencv_storage>
<cascade>
  <stageType>BOOST</stageType>
  <featureType>LBP</featureType>
  <height>18</height>
  <width>38</width>
  <stageParams>
    <boostType>GAB</boostType>
    <minHitRate>9.9900001287460327e-01</minHitRate>
    <maxFalseAlarm>5.0000000000000000e-01</maxFalseAlarm>
    <weightTrimRate>9.4999999999999996e-01</weightTrimRate>
    <maxDepth>1</maxDepth>
    <maxWeakCount>100</maxWeakCount></stageParams>
  <featureParams>
    <maxCatCount>256</maxCatCount>
    <featSize>1</featSize></featureParams>
  <stageNum>11</stageNum>
  <stages>
    <!-- stage 0 -->
    <_>
      <maxWeakCount>3</maxWeakCount>
      <stageThreshold>-1.1167519092559814e+00</stageThreshold>
      <weakClassifiers>
        <_>
          <internalNodes>
            0 -1 42 -263929648 -70237696 -1850699297 -45023215
            -1610561368 -90701663 -657937921 -13621</internalNodes>
          <leafValues>
            -9.2065823078155518e-01 6.5553081035614014e-01</leafValues></_>
        <_>
          <internalNodes>
            0 -1 10 -752466722 -217841590 142608479 -540082162
            -2086491140 -1152778072 1309182907 -324885</internalNodes>
          <leafValues>
            -7.7365243434906006e-01 6.3542556762695312e-01</leafValues></_>
        <_>
          <internalNodes>
            0 -1 61 -775892790 -784314160 1342734416 -721330033
            268470410 1090551820 1132970187 -2097201</internalNodes>
          <leafValues>
            -7.9682368040084839e-01 5.7755875587463379e-01</leafValues></_></weakClassifiers></_>
    <!-- stage 1 -->
    <_>
      <maxWeakCount>5</maxWeakCount>
      <stageThreshold>-1.3854984045028687e+00</stageThreshold>
      <weakClassifiers>
        <_>
          <internalNodes>
            0 -1 52 -70729528 -933760 -2269697 -136451631 -121069318
            -67138890 -1433863169 -73401345</internalNodes>
          <leafValues>
            -8.8833498954772949e-01 2.4296382069587708e-01</leafValues></_>
        <_>
          <internalNodes>
            0 -1 15 -621806850 -2012577654 -926748129 -524252466
            -92279041 -2002066810 -623922437 -872415489</internalNodes>
          <leafValues>
            -7.9228770732879639e-01 4.9268195033073425e-01</leafValues></_>
        <_>
          <internalNodes>
            0 -1 34 -749471521 1599816347 1412554911 1599019295
            -1609332037 -1157496694 43494591 456869343</internalNodes>
          <leafValues>
            -7.2998124361038208e-01 4.8611637949943542e-01</leafValues></_>
        <_>
          <internalNodes>
            0 -1 33 -683153782 1359331328 1342373888 1359467147
            -1072963062 -2142936938 1095073934 -749755445</internalNodes>
          <leafValues>
            -6.1568266153335571e-01 6.1298704147338867e-01</leafValues></_>
        <_>
          <internalNodes>
            0 -1 6 -1058143009 1241533678 -1744414306 4785023 -221774849
            -1434287874 -339027009 -806356737</internalNodes>
          <leafValues>
            -7.0660823583602905e-01 5.6371706724166870e-01</leafValues></_></weakClassifiers></_>
    <!-- stage 2 -->
    <_>
      <maxWeakCount>6</maxWeakCount>
      <stageThreshold>-1.8675593137741089e+00</stageThreshold>
      <weakClassifiers>
        <_>
          <internalNodes>
            0 -1 50 -1280355875 -543467373 -1826907169 -541238821
            -1146365442 -4257621 -1154941953 -1077937157</internalNodes>
          <leafValues>
            -7.6706606149673462e-01 4.3324720859527588e-01</leafValues></_>
        <_>
          <internalNodes>
            0 -1 0 -856715521 -964367649 -1404575617 679185119 -36774401
            -857888035 -1379008529 -858914817</internalNodes>
          <leafValues>
            -7.5056380033493042e-01 3.7434002757072449e-01</leafValues></_>
        <_>
          <internalNodes>
            0 -1 41 -100601712 -610160504 -855575041 -581717515
            -1431765254 -20726545 64511 -83171394</internalNodes>
          <leafValues>
            -7.1101891994476318e-01 4.3889588117599487e-01</leafValues></_>
        <_>
          <internalNodes>
            0 -1 59 -573836294 -540813786 1502843377 1393361787
            -1895777606 -1618241075 -1893155941 -1685120001</internalNodes>
          <leafValues>
            -5.6107121706008911e-01 5.5024433135986328e-01</leafValues></_>
        <_>
          <internalNodes>
            0 -1 4 -255861025 8399002 -411313281 -1864705289 -210241281
            809172639 -70582403 -1933575937</internalNodes>
          <leafValues>
            -6.5093940496444702e-01 5.0906735658645630e-01</leafValues></_>
        <_>
          <internalNodes>
            0 -1 30 -266642448 -650096608 923882871 420025009 45736
            -1306525568 -916784229 1528365082</internalNodes>
          <leafValues>
            -6.6742086410522461e-01 4.6178445219993591e-01</leafValues></_></weakClassifiers></_>
    <!-- stage 3 -->
    <_>
      <maxWeakCount>5</maxWeakCount>
      <stageThreshold>-1.2659914493560791e+00</stageThreshold>
      <weakClassifiers>
        <_>
          <internalNodes>
            0 -1 37 -70520373 -741092981 268488768 -248262177 -737492022
            -1878994790 -1072966710 -2101249</internalNodes>
          <leafValues>
            -7.6064443588256836e-01 3.0926215648651123e-01</leafValues></_>
        <_>
          <internalNodes>
            0 -1 18 -790638337 1346654428 -69206017 1564867573 139942655
            5296536 -1132462097 -549062691</internalNodes>
          <leafValues>
            -6.6486942768096924e-01 4.5480379462242126e-01</leafValues></_>
        <_>
          <internalNodes>
            0 -1 5 -810570002 -606133086 -299875602 -9835798 -940709154
            -7344182 -854867732 -1052691</internalNodes>
          <leafValues>
            -7.0245301723480225e-01 4.3134176731109619e-01</leafValues></_>
        <_>
          <internalNodes>
            0 -1 38 -238054774 -750280670 1342181520 1427324931
            -1056472438 1351172804 1376750010 -748948577</internalNodes>
          <leafValues>
            -5.8080202341079712e-01 5.4157155752182007e-01</leafValues></_>
        <_>
          <internalNodes>
            0 -1 42 -1662728024 -616266112 -1300048905 -544665552
            -1702313814 -14071665 1527503615 -540092484</internalNodes>
          <leafValues>
            -7.4680233001708984e-01 4.1569525003433228e-01</leafValues></_></weakClassifiers></_>
    <!-- stage 4 -->
    <_>
      <maxWeakCount>5</maxWeakCount>
      <stageThreshold>-1.3053500652313232e+00</stageThreshold>
      <weakClassifiers>
        <_>
          <internalNodes>
            0 -1 48 -238030197 -783822829 4248066 1473761675 -1073486645
            -805059949 -720635185 -70255969</internalNodes>
          <leafValues>
            -7.1522092819213867e-01 3.4317344427108765e-01</leafValues></_>
        <_>
          <internalNodes>
            0 -1 21 892424408 -545828610 2021261279 -547892231
            1060290696 -1088699412 1528217343 453984175</internalNodes>
          <leafValues>
            -7.6754570007324219e-01 3.2659223675727844e-01</leafValues></_>
        <_>
          <internalNodes>
            0 -1 2 -86054145 -490163642 -527548165 1626266363 -16810241
            -1899064386 -340788225 -808453381</internalNodes>
          <leafValues>
            -7.0147246122360229e-01 3.8163214921951294e-01</leafValues></_>
        <_>
          <internalNodes>
            0 -1 29 1375919352 1484835034 -1216162305 1608440219
            -740297477 -741336648 450645759 1483464366</internalNodes>
          <leafValues>
            -6.5756642818450928e-01 3.9963591098785400e-01</leafValues></_>
        <_>
          <internalNodes>
            0 -1 67 -230432246 -251542766 -1073618672 -246980094
            1094828160 -2137292672 25542762 -486022481</internalNodes>
          <leafValues>
            -5.7914131879806519e-01 5.1011502742767334e-01</leafValues></_></weakClassifiers></_>
    <!-- stage 5 -->
    <_>
      <maxWeakCount>7</maxWeakCount>
      <stageThreshold>-1.4343450069427490e+00</stageThreshold>
      <weakClassifiers>
        <_>
          <internalNodes>
            0 -1 47 -2100517 -215248765 -784104320 1359183881
            -1060388693 -787512281 1091018954 -3151141</internalNodes>
          <leafValues>
            -7.1684384346008301e-01 2.6530611515045166e-01</leafValues></_>
        <_>
          <internalNodes>
            0 -1 35 -211553293 -775757244 869355963 332524235 -84281093
            -1949586488 -101069825 185581983</internalNodes>
          <leafValues>
            -6.4478707313537598e-01 3.5682260990142822e-01</leafValues></_>
        <_>
          <internalNodes>
            0 -1 20 -6293256 2145046783 -702738183 2136988127
            -1064435510 1342505100 1225724671 1600085487</internalNodes>
          <leafValues>
            -6.8421864509582520e-01 3.4000244736671448e-01</leafValues></_>
        <_>
          <internalNodes>
            0 -1 27 280908287 1342849674 1031796731 -235144261 418797983
            -923916230 1740626431 -1686373633</internalNodes>
          <leafValues>
            -5.8023679256439209e-01 4.3466326594352722e-01</leafValues></_>
        <_>
          <internalNodes>
            0 -1 3 685768447 548274734 1963003668 -1327499817 874503391
            747360191 -1164182033 150994173</internalNodes>
          <leafValues>
            -7.9532074928283691e-01 3.3291807770729065e-01</leafValues></_>
        <_>
          <internalNodes>
            0 -1 62 -217396744 -43594902 1066458267 -12600005 55484618
            -1899495192 457288088 -1147153473</internalNodes>
          <leafValues>
            -5.1420950889587402e-01 5.1305413246154785e-01</leafValues></_>
        <_>
          <internalNodes>
            0 -1 55 -611583574 -717127606 -1996437693 1090732715
            -791170925 50365451 1107394594 -346563345</internalNodes>
          <leafValues>
            -5.1999962329864502e-01 5.1557677984237671e-01</leafValues></_></weakClassifiers></_>
    <!-- stage 6 -->
    <_>
      <maxWeakCount>7</maxWeakCount>
      <stageThreshold>-1.4872961044311523e+00</stageThreshold>
      <weakClassifiers>
        <_>
          <internalNodes>
            0 -1 43 -35783429 -264264 319902105 1461150017 -1671722838
            -4216181 -72484613 -263683</internalNodes>
          <leafValues>
            -7.1890622377395630e-01 1.4455151557922363e-01</leafValues></_>
        <_>
          <internalNodes>
            0 -1 68 -871495666 -584074978 1424465663 -4903121 -823701610
            -5243097 -126907473 -139817041</internalNodes>
          <leafValues>
            -6.5115654468536377e-01 3.1198787689208984e-01</leafValues></_>
        <_>
          <internalNodes>
            0 -1 17 -881596174 -134385455 546324727 1476251743
            -146015233 -68030307 49804267 2146690035</internalNodes>
          <leafValues>
            -6.1273062229156494e-01 3.8449263572692871e-01</leafValues></_>
        <_>
          <internalNodes>
            0 -1 13 -1196430354 -1968263636 144759544 -208679221
            -19932225 -22089297 -8004625 -187826229</internalNodes>
          <leafValues>
            -6.4951092004776001e-01 3.5320419073104858e-01</leafValues></_>
        <_>
          <internalNodes>
            0 -1 57 -1698436914 -590114602 -536837430 -217991025
            1077999822 1073805966 59611087 -536875025</internalNodes>
          <leafValues>
            -6.0316723585128784e-01 3.9953562617301941e-01</leafValues></_>
        <_>
          <internalNodes>
            0 -1 39 -1122614 -144527361 -1661316280 -77103173 -932848661
            -1068476933 -1852067413 -644367361</internalNodes>
          <leafValues>
            -4.7066518664360046e-01 4.9492248892784119e-01</leafValues></_>
        <_>
          <internalNodes>
            0 -1 9 -949088306 -150120979 109195948 535197814 1874833646
            1765442079 -1920217366 -268441381</internalNodes>
          <leafValues>
            -6.5003508329391479e-01 3.6738511919975281e-01</leafValues></_></weakClassifiers></_>
    <!-- stage 7 -->
    <_>
      <maxWeakCount>8</maxWeakCount>
      <stageThreshold>-1.8814026117324829e+00</stageThreshold>
      <weakClassifiers>
        <_>
          <internalNodes>
            0 -1 50 -1279306785 -542155601 -1656758273 -541073925
            -1111500289 -71366517 -1089733633 -4194565</internalNodes>
          <leafValues>
            -7.1884226799011230e-01 1.3489736616611481e-01</leafValues></_>
        <_>
          <internalNodes>
            0 -1 66 -385921297 -1073773617 -2079536929 452998880
            -17309697 -539238213 -237241606 -76152843</internalNodes>
          <leafValues>
            -5.1874560117721558e-01 3.8391774892807007e-01</leafValues></_>
        <_>
          <internalNodes>
            0 -1 46 -25187701 420457130 1164681407 353017858 -1862817278
            312036049 1372439214 1134543498</internalNodes>
          <leafValues>
            -5.7875955104827881e-01 3.6917674541473389e-01</leafValues></_>
        <_>
          <internalNodes>
            0 -1 54 -263462229 1124384930 -1040160129 1565905514
            1413608363 -1877346369 1359079403 -749734517</internalNodes>
          <leafValues>
            -4.3895715475082397e-01 4.8475557565689087e-01</leafValues></_>
        <_>
          <internalNodes>
            0 -1 40 2060783871 -1871495433 -1694779009 289512625
            -1103136069 -1427264113 -90199377 492298073</internalNodes>
          <leafValues>
            -4.8567926883697510e-01 4.4298657774925232e-01</leafValues></_>
        <_>
          <internalNodes>
            0 -1 11 8892039 254798470 1933276157 2145504997 63019515
            -303369541 -3354143 -842014295</internalNodes>
          <leafValues>
            -5.7311576604843140e-01 3.8312515616416931e-01</leafValues></_>
        <_>
          <internalNodes>
            0 -1 36 523833588 -1089646342 991255039 1566136599
            -1687498624 -1949368192 -1615119618 521662074</internalNodes>
          <leafValues>
            -7.1412384510040283e-01 3.0372712016105652e-01</leafValues></_>
        <_>
          <internalNodes>
            0 -1 45 -70917942 -788160398 1174454464 889572099 -664888182
            553943168 -1755852305 2064888539</internalNodes>
          <leafValues>
            -6.9682013988494873e-01 2.9622125625610352e-01</leafValues></_></weakClassifiers></_>
    <!-- stage 8 -->
    <_>
      <maxWeakCount>9</maxWeakCount>
      <stageThreshold>-1.5697197914123535e+00</stageThreshold>
      <weakClassifiers>
        <_>
          <internalNodes>
            0 -1 63 -1819574529 499079135 -1685447169 2113757179
            -1146699777 -1080143622 -1145896961 -1077937153</internalNodes>
          <leafValues>
            -7.3721683025360107e-01 1.6867469996213913e-02</leafValues></_>
        <_>
          <internalNodes>
            0 -1 24 -654485256 -606472006 -576915201 -1328198 -50407269
            -1141206909 -553132065 -4516869</internalNodes>
          <leafValues>
            -5.7638412714004517e-01 2.9714617133140564e-01</leafValues></_>
        <_>
          <internalNodes>
            0 -1 8 -1627517870 -52545346 1818657910 -521869594
            1968899958 -284161 -1647312901 -462893313</internalNodes>
          <leafValues>
            -7.3505234718322754e-01 2.5182431936264038e-01</leafValues></_>
        <_>
          <internalNodes>
            0 -1 23 -1142168822 -875633914 -498341268 -137630734
            -1552155830 121775747 -184028274 1996746235</internalNodes>
          <leafValues>
            -6.7657721042633057e-01 2.9761910438537598e-01</leafValues></_>
        <_>
          <internalNodes>
            0 -1 64 -685517694 -733757312 -520797731 -783302367
            1124256392 37879813 1398000267 -610283377</internalNodes>
          <leafValues>
            -4.7638076543807983e-01 4.2581367492675781e-01</leafValues></_>
        <_>
          <internalNodes>
            0 -1 31 -1012667862 -135407737 -1727737586 1509932814
            -261885592 1178599879 100851885 2013250965</internalNodes>
          <leafValues>
            -6.2688803672790527e-01 3.4357956051826477e-01</leafValues></_>
        <_>
          <internalNodes>
            0 -1 25 -604004353 -1154463568 -542113793 -75825153
            176817399 -1413970182 1227754751 -637644818</internalNodes>
          <leafValues>
            -4.2491728067398071e-01 5.0818645954132080e-01</leafValues></_>
        <_>
          <internalNodes>
            0 -1 44 -582886712 -707137529 1545508447 -102950631
            -607166724 -2136031169 -622859009 705553215</internalNodes>
          <leafValues>
            -5.2694141864776611e-01 4.2080011963844299e-01</leafValues></_>
        <_>
          <internalNodes>
            0 -1 49 -520627032 -70106114 -1945652212 -136193158
            -1069549142 -2125406007 960491688 -206051073</internalNodes>
          <leafValues>
            -5.2615958452224731e-01 4.0483054518699646e-01</leafValues></_></weakClassifiers></_>
    <!-- stage 9 -->
    <_>
      <maxWeakCount>9</maxWeakCount>
      <stageThreshold>-1.6329084634780884e+00</stageThreshold>
      <weakClassifiers>
        <_>
          <internalNodes>
            0 -1 19 -654836993 -252314121 -2621957 1431435217
            -1432433921 -1463833217 -51781905 -11012169</internalNodes>
          <leafValues>
            -7.2340422868728638e-01 3.9897039532661438e-02</leafValues></_>
        <_>
          <internalNodes>
            0 -1 58 -21438320 -67212036 1528052507 1067002108 -281042038
            771759495 2003430571 490671295</internalNodes>
          <leafValues>
            -8.0559539794921875e-01 1.5602396428585052e-01</leafValues></_>
        <_>
          <internalNodes>
            0 -1 1 -1191207681 820436599 -1132986401 -45090955
            1560272239 -119818565 -1063289355 -1996493323</internalNodes>
          <leafValues>
            -4.8004385828971863e-01 3.8234293460845947e-01</leafValues></_>
        <_>
          <internalNodes>
            0 -1 32 -354682334 -879035662 -805573942 1866189304
            1121639358 1096839993 297509099 2079709179</internalNodes>
          <leafValues>
            -6.2316966056823730e-01 3.2710868120193481e-01</leafValues></_>
        <_>
          <internalNodes>
            0 -1 28 -78950310 -10526881 -531296066 -116297506 -615016252
            -1099464075 -1109680129 -1755872001</internalNodes>
          <leafValues>
            -4.7593605518341064e-01 4.1184636950492859e-01</leafValues></_>
        <_>
          <internalNodes>
            0 -1 7 1593257983 813864594 -520866761 -193666340 -540282889
            -836572550 -1336551569 -50794537</internalNodes>
          <leafValues>
            -5.3434944152832031e-01 3.7362959980964661e-01</leafValues></_>
        <_>
          <internalNodes>
            0 -1 22 33753651 -15762393 -1352932365 -614516939
            -1422413909 -824181321 12564343 -134224513</internalNodes>
          <leafValues>
            -4.0585035085678101e-01 5.2713161706924438e-01</leafValues></_>
        <_>
          <internalNodes>
            0 -1 51 -619028518 -72173398 462623321 1532713587 -556663554
            -69483302 2135740415 -1622282533</internalNodes>
          <leafValues>
            -4.9852171540260315e-01 4.3234410881996155e-01</leafValues></_>
        <_>
          <internalNodes>
            0 -1 14 448696543 -939337097 -1933788617 -66747163
            -337904899 -1941669986 -1426195009 -867246081</internalNodes>
          <leafValues>
            -5.3998464345932007e-01 3.8029521703720093e-01</leafValues></_></weakClassifiers></_>
    <!-- stage 10 -->
    <_>
      <maxWeakCount>9</maxWeakCount>
      <stageThreshold>-1.5966809988021851e+00</stageThreshold>
      <weakClassifiers>
        <_>
          <internalNodes>
            0 -1 16 -843067417 -970002641 -78251529 -546310177
            -880803841 -270010439 -524317 -71303219</internalNodes>
          <leafValues>
            -6.8871825933456421e-01 6.0117300599813461e-02</leafValues></_>
        <_>
          <internalNodes>
            0 -1 60 923474843 1588141722 456854879 2134595531
            -1078202470 -541583223 -1146487333 1597995931</internalNodes>
          <leafValues>
            -6.4553856849670410e-01 2.3048764467239380e-01</leafValues></_>
        <_>
          <internalNodes>
            0 -1 65 1358925551 -117448021 1154642302 268465909
            -664797489 -856003989 -591466502 139788287</internalNodes>
          <leafValues>
            -5.8821427822113037e-01 2.9770514369010925e-01</leafValues></_>
        <_>
          <internalNodes>
            0 -1 53 1663283840 -674241536 -1812962657 -684756093
            -1576361560 34531498 593658414 -741345621</internalNodes>
          <leafValues>
            -4.2665782570838928e-01 4.2657244205474854e-01</leafValues></_>
        <_>
          <internalNodes>
            0 -1 69 -332789234 -266461158 -146978561 -147349458
            793545392 -75856970 -110453889 -8212598</internalNodes>
          <leafValues>
            -6.3280743360519409e-01 2.8335180878639221e-01</leafValues></_>
        <_>
          <internalNodes>
            0 -1 12 -1681167578 -1590711254 -1611862034 -116460028
            -27656195 -35695633 -1700292700 -876683136</internalNodes>
          <leafValues>
            -5.4599624872207642e-01 3.3541199564933777e-01</leafValues></_>
        <_>
          <internalNodes>
            0 -1 26 -204500862 -775187221 1593300341 51347587 1264779402
            1183007687 1414234250 1539539135</internalNodes>
          <leafValues>
            -5.4077488183975220e-01 3.6425831913948059e-01</leafValues></_>
        <_>
          <internalNodes>
            0 -1 56 -137374801 -1044020453 -115782127 -1073640894
            1330496258 -117184325 1346698207 -791944209</internalNodes>
          <leafValues>
            -3.8550159335136414e-01 5.1941144466400146e-01</leafValues></_>
        <_>
          <internalNodes>
            0 -1 43 -62039847 -67257632 1098994073 290813249 -333774680
            -1355249477 934124287 1058699519</internalNodes>
          <leafValues>
            -5.3097915649414062e-01 3.7064534425735474e-01</leafValues></_></weakClassifiers></_></stages>
  <features>
    <_>
      <rect>
        1 1 11 4</rect></_>
    <_>
      <rect>
        2 3 3 3</rect></_>
    <_>
      <rect>
        2 4 10 3</rect></_>
    <_>
      <rect>
        3 4 3 3</rect></_>
    <_>
      <rect>
        3 5 3 3</rect></_>
    <_>
      <rect>
        4 2 6 3</rect></_>
    <_>
      <rect>
        4 2 9 5</rect></_>
    <_>
      <rect>
        4 6 3 4</rect></_>
    <_>
      <rect>
        4 9 5 3</rect></_>
    <_>
      <rect>
        5 4 5 4</rect></_>
    <_>
      <rect>
        5 6 5 1</rect></_>
    <_>
      <rect>
        6 0 3 3</rect></_>
    <_>
      <rect>
        6 0 6 2</rect></_>
    <_>
      <rect>
        6 4 3 2</rect></_>
    <_>
      <rect>
        6 4 8 3</rect></_>
    <_>
      <rect>
        6 5 2 3</rect></_>
    <_>
      <rect>
        7 2 2 2</rect></_>
    <_>
      <rect>
        7 7 5 1</rect></_>
    <_>
      <rect>
        9 5 8 4</rect></_>
    <_>
      <rect>
        10 6 8 3</rect></_>
    <_>
      <rect>
        11 4 3 2</rect></_>
    <_>
      <rect>
        11 7 4 1</rect></_>
    <_>
      <rect>
        12 2 1 1</rect></_>
    <_>
      <rect>
        12 4 2 1</rect></_>
    <_>
      <rect>
        12 6 5 2</rect></_>
    <_>
      <rect>
        13 3 5 3</rect></_>
    <_>
      <rect>
        13 4 1 3</rect></_>
    <_>
      <rect>
        13 4 6 3</rect></_>
    <_>
      <rect>
        13 6 2 1</rect></_>
    <_>
      <rect>
        13 7 6 1</rect></_>
    <_>
      <rect>
        13 10 4 1</rect></_>
    <_>
      <rect>
        14 3 2 1</rect></_>
    <_>
      <rect>
        14 4 2 1</rect></_>
    <_>
      <rect>
        14 5 1 3</rect></_>
    <_>
      <rect>
        14 6 3 1</rect></_>
    <_>
      <rect>
        14 6 5 1</rect></_>
    <_>
      <rect>
        14 7 3 1</rect></_>
    <_>
      <rect>
        15 4 2 3</rect></_>
    <_>
      <rect>
        15 5 1 3</rect></_>
    <_>
      <rect>
        15 5 2 1</rect></_>
    <_>
      <rect>
        15 6 6 3</rect></_>
    <_>
      <rect>
        15 8 2 1</rect></_>
    <_>
      <rect>
        15 8 3 1</rect></_>
    <_>
      <rect>
        15 8 4 1</rect></_>
    <_>
      <rect>
        15 9 7 1</rect></_>
    <_>
      <rect>
        15 11 2 1</rect></_>
    <_>
      <rect>
        16 3 1 3</rect></_>
    <_>
      <rect>
        16 4 1 3</rect></_>
    <_>
      <rect>
        16 5 1 3</rect></_>
    <_>
      <rect>
        16 5 2 1</rect></_>
    <_>
      <rect>
        16 7 2 1</rect></_>
    <_>
      <rect>
        16 7 3 1</rect></_>
    <_>
      <rect>
        16 8 2 1</rect></_>
    <_>
      <rect>
        16 10 1 1</rect></_>
    <_>
      <rect>
        17 2 1 4</rect></_>
    <_>
      <rect>
        17 3 1 4</rect></_>
    <_>
      <rect>
        17 4 1 3</rect></_>
    <_>
      <rect>
        17 4 2 3</rect></_>
    <_>
      <rect>
        17 6 1 1</rect></_>
    <_>
      <rect>
        17 6 3 1</rect></_>
    <_>
      <rect>
        17 7 2 1</rect></_>
    <_>
      <rect>
        18 4 2 3</rect></_>
    <_>
      <rect>
        18 6 2 1</rect></_>
    <_>
      <rect>
        18 7 1 1</rect></_>
    <_>
      <rect>
        19 10 1 1</rect></_>
    <_>
      <rect>
        20 3 4 4</rect></_>
    <_>
      <rect>
        20 4 5 4</rect></_>
    <_>
      <rect>
        20 5 1 3</rect></_>
    <_>
      <rect>
        24 1 4 4</rect></_>
    <_>
      <rect>
        24 2 4 4</rect></_></features></cascade>
</opencv_storage>
