<?xml version="1.0"?>
<opencv_storage>
<cascade>
  <stageType>BOOST</stageType>
  <featureType>LBP</featureType>
  <height>18</height>
  <width>38</width>
  <stageParams>
    <boostType>GAB</boostType>
    <minHitRate>9.9900001287460327e-01</minHitRate>
    <maxFalseAlarm>5.0000000000000000e-01</maxFalseAlarm>
    <weightTrimRate>9.4999999999999996e-01</weightTrimRate>
    <maxDepth>1</maxDepth>
    <maxWeakCount>100</maxWeakCount></stageParams>
  <featureParams>
    <maxCatCount>256</maxCatCount>
    <featSize>1</featSize></featureParams>
  <stageNum>11</stageNum>
  <stages>
    <!-- stage 0 -->
    <_>
      <maxWeakCount>4</maxWeakCount>
      <stageThreshold>-2.0776820182800293e+00</stageThreshold>
      <weakClassifiers>
        <_>
          <internalNodes>
            0 -1 32 -638529296 -577748848 406930655 -2403951 -931102534
            -91619189 -938956097 -4224597</internalNodes>
          <leafValues>
            -9.1332119703292847e-01 5.9630608558654785e-01</leafValues></_>
        <_>
          <internalNodes>
            0 -1 54 -607600512 -137248768 -947530305 -149831407
            -1870102358 -338637662 -1970734081 -69473617</internalNodes>
          <leafValues>
            -8.6203491687774658e-01 4.3078291416168213e-01</leafValues></_>
        <_>
          <internalNodes>
            0 -1 9 -277958934 -35797810 -2111798550 190187566
            -1144262657 -88350305 -282080018 -8392993</internalNodes>
          <leafValues>
            -8.4023737907409668e-01 4.9143707752227783e-01</leafValues></_>
        <_>
          <internalNodes>
            0 -1 62 -238894902 -717176638 271089840 -717119345 34954
            16810126 1136779467 -3145777</internalNodes>
          <leafValues>
            -7.8184318542480469e-01 5.3791141510009766e-01</leafValues></_></weakClassifiers></_>
    <!-- stage 1 -->
    <_>
      <maxWeakCount>4</maxWeakCount>
      <stageThreshold>-1.8568382263183594e+00</stageThreshold>
      <weakClassifiers>
        <_>
          <internalNodes>
            0 -1 54 -608124728 -931712 -1114513985 -2231983 -121067286
            -277585 -1433863173 -2098177</internalNodes>
          <leafValues>
            -9.0807455778121948e-01 2.9600000381469727e-01</leafValues></_>
        <_>
          <internalNodes>
            0 -1 45 -204475774 -804945856 1073774736 -715980789
            -1056710006 -2147352576 1359987115 -213123089</internalNodes>
          <leafValues>
            -7.1422386169433594e-01 5.4032266139984131e-01</leafValues></_>
        <_>
          <internalNodes>
            0 -1 15 -85001474 -1406492534 -993890274 -255065394
            -67112961 -1997871441 -87312645 -889196801</internalNodes>
          <leafValues>
            -7.4061667919158936e-01 5.0525164604187012e-01</leafValues></_>
        <_>
          <internalNodes>
            0 -1 49 -657141544 -606531120 1090525585 1427178816
            -2012739416 -2001993573 -90325249 -1684284929</internalNodes>
          <leafValues>
            -7.3979139328002930e-01 5.2851355075836182e-01</leafValues></_></weakClassifiers></_>
    <!-- stage 2 -->
    <_>
      <maxWeakCount>5</maxWeakCount>
      <stageThreshold>-1.3222690820693970e+00</stageThreshold>
      <weakClassifiers>
        <_>
          <internalNodes>
            0 -1 54 -71253800 -931712 -548274689 -10627627 -125269782
            -69473633 -1433862145 -69472305</internalNodes>
          <leafValues>
            -8.9081883430480957e-01 2.6203209161758423e-01</leafValues></_>
        <_>
          <internalNodes>
            0 -1 38 -262940453 1465062295 269529119 1532827711
            -1341945157 -1088815079 34188735 455036159</internalNodes>
          <leafValues>
            -8.1382179260253906e-01 4.0922477841377258e-01</leafValues></_>
        <_>
          <internalNodes>
            0 -1 2 -892350753 -1909839141 168808191 199829215 -67387393
            -391231271 -1936983057 -858005537</internalNodes>
          <leafValues>
            -7.2495299577713013e-01 5.2764004468917847e-01</leafValues></_>
        <_>
          <internalNodes>
            0 -1 53 -620601638 -585983856 454318169 525949275 -611583042
            -6582840 1833614335 -1621139509</internalNodes>
          <leafValues>
            -6.0485011339187622e-01 5.7188463211059570e-01</leafValues></_>
        <_>
          <internalNodes>
            0 -1 50 -548420918 -754331518 17383552 1090715648
            -1073512246 1073779714 1094813866 -486030453</internalNodes>
          <leafValues>
            -6.0592466592788696e-01 5.5932378768920898e-01</leafValues></_></weakClassifiers></_>
    <!-- stage 3 -->
    <_>
      <maxWeakCount>7</maxWeakCount>
      <stageThreshold>-1.7314263582229614e+00</stageThreshold>
      <weakClassifiers>
        <_>
          <internalNodes>
            0 -1 11 -1119490 -5255986 202034911 -1244658 -810553345
            -402520 1535295423 -2136337</internalNodes>
          <leafValues>
            -8.2172840833663940e-01 1.2324324250221252e-01</leafValues></_>
        <_>
          <internalNodes>
            0 -1 10 -220212993 415521020 -1466171905 2135810037
            -83891457 -926105603 -1182799105 -808452129</internalNodes>
          <leafValues>
            -6.2578099966049194e-01 4.4907099008560181e-01</leafValues></_>
        <_>
          <internalNodes>
            0 -1 41 1000953336 -149995301 520445439 1562072351
            -1693794176 -1894842368 465566719 521142239</internalNodes>
          <leafValues>
            -7.4459582567214966e-01 3.7003538012504578e-01</leafValues></_>
        <_>
          <internalNodes>
            0 -1 5 -35684609 136333519 -127926275 79952895 2136470655
            -1996785217 -704644257 149940735</internalNodes>
          <leafValues>
            -7.4047124385833740e-01 3.6456012725830078e-01</leafValues></_>
        <_>
          <internalNodes>
            0 -1 56 -661921278 1393164426 172075 -448622582 1350691467
            269149067 1359005483 -614990965</internalNodes>
          <leafValues>
            -5.8515858650207520e-01 5.2976858615875244e-01</leafValues></_>
        <_>
          <internalNodes>
            0 -1 48 -594229112 -81659008 -134833157 -7131087 -1731673944
            -27569749 2064247807 -8449</internalNodes>
          <leafValues>
            -7.1365743875503540e-01 3.9224478602409363e-01</leafValues></_>
        <_>
          <internalNodes>
            0 -1 66 -16588670 -712277888 -1529364295 1426972673
            1107477128 33689666 39027594 -742424433</internalNodes>
          <leafValues>
            -6.1364150047302246e-01 4.4006741046905518e-01</leafValues></_></weakClassifiers></_>
    <!-- stage 4 -->
    <_>
      <maxWeakCount>7</maxWeakCount>
      <stageThreshold>-1.5666104555130005e+00</stageThreshold>
      <weakClassifiers>
        <_>
          <internalNodes>
            0 -1 24 -788529153 -794644230 -4456449 -616825857 15470847
            143265467 1330629631 -100663301</internalNodes>
          <leafValues>
            -7.9738724231719971e-01 7.3250137269496918e-02</leafValues></_>
        <_>
          <internalNodes>
            0 -1 13 -827326785 -1972458326 -332925889 1557134909
            -69211141 -1922053489 -897 -839912193</internalNodes>
          <leafValues>
            -6.2463325262069702e-01 3.6477714776992798e-01</leafValues></_>
        <_>
          <internalNodes>
            0 -1 30 -37555247 -544693680 1970680307 1459696085
            -884215557 -119551424 953269466 240108239</internalNodes>
          <leafValues>
            -5.7957935333251953e-01 4.3632078170776367e-01</leafValues></_>
        <_>
          <internalNodes>
            0 -1 37 -640957302 1426178048 -771550912 1427206539
            -1072963446 386194 17137806 -544242993</internalNodes>
          <leafValues>
            -5.4112797975540161e-01 4.7376564145088196e-01</leafValues></_>
        <_>
          <internalNodes>
            0 -1 70 -867301362 -553141346 -826466305 -543880401
            -884551788 -343164825 -13644885 -1213547602</internalNodes>
          <leafValues>
            -5.8610099554061890e-01 4.6286439895629883e-01</leafValues></_>
        <_>
          <internalNodes>
            0 -1 34 -222303840 -142606870 1997705624 -143396208
            -1418267188 1730285018 280060075 1904202491</internalNodes>
          <leafValues>
            -6.7240136861801147e-01 3.6850640177726746e-01</leafValues></_>
        <_>
          <internalNodes>
            0 -1 27 -83898870 -176961526 -581895286 2004352695 -27801201
            1445003829 1997248909 2002222079</internalNodes>
          <leafValues>
            -6.7439341545104980e-01 3.6052483320236206e-01</leafValues></_></weakClassifiers></_>
    <!-- stage 5 -->
    <_>
      <maxWeakCount>7</maxWeakCount>
      <stageThreshold>-2.1690278053283691e+00</stageThreshold>
      <weakClassifiers>
        <_>
          <internalNodes>
            0 -1 52 -1145056289 -541108037 -1623466017 -541074945
            -4464641 -4224885 -1088425989 -4194309</internalNodes>
          <leafValues>
            -7.2884941101074219e-01 2.9522183537483215e-01</leafValues></_>
        <_>
          <internalNodes>
            0 -1 7 -1880101138 -1516327294 -2757441 -136582490
            -1007288339 -4587602 -1477456930 -808464436</internalNodes>
          <leafValues>
            -7.4982517957687378e-01 2.3854310810565948e-01</leafValues></_>
        <_>
          <internalNodes>
            0 -1 60 -649858054 -607914290 462622905 -613969793
            -2021553192 -1995859828 -1975993665 -1616928849</internalNodes>
          <leafValues>
            -5.3233110904693604e-01 4.5481255650520325e-01</leafValues></_>
        <_>
          <internalNodes>
            0 -1 44 -69471925 -213648445 -1845317440 -786172965
            -1165429814 -1878986342 -217344310 -3145729</internalNodes>
          <leafValues>
            -4.2399784922599792e-01 5.7653397321701050e-01</leafValues></_>
        <_>
          <internalNodes>
            0 -1 1 -1427240193 -559406338 683674143 8069375 -203425281
            -1597049957 -358614049 -556859393</internalNodes>
          <leafValues>
            -6.2841391563415527e-01 4.1211053729057312e-01</leafValues></_>
        <_>
          <internalNodes>
            0 -1 68 -201071998 -800197758 -805273568 1896195595
            1480704130 -519962619 1078325371 -210770289</internalNodes>
          <leafValues>
            -5.5213773250579834e-01 4.4282296299934387e-01</leafValues></_>
        <_>
          <internalNodes>
            0 -1 28 -1878933327 -216698409 269767003 1361057147
            -121070857 -18404717 17842655 453187611</internalNodes>
          <leafValues>
            -5.7250452041625977e-01 4.4096234440803528e-01</leafValues></_></weakClassifiers></_>
    <!-- stage 6 -->
    <_>
      <maxWeakCount>7</maxWeakCount>
      <stageThreshold>-1.6146837472915649e+00</stageThreshold>
      <weakClassifiers>
        <_>
          <internalNodes>
            0 -1 51 -774900821 -716974557 1073869235 1406654411
            -1073483637 -804265217 1426848463 -69209377</internalNodes>
          <leafValues>
            -7.2554224729537964e-01 1.2879884243011475e-01</leafValues></_>
        <_>
          <internalNodes>
            0 -1 25 -1221373800 -1077980932 -117833987 -545792037
            1027260584 -283409682 454999803 458055659</internalNodes>
          <leafValues>
            -7.5552612543106079e-01 2.1207109093666077e-01</leafValues></_>
        <_>
          <internalNodes>
            0 -1 14 -1699812626 -1970870778 -1461650824 -242229325
            -5243925 -22088468 -305275941 -196084231</internalNodes>
          <leafValues>
            -6.9233661890029907e-01 2.7919179201126099e-01</leafValues></_>
        <_>
          <internalNodes>
            0 -1 63 336265915 523065325 -1148575745 2106007423
            -1182290438 -1080092466 -1078725633 -1077936161</internalNodes>
          <leafValues>
            -5.5189871788024902e-01 4.0843838453292847e-01</leafValues></_>
        <_>
          <internalNodes>
            0 -1 65 -733222390 1426183682 -1923167175 -771698029
            -2129690493 -2112933101 1091027691 -16004097</internalNodes>
          <leafValues>
            -5.1007437705993652e-01 4.4530761241912842e-01</leafValues></_>
        <_>
          <internalNodes>
            0 -1 61 -204213630 -754721278 226738309 -1056849913
            1889779882 -1384910234 1073857256 -352063333</internalNodes>
          <leafValues>
            -5.0228059291839600e-01 4.3691539764404297e-01</leafValues></_>
        <_>
          <internalNodes>
            0 -1 20 1370185727 857922295 -847710753 896693759 35586299
            35918014 1382499839 1408391159</internalNodes>
          <leafValues>
            -6.5434533357620239e-01 3.4495723247528076e-01</leafValues></_></weakClassifiers></_>
    <!-- stage 7 -->
    <_>
      <maxWeakCount>8</maxWeakCount>
      <stageThreshold>-2.1656229496002197e+00</stageThreshold>
      <weakClassifiers>
        <_>
          <internalNodes>
            0 -1 40 -117442817 -253772801 -109576197 1431425873
            -224403525 -88342545 -342228993 -547356833</internalNodes>
          <leafValues>
            -7.3849767446517944e-01 2.8048779815435410e-02</leafValues></_>
        <_>
          <internalNodes>
            0 -1 4 -286849417 547367634 -454797601 -2131580161
            -185860865 610725879 -4255937 -855703809</internalNodes>
          <leafValues>
            -7.7161550521850586e-01 1.7906711995601654e-01</leafValues></_>
        <_>
          <internalNodes>
            0 -1 43 -9372944 -400736 166200569 -646062095 -1442272598
            -71639394 -1031271202 -340952085</internalNodes>
          <leafValues>
            -6.7090928554534912e-01 2.7316370606422424e-01</leafValues></_>
        <_>
          <internalNodes>
            0 -1 46 -17838358 -228536321 -600620664 2133449659
            -797576213 -2146417703 -1853116245 -71830593</internalNodes>
          <leafValues>
            -4.3459546566009521e-01 4.6277874708175659e-01</leafValues></_>
        <_>
          <internalNodes>
            0 -1 18 -548417906 1472842376 -1030934472 1078935585
            -81348882 -653959484 1743648234 1296555775</internalNodes>
          <leafValues>
            -6.1767667531967163e-01 3.3030688762664795e-01</leafValues></_>
        <_>
          <internalNodes>
            0 -1 64 -521400593 -1613002005 13694206 122719965 -442574083
            -628098374 -269437957 -1099579651</internalNodes>
          <leafValues>
            -5.3429752588272095e-01 3.5409188270568848e-01</leafValues></_>
        <_>
          <internalNodes>
            0 -1 55 -544477054 -754274264 -1606303607 1343429930
            -1256480632 -1971181560 -2095717998 1427095867</internalNodes>
          <leafValues>
            -6.1278134584426880e-01 3.2801291346549988e-01</leafValues></_>
        <_>
          <internalNodes>
            0 -1 0 -2089817229 214363621 798490589 -1343226977
            1300168697 1224783021 1793582004 -294654608</internalNodes>
          <leafValues>
            -5.7737946510314941e-01 3.6231598258018494e-01</leafValues></_></weakClassifiers></_>
    <!-- stage 8 -->
    <_>
      <maxWeakCount>8</maxWeakCount>
      <stageThreshold>-1.7519336938858032e+00</stageThreshold>
      <weakClassifiers>
        <_>
          <internalNodes>
            0 -1 39 -213126157 -742137138 -1290579461 400130783
            -71697925 -1948538486 -33829953 -1882209317</internalNodes>
          <leafValues>
            -7.5363045930862427e-01 -4.7219306230545044e-02</leafValues></_>
        <_>
          <internalNodes>
            0 -1 22 -117441793 -254183309 -44040805 1430320624
            -1197483777 -390231885 -52432913 2102785841</internalNodes>
          <leafValues>
            -5.6761264801025391e-01 2.7472048997879028e-01</leafValues></_>
        <_>
          <internalNodes>
            0 -1 19 -286070030 1463124575 67125997 1439036147 -184354898
            -1086844719 1073797115 1731950571</internalNodes>
          <leafValues>
            -6.6661143302917480e-01 2.7072390913963318e-01</leafValues></_>
        <_>
          <internalNodes>
            0 -1 17 -1064841233 -2046104817 -370803333 -10488929
            -916460033 -915678494 -825098783 -1799359031</internalNodes>
          <leafValues>
            -4.3871650099754333e-01 4.1904756426811218e-01</leafValues></_>
        <_>
          <internalNodes>
            0 -1 45 -204475765 -750551008 1082172088 1562100099
            -821099862 -1035057967 1091027370 -1051986</internalNodes>
          <leafValues>
            -4.0327456593513489e-01 5.0342971086502075e-01</leafValues></_>
        <_>
          <internalNodes>
            0 -1 6 -572557993 961606516 2086182367 -44521744 -691274941
            -1138862314 -16581889 -1600089232</internalNodes>
          <leafValues>
            -4.6143686771392822e-01 4.3502900004386902e-01</leafValues></_>
        <_>
          <internalNodes>
            0 -1 71 -147968506 -12636241 -852547734 -1648619768
            -42316121 2138770122 -1677724211 -537957051</internalNodes>
          <leafValues>
            -5.5470603704452515e-01 3.5394403338432312e-01</leafValues></_>
        <_>
          <internalNodes>
            0 -1 58 -141823313 -1042951666 957704713 1073823818
            -552615005 -779689437 1343421195 -741498049</internalNodes>
          <leafValues>
            -4.2771074175834656e-01 4.6572402119636536e-01</leafValues></_></weakClassifiers></_>
    <!-- stage 9 -->
    <_>
      <maxWeakCount>8</maxWeakCount>
      <stageThreshold>-1.8682646751403809e+00</stageThreshold>
      <weakClassifiers>
        <_>
          <internalNodes>
            0 -1 35 -67371009 -524289 823759056 1069535464 -33555521
            428422412 -236209921 -2098177</internalNodes>
          <leafValues>
            -6.9614219665527344e-01 8.7091758847236633e-02</leafValues></_>
        <_>
          <internalNodes>
            0 -1 42 1562924250 1571479528 1511054522 1606227963
            -671158561 -587476245 1591353083 1590544554</internalNodes>
          <leafValues>
            -6.5245819091796875e-01 2.5156486034393311e-01</leafValues></_>
        <_>
          <internalNodes>
            0 -1 69 -865204215 -4411521 -386027873 -525565 -1539420225
            -658572031 -855863637 -72695889</internalNodes>
          <leafValues>
            -4.8073950409889221e-01 3.6677503585815430e-01</leafValues></_>
        <_>
          <internalNodes>
            0 -1 59 -21453670 -69457732 1539063711 1035610864 -14766197
            791154575 1902771434 490671279</internalNodes>
          <leafValues>
            -7.5129640102386475e-01 2.3838138580322266e-01</leafValues></_>
        <_>
          <internalNodes>
            0 -1 66 -634928958 -758169472 -914109521 -753934045
            -956136822 100845387 1788068495 -618691921</internalNodes>
          <leafValues>
            -4.5003092288970947e-01 4.1230851411819458e-01</leafValues></_>
        <_>
          <internalNodes>
            0 -1 57 -19993376 -160526614 54811105 2012217321 281839608
            345529019 1370984939 1474283499</internalNodes>
          <leafValues>
            -6.2968438863754272e-01 2.9510065913200378e-01</leafValues></_>
        <_>
          <internalNodes>
            0 -1 3 -1711301385 814021359 -1659675305 2145361653
            480247087 -118888757 -2002915331 -2130711087</internalNodes>
          <leafValues>
            -4.8685067892074585e-01 3.9345034956932068e-01</leafValues></_>
        <_>
          <internalNodes>
            0 -1 12 -831525137 -706476926 1143514367 -1079074613
            -234098437 -523261525 -1455162881 1610603775</internalNodes>
          <leafValues>
            -4.6227779984474182e-01 4.2597967386245728e-01</leafValues></_></weakClassifiers></_>
    <!-- stage 10 -->
    <_>
      <maxWeakCount>11</maxWeakCount>
      <stageThreshold>-1.5398319959640503e+00</stageThreshold>
      <weakClassifiers>
        <_>
          <internalNodes>
            0 -1 23 -743447805 -134220993 -138554377 -201337953
            -940573697 -100941825 -138412081 -672140465</internalNodes>
          <leafValues>
            -6.8927037715911865e-01 9.0322583913803101e-02</leafValues></_>
        <_>
          <internalNodes>
            0 -1 47 998462683 -16213814 463429087 453864351 -1685106995
            -3257394 532676607 -1626349937</internalNodes>
          <leafValues>
            -5.6920468807220459e-01 2.6830112934112549e-01</leafValues></_>
        <_>
          <internalNodes>
            0 -1 16 -87081234 -1964331290 874390074 2024712294 -17043714
            -320345349 -52592929 -570425345</internalNodes>
          <leafValues>
            -6.1936420202255249e-01 2.8343224525451660e-01</leafValues></_>
        <_>
          <internalNodes>
            0 -1 67 -390206225 -67138833 -2075333921 318793321
            -436219009 -611458145 -68159238 -78123075</internalNodes>
          <leafValues>
            -4.2071092128753662e-01 4.4553056359291077e-01</leafValues></_>
        <_>
          <internalNodes>
            0 -1 29 -269529070 -98353 -34626 -34392714 -545814299
            -1135279499 -1107313153 -1088973569</internalNodes>
          <leafValues>
            -3.9351528882980347e-01 4.5069578289985657e-01</leafValues></_>
        <_>
          <internalNodes>
            0 -1 26 -1418728953 -336666490 -429984242 -134227974
            -202661050 79917855 1715980751 2002778094</internalNodes>
          <leafValues>
            -5.2325284481048584e-01 3.3822414278984070e-01</leafValues></_>
        <_>
          <internalNodes>
            0 -1 33 -484738950 -577628984 1627541758 1599951995
            -1572830582 -552728511 1051327 -82895109</internalNodes>
          <leafValues>
            -4.4041210412979126e-01 4.1151750087738037e-01</leafValues></_>
        <_>
          <internalNodes>
            0 -1 21 -1162020612 -1447382864 -173944325 -73672061
            -1997453217 -1099956173 -5670529 -16260990</internalNodes>
          <leafValues>
            -5.4862630367279053e-01 3.3010381460189819e-01</leafValues></_>
        <_>
          <internalNodes>
            0 -1 8 -169935361 -14880946 -1663762690 -571408824
            -1123029132 -51061326 -371528738 -797638835</internalNodes>
          <leafValues>
            -4.1764923930168152e-01 4.6241083741188049e-01</leafValues></_>
        <_>
          <internalNodes>
            0 -1 36 -354422270 -68486934 1308352744 -2182 1919654798
            1172452667 -1865699134 1674924282</internalNodes>
          <leafValues>
            -6.8486225605010986e-01 2.7480548620223999e-01</leafValues></_>
        <_>
          <internalNodes>
            0 -1 31 -16665325 -206323712 -95978021 -540073708
            -1887266375 -1357217546 1359795167 1430766284</internalNodes>
          <leafValues>
            -5.1110869646072388e-01 3.8566404581069946e-01</leafValues></_></weakClassifiers></_></stages>
  <features>
    <_>
      <rect>
        0 1 6 2</rect></_>
    <_>
      <rect>
        2 1 10 5</rect></_>
    <_>
      <rect>
        2 1 11 4</rect></_>
    <_>
      <rect>
        2 3 3 3</rect></_>
    <_>
      <rect>
        2 6 4 3</rect></_>
    <_>
      <rect>
        2 7 3 2</rect></_>
    <_>
      <rect>
        2 9 3 3</rect></_>
    <_>
      <rect>
        4 0 5 4</rect></_>
    <_>
      <rect>
        4 12 3 2</rect></_>
    <_>
      <rect>
        5 3 5 3</rect></_>
    <_>
      <rect>
        5 4 10 4</rect></_>
    <_>
      <rect>
        5 6 5 1</rect></_>
    <_>
      <rect>
        5 8 4 1</rect></_>
    <_>
      <rect>
        6 4 2 3</rect></_>
    <_>
      <rect>
        6 4 3 2</rect></_>
    <_>
      <rect>
        6 5 2 3</rect></_>
    <_>
      <rect>
        6 7 2 2</rect></_>
    <_>
      <rect>
        7 2 2 2</rect></_>
    <_>
      <rect>
        8 5 2 3</rect></_>
    <_>
      <rect>
        8 7 4 1</rect></_>
    <_>
      <rect>
        10 1 7 4</rect></_>
    <_>
      <rect>
        10 6 6 2</rect></_>
    <_>
      <rect>
        10 6 8 3</rect></_>
    <_>
      <rect>
        11 0 2 2</rect></_>
    <_>
      <rect>
        11 4 7 3</rect></_>
    <_>
      <rect>
        11 7 4 1</rect></_>
    <_>
      <rect>
        12 3 2 1</rect></_>
    <_>
      <rect>
        12 5 2 1</rect></_>
    <_>
      <rect>
        12 9 5 1</rect></_>
    <_>
      <rect>
        13 6 2 1</rect></_>
    <_>
      <rect>
        13 6 5 1</rect></_>
    <_>
      <rect>
        13 8 2 1</rect></_>
    <_>
      <rect>
        13 8 4 1</rect></_>
    <_>
      <rect>
        13 12 3 1</rect></_>
    <_>
      <rect>
        14 2 2 2</rect></_>
    <_>
      <rect>
        14 3 2 3</rect></_>
    <_>
      <rect>
        14 4 2 1</rect></_>
    <_>
      <rect>
        14 5 1 3</rect></_>
    <_>
      <rect>
        14 6 3 1</rect></_>
    <_>
      <rect>
        14 6 5 1</rect></_>
    <_>
      <rect>
        14 6 6 3</rect></_>
    <_>
      <rect>
        14 7 3 1</rect></_>
    <_>
      <rect>
        14 7 5 1</rect></_>
    <_>
      <rect>
        14 8 3 1</rect></_>
    <_>
      <rect>
        15 4 2 3</rect></_>
    <_>
      <rect>
        15 5 1 3</rect></_>
    <_>
      <rect>
        15 5 2 1</rect></_>
    <_>
      <rect>
        15 7 3 1</rect></_>
    <_>
      <rect>
        15 8 3 1</rect></_>
    <_>
      <rect>
        15 8 4 1</rect></_>
    <_>
      <rect>
        16 4 1 3</rect></_>
    <_>
      <rect>
        16 5 1 3</rect></_>
    <_>
      <rect>
        16 7 2 1</rect></_>
    <_>
      <rect>
        16 7 3 1</rect></_>
    <_>
      <rect>
        16 8 2 1</rect></_>
    <_>
      <rect>
        16 9 1 2</rect></_>
    <_>
      <rect>
        17 2 1 4</rect></_>
    <_>
      <rect>
        17 3 2 2</rect></_>
    <_>
      <rect>
        17 4 1 3</rect></_>
    <_>
      <rect>
        17 6 1 1</rect></_>
    <_>
      <rect>
        17 6 3 1</rect></_>
    <_>
      <rect>
        18 4 1 3</rect></_>
    <_>
      <rect>
        18 4 2 3</rect></_>
    <_>
      <rect>
        18 7 1 1</rect></_>
    <_>
      <rect>
        19 3 5 5</rect></_>
    <_>
      <rect>
        19 4 1 3</rect></_>
    <_>
      <rect>
        19 10 1 1</rect></_>
    <_>
      <rect>
        20 4 5 4</rect></_>
    <_>
      <rect>
        20 5 1 3</rect></_>
    <_>
      <rect>
        23 0 4 4</rect></_>
    <_>
      <rect>
        24 1 4 4</rect></_>
    <_>
      <rect>
        24 6 4 4</rect></_></features></cascade>
</opencv_storage>
