<?xml version="1.0"?>
<opencv_storage>
<cascade>
  <stageType>BOOST</stageType>
  <featureType>LBP</featureType>
  <height>18</height>
  <width>38</width>
  <stageParams>
    <boostType>GAB</boostType>
    <minHitRate>9.9900001287460327e-01</minHitRate>
    <maxFalseAlarm>5.0000000000000000e-01</maxFalseAlarm>
    <weightTrimRate>9.4999999999999996e-01</weightTrimRate>
    <maxDepth>1</maxDepth>
    <maxWeakCount>100</maxWeakCount></stageParams>
  <featureParams>
    <maxCatCount>256</maxCatCount>
    <featSize>1</featSize></featureParams>
  <stageNum>12</stageNum>
  <stages>
    <!-- stage 0 -->
    <_>
      <maxWeakCount>3</maxWeakCount>
      <stageThreshold>-1.1897867918014526e+00</stageThreshold>
      <weakClassifiers>
        <_>
          <internalNodes>
            0 -1 59 -801062768 -45072384 -1736404591 -45022959
            -1476359960 -90696984 -1730631425 -73430325</internalNodes>
          <leafValues>
            -8.8020563125610352e-01 7.6426118612289429e-01</leafValues></_>
        <_>
          <internalNodes>
            0 -1 65 -251596600 -246562688 16520 -721043253 -1333728086
            -553074046 -802686805 -7872513</internalNodes>
          <leafValues>
            -8.3450496196746826e-01 5.3033399581909180e-01</leafValues></_>
        <_>
          <internalNodes>
            0 -1 13 -871960850 -3161914 -1039499122 790857934 -358569222
            -272953687 -837105430 -9521</internalNodes>
          <leafValues>
            -8.3991521596908569e-01 5.2829748392105103e-01</leafValues></_></weakClassifiers></_>
    <!-- stage 1 -->
    <_>
      <maxWeakCount>5</maxWeakCount>
      <stageThreshold>-2.1404914855957031e+00</stageThreshold>
      <weakClassifiers>
        <_>
          <internalNodes>
            0 -1 44 -53423880 -72346992 -646870787 -8547919 -125263688
            -4554502 -1467963201 -5589313</internalNodes>
          <leafValues>
            -7.8881984949111938e-01 5.5569905042648315e-01</leafValues></_>
        <_>
          <internalNodes>
            0 -1 56 -758652798 -783876096 1073807360 1359421443
            -1073512318 1073741824 1074085898 -747642133</internalNodes>
          <leafValues>
            -6.8043971061706543e-01 5.6969898939132690e-01</leafValues></_>
        <_>
          <internalNodes>
            0 -1 5 -387546369 -789706001 -2068123905 988784891
            -392250369 -386990913 -1359028225 -856686593</internalNodes>
          <leafValues>
            -6.5700364112854004e-01 5.6368237733840942e-01</leafValues></_>
        <_>
          <internalNodes>
            0 -1 19 -568004918 -3750364 155633887 -546438996 -271729681
            -71695454 -1974472705 -537984373</internalNodes>
          <leafValues>
            -6.3518905639648438e-01 5.7823455333709717e-01</leafValues></_>
        <_>
          <internalNodes>
            0 -1 39 -790949729 -581005157 1342503647 2141017307
            -1275027301 -1677197176 84054719 520815803</internalNodes>
          <leafValues>
            -6.2917798757553101e-01 5.7979637384414673e-01</leafValues></_></weakClassifiers></_>
    <!-- stage 2 -->
    <_>
      <maxWeakCount>5</maxWeakCount>
      <stageThreshold>-1.2770775556564331e+00</stageThreshold>
      <weakClassifiers>
        <_>
          <internalNodes>
            0 -1 12 -353447169 -1467194660 -367263777 -1085482049
            -554967809 -286482178 -70520833 -1048833</internalNodes>
          <leafValues>
            -7.0576238632202148e-01 5.4482281208038330e-01</leafValues></_>
        <_>
          <internalNodes>
            0 -1 70 -254492456 -36682600 1426150741 1360089429
            -930551640 -1195826552 -1129652481 -73443121</internalNodes>
          <leafValues>
            -7.4144136905670166e-01 5.0792998075485229e-01</leafValues></_>
        <_>
          <internalNodes>
            0 -1 66 -637273358 -712440821 9568795 319094803 -1971209990
            -1995964287 151231419 193661339</internalNodes>
          <leafValues>
            -7.5469756126403809e-01 4.2151412367820740e-01</leafValues></_>
        <_>
          <internalNodes>
            0 -1 28 -301800718 -10534705 4239487 -241360691 -1325083911
            -281870162 33583871 2135888095</internalNodes>
          <leafValues>
            -6.9327813386917114e-01 4.4126144051551819e-01</leafValues></_>
        <_>
          <internalNodes>
            0 -1 74 -225980278 -1073560574 -800947966 17006603
            1342228994 1073905671 1090617346 -896536326</internalNodes>
          <leafValues>
            -6.5266364812850952e-01 4.8356226086616516e-01</leafValues></_></weakClassifiers></_>
    <!-- stage 3 -->
    <_>
      <maxWeakCount>6</maxWeakCount>
      <stageThreshold>-1.6799581050872803e+00</stageThreshold>
      <weakClassifiers>
        <_>
          <internalNodes>
            0 -1 2 -2097153 15868655 -2630697 -1059586049 -2098689
            -2130728353 -4194561 -2130707713</internalNodes>
          <leafValues>
            -7.1923935413360596e-01 4.2555829882621765e-01</leafValues></_>
        <_>
          <internalNodes>
            0 -1 33 -656441601 -795289358 -1797791745 -772015109
            15537407 134224634 -815811585 -637534209</internalNodes>
          <leafValues>
            -5.7243841886520386e-01 5.1232630014419556e-01</leafValues></_>
        <_>
          <internalNodes>
            0 -1 18 -288954642 -14137138 -1910471574 -16603442
            -1379602945 -287945477 -347279361 -15737889</internalNodes>
          <leafValues>
            -6.9378870725631714e-01 3.9961981773376465e-01</leafValues></_>
        <_>
          <internalNodes>
            0 -1 68 319953370 1595015818 454254431 1528525275 -912536614
            -47540006 2132531679 -551592482</internalNodes>
          <leafValues>
            -6.1456108093261719e-01 4.4124907255172729e-01</leafValues></_>
        <_>
          <internalNodes>
            0 -1 81 -1056710526 -805115773 8421705 -788435897 268693674
            -745893686 1359205963 -754459697</internalNodes>
          <leafValues>
            -5.4781717061996460e-01 5.1506990194320679e-01</leafValues></_>
        <_>
          <internalNodes>
            0 -1 78 -1073561600 -782773262 -318518817 -585125741
            -2004710742 -38027121 -2111767605 -74727281</internalNodes>
          <leafValues>
            -6.5081065893173218e-01 3.9522272348403931e-01</leafValues></_></weakClassifiers></_>
    <!-- stage 4 -->
    <_>
      <maxWeakCount>8</maxWeakCount>
      <stageThreshold>-1.5823149681091309e+00</stageThreshold>
      <weakClassifiers>
        <_>
          <internalNodes>
            0 -1 61 -78650710 -788414454 1091944512 1359069184
            -805060478 1342259328 1397213418 -740302709</internalNodes>
          <leafValues>
            -6.5180242061614990e-01 4.0621930360794067e-01</leafValues></_>
        <_>
          <internalNodes>
            0 -1 10 -1999721729 -1040178466 -1964844289 148643455
            -890307585 -928064769 -892403713 -1899036689</internalNodes>
          <leafValues>
            -7.8656142950057983e-01 3.4772655367851257e-01</leafValues></_>
        <_>
          <internalNodes>
            0 -1 42 428806360 -44101381 226622207 -539248259 -2004367224
            -1685346182 260701183 523176863</internalNodes>
          <leafValues>
            -7.4009466171264648e-01 3.5386431217193604e-01</leafValues></_>
        <_>
          <internalNodes>
            0 -1 89 -767303030 1359208970 268468224 1392706050 1237418
            268451841 1073844232 -749736993</internalNodes>
          <leafValues>
            -5.3275537490844727e-01 4.7057646512985229e-01</leafValues></_>
        <_>
          <internalNodes>
            0 -1 24 -537924886 -959504246 -185958258 -188272568
            -891295289 -1382300141 -269497201 -858788145</internalNodes>
          <leafValues>
            -5.3262710571289062e-01 4.6632659435272217e-01</leafValues></_>
        <_>
          <internalNodes>
            0 -1 36 -795683599 -548154024 286339153 1359155649
            -668405510 -47504993 16879839 252379267</internalNodes>
          <leafValues>
            -5.7170253992080688e-01 4.6816709637641907e-01</leafValues></_>
        <_>
          <internalNodes>
            0 -1 53 -69221717 -750522365 17138908 1073998467 -653285240
            1476431297 1124577450 -695483509</internalNodes>
          <leafValues>
            -4.2065688967704773e-01 5.7916122674942017e-01</leafValues></_>
        <_>
          <internalNodes>
            0 -1 51 -655851267 -472168 287315377 490303809 -930198514
            -1910372181 422178559 -1147462979</internalNodes>
          <leafValues>
            -4.8327499628067017e-01 5.2669012546539307e-01</leafValues></_></weakClassifiers></_>
    <!-- stage 5 -->
    <_>
      <maxWeakCount>8</maxWeakCount>
      <stageThreshold>-1.5496366024017334e+00</stageThreshold>
      <weakClassifiers>
        <_>
          <internalNodes>
            0 -1 48 -790627585 1356198111 -1684014081 1364541845
            -319816705 -1965043457 -68163169 1599602655</internalNodes>
          <leafValues>
            -5.9567898511886597e-01 3.8324177265167236e-01</leafValues></_>
        <_>
          <internalNodes>
            0 -1 27 -581973302 -754548534 1346372320 1359282432
            -882913585 -871380916 -269759537 -540025137</internalNodes>
          <leafValues>
            -5.2932083606719971e-01 4.5386543869972229e-01</leafValues></_>
        <_>
          <internalNodes>
            0 -1 58 521887703 -16163410 521887743 2134596575 -812725617
            -552661302 -1625292801 -1626349569</internalNodes>
          <leafValues>
            -4.6068665385246277e-01 5.0707918405532837e-01</leafValues></_>
        <_>
          <internalNodes>
            0 -1 52 -220988710 -202122305 -1870413800 -745015365
            303096568 268457401 571975835 1475867647</internalNodes>
          <leafValues>
            -5.5335587263107300e-01 4.1134983301162720e-01</leafValues></_>
        <_>
          <internalNodes>
            0 -1 90 -217324918 -775724542 285245440 1359413763
            -1065310072 134825002 -800997173 -750013713</internalNodes>
          <leafValues>
            -4.6825215220451355e-01 4.6790084242820740e-01</leafValues></_>
        <_>
          <internalNodes>
            0 -1 7 -270015762 -9441570 -865022214 -16521209 -824646420
            -274037573 -1062378548 -9452567</internalNodes>
          <leafValues>
            -5.9998100996017456e-01 3.5182818770408630e-01</leafValues></_>
        <_>
          <internalNodes>
            0 -1 69 -645873528 -142237056 -595009571 -184157871
            -1475828568 -67171858 -658462470 -10830888</internalNodes>
          <leafValues>
            -7.2552305459976196e-01 3.0963930487632751e-01</leafValues></_>
        <_>
          <internalNodes>
            0 -1 85 -880039286 -2130591581 168536859 1359188738
            -2111641430 763930 1124714635 -217064821</internalNodes>
          <leafValues>
            -5.0111865997314453e-01 4.5969441533088684e-01</leafValues></_></weakClassifiers></_>
    <!-- stage 6 -->
    <_>
      <maxWeakCount>9</maxWeakCount>
      <stageThreshold>-1.7940547466278076e+00</stageThreshold>
      <weakClassifiers>
        <_>
          <internalNodes>
            0 -1 9 -297603361 -75060058 780988159 -1094049 -146034689
            -6583152 -536870913 -2360421</internalNodes>
          <leafValues>
            -5.4078978300094604e-01 4.2279267311096191e-01</leafValues></_>
        <_>
          <internalNodes>
            0 -1 73 -238816566 -607454518 -788486646 -3146801 4247724
            -804527409 1426316014 -1049</internalNodes>
          <leafValues>
            -5.1054316759109497e-01 4.1719040274620056e-01</leafValues></_>
        <_>
          <internalNodes>
            0 -1 16 -1345327442 -1055190 -7885065 -75781470 1868558319
            -745028742 -407908660 -269496628</internalNodes>
          <leafValues>
            -6.0560870170593262e-01 3.4327438473701477e-01</leafValues></_>
        <_>
          <internalNodes>
            0 -1 63 -800333109 -804531069 28737 1090761330 -1073048894
            1342398579 1430514635 -14683713</internalNodes>
          <leafValues>
            -4.2803442478179932e-01 4.7780600190162659e-01</leafValues></_>
        <_>
          <internalNodes>
            0 -1 38 -575415297 -1683324280 367263741 456915450
            1331580911 448413928 384551675 464251498</internalNodes>
          <leafValues>
            -5.1399511098861694e-01 4.0877345204353333e-01</leafValues></_>
        <_>
          <internalNodes>
            0 -1 77 -1828185133 -1710596680 -1648664609 2132762111
            -1349871943 -74688214 -1154899973 2065647867</internalNodes>
          <leafValues>
            -5.6617987155914307e-01 3.2254403829574585e-01</leafValues></_>
        <_>
          <internalNodes>
            0 -1 86 -268189045 -1874673654 331404986 -1039119249
            -1061051510 390543234 1079232554 -204211457</internalNodes>
          <leafValues>
            -4.1916811466217041e-01 4.7194069623947144e-01</leafValues></_>
        <_>
          <internalNodes>
            0 -1 30 403200255 2109751993 -1429245698 1003870225
            -1598185729 -1993654135 -2002333697 159117759</internalNodes>
          <leafValues>
            -4.8443216085433960e-01 4.3289470672607422e-01</leafValues></_>
        <_>
          <internalNodes>
            0 -1 64 -70326134 -243649546 -478680920 -148119781
            -1062274577 -788511717 22263966 -609095201</internalNodes>
          <leafValues>
            -4.6479949355125427e-01 4.3708956241607666e-01</leafValues></_></weakClassifiers></_>
    <!-- stage 7 -->
    <_>
      <maxWeakCount>10</maxWeakCount>
      <stageThreshold>-1.6113859415054321e+00</stageThreshold>
      <weakClassifiers>
        <_>
          <internalNodes>
            0 -1 15 -552599810 -13652278 -147390721 791620238
            -1143473665 -17055841 -642778113 -3150101</internalNodes>
          <leafValues>
            -5.8488470315933228e-01 2.8272414207458496e-01</leafValues></_>
        <_>
          <internalNodes>
            0 -1 75 -69478150 -82649093 118685883 1528509115 -1966372357
            -2121758275 194480827 457153471</internalNodes>
          <leafValues>
            -6.1454451084136963e-01 3.0045521259307861e-01</leafValues></_>
        <_>
          <internalNodes>
            0 -1 74 -758125949 -1073512446 453234691 -1073495925
            1359659722 -1072988017 1074056523 -758656309</internalNodes>
          <leafValues>
            -4.5258018374443054e-01 4.1895878314971924e-01</leafValues></_>
        <_>
          <internalNodes>
            0 -1 21 -2006167425 -1978903572 -866814977 1607268321
            -790701089 -2012696627 -1203586053 -1885470721</internalNodes>
          <leafValues>
            -5.2493900060653687e-01 3.8682481646537781e-01</leafValues></_>
        <_>
          <internalNodes>
            0 -1 8 -36734977 427851003 -637809825 -235604998 -419989889
            -1129131599 -1108353025 -1461649417</internalNodes>
          <leafValues>
            -4.4274571537971497e-01 4.2149516940116882e-01</leafValues></_>
        <_>
          <internalNodes>
            0 -1 72 -117251966 -775191806 1695009177 1363910674
            1109557922 -2147187666 1110623443 -675290113</internalNodes>
          <leafValues>
            -4.6463111042976379e-01 4.2971387505531311e-01</leafValues></_>
        <_>
          <internalNodes>
            0 -1 71 -236074942 -586989288 473963999 2112852375
            -640843058 -2137735439 -1362374994 174055167</internalNodes>
          <leafValues>
            -5.2779763936996460e-01 3.7977772951126099e-01</leafValues></_>
        <_>
          <internalNodes>
            0 -1 43 -1073680894 -104341206 1646940160 1929867970
            -1072914280 1263185608 2474698 1380963203</internalNodes>
          <leafValues>
            -5.9006702899932861e-01 3.0541652441024780e-01</leafValues></_>
        <_>
          <internalNodes>
            0 -1 99 -37091826 -68269778 -783816273 1605305158 -872955453
            -7673894 -1354170778 -1343516760</internalNodes>
          <leafValues>
            -5.1998233795166016e-01 3.4503167867660522e-01</leafValues></_>
        <_>
          <internalNodes>
            0 -1 82 -141823253 -784224126 -706249539 -1593576821
            -727391006 1092065579 1074167978 -519045345</internalNodes>
          <leafValues>
            -4.2571604251861572e-01 4.5369902253150940e-01</leafValues></_></weakClassifiers></_>
    <!-- stage 8 -->
    <_>
      <maxWeakCount>10</maxWeakCount>
      <stageThreshold>-1.7184435129165649e+00</stageThreshold>
      <weakClassifiers>
        <_>
          <internalNodes>
            0 -1 11 -1191182465 13019694 -11534881 -788529954 -738738369
            -1393563137 -370151425 -1997538179</internalNodes>
          <leafValues>
            -6.6151821613311768e-01 2.1639606356620789e-01</leafValues></_>
        <_>
          <internalNodes>
            0 -1 67 397365727 -544269825 521363453 1606376927
            -1078206472 -4518449 -1089209345 -5243908</internalNodes>
          <leafValues>
            -4.3118396401405334e-01 4.4673338532447815e-01</leafValues></_>
        <_>
          <internalNodes>
            0 -1 46 -792757505 278444788 -97518725 273752000 -654443329
            -389300241 -1195397185 423755709</internalNodes>
          <leafValues>
            -5.5113410949707031e-01 3.4342774748802185e-01</leafValues></_>
        <_>
          <internalNodes>
            0 -1 83 -255074102 -708803954 -1879048056 -176045409
            1342232776 1162383882 1380358335 -4202785</internalNodes>
          <leafValues>
            -5.1093024015426636e-01 3.7489411234855652e-01</leafValues></_>
        <_>
          <internalNodes>
            0 -1 29 -303371024 -8652041 -527109961 -135024369 -9961479
            -6294858 856142462 2004308227</internalNodes>
          <leafValues>
            -5.6035602092742920e-01 2.8069293498992920e-01</leafValues></_>
        <_>
          <internalNodes>
            0 -1 40 -410009597 -781221885 2102874577 84738562 -859338078
            1392575652 1199800491 -787512689</internalNodes>
          <leafValues>
            -3.7604758143424988e-01 4.5092487335205078e-01</leafValues></_>
        <_>
          <internalNodes>
            0 -1 23 -16795985 1290791662 2025196671 1492613807
            -536887553 -387256321 2113924350 -251658241</internalNodes>
          <leafValues>
            -4.0036350488662720e-01 4.2900547385215759e-01</leafValues></_>
        <_>
          <internalNodes>
            0 -1 91 -1162371030 -29909337 -29421525 1410710327
            -369159249 -1363472215 954424991 -1645363233</internalNodes>
          <leafValues>
            -4.5643645524978638e-01 3.8009950518608093e-01</leafValues></_>
        <_>
          <internalNodes>
            0 -1 79 -783808360 -614889384 -853977123 -682142379
            -706182998 -1161059608 1238035388 -554531883</internalNodes>
          <leafValues>
            -6.3482064008712769e-01 2.7692192792892456e-01</leafValues></_>
        <_>
          <internalNodes>
            0 -1 60 -605231366 -612876566 190295078 -673325181 281070282
            7346098 58827963 1977614254</internalNodes>
          <leafValues>
            -5.9930604696273804e-01 2.4771787226200104e-01</leafValues></_></weakClassifiers></_>
    <!-- stage 9 -->
    <_>
      <maxWeakCount>13</maxWeakCount>
      <stageThreshold>-1.4624232053756714e+00</stageThreshold>
      <weakClassifiers>
        <_>
          <internalNodes>
            0 -1 101 -320172465 -22617 -226196769 -3733757 -665133489
            -18953011 -728184065 -605958481</internalNodes>
          <leafValues>
            -5.1044481992721558e-01 3.2112780213356018e-01</leafValues></_>
        <_>
          <internalNodes>
            0 -1 45 -2101025 1003216303 847314944 891277320 291434892
            277549056 298025130 2145386479</internalNodes>
          <leafValues>
            -5.2321165800094604e-01 3.2839816808700562e-01</leafValues></_>
        <_>
          <internalNodes>
            0 -1 6 -2063597569 822065883 -261359681 -1107296514
            -1394085379 -1130890321 -117982731 -1996491403</internalNodes>
          <leafValues>
            -4.3518742918968201e-01 4.0223351120948792e-01</leafValues></_>
        <_>
          <internalNodes>
            0 -1 3 -50438273 989511542 -590292033 -1326272778 -23112305
            284494359 -83899649 -255922177</internalNodes>
          <leafValues>
            -4.9090230464935303e-01 3.2177621126174927e-01</leafValues></_>
        <_>
          <internalNodes>
            0 -1 32 -1090752400 -608654800 -1113981481 -105670389
            -522178374 -98893776 -658237553 -11333103</internalNodes>
          <leafValues>
            -5.7548218965530396e-01 2.9982286691665649e-01</leafValues></_>
        <_>
          <internalNodes>
            0 -1 56 -607657981 -246689694 -801062908 50790402
            -1064316790 -1067470844 285691562 -712267037</internalNodes>
          <leafValues>
            -3.8292771577835083e-01 4.3817657232284546e-01</leafValues></_>
        <_>
          <internalNodes>
            0 -1 41 -389029366 -161240069 -491266878 1398520682
            1089137611 1077941878 -1860466536 1396167855</internalNodes>
          <leafValues>
            -5.8113521337509155e-01 2.6081112027168274e-01</leafValues></_>
        <_>
          <internalNodes>
            0 -1 96 -737965429 1397723146 -2129744089 -217398901
            545816707 16908418 1369408138 -2096108917</internalNodes>
          <leafValues>
            -3.8135442137718201e-01 4.3224000930786133e-01</leafValues></_>
        <_>
          <internalNodes>
            0 -1 0 -18429217 -152696313 -427089761 821770587 -464846851
            -439401749 -328699941 -2130777409</internalNodes>
          <leafValues>
            -4.9063339829444885e-01 3.4850224852561951e-01</leafValues></_>
        <_>
          <internalNodes>
            0 -1 26 -291191568 -2232587 480632507 663051509 -42732821
            -1073748744 1913834495 521622923</internalNodes>
          <leafValues>
            -6.0393089056015015e-01 2.5392174720764160e-01</leafValues></_>
        <_>
          <internalNodes>
            0 -1 62 -2138398192 -888485590 1729824153 1905385947
            -196101493 1107321405 -238558328 -1593313377</internalNodes>
          <leafValues>
            -4.5997667312622070e-01 3.6373662948608398e-01</leafValues></_>
        <_>
          <internalNodes>
            0 -1 80 -6833270 -612560736 185601824 1493503648 -2142596952
            151519952 598844105 2146418658</internalNodes>
          <leafValues>
            -5.1166361570358276e-01 3.2607170939445496e-01</leafValues></_>
        <_>
          <internalNodes>
            0 -1 31 -253116182 -119521184 -89137426 -213327713
            -268381178 -32877435 -1156473927 2133816255</internalNodes>
          <leafValues>
            -5.0779253244400024e-01 3.4613311290740967e-01</leafValues></_></weakClassifiers></_>
    <!-- stage 10 -->
    <_>
      <maxWeakCount>14</maxWeakCount>
      <stageThreshold>-1.7144043445587158e+00</stageThreshold>
      <weakClassifiers>
        <_>
          <internalNodes>
            0 -1 97 -386004977 -6153 -208147361 -1105013 -123802433
            -1060881 -36454657 -72683857</internalNodes>
          <leafValues>
            -5.0817233324050903e-01 3.0847212672233582e-01</leafValues></_>
        <_>
          <internalNodes>
            0 -1 25 -321967450 -926506390 -425839542 1551175914
            -54011137 -89140702 -17302818 -33557761</internalNodes>
          <leafValues>
            -5.0245773792266846e-01 3.0159881711006165e-01</leafValues></_>
        <_>
          <internalNodes>
            0 -1 37 -340008177 -135535901 -416286906 -263173 -498865777
            1197621807 -411568929 -142617681</internalNodes>
          <leafValues>
            -3.3433604240417480e-01 4.6697050333023071e-01</leafValues></_>
        <_>
          <internalNodes>
            0 -1 57 2138798686 1531990783 1276115999 2101027995
            -567284001 -1792015271 -1744725537 521602943</internalNodes>
          <leafValues>
            -5.6392282247543335e-01 2.8591519594192505e-01</leafValues></_>
        <_>
          <internalNodes>
            0 -1 95 -1629761841 -134542833 -1896952105 -1146609738
            -72359969 -1073742053 -83886178 -1079836687</internalNodes>
          <leafValues>
            -3.4135675430297852e-01 4.4552063941955566e-01</leafValues></_>
        <_>
          <internalNodes>
            0 -1 49 908808703 -644917889 1060592639 1604801015
            -1618373440 -1685388216 -1625557265 521622491</internalNodes>
          <leafValues>
            -5.0298440456390381e-01 2.9959577322006226e-01</leafValues></_>
        <_>
          <internalNodes>
            0 -1 47 -201788456 -69477688 855650945 -445386277 -625864694
            -611112300 1962572123 -79978549</internalNodes>
          <leafValues>
            -5.2756983041763306e-01 3.0114248394966125e-01</leafValues></_>
        <_>
          <internalNodes>
            0 -1 20 -1685590294 -1421358897 -1170177820 -20085017
            -892602372 -2033194465 -531768884 -3211316</internalNodes>
          <leafValues>
            -5.5308020114898682e-01 2.8994992375373840e-01</leafValues></_>
        <_>
          <internalNodes>
            0 -1 93 -250617205 -729552762 1073881749 1444665355
            -1857959701 436456579 1125109455 -73662469</internalNodes>
          <leafValues>
            -3.2629466056823730e-01 4.8953256011009216e-01</leafValues></_>
        <_>
          <internalNodes>
            0 -1 14 2003795863 1026593648 1171118431 -2336784 -75648712
            -22358372 -910697989 -1395355792</internalNodes>
          <leafValues>
            -4.3622723221778870e-01 3.7735611200332642e-01</leafValues></_>
        <_>
          <internalNodes>
            0 -1 35 701989068 -1320554759 -277909609 293453593
            -938605524 -1893441 -29226481 735038183</internalNodes>
          <leafValues>
            -4.5429736375808716e-01 3.4646469354629517e-01</leafValues></_>
        <_>
          <internalNodes>
            0 -1 55 -1290061857 1883568415 536922626 -1336581837
            -255674134 268437696 -1039497018 -1059865</internalNodes>
          <leafValues>
            -4.2573529481887817e-01 3.8642936944961548e-01</leafValues></_>
        <_>
          <internalNodes>
            0 -1 87 306422440 -904665968 -262889213 -795350170
            -963927921 1798314 1342433428 1124831239</internalNodes>
          <leafValues>
            -5.7525372505187988e-01 2.7790561318397522e-01</leafValues></_>
        <_>
          <internalNodes>
            0 -1 100 47057678 28322146 384606042 -1213848480 -16025565
            -1619079316 -1112580107 -570699440</internalNodes>
          <leafValues>
            -5.8625704050064087e-01 2.6371636986732483e-01</leafValues></_></weakClassifiers></_>
    <!-- stage 11 -->
    <_>
      <maxWeakCount>13</maxWeakCount>
      <stageThreshold>-1.6232690811157227e+00</stageThreshold>
      <weakClassifiers>
        <_>
          <internalNodes>
            0 -1 22 -487592209 -860885074 -352861486 -51380225 -25165825
            -1473511441 -320865793 -590348337</internalNodes>
          <leafValues>
            -5.3711313009262085e-01 2.4166402220726013e-01</leafValues></_>
        <_>
          <internalNodes>
            0 -1 84 931347195 1073027025 1058610685 1069383167
            -1097270017 -1078305873 -1717308513 -1077936929</internalNodes>
          <leafValues>
            -4.6452817320823669e-01 3.3362644910812378e-01</leafValues></_>
        <_>
          <internalNodes>
            0 -1 94 -855651633 -63865 -2141127475 274791675 -17
            -71313569 -123011089 1024589823</internalNodes>
          <leafValues>
            -4.1874477267265320e-01 3.5948511958122253e-01</leafValues></_>
        <_>
          <internalNodes>
            0 -1 1 -1898971137 135196299 -1086357505 -269490697
            -2021739611 1156552621 -974137391 -975307279</internalNodes>
          <leafValues>
            -4.8404201865196228e-01 3.2289242744445801e-01</leafValues></_>
        <_>
          <internalNodes>
            0 -1 92 -280239614 -519225118 -1061937152 -1052049408
            -817114743 1244266496 -1020553589 1393541835</internalNodes>
          <leafValues>
            -4.8131051659584045e-01 3.1013846397399902e-01</leafValues></_>
        <_>
          <internalNodes>
            0 -1 50 461397456 1571475080 521976538 1573641388 -544580403
            -845869957 1492731103 530536651</internalNodes>
          <leafValues>
            -5.6810808181762695e-01 2.6898097991943359e-01</leafValues></_>
        <_>
          <internalNodes>
            0 -1 98 -1058078705 -35131473 1331285497 -33557609
            -319878977 -273001285 2110730903 -812875253</internalNodes>
          <leafValues>
            -4.0457689762115479e-01 3.5306879878044128e-01</leafValues></_>
        <_>
          <internalNodes>
            0 -1 34 -12259200 -212115457 436208240 655438787 -467479512
            357303748 306880142 1407188991</internalNodes>
          <leafValues>
            -5.6705772876739502e-01 2.6496145129203796e-01</leafValues></_>
        <_>
          <internalNodes>
            0 -1 4 1602191327 2141237184 -539528193 -6001808 2097666907
            -48073741 -760417338 -1440714016</internalNodes>
          <leafValues>
            -3.9316007494926453e-01 3.7159118056297302e-01</leafValues></_>
        <_>
          <internalNodes>
            0 -1 76 -1643046767 -320055 524289053 -1076029955 533644728
            -1097199948 -1078154278 -1073913887</internalNodes>
          <leafValues>
            -4.5146575570106506e-01 3.3881360292434692e-01</leafValues></_>
        <_>
          <internalNodes>
            0 -1 54 -495983870 -497293425 1083387016 -236532226
            1090515343 1249606 269986024 1416058335</internalNodes>
          <leafValues>
            -6.3743984699249268e-01 2.4992482364177704e-01</leafValues></_>
        <_>
          <internalNodes>
            0 -1 88 -301221728 -485507070 -348614099 -1841672064
            1078659584 1109951044 1933798143 1392767915</internalNodes>
          <leafValues>
            -5.2609598636627197e-01 2.7945443987846375e-01</leafValues></_>
        <_>
          <internalNodes>
            0 -1 17 -1932051777 -33551755 -1067787841 2054299035
            -811795201 -1393905905 -452988182 -55927457</internalNodes>
          <leafValues>
            -4.6590217947959900e-01 3.1692156195640564e-01</leafValues></_></weakClassifiers></_></stages>
  <features>
    <_>
      <rect>
        1 0 11 5</rect></_>
    <_>
      <rect>
        1 2 5 2</rect></_>
    <_>
      <rect>
        1 5 4 3</rect></_>
    <_>
      <rect>
        1 6 5 4</rect></_>
    <_>
      <rect>
        1 9 3 3</rect></_>
    <_>
      <rect>
        2 0 10 5</rect></_>
    <_>
      <rect>
        2 2 3 3</rect></_>
    <_>
      <rect>
        2 4 7 2</rect></_>
    <_>
      <rect>
        2 7 3 3</rect></_>
    <_>
      <rect>
        2 7 6 1</rect></_>
    <_>
      <rect>
        3 1 10 5</rect></_>
    <_>
      <rect>
        3 4 3 3</rect></_>
    <_>
      <rect>
        4 4 10 4</rect></_>
    <_>
      <rect>
        4 5 5 2</rect></_>
    <_>
      <rect>
        4 8 2 3</rect></_>
    <_>
      <rect>
        4 8 6 2</rect></_>
    <_>
      <rect>
        5 0 5 4</rect></_>
    <_>
      <rect>
        5 2 9 4</rect></_>
    <_>
      <rect>
        5 5 5 1</rect></_>
    <_>
      <rect>
        5 6 5 1</rect></_>
    <_>
      <rect>
        6 3 4 2</rect></_>
    <_>
      <rect>
        6 3 9 5</rect></_>
    <_>
      <rect>
        6 5 2 2</rect></_>
    <_>
      <rect>
        6 8 2 2</rect></_>
    <_>
      <rect>
        7 4 2 3</rect></_>
    <_>
      <rect>
        7 4 2 4</rect></_>
    <_>
      <rect>
        7 7 6 1</rect></_>
    <_>
      <rect>
        8 3 2 4</rect></_>
    <_>
      <rect>
        8 7 4 1</rect></_>
    <_>
      <rect>
        8 7 5 1</rect></_>
    <_>
      <rect>
        9 0 9 6</rect></_>
    <_>
      <rect>
        9 6 5 1</rect></_>
    <_>
      <rect>
        10 6 6 2</rect></_>
    <_>
      <rect>
        11 4 7 3</rect></_>
    <_>
      <rect>
        11 5 2 2</rect></_>
    <_>
      <rect>
        11 8 9 1</rect></_>
    <_>
      <rect>
        11 9 5 1</rect></_>
    <_>
      <rect>
        12 3 2 1</rect></_>
    <_>
      <rect>
        12 5 6 2</rect></_>
    <_>
      <rect>
        12 6 4 1</rect></_>
    <_>
      <rect>
        13 4 1 3</rect></_>
    <_>
      <rect>
        13 4 2 1</rect></_>
    <_>
      <rect>
        13 7 3 1</rect></_>
    <_>
      <rect>
        13 8 1 2</rect></_>
    <_>
      <rect>
        13 8 4 1</rect></_>
    <_>
      <rect>
        14 3 2 3</rect></_>
    <_>
      <rect>
        14 5 6 4</rect></_>
    <_>
      <rect>
        14 6 3 2</rect></_>
    <_>
      <rect>
        14 6 6 3</rect></_>
    <_>
      <rect>
        14 7 3 1</rect></_>
    <_>
      <rect>
        14 7 5 1</rect></_>
    <_>
      <rect>
        14 8 5 1</rect></_>
    <_>
      <rect>
        15 3 2 2</rect></_>
    <_>
      <rect>
        15 4 1 3</rect></_>
    <_>
      <rect>
        15 4 2 1</rect></_>
    <_>
      <rect>
        15 4 2 3</rect></_>
    <_>
      <rect>
        15 5 1 3</rect></_>
    <_>
      <rect>
        15 6 2 1</rect></_>
    <_>
      <rect>
        15 7 3 1</rect></_>
    <_>
      <rect>
        15 8 3 1</rect></_>
    <_>
      <rect>
        16 3 2 2</rect></_>
    <_>
      <rect>
        16 4 1 3</rect></_>
    <_>
      <rect>
        16 5 1 1</rect></_>
    <_>
      <rect>
        16 5 1 3</rect></_>
    <_>
      <rect>
        16 5 2 1</rect></_>
    <_>
      <rect>
        16 6 2 2</rect></_>
    <_>
      <rect>
        16 6 3 1</rect></_>
    <_>
      <rect>
        16 7 2 1</rect></_>
    <_>
      <rect>
        16 7 3 1</rect></_>
    <_>
      <rect>
        16 8 2 1</rect></_>
    <_>
      <rect>
        16 8 3 1</rect></_>
    <_>
      <rect>
        16 9 6 1</rect></_>
    <_>
      <rect>
        16 10 1 1</rect></_>
    <_>
      <rect>
        17 2 2 4</rect></_>
    <_>
      <rect>
        17 4 1 3</rect></_>
    <_>
      <rect>
        17 6 2 1</rect></_>
    <_>
      <rect>
        17 7 1 1</rect></_>
    <_>
      <rect>
        17 7 2 1</rect></_>
    <_>
      <rect>
        17 8 1 1</rect></_>
    <_>
      <rect>
        17 8 2 1</rect></_>
    <_>
      <rect>
        17 11 1 2</rect></_>
    <_>
      <rect>
        18 2 1 4</rect></_>
    <_>
      <rect>
        18 4 1 3</rect></_>
    <_>
      <rect>
        18 4 2 3</rect></_>
    <_>
      <rect>
        18 7 1 1</rect></_>
    <_>
      <rect>
        19 3 1 3</rect></_>
    <_>
      <rect>
        19 4 1 3</rect></_>
    <_>
      <rect>
        19 8 1 2</rect></_>
    <_>
      <rect>
        19 9 1 2</rect></_>
    <_>
      <rect>
        20 3 1 4</rect></_>
    <_>
      <rect>
        20 5 1 3</rect></_>
    <_>
      <rect>
        20 5 5 2</rect></_>
    <_>
      <rect>
        20 9 1 2</rect></_>
    <_>
      <rect>
        21 4 1 3</rect></_>
    <_>
      <rect>
        21 4 4 4</rect></_>
    <_>
      <rect>
        21 5 5 4</rect></_>
    <_>
      <rect>
        21 6 1 2</rect></_>
    <_>
      <rect>
        22 0 4 4</rect></_>
    <_>
      <rect>
        23 0 3 3</rect></_>
    <_>
      <rect>
        23 3 5 5</rect></_>
    <_>
      <rect>
        23 8 5 3</rect></_>
    <_>
      <rect>
        24 2 3 4</rect></_></features></cascade>
</opencv_storage>
