<?xml version="1.0"?>
<opencv_storage>
<cascade>
  <stageType>BOOST</stageType>
  <featureType>LBP</featureType>
  <height>18</height>
  <width>38</width>
  <stageParams>
    <boostType>GAB</boostType>
    <minHitRate>9.9900001287460327e-01</minHitRate>
    <maxFalseAlarm>5.0000000000000000e-01</maxFalseAlarm>
    <weightTrimRate>9.4999999999999996e-01</weightTrimRate>
    <maxDepth>1</maxDepth>
    <maxWeakCount>100</maxWeakCount></stageParams>
  <featureParams>
    <maxCatCount>256</maxCatCount>
    <featSize>1</featSize></featureParams>
  <stageNum>10</stageNum>
  <stages>
    <!-- stage 0 -->
    <_>
      <maxWeakCount>4</maxWeakCount>
      <stageThreshold>-1.9530763626098633e+00</stageThreshold>
      <weakClassifiers>
        <_>
          <internalNodes>
            0 -1 46 -239021952 -204353536 -678636035 -278113 -796882776
            -69827414 -360121345 -5445</internalNodes>
          <leafValues>
            -9.5877754688262939e-01 5.8385443687438965e-01</leafValues></_>
        <_>
          <internalNodes>
            0 -1 12 -353448194 -16161 243968223 -575861553 -339743489
            -1453889 -541405953 -5189</internalNodes>
          <leafValues>
            -8.0247348546981812e-01 5.6672763824462891e-01</leafValues></_>
        <_>
          <internalNodes>
            0 -1 32 -604974856 -649002864 1212252347 -2240487 -259997510
            -1743779670 1209699003 -544513349</internalNodes>
          <leafValues>
            -8.0029976367950439e-01 6.0598343610763550e-01</leafValues></_>
        <_>
          <internalNodes>
            0 -1 2 -896873729 -764528498 69638143 227492991 -1146160129
            -1960138086 -1077215297 -1879062785</internalNodes>
          <leafValues>
            -7.2909682989120483e-01 6.0847437381744385e-01</leafValues></_></weakClassifiers></_>
    <!-- stage 1 -->
    <_>
      <maxWeakCount>5</maxWeakCount>
      <stageThreshold>-1.5716153383255005e+00</stageThreshold>
      <weakClassifiers>
        <_>
          <internalNodes>
            0 -1 40 -573777704 -3075904 -171968005 -192111 -72840982
            -71646498 -73401345 -5</internalNodes>
          <leafValues>
            -9.0740740299224854e-01 3.0544355511665344e-01</leafValues></_>
        <_>
          <internalNodes>
            0 -1 38 -169873278 -721043454 1074069522 1430725123
            -1073627006 1073808384 1073984906 -146019601</internalNodes>
          <leafValues>
            -7.6641607284545898e-01 5.3531742095947266e-01</leafValues></_>
        <_>
          <internalNodes>
            0 -1 13 -353571602 -2124609 680144014 -2047964497 -404291585
            -17427 -336924993 -1</internalNodes>
          <leafValues>
            -7.8905743360519409e-01 4.9327257275581360e-01</leafValues></_>
        <_>
          <internalNodes>
            0 -1 46 -775913336 -2363392 -103555331 -570427939 -801070452
            -605674501 -427234581 -2360321</internalNodes>
          <leafValues>
            -8.6919921636581421e-01 4.1157156229019165e-01</leafValues></_>
        <_>
          <internalNodes>
            0 -1 11 -1064384257 -1029307649 -843767809 13044191
            -398787585 -2009028162 -341050369 -896535041</internalNodes>
          <leafValues>
            -8.0263602733612061e-01 5.1061415672302246e-01</leafValues></_></weakClassifiers></_>
    <!-- stage 2 -->
    <_>
      <maxWeakCount>5</maxWeakCount>
      <stageThreshold>-1.3418034315109253e+00</stageThreshold>
      <weakClassifiers>
        <_>
          <internalNodes>
            0 -1 39 -578068513 -550811510 -1724293633 -543206945
            -610563697 -74789684 -1181835777 -1080042497</internalNodes>
          <leafValues>
            -7.7432078123092651e-01 3.6299434304237366e-01</leafValues></_>
        <_>
          <internalNodes>
            0 -1 9 -83886337 -2132398420 -95420417 -1865490721 -18878021
            -1394372353 -18874817 -1191183105</internalNodes>
          <leafValues>
            -7.4370878934860229e-01 4.1392347216606140e-01</leafValues></_>
        <_>
          <internalNodes>
            0 -1 40 -582168360 -617541504 -1247956485 -1309601520
            -873822008 -70728786 -72614978 -1074003973</internalNodes>
          <leafValues>
            -8.1743824481964111e-01 4.2396137118339539e-01</leafValues></_>
        <_>
          <internalNodes>
            0 -1 22 1356715775 268497513 -704643585 -681848325 16449791
            -1866927117 368049151 -637665281</internalNodes>
          <leafValues>
            -6.5225839614868164e-01 5.4464703798294067e-01</leafValues></_>
        <_>
          <internalNodes>
            0 -1 50 -1073223030 1375978058 250443 1392706571 -251397432
            1073968898 1090964362 -770966837</internalNodes>
          <leafValues>
            -6.4902454614639282e-01 5.3358685970306396e-01</leafValues></_></weakClassifiers></_>
    <!-- stage 3 -->
    <_>
      <maxWeakCount>5</maxWeakCount>
      <stageThreshold>-1.3975273370742798e+00</stageThreshold>
      <weakClassifiers>
        <_>
          <internalNodes>
            0 -1 3 -20779265 -12138774 -888615969 -3833090 -40894465
            -605312533 -276369473 -1061905</internalNodes>
          <leafValues>
            -7.4329006671905518e-01 3.0441176891326904e-01</leafValues></_>
        <_>
          <internalNodes>
            0 -1 28 -1651781382 -544390675 389799423 -552116898
            -1417117526 -1886418805 521404415 454504263</internalNodes>
          <leafValues>
            -7.1880322694778442e-01 3.5080754756927490e-01</leafValues></_>
        <_>
          <internalNodes>
            0 -1 10 10407935 -1360105778 109713407 198039535 -513
            -294984978 -18874369 -808484097</internalNodes>
          <leafValues>
            -7.7560138702392578e-01 3.5420522093772888e-01</leafValues></_>
        <_>
          <internalNodes>
            0 -1 55 -230432054 -179339262 1074446338 1360218635
            -1878417270 307315208 1343837546 -216006949</internalNodes>
          <leafValues>
            -5.9481841325759888e-01 5.1647710800170898e-01</leafValues></_>
        <_>
          <internalNodes>
            0 -1 44 -25429960 -113241861 1213245619 1461141627
            1368496637 304092851 486906107 387699967</internalNodes>
          <leafValues>
            -7.4252265691757202e-01 4.1797029972076416e-01</leafValues></_></weakClassifiers></_>
    <!-- stage 4 -->
    <_>
      <maxWeakCount>5</maxWeakCount>
      <stageThreshold>-1.3160339593887329e+00</stageThreshold>
      <weakClassifiers>
        <_>
          <internalNodes>
            0 -1 21 -117441793 1897266133 -105644033 -586811451
            -1325412609 -1633707299 -73469953 -581567521</internalNodes>
          <leafValues>
            -7.2832620143890381e-01 2.8333333134651184e-01</leafValues></_>
        <_>
          <internalNodes>
            0 -1 8 -1342723346 -44045790 -82073861 -6690898 -980424721
            -382275345 -840185347 -291128</internalNodes>
          <leafValues>
            -7.3575681447982788e-01 3.1821459531784058e-01</leafValues></_>
        <_>
          <internalNodes>
            0 -1 35 -2557736 -4331392 -926656257 -537178643 -628326168
            -3175957 -2105521937 -7610481</internalNodes>
          <leafValues>
            -7.5904947519302368e-01 3.5194084048271179e-01</leafValues></_>
        <_>
          <internalNodes>
            0 -1 41 -774900565 1359171755 1356054656 302203434
            1142931586 805750983 1078963786 -1007164733</internalNodes>
          <leafValues>
            -5.2862972021102905e-01 5.2095431089401245e-01</leafValues></_>
        <_>
          <internalNodes>
            0 -1 33 -528420862 -67177719 -209989229 863183163 -66326393
            654475713 1947196555 1897642843</internalNodes>
          <leafValues>
            -6.2990278005599976e-01 4.3973040580749512e-01</leafValues></_></weakClassifiers></_>
    <!-- stage 5 -->
    <_>
      <maxWeakCount>7</maxWeakCount>
      <stageThreshold>-1.6128227710723877e+00</stageThreshold>
      <weakClassifiers>
        <_>
          <internalNodes>
            0 -1 17 -892350741 1162333066 1281356757 -663226489
            -17831169 -822226410 -880807937 -4196609</internalNodes>
          <leafValues>
            -7.6268827915191650e-01 1.6276276111602783e-01</leafValues></_>
        <_>
          <internalNodes>
            0 -1 58 -464648177 -8434017 -204394757 -37773409 -654413905
            -16785957 -638857489 -72431570</internalNodes>
          <leafValues>
            -6.2179082632064819e-01 3.8450324535369873e-01</leafValues></_>
        <_>
          <internalNodes>
            0 -1 48 -1060380542 -783156622 21100011 1427364859
            1076093582 -1862147262 1363667951 -540016645</internalNodes>
          <leafValues>
            -6.0366654396057129e-01 3.8403588533401489e-01</leafValues></_>
        <_>
          <internalNodes>
            0 -1 27 -1685106472 -2700067 -1244221317 -918537 -1641290584
            -1892021303 924319739 525857791</internalNodes>
          <leafValues>
            -6.7451357841491699e-01 3.5242372751235962e-01</leafValues></_>
        <_>
          <internalNodes>
            0 -1 23 815127807 268475536 -1224482913 -654191819 147576063
            1432787 -571473985 2073681407</internalNodes>
          <leafValues>
            -6.5049278736114502e-01 3.8344249129295349e-01</leafValues></_>
        <_>
          <internalNodes>
            0 -1 52 -229908350 -749628154 1627239603 -785157749
            2052586419 1968673310 -175248641 -134743305</internalNodes>
          <leafValues>
            -5.6011170148849487e-01 4.2097088694572449e-01</leafValues></_>
        <_>
          <internalNodes>
            0 -1 34 -197619464 -577177432 -660597606 -35925573 -22066501
            -623131982 228647923 1062124269</internalNodes>
          <leafValues>
            -6.7964988946914673e-01 3.4685492515563965e-01</leafValues></_></weakClassifiers></_>
    <!-- stage 6 -->
    <_>
      <maxWeakCount>7</maxWeakCount>
      <stageThreshold>-1.3310407400131226e+00</stageThreshold>
      <weakClassifiers>
        <_>
          <internalNodes>
            0 -1 7 -286331137 -3275026 250392319 -3150778 -67110209
            -2102835 -3145729 -769</internalNodes>
          <leafValues>
            -7.5046038627624512e-01 1.4669926464557648e-01</leafValues></_>
        <_>
          <internalNodes>
            0 -1 15 -875827249 1213194863 -1122632225 2013265839
            -1440485977 -2001798741 -280106017 -606077955</internalNodes>
          <leafValues>
            -5.4428315162658691e-01 4.1934338212013245e-01</leafValues></_>
        <_>
          <internalNodes>
            0 -1 47 -120591733 -1072971774 538989073 4440387 -1004977029
            -765017413 1409606259 -951069729</internalNodes>
          <leafValues>
            -5.1931375265121460e-01 4.5494365692138672e-01</leafValues></_>
        <_>
          <internalNodes>
            0 -1 57 -391249917 -83305 -1182724393 -71324118 -289427489
            -103269 -111253889 -442064210</internalNodes>
          <leafValues>
            -5.6135278940200806e-01 3.9517131447792053e-01</leafValues></_>
        <_>
          <internalNodes>
            0 -1 31 -2953008 -7442816 554736951 -604778011 -1179714824
            -623999346 268484543 454121919</internalNodes>
          <leafValues>
            -6.7251187562942505e-01 3.6136639118194580e-01</leafValues></_>
        <_>
          <internalNodes>
            0 -1 1 -1828843905 -220845953 781164799 540549855 -541361545
            -721488706 -309466113 -201330689</internalNodes>
          <leafValues>
            -5.8729916810989380e-01 3.6422654986381531e-01</leafValues></_>
        <_>
          <internalNodes>
            0 -1 54 -656881460 -39864961 -1646530147 1134244287
            -1567651158 523370686 447457450 -1145307921</internalNodes>
          <leafValues>
            -5.0813156366348267e-01 4.3556106090545654e-01</leafValues></_></weakClassifiers></_>
    <!-- stage 7 -->
    <_>
      <maxWeakCount>8</maxWeakCount>
      <stageThreshold>-1.8605266809463501e+00</stageThreshold>
      <weakClassifiers>
        <_>
          <internalNodes>
            0 -1 56 -577775333 -239348833 1575968767 -38044737
            -1162363137 -1998010225 -269746177 -2001732609</internalNodes>
          <leafValues>
            -6.9787871837615967e-01 1.8050266802310944e-01</leafValues></_>
        <_>
          <internalNodes>
            0 -1 0 -423105793 -943217986 -426644225 -71586569
            -1409286661 -925144805 -1346571777 -1014957831</internalNodes>
          <leafValues>
            -6.6615223884582520e-01 2.6741307973861694e-01</leafValues></_>
        <_>
          <internalNodes>
            0 -1 5 -1728053257 276182740 -11281441 -1644699937
            -331350037 -1998849609 -33554951 -1996489347</internalNodes>
          <leafValues>
            -5.4343193769454956e-01 3.7730574607849121e-01</leafValues></_>
        <_>
          <internalNodes>
            0 -1 36 -1204764456 -11597808 34742579 1060704529
            -1364416280 -97025 -1860175909 -1139784</internalNodes>
          <leafValues>
            -7.2033292055130005e-01 2.6916751265525818e-01</leafValues></_>
        <_>
          <internalNodes>
            0 -1 43 -192154997 -788275182 1077995799 1359953930
            1078066698 -805212383 1229150283 -683159837</internalNodes>
          <leafValues>
            -4.4170090556144714e-01 4.8608681559562683e-01</leafValues></_>
        <_>
          <internalNodes>
            0 -1 20 -341137245 -381213465 -438132081 1968403455
            -362042625 611794949 -789841409 2012706791</internalNodes>
          <leafValues>
            -5.5219864845275879e-01 3.8973686099052429e-01</leafValues></_>
        <_>
          <internalNodes>
            0 -1 51 -695733629 -16399083 -861240629 -953359613
            -121676237 -1624796396 -1975064022 -274206977</internalNodes>
          <leafValues>
            -4.4000050425529480e-01 5.0798201560974121e-01</leafValues></_>
        <_>
          <internalNodes>
            0 -1 19 1343312127 1344295149 616562143 1895518559
            1195171839 -1599569521 -618284353 300208319</internalNodes>
          <leafValues>
            -6.4968430995941162e-01 3.6645519733428955e-01</leafValues></_></weakClassifiers></_>
    <!-- stage 8 -->
    <_>
      <maxWeakCount>8</maxWeakCount>
      <stageThreshold>-1.8356974124908447e+00</stageThreshold>
      <weakClassifiers>
        <_>
          <internalNodes>
            0 -1 60 -836104673 -2114185 -362848257 -4227653 -153100613
            -263917 1584382975 -16777217</internalNodes>
          <leafValues>
            -7.4956947565078735e-01 1.4099217019975185e-02</leafValues></_>
        <_>
          <internalNodes>
            0 -1 14 -17847553 13576810 -553666337 -788529411 -83886081
            -1930495269 -19140873 -771756289</internalNodes>
          <leafValues>
            -5.9079790115356445e-01 2.9608312249183655e-01</leafValues></_>
        <_>
          <internalNodes>
            0 -1 45 521099231 -13676129 354900987 488461819 -578318632
            -1710421794 471269375 -1892690945</internalNodes>
          <leafValues>
            -5.4774183034896851e-01 3.6649927496910095e-01</leafValues></_>
        <_>
          <internalNodes>
            0 -1 37 -102055800 -682961142 2145110265 1472335915
            -70801204 184458127 1440547271 1907355595</internalNodes>
          <leafValues>
            -6.0438936948776245e-01 3.3202558755874634e-01</leafValues></_>
        <_>
          <internalNodes>
            0 -1 24 -121642709 -210837562 -226497345 -201326789
            -104905473 1180005791 444047403 -212336673</internalNodes>
          <leafValues>
            -4.0692260861396790e-01 4.8854407668113708e-01</leafValues></_>
        <_>
          <internalNodes>
            0 -1 53 -2004189184 -103553061 1632883165 391190005 3068317
            1129580935 1903940047 -205783609</internalNodes>
          <leafValues>
            -5.2133601903915405e-01 4.1450518369674683e-01</leafValues></_>
        <_>
          <internalNodes>
            0 -1 26 -78165298 -46113030 -1988374282 -147053969
            -545993528 -60803672 522034431 1598116723</internalNodes>
          <leafValues>
            -6.5446174144744873e-01 3.2762053608894348e-01</leafValues></_>
        <_>
          <internalNodes>
            0 -1 4 482335551 486536191 -1151746849 -1655442883
            -1459897937 -1666755675 -1107299621 -1932006087</internalNodes>
          <leafValues>
            -5.5308228731155396e-01 4.0763989090919495e-01</leafValues></_></weakClassifiers></_>
    <!-- stage 9 -->
    <_>
      <maxWeakCount>9</maxWeakCount>
      <stageThreshold>-1.3627529144287109e+00</stageThreshold>
      <weakClassifiers>
        <_>
          <internalNodes>
            0 -1 59 -269496481 -1067137 -5244963 -1088379094 -264209
            -67114881 -67109889 -1</internalNodes>
          <leafValues>
            -6.6341859102249146e-01 2.3529411852359772e-01</leafValues></_>
        <_>
          <internalNodes>
            0 -1 6 2059139071 2140028612 -117965729 579509230
            -1148204037 -305150402 -524353 -1343225857</internalNodes>
          <leafValues>
            -6.0593301057815552e-01 2.8084763884544373e-01</leafValues></_>
        <_>
          <internalNodes>
            0 -1 18 -890261809 1137175810 168521224 1479536611
            -1150309474 83618202 -134756433 -537143873</internalNodes>
          <leafValues>
            -4.8039084672927856e-01 4.0747535228729248e-01</leafValues></_>
        <_>
          <internalNodes>
            0 -1 30 -2111633885 -1035177665 -2029272193 -541216982
            -1342325065 83081909 -1556356105 -675571727</internalNodes>
          <leafValues>
            -4.8506572842597961e-01 3.8773298263549805e-01</leafValues></_>
        <_>
          <internalNodes>
            0 -1 49 453663707 -645179240 428955999 1597726559 2042206683
            -1196881489 -1573822497 1472180927</internalNodes>
          <leafValues>
            -5.6825828552246094e-01 3.7746402621269226e-01</leafValues></_>
        <_>
          <internalNodes>
            0 -1 25 -75761152 -138943834 -1296006494 1196937967
            -271847228 1130517764 -607434326 1668346446</internalNodes>
          <leafValues>
            -6.4982455968856812e-01 3.0026987195014954e-01</leafValues></_>
        <_>
          <internalNodes>
            0 -1 42 -106958813 -1690451028 1476350317 294355595
            -747140693 547307595 -444601719 -4205894</internalNodes>
          <leafValues>
            -4.1999763250350952e-01 4.9074593186378479e-01</leafValues></_>
        <_>
          <internalNodes>
            0 -1 29 -251658498 -784627037 -604907749 285335331
            -608236005 -71496772 -67441665 1599057455</internalNodes>
          <leafValues>
            -4.9171736836433411e-01 4.1775608062744141e-01</leafValues></_>
        <_>
          <internalNodes>
            0 -1 16 1540353194 1082341770 767764507 1500115353
            2145382383 -352455907 -745013298 -834154944</internalNodes>
          <leafValues>
            -5.5633592605590820e-01 3.6174815893173218e-01</leafValues></_></weakClassifiers></_></stages>
  <features>
    <_>
      <rect>
        0 1 10 4</rect></_>
    <_>
      <rect>
        0 10 6 2</rect></_>
    <_>
      <rect>
        2 2 10 5</rect></_>
    <_>
      <rect>
        2 6 6 1</rect></_>
    <_>
      <rect>
        3 2 3 3</rect></_>
    <_>
      <rect>
        3 4 3 3</rect></_>
    <_>
      <rect>
        3 6 10 4</rect></_>
    <_>
      <rect>
        3 8 5 1</rect></_>
    <_>
      <rect>
        4 0 6 4</rect></_>
    <_>
      <rect>
        4 5 3 3</rect></_>
    <_>
      <rect>
        4 5 9 4</rect></_>
    <_>
      <rect>
        5 2 9 4</rect></_>
    <_>
      <rect>
        5 5 5 2</rect></_>
    <_>
      <rect>
        5 6 5 3</rect></_>
    <_>
      <rect>
        6 6 2 2</rect></_>
    <_>
      <rect>
        7 5 2 1</rect></_>
    <_>
      <rect>
        8 3 2 3</rect></_>
    <_>
      <rect>
        8 6 1 2</rect></_>
    <_>
      <rect>
        8 8 1 1</rect></_>
    <_>
      <rect>
        9 1 7 5</rect></_>
    <_>
      <rect>
        9 6 2 1</rect></_>
    <_>
      <rect>
        9 6 9 3</rect></_>
    <_>
      <rect>
        10 4 7 3</rect></_>
    <_>
      <rect>
        10 4 7 4</rect></_>
    <_>
      <rect>
        10 5 2 1</rect></_>
    <_>
      <rect>
        11 4 2 2</rect></_>
    <_>
      <rect>
        11 6 3 1</rect></_>
    <_>
      <rect>
        11 7 4 1</rect></_>
    <_>
      <rect>
        12 7 4 1</rect></_>
    <_>
      <rect>
        12 7 8 2</rect></_>
    <_>
      <rect>
        13 3 1 1</rect></_>
    <_>
      <rect>
        13 8 3 1</rect></_>
    <_>
      <rect>
        13 8 4 1</rect></_>
    <_>
      <rect>
        14 3 1 2</rect></_>
    <_>
      <rect>
        14 6 4 2</rect></_>
    <_>
      <rect>
        14 8 3 1</rect></_>
    <_>
      <rect>
        14 8 4 1</rect></_>
    <_>
      <rect>
        15 4 1 2</rect></_>
    <_>
      <rect>
        15 5 1 3</rect></_>
    <_>
      <rect>
        15 7 3 1</rect></_>
    <_>
      <rect>
        15 8 3 1</rect></_>
    <_>
      <rect>
        16 4 1 3</rect></_>
    <_>
      <rect>
        16 5 1 2</rect></_>
    <_>
      <rect>
        16 5 1 3</rect></_>
    <_>
      <rect>
        16 6 2 1</rect></_>
    <_>
      <rect>
        16 7 2 1</rect></_>
    <_>
      <rect>
        16 8 2 1</rect></_>
    <_>
      <rect>
        17 4 1 3</rect></_>
    <_>
      <rect>
        17 7 1 2</rect></_>
    <_>
      <rect>
        17 7 2 1</rect></_>
    <_>
      <rect>
        18 4 1 3</rect></_>
    <_>
      <rect>
        18 6 1 2</rect></_>
    <_>
      <rect>
        18 7 1 2</rect></_>
    <_>
      <rect>
        19 5 1 1</rect></_>
    <_>
      <rect>
        19 6 1 1</rect></_>
    <_>
      <rect>
        20 5 1 3</rect></_>
    <_>
      <rect>
        20 8 4 1</rect></_>
    <_>
      <rect>
        23 1 3 3</rect></_>
    <_>
      <rect>
        24 0 3 4</rect></_>
    <_>
      <rect>
        25 7 3 2</rect></_>
    <_>
      <rect>
        26 3 2 3</rect></_></features></cascade>
</opencv_storage>
