<?xml version="1.0"?>
<opencv_storage>
<cascade>
  <stageType>BOOST</stageType>
  <featureType>LBP</featureType>
  <height>18</height>
  <width>38</width>
  <stageParams>
    <boostType>GAB</boostType>
    <minHitRate>9.9900001287460327e-01</minHitRate>
    <maxFalseAlarm>5.0000000000000000e-01</maxFalseAlarm>
    <weightTrimRate>9.4999999999999996e-01</weightTrimRate>
    <maxDepth>1</maxDepth>
    <maxWeakCount>100</maxWeakCount></stageParams>
  <featureParams>
    <maxCatCount>256</maxCatCount>
    <featSize>1</featSize></featureParams>
  <stageNum>10</stageNum>
  <stages>
    <!-- stage 0 -->
    <_>
      <maxWeakCount>4</maxWeakCount>
      <stageThreshold>-2.0425958633422852e+00</stageThreshold>
      <weakClassifiers>
        <_>
          <internalNodes>
            0 -1 29 -655306512 -544194416 406929631 -2403951 -931102550
            -91619189 -938956097 -4224597</internalNodes>
          <leafValues>
            -9.1946607828140259e-01 5.8646154403686523e-01</leafValues></_>
        <_>
          <internalNodes>
            0 -1 54 -204947320 -137248768 -947595841 -149831403
            -1870102358 -338637662 -1970734081 -69473617</internalNodes>
          <leafValues>
            -8.6113739013671875e-01 4.3016710877418518e-01</leafValues></_>
        <_>
          <internalNodes>
            0 -1 12 -269570326 -35797810 -2111798550 190220334
            -1144262657 -88088161 -282080017 -8392993</internalNodes>
          <leafValues>
            -8.2611125707626343e-01 5.0165593624114990e-01</leafValues></_>
        <_>
          <internalNodes>
            0 -1 62 -238890806 -683622206 1344831664 -716988273 34954
            -2063564658 1103225035 -3145777</internalNodes>
          <leafValues>
            -7.5005280971527100e-01 5.6411892175674438e-01</leafValues></_></weakClassifiers></_>
    <!-- stage 1 -->
    <_>
      <maxWeakCount>5</maxWeakCount>
      <stageThreshold>-1.3742170333862305e+00</stageThreshold>
      <weakClassifiers>
        <_>
          <internalNodes>
            0 -1 54 -608124728 -931712 -1114513985 -2231983 -121067286
            -277585 -1433863173 -2098177</internalNodes>
          <leafValues>
            -9.0829694271087646e-01 2.8228229284286499e-01</leafValues></_>
        <_>
          <internalNodes>
            0 -1 40 -204475774 -804945856 1073741968 -715980789
            -1056726902 -2147352576 1359462827 -204472337</internalNodes>
          <leafValues>
            -7.1050685644149780e-01 5.5002206563949585e-01</leafValues></_>
        <_>
          <internalNodes>
            0 -1 16 -219219202 -1540710262 -457019362 -255065394
            -67112961 -2002065745 -87312641 -889192705</internalNodes>
          <leafValues>
            -7.4339383840560913e-01 5.0861823558807373e-01</leafValues></_>
        <_>
          <internalNodes>
            0 -1 34 -765994785 1465598615 1345687711 1599937759
            -804156677 -1726807653 34843071 456852731</internalNodes>
          <leafValues>
            -7.4223643541336060e-01 5.2102947235107422e-01</leafValues></_>
        <_>
          <internalNodes>
            0 -1 45 -661335848 -1613227568 16849361 1427177920
            -2012739416 -2001993557 -1197626625 -1684289345</internalNodes>
          <leafValues>
            -7.1237426996231079e-01 5.4716449975967407e-01</leafValues></_></weakClassifiers></_>
    <!-- stage 2 -->
    <_>
      <maxWeakCount>6</maxWeakCount>
      <stageThreshold>-1.6738969087600708e+00</stageThreshold>
      <weakClassifiers>
        <_>
          <internalNodes>
            0 -1 7 -83887361 720244446 -1436549121 2145779701 -285212673
            -353705986 -262145 -1310721</internalNodes>
          <leafValues>
            -8.1137925386428833e-01 3.0255770683288574e-01</leafValues></_>
        <_>
          <internalNodes>
            0 -1 52 -1280355875 -544253781 -1624121377 532618719
            -1146368550 -272824183 -1624506369 -1088421889</internalNodes>
          <leafValues>
            -6.3111585378646851e-01 4.8573520779609680e-01</leafValues></_>
        <_>
          <internalNodes>
            0 -1 47 -547913526 -1825849214 -1055932288 1124270089
            -1069383542 1073775618 1360232650 -212877109</internalNodes>
          <leafValues>
            -6.1602151393890381e-01 4.9711862206459045e-01</leafValues></_>
        <_>
          <internalNodes>
            0 -1 0 310376191 -26809618 1123942399 13560044 -6291713
            -307238418 -16777217 -268436997</internalNodes>
          <leafValues>
            -5.9297603368759155e-01 5.5432689189910889e-01</leafValues></_>
        <_>
          <internalNodes>
            0 -1 59 -640689414 -540805592 429042417 1527747183
            -1887327586 -1828486516 -2010580069 -1685349441</internalNodes>
          <leafValues>
            -5.5044299364089966e-01 5.7536166906356812e-01</leafValues></_>
        <_>
          <internalNodes>
            0 -1 8 -1880633682 -1379981694 -2765345 -137902610
            -538968081 -69376066 -680532020 -270544948</internalNodes>
          <leafValues>
            -7.0195251703262329e-01 4.7169750928878784e-01</leafValues></_></weakClassifiers></_>
    <!-- stage 3 -->
    <_>
      <maxWeakCount>7</maxWeakCount>
      <stageThreshold>-1.6787667274475098e+00</stageThreshold>
      <weakClassifiers>
        <_>
          <internalNodes>
            0 -1 5 -179376385 -3748114 -838276353 -3817266 -179438849
            -4352897 -75170817 -1085441</internalNodes>
          <leafValues>
            -7.5153696537017822e-01 2.6015681028366089e-01</leafValues></_>
        <_>
          <internalNodes>
            0 -1 53 1360187866 1358978266 287035867 1467695547
            -101974533 -591735580 294284223 1540080639</internalNodes>
          <leafValues>
            -7.0744872093200684e-01 3.1797906756401062e-01</leafValues></_>
        <_>
          <internalNodes>
            0 -1 33 -578568054 1426169856 268500992 1360130187
            1073996426 -2146668395 17137807 -681604373</internalNodes>
          <leafValues>
            -6.1673599481582642e-01 4.2831283807754517e-01</leafValues></_>
        <_>
          <internalNodes>
            0 -1 22 893343960 -8431374 1477566205 -545792077 -1123385174
            -14710038 319527931 457251823</internalNodes>
          <leafValues>
            -6.5496915578842163e-01 4.0040278434753418e-01</leafValues></_>
        <_>
          <internalNodes>
            0 -1 2 -825300785 -926762754 -526038273 544867067 -122683393
            178921355 -1195118594 -924975169</internalNodes>
          <leafValues>
            -7.2898316383361816e-01 3.9685216546058655e-01</leafValues></_>
        <_>
          <internalNodes>
            0 -1 57 -779103574 -784031230 1359241224 -536280574
            1090765466 286322699 1073793578 -581966849</internalNodes>
          <leafValues>
            -6.1342680454254150e-01 4.4427499175071716e-01</leafValues></_>
        <_>
          <internalNodes>
            0 -1 30 -786885904 -750743552 1929499933 1397821501 143496
            -1308622814 1091304363 453722651</internalNodes>
          <leafValues>
            -6.9815945625305176e-01 3.9406815171241760e-01</leafValues></_></weakClassifiers></_>
    <!-- stage 4 -->
    <_>
      <maxWeakCount>7</maxWeakCount>
      <stageThreshold>-2.3375222682952881e+00</stageThreshold>
      <weakClassifiers>
        <_>
          <internalNodes>
            0 -1 39 -69469233 -204211317 268693704 -788270113 -821494838
            -1878998630 -250884405 -2097153</internalNodes>
          <leafValues>
            -7.5391304492950439e-01 1.8947368860244751e-01</leafValues></_>
        <_>
          <internalNodes>
            0 -1 21 16735743 -668847992 -4587521 -650380297 16597247
            145366714 1316735487 -646187269</internalNodes>
          <leafValues>
            -6.5555346012115479e-01 3.5395717620849609e-01</leafValues></_>
        <_>
          <internalNodes>
            0 -1 64 -200806270 -791707648 -2013151088 -787504893
            1073971720 33686350 1125026447 -606109301</internalNodes>
          <leafValues>
            -5.3073006868362427e-01 4.7871401906013489e-01</leafValues></_>
        <_>
          <internalNodes>
            0 -1 66 -1065107318 -788217856 1157644462 1430356698
            -2125938517 -1056653007 1091430767 -685775473</internalNodes>
          <leafValues>
            -5.4153156280517578e-01 4.5236739516258240e-01</leafValues></_>
        <_>
          <internalNodes>
            0 -1 60 -724565888 -11169792 1427952985 1431655761
            -722304790 -90241366 -1146274049 -8391473</internalNodes>
          <leafValues>
            -7.0624822378158569e-01 3.8251343369483948e-01</leafValues></_>
        <_>
          <internalNodes>
            0 -1 6 -1394606337 9317070 -639903276 -1595942409 1753201583
            754699235 -118509593 218102975</internalNodes>
          <leafValues>
            -8.1314200162887573e-01 3.0949318408966064e-01</leafValues></_>
        <_>
          <internalNodes>
            0 -1 23 -202116677 -10505600 293683328 2112580990 -71191926
            -738164608 67190986 -9333</internalNodes>
          <leafValues>
            -4.6854978799819946e-01 5.5413806438446045e-01</leafValues></_></weakClassifiers></_>
    <!-- stage 5 -->
    <_>
      <maxWeakCount>8</maxWeakCount>
      <stageThreshold>-2.0393140316009521e+00</stageThreshold>
      <weakClassifiers>
        <_>
          <internalNodes>
            0 -1 65 -117567954 -29793 -713054403 -6042737 -453527571
            -269485585 -270536785 -5313617</internalNodes>
          <leafValues>
            -7.9559826850891113e-01 -1.6151361167430878e-02</leafValues></_>
        <_>
          <internalNodes>
            0 -1 35 -1154918947 -141601285 1059053055 -547365505
            -1685401464 -808483712 -1615200321 -14681089</internalNodes>
          <leafValues>
            -5.2741640806198120e-01 4.2281329631805420e-01</leafValues></_>
        <_>
          <internalNodes>
            0 -1 24 -1150293246 -540090106 -483398808 -146014214
            -1290012798 1124218627 -245894770 1935140799</internalNodes>
          <leafValues>
            -6.8687361478805542e-01 3.0577215552330017e-01</leafValues></_>
        <_>
          <internalNodes>
            0 -1 14 -837816658 -2108772822 -57870785 1827659355
            -67122945 -839909425 -27303809 -840960817</internalNodes>
          <leafValues>
            -6.3968473672866821e-01 3.1973746418952942e-01</leafValues></_>
        <_>
          <internalNodes>
            0 -1 25 -268242768 -1146071303 5259345 288363857 -133131593
            -56153961 1662367 453708023</internalNodes>
          <leafValues>
            -6.2648224830627441e-01 3.6982363462448120e-01</leafValues></_>
        <_>
          <internalNodes>
            0 -1 50 -521737056 -68099686 -1740518192 -136064519
            -1070602069 536871053 824170669 -239345153</internalNodes>
          <leafValues>
            -5.9388327598571777e-01 3.5432270169258118e-01</leafValues></_>
        <_>
          <internalNodes>
            0 -1 18 -117968129 -1341032015 -577 1439823856 -1461761285
            -1728713355 -52428817 -615006831</internalNodes>
          <leafValues>
            -4.3377012014389038e-01 4.9950915575027466e-01</leafValues></_>
        <_>
          <internalNodes>
            0 -1 32 -220464480 -88942350 -1512316696 2147479544
            1350294444 1078383106 1357820362 1937200634</internalNodes>
          <leafValues>
            -7.0200824737548828e-01 3.2151922583580017e-01</leafValues></_></weakClassifiers></_>
    <!-- stage 6 -->
    <_>
      <maxWeakCount>9</maxWeakCount>
      <stageThreshold>-1.6545320749282837e+00</stageThreshold>
      <weakClassifiers>
        <_>
          <internalNodes>
            0 -1 27 -82054157 -746336054 -243411969 1969078751 -69471237
            -1416961346 -605028353 -1882198017</internalNodes>
          <leafValues>
            -7.2569441795349121e-01 1.0846561193466187e-01</leafValues></_>
        <_>
          <internalNodes>
            0 -1 42 -572995368 -637593376 -1459029254 -5505089
            -206833153 -4217413 -77594625 -2101249</internalNodes>
          <leafValues>
            -6.5550309419631958e-01 2.6862379908561707e-01</leafValues></_>
        <_>
          <internalNodes>
            0 -1 15 -1427182930 -1970355668 -364840200 -250614117
            -1108344833 -286329112 -36832801 -196083971</internalNodes>
          <leafValues>
            -7.2244691848754883e-01 2.6838266849517822e-01</leafValues></_>
        <_>
          <internalNodes>
            0 -1 69 -837940722 -46520562 -283423505 -148691706
            2135332872 -817976702 -1216442625 -7692402</internalNodes>
          <leafValues>
            -5.9600120782852173e-01 3.3521991968154907e-01</leafValues></_>
        <_>
          <internalNodes>
            0 -1 37 -67109941 522190823 562757832 994787915 458195673
            319685140 33751690 1535099531</internalNodes>
          <leafValues>
            -5.7643693685531616e-01 3.4099587798118591e-01</leafValues></_>
        <_>
          <internalNodes>
            0 -1 68 -1064574302 -766713334 -787947482 -787651030
            -784211831 17531008 1087762651 -212866353</internalNodes>
          <leafValues>
            -5.1263707876205444e-01 3.8640311360359192e-01</leafValues></_>
        <_>
          <internalNodes>
            0 -1 63 -1205906433 -541632641 -1079107589 1572306943
            774284538 -1080090626 -1078200321 -1111523329</internalNodes>
          <leafValues>
            -4.2270448803901672e-01 5.0340056419372559e-01</leafValues></_>
        <_>
          <internalNodes>
            0 -1 13 -18930433 -85810442 1958486106 -598574370 -787226369
            1049074475 -556279557 -118097697</internalNodes>
          <leafValues>
            -4.6704691648483276e-01 4.3926751613616943e-01</leafValues></_>
        <_>
          <internalNodes>
            0 -1 56 -719843238 -651096000 43651163 2107982151 1210882234
            -1709678422 336464059 419910107</internalNodes>
          <leafValues>
            -6.0575056076049805e-01 3.4821924567222595e-01</leafValues></_></weakClassifiers></_>
    <!-- stage 7 -->
    <_>
      <maxWeakCount>9</maxWeakCount>
      <stageThreshold>-1.4227429628372192e+00</stageThreshold>
      <weakClassifiers>
        <_>
          <internalNodes>
            0 -1 49 -238029909 -178784353 1073803743 1431782795
            -1056703845 -768613477 1426848651 -70255909</internalNodes>
          <leafValues>
            -7.1051514148712158e-01 1.1111111193895340e-01</leafValues></_>
        <_>
          <internalNodes>
            0 -1 11 -855666945 -67098885 49700863 972111327 -353394945
            -391229765 249543679 -269486369</internalNodes>
          <leafValues>
            -5.1993769407272339e-01 3.3874684572219849e-01</leafValues></_>
        <_>
          <internalNodes>
            0 -1 41 -1389622 -136253449 -858369688 -1835077 -1067057173
            -1073689135 -1853245269 -72109313</internalNodes>
          <leafValues>
            -4.5333540439605713e-01 4.2015746235847473e-01</leafValues></_>
        <_>
          <internalNodes>
            0 -1 44 990009563 -1156951318 -1614979617 520690430
            -878850419 -3519602 532077567 454024075</internalNodes>
          <leafValues>
            -5.9944206476211548e-01 3.1766220927238464e-01</leafValues></_>
        <_>
          <internalNodes>
            0 -1 58 -756825910 1364267202 1082163850 -674840502
            -800918328 55364 29970894 -4194321</internalNodes>
          <leafValues>
            -6.1265617609024048e-01 3.3538267016410828e-01</leafValues></_>
        <_>
          <internalNodes>
            0 -1 19 -2085641725 -750832837 -402787457 -207887465
            -2102666257 -117899409 1946153183 -135290552</internalNodes>
          <leafValues>
            -4.3251964449882507e-01 4.6500727534294128e-01</leafValues></_>
        <_>
          <internalNodes>
            0 -1 1 -1360003073 -1970358782 -7243855 -526465 -470820385
            41610234 -287320588 -1443898883</internalNodes>
          <leafValues>
            -4.9151390790939331e-01 4.0459853410720825e-01</leafValues></_>
        <_>
          <internalNodes>
            0 -1 17 2012699645 554185691 1906310587 1467893663 519913663
            206623210 1274234287 1112827647</internalNodes>
          <leafValues>
            -6.9281268119812012e-01 2.7942252159118652e-01</leafValues></_>
        <_>
          <internalNodes>
            0 -1 38 -740314181 -669265221 1077598436 321495049
            -1822519133 1498569118 1498663818 -651187285</internalNodes>
          <leafValues>
            -4.1834607720375061e-01 4.9674960970878601e-01</leafValues></_></weakClassifiers></_>
    <!-- stage 8 -->
    <_>
      <maxWeakCount>10</maxWeakCount>
      <stageThreshold>-1.8874713182449341e+00</stageThreshold>
      <weakClassifiers>
        <_>
          <internalNodes>
            0 -1 43 -76287501 -616316730 -1276521493 -70532411 -67372805
            -1412439314 -67764225 -1343226913</internalNodes>
          <leafValues>
            -7.0607733726501465e-01 9.4043882563710213e-03</leafValues></_>
        <_>
          <internalNodes>
            0 -1 70 -294777342 -13652049 -1347530881 -1648620800
            -1093970 -1082152162 -538054177 -8393380</internalNodes>
          <leafValues>
            -5.8247625827789307e-01 2.4619992077350616e-01</leafValues></_>
        <_>
          <internalNodes>
            0 -1 20 -141821704 1531826431 -547553037 2143009695
            -2139225906 1348796648 1236207357 1540706735</internalNodes>
          <leafValues>
            -6.7093223333358765e-01 2.4042284488677979e-01</leafValues></_>
        <_>
          <internalNodes>
            0 -1 4 1795114615 12329714 -589467173 -520836417 -60818305
            912387047 1858028415 -862004513</internalNodes>
          <leafValues>
            -6.2951475381851196e-01 2.8985032439231873e-01</leafValues></_>
        <_>
          <internalNodes>
            0 -1 48 -10013 -788553040 -537409411 2109673745 -771755861
            280166562 1408748238 -14964078</internalNodes>
          <leafValues>
            -3.9420431852340698e-01 4.6008920669555664e-01</leafValues></_>
        <_>
          <internalNodes>
            0 -1 26 -547398650 -212572209 408120059 1971284223
            -787102321 -1541470833 289132767 356339830</internalNodes>
          <leafValues>
            -7.2171843051910400e-01 2.5377508997917175e-01</leafValues></_>
        <_>
          <internalNodes>
            0 -1 9 -201359497 1066430580 -671645707 -1705480 1861222261
            -50341540 -4 -35613248</internalNodes>
          <leafValues>
            -3.9689332246780396e-01 4.6981325745582581e-01</leafValues></_>
        <_>
          <internalNodes>
            0 -1 31 1093861687 -940594921 -1547731363 -709266089
            -418119745 1192229247 -1287985157 -941627473</internalNodes>
          <leafValues>
            -3.5746076703071594e-01 4.9708133935928345e-01</leafValues></_>
        <_>
          <internalNodes>
            0 -1 28 -83824173 -1286616494 1365245401 -537984238
            -1962280453 -476397400 1395644927 1573515338</internalNodes>
          <leafValues>
            -4.6536624431610107e-01 4.1876152157783508e-01</leafValues></_>
        <_>
          <internalNodes>
            0 -1 61 -265031157 -769393093 494980287 -1056849777
            1620308210 -853347402 1451283689 -753403237</internalNodes>
          <leafValues>
            -4.3211755156517029e-01 4.7652012109756470e-01</leafValues></_></weakClassifiers></_>
    <!-- stage 9 -->
    <_>
      <maxWeakCount>8</maxWeakCount>
      <stageThreshold>-1.8684356212615967e+00</stageThreshold>
      <weakClassifiers>
        <_>
          <internalNodes>
            0 -1 52 -4204545 -4235777 -13109253 -541204485 -4202497
            -4224623 -6554625 -4587525</internalNodes>
          <leafValues>
            -6.5120309591293335e-01 2.1945945918560028e-01</leafValues></_>
        <_>
          <internalNodes>
            0 -1 67 -318779665 -69227777 -2074547489 432301933
            -102772741 -4199777 -235930630 -77530123</internalNodes>
          <leafValues>
            -4.5542764663696289e-01 3.5247600078582764e-01</leafValues></_>
        <_>
          <internalNodes>
            0 -1 3 -1780482049 956299199 -1118316805 2046803711
            1825529727 -1376783122 -1109393939 -1996491803</internalNodes>
          <leafValues>
            -3.7910366058349609e-01 4.2707267403602600e-01</leafValues></_>
        <_>
          <internalNodes>
            0 -1 36 -42940192 -5182560 -1999371015 -772415503 -81212248
            -269869353 -1026814722 -877831173</internalNodes>
          <leafValues>
            -6.9521278142929077e-01 2.4639019370079041e-01</leafValues></_>
        <_>
          <internalNodes>
            0 -1 46 1342234752 -617381630 -11768201 -169880221
            -1744787284 -1430276824 -1848753697 -738213461</internalNodes>
          <leafValues>
            -4.1208705306053162e-01 4.0885692834854126e-01</leafValues></_>
        <_>
          <internalNodes>
            0 -1 10 -279051184 -17149842 1836739830 -530125082
            -641526187 -18112834 -1145308225 -463411473</internalNodes>
          <leafValues>
            -7.1150940656661987e-01 2.5364315509796143e-01</leafValues></_>
        <_>
          <internalNodes>
            0 -1 51 -2087963022 -2118019770 1159926449 1130172835
            -909396486 -1953768595 288570359 459244223</internalNodes>
          <leafValues>
            -7.2004187107086182e-01 2.1243217587471008e-01</leafValues></_>
        <_>
          <internalNodes>
            0 -1 55 -779372032 354455784 583533696 1997091200 1493537126
            33728526 1091424744 1370486751</internalNodes>
          <leafValues>
            -6.5093815326690674e-01 2.5852325558662415e-01</leafValues></_></weakClassifiers></_></stages>
  <features>
    <_>
      <rect>
        0 6 11 4</rect></_>
    <_>
      <rect>
        1 0 5 4</rect></_>
    <_>
      <rect>
        1 0 11 5</rect></_>
    <_>
      <rect>
        2 5 3 2</rect></_>
    <_>
      <rect>
        2 6 4 3</rect></_>
    <_>
      <rect>
        2 6 6 1</rect></_>
    <_>
      <rect>
        3 4 3 3</rect></_>
    <_>
      <rect>
        3 4 11 4</rect></_>
    <_>
      <rect>
        4 0 5 4</rect></_>
    <_>
      <rect>
        4 9 2 3</rect></_>
    <_>
      <rect>
        4 9 5 3</rect></_>
    <_>
      <rect>
        5 2 10 4</rect></_>
    <_>
      <rect>
        5 3 5 3</rect></_>
    <_>
      <rect>
        5 8 3 3</rect></_>
    <_>
      <rect>
        6 4 2 3</rect></_>
    <_>
      <rect>
        6 4 3 2</rect></_>
    <_>
      <rect>
        6 5 2 3</rect></_>
    <_>
      <rect>
        10 2 7 3</rect></_>
    <_>
      <rect>
        10 6 8 3</rect></_>
    <_>
      <rect>
        11 0 2 2</rect></_>
    <_>
      <rect>
        11 4 3 2</rect></_>
    <_>
      <rect>
        11 4 7 3</rect></_>
    <_>
      <rect>
        11 7 4 1</rect></_>
    <_>
      <rect>
        12 3 2 4</rect></_>
    <_>
      <rect>
        12 4 2 1</rect></_>
    <_>
      <rect>
        12 9 5 1</rect></_>
    <_>
      <rect>
        13 6 3 1</rect></_>
    <_>
      <rect>
        13 6 6 1</rect></_>
    <_>
      <rect>
        13 8 2 1</rect></_>
    <_>
      <rect>
        13 8 4 1</rect></_>
    <_>
      <rect>
        13 10 4 1</rect></_>
    <_>
      <rect>
        14 2 1 1</rect></_>
    <_>
      <rect>
        14 4 2 1</rect></_>
    <_>
      <rect>
        14 5 1 3</rect></_>
    <_>
      <rect>
        14 6 3 1</rect></_>
    <_>
      <rect>
        14 7 3 1</rect></_>
    <_>
      <rect>
        14 8 3 1</rect></_>
    <_>
      <rect>
        15 3 2 3</rect></_>
    <_>
      <rect>
        15 4 1 3</rect></_>
    <_>
      <rect>
        15 4 2 3</rect></_>
    <_>
      <rect>
        15 5 1 3</rect></_>
    <_>
      <rect>
        15 5 2 1</rect></_>
    <_>
      <rect>
        15 6 3 2</rect></_>
    <_>
      <rect>
        15 6 5 1</rect></_>
    <_>
      <rect>
        15 7 3 1</rect></_>
    <_>
      <rect>
        15 8 4 1</rect></_>
    <_>
      <rect>
        15 9 1 1</rect></_>
    <_>
      <rect>
        16 4 1 3</rect></_>
    <_>
      <rect>
        16 5 1 2</rect></_>
    <_>
      <rect>
        16 5 1 3</rect></_>
    <_>
      <rect>
        16 5 2 1</rect></_>
    <_>
      <rect>
        16 6 3 1</rect></_>
    <_>
      <rect>
        16 7 2 1</rect></_>
    <_>
      <rect>
        16 7 4 1</rect></_>
    <_>
      <rect>
        16 8 2 1</rect></_>
    <_>
      <rect>
        16 10 1 2</rect></_>
    <_>
      <rect>
        16 13 3 1</rect></_>
    <_>
      <rect>
        17 4 1 3</rect></_>
    <_>
      <rect>
        17 4 2 3</rect></_>
    <_>
      <rect>
        17 6 3 1</rect></_>
    <_>
      <rect>
        17 8 2 1</rect></_>
    <_>
      <rect>
        18 4 1 3</rect></_>
    <_>
      <rect>
        18 4 2 3</rect></_>
    <_>
      <rect>
        18 7 1 1</rect></_>
    <_>
      <rect>
        19 10 1 1</rect></_>
    <_>
      <rect>
        20 0 6 4</rect></_>
    <_>
      <rect>
        20 2 1 4</rect></_>
    <_>
      <rect>
        20 4 5 4</rect></_>
    <_>
      <rect>
        20 5 1 3</rect></_>
    <_>
      <rect>
        24 2 4 4</rect></_>
    <_>
      <rect>
        24 6 4 4</rect></_></features></cascade>
</opencv_storage>
