<?xml version="1.0"?>
<opencv_storage>
<cascade>
  <stageType>BOOST</stageType>
  <featureType>LBP</featureType>
  <height>18</height>
  <width>38</width>
  <stageParams>
    <boostType>GAB</boostType>
    <minHitRate>9.9900001287460327e-01</minHitRate>
    <maxFalseAlarm>5.0000000000000000e-01</maxFalseAlarm>
    <weightTrimRate>9.4999999999999996e-01</weightTrimRate>
    <maxDepth>1</maxDepth>
    <maxWeakCount>100</maxWeakCount></stageParams>
  <featureParams>
    <maxCatCount>256</maxCatCount>
    <featSize>1</featSize></featureParams>
  <stageNum>14</stageNum>
  <stages>
    <!-- stage 0 -->
    <_>
      <maxWeakCount>4</maxWeakCount>
      <stageThreshold>-1.9931293725967407e+00</stageThreshold>
      <weakClassifiers>
        <_>
          <internalNodes>
            0 -1 48 -111095600 -2801664 -1716399663 -10551275
            -1325365064 -73911639 -908547585 -5397</internalNodes>
          <leafValues>
            -9.4203680753707886e-01 6.1191338300704956e-01</leafValues></_>
        <_>
          <internalNodes>
            0 -1 57 -171390728 -581046192 1493193045 1427181585
            -1467447062 -1141292902 195599323 -1087665761</internalNodes>
          <leafValues>
            -8.9040690660476685e-01 4.6128782629966736e-01</leafValues></_>
        <_>
          <internalNodes>
            0 -1 13 -489709314 -101724021 203292925 2110726186
            -2004319041 -541376341 -1919121729 -537932885</internalNodes>
          <leafValues>
            -7.6269096136093140e-01 6.5472733974456787e-01</leafValues></_>
        <_>
          <internalNodes>
            0 -1 30 1355472095 -1743222774 -716057601 -644230917
            280956671 -1879047946 153746427 2126502591</internalNodes>
          <leafValues>
            -7.4968940019607544e-01 6.1445099115371704e-01</leafValues></_></weakClassifiers></_>
    <!-- stage 1 -->
    <_>
      <maxWeakCount>3</maxWeakCount>
      <stageThreshold>-1.3493165969848633e+00</stageThreshold>
      <weakClassifiers>
        <_>
          <internalNodes>
            0 -1 56 -251608888 -69480320 -176037921 -267809 -801068374
            -72437064 -1081545985 -2114565</internalNodes>
          <leafValues>
            -9.5202398300170898e-01 2.5597268342971802e-01</leafValues></_>
        <_>
          <internalNodes>
            0 -1 45 -238559102 -788168702 1342276612 1969209355
            -1072971382 65542 1380575147 -203425073</internalNodes>
          <leafValues>
            -7.8509622812271118e-01 5.0872135162353516e-01</leafValues></_>
        <_>
          <internalNodes>
            0 -1 6 -353467649 -928464145 -1365250081 -1437741089
            -286590977 -353702754 -268510209 -268435969</internalNodes>
          <leafValues>
            -8.2019311189651489e-01 5.0689953565597534e-01</leafValues></_></weakClassifiers></_>
    <!-- stage 2 -->
    <_>
      <maxWeakCount>5</maxWeakCount>
      <stageThreshold>-1.4256879091262817e+00</stageThreshold>
      <weakClassifiers>
        <_>
          <internalNodes>
            0 -1 46 -1760011809 -5549694 420763101 1596920719 -612202085
            -7796342 -1081214465 -1080042241</internalNodes>
          <leafValues>
            -8.4975504875183105e-01 2.8596803545951843e-01</leafValues></_>
        <_>
          <internalNodes>
            0 -1 35 -50540336 -536903152 -1945057063 -2402923 -926383878
            -558247880 -628561413 -73720661</internalNodes>
          <leafValues>
            -8.4729945659637451e-01 3.6529591679573059e-01</leafValues></_>
        <_>
          <internalNodes>
            0 -1 8 -19993874 -150584116 -905434422 -9714484 -416420930
            -1692515347 -1952397107 -4198437</internalNodes>
          <leafValues>
            -7.7753156423568726e-01 5.1289635896682739e-01</leafValues></_>
        <_>
          <internalNodes>
            0 -1 18 -355538198 1074594952 1086771416 1347637629
            -1069488993 243271842 -995562818 -68431921</internalNodes>
          <leafValues>
            -7.0774263143539429e-01 5.3610044717788696e-01</leafValues></_>
        <_>
          <internalNodes>
            0 -1 60 -767303477 -802664318 -2147397609 -1073512422
            -1073571637 -972790581 1074262751 -1043339553</internalNodes>
          <leafValues>
            -5.9167766571044922e-01 6.8660569190979004e-01</leafValues></_></weakClassifiers></_>
    <!-- stage 3 -->
    <_>
      <maxWeakCount>6</maxWeakCount>
      <stageThreshold>-2.2647323608398438e+00</stageThreshold>
      <weakClassifiers>
        <_>
          <internalNodes>
            0 -1 9 16777215 -1427181826 1219624959 500105215 -67108865
            -269549585 -262145 -2105345</internalNodes>
          <leafValues>
            -8.8126730918884277e-01 4.1962556540966034e-02</leafValues></_>
        <_>
          <internalNodes>
            0 -1 7 -16781569 -2132660594 -52432897 -1998848257
            -405307401 -1981025537 -17039621 -1996488961</internalNodes>
          <leafValues>
            -7.7147978544235229e-01 2.8346860408782959e-01</leafValues></_>
        <_>
          <internalNodes>
            0 -1 62 -657729288 -607988513 219350195 1931161755
            -2083945989 285770139 186359195 524260799</internalNodes>
          <leafValues>
            -7.5047147274017334e-01 3.6546564102172852e-01</leafValues></_>
        <_>
          <internalNodes>
            0 -1 20 -355802886 -2636062 8430303 -34791201 -83640066
            -75774857 50468095 2136417403</internalNodes>
          <leafValues>
            -7.2141504287719727e-01 3.8892549276351929e-01</leafValues></_>
        <_>
          <internalNodes>
            0 -1 12 1215761663 33571487 1480278015 2021489535 2043039743
            -1469129746 -926228481 -318767617</internalNodes>
          <leafValues>
            -7.1747696399688721e-01 4.3433934450149536e-01</leafValues></_>
        <_>
          <internalNodes>
            0 -1 74 -792463230 -784220121 1528337114 1360252307
            1514402434 1107789443 1577311659 -497302549</internalNodes>
          <leafValues>
            -6.2938648462295532e-01 4.8459541797637939e-01</leafValues></_></weakClassifiers></_>
    <!-- stage 4 -->
    <_>
      <maxWeakCount>5</maxWeakCount>
      <stageThreshold>-1.6762286424636841e+00</stageThreshold>
      <weakClassifiers>
        <_>
          <internalNodes>
            0 -1 53 -204741941 -788283198 1363404998 1359200266
            -1071136629 508033 1465096842 -142607461</internalNodes>
          <leafValues>
            -8.2186007499694824e-01 1.0072521865367889e-01</leafValues></_>
        <_>
          <internalNodes>
            0 -1 37 282589951 270645912 -44042243 1427491797 -118490369
            -1414991426 -587203921 -9568257</internalNodes>
          <leafValues>
            -6.6301900148391724e-01 4.0650179982185364e-01</leafValues></_>
        <_>
          <internalNodes>
            0 -1 39 933320189 -544517681 486692351 -1617996289
            -1911631680 -1886467710 521399807 520297947</internalNodes>
          <leafValues>
            -7.5117784738540649e-01 3.9841160178184509e-01</leafValues></_>
        <_>
          <internalNodes>
            0 -1 14 -890343826 1925129390 -357822826 250489582
            -184550401 -138450433 -897651986 -69275649</internalNodes>
          <leafValues>
            -8.1843626499176025e-01 3.2303306460380554e-01</leafValues></_>
        <_>
          <internalNodes>
            0 -1 65 -968626526 1342358272 1376866893 1342429711
            -266080094 -1039949662 1208155882 -787743009</internalNodes>
          <leafValues>
            -6.4751154184341431e-01 4.5567932724952698e-01</leafValues></_></weakClassifiers></_>
    <!-- stage 5 -->
    <_>
      <maxWeakCount>7</maxWeakCount>
      <stageThreshold>-1.6284573078155518e+00</stageThreshold>
      <weakClassifiers>
        <_>
          <internalNodes>
            0 -1 80 -52000593 -539000273 -191305633 -4750833 -392242497
            -1203393 -288363777 -5247313</internalNodes>
          <leafValues>
            -8.0606061220169067e-01 1.0769230872392654e-01</leafValues></_>
        <_>
          <internalNodes>
            0 -1 70 -637288448 -682425855 1885388915 1397977259
            -831533125 -562867113 -850405905 -10488837</internalNodes>
          <leafValues>
            -7.5049817562103271e-01 2.4768555164337158e-01</leafValues></_>
        <_>
          <internalNodes>
            0 -1 33 1354496767 -1742144886 -201719809 1430337556
            403566847 182160123 -131466497 1599339679</internalNodes>
          <leafValues>
            -6.5689122676849365e-01 3.8436871767044067e-01</leafValues></_>
        <_>
          <internalNodes>
            0 -1 15 -750650258 -201643422 -888672513 1531914914
            -675415809 -292633 -2360065 -538975505</internalNodes>
          <leafValues>
            -5.3135663270950317e-01 5.2289295196533203e-01</leafValues></_>
        <_>
          <internalNodes>
            0 -1 57 -41358088 -547496688 366768597 1431916609
            -1397192054 -1081398610 194554591 -1682134563</internalNodes>
          <leafValues>
            -7.1484214067459106e-01 4.0292084217071533e-01</leafValues></_>
        <_>
          <internalNodes>
            0 -1 50 -81025398 -697315289 -1735699435 1393791690
            -746551094 1512145544 281926344 1397202943</internalNodes>
          <leafValues>
            -6.2839335203170776e-01 4.3731257319450378e-01</leafValues></_>
        <_>
          <internalNodes>
            0 -1 4 -34817 805345903 -821081733 -1873481441 -269847714
            -1197476817 -274989965 -1998718341</internalNodes>
          <leafValues>
            -6.1319100856781006e-01 4.6068492531776428e-01</leafValues></_></weakClassifiers></_>
    <!-- stage 6 -->
    <_>
      <maxWeakCount>7</maxWeakCount>
      <stageThreshold>-1.6887063980102539e+00</stageThreshold>
      <weakClassifiers>
        <_>
          <internalNodes>
            0 -1 82 -932245985 -41962717 -176726945 -16465 -16789761
            -4194417 -100668673 -1053697</internalNodes>
          <leafValues>
            -7.8284472227096558e-01 7.5268819928169250e-02</leafValues></_>
        <_>
          <internalNodes>
            0 -1 5 -268965138 -2906454 -2053517569 -75783905 -286553857
            -1039415361 -863121942 -3158564</internalNodes>
          <leafValues>
            -6.7992842197418213e-01 2.8845882415771484e-01</leafValues></_>
        <_>
          <internalNodes>
            0 -1 47 -242167600 -81005664 -720727585 -2626595 -1410597912
            -269510744 57343 -1693909062</internalNodes>
          <leafValues>
            -6.9821012020111084e-01 3.1911414861679077e-01</leafValues></_>
        <_>
          <internalNodes>
            0 -1 76 -208689014 -746113157 -1006103800 1129121553
            1347097258 69013892 219189680 1400894143</internalNodes>
          <leafValues>
            -6.3534170389175415e-01 3.6248874664306641e-01</leafValues></_>
        <_>
          <internalNodes>
            0 -1 58 -1498772786 -1077017842 -1464940546 -1887436636
            -1731490881 -3166069 -1415579653 -1443648520</internalNodes>
          <leafValues>
            -7.4381959438323975e-01 3.4514346718788147e-01</leafValues></_>
        <_>
          <internalNodes>
            0 -1 43 -238290277 1397095391 305668936 2064907757
            -1337330945 553773250 1403777998 -1049145</internalNodes>
          <leafValues>
            -4.6237871050834656e-01 5.1607537269592285e-01</leafValues></_>
        <_>
          <internalNodes>
            0 -1 19 -324556661 1793556610 -1973720940 -668232114
            -1424776309 128612613 -1645231393 -536870981</internalNodes>
          <leafValues>
            -5.1051437854766846e-01 4.7820478677749634e-01</leafValues></_></weakClassifiers></_>
    <!-- stage 7 -->
    <_>
      <maxWeakCount>7</maxWeakCount>
      <stageThreshold>-2.3920767307281494e+00</stageThreshold>
      <weakClassifiers>
        <_>
          <internalNodes>
            0 -1 64 -618962977 -71705157 -1119922209 -2105633 -205914118
            -5251592 -1229325313 -1029</internalNodes>
          <leafValues>
            -7.4719673395156860e-01 1.5068493783473969e-01</leafValues></_>
        <_>
          <internalNodes>
            0 -1 0 -824210689 -336720144 -1593988353 -1964049665
            -1361317121 -993077301 -1409615361 -805439499</internalNodes>
          <leafValues>
            -7.8047919273376465e-01 2.0852091908454895e-01</leafValues></_>
        <_>
          <internalNodes>
            0 -1 54 -68689669 -742718837 1434438879 462357392 -629955959
            128062673 1355221512 -13114485</internalNodes>
          <leafValues>
            -4.8340526223182678e-01 4.7786709666252136e-01</leafValues></_>
        <_>
          <internalNodes>
            0 -1 84 -858881017 -537677273 -1913696529 -73948061
            -16810625 -1130849 1827433471 -1610502245</internalNodes>
          <leafValues>
            -5.1683348417282104e-01 4.3503746390342712e-01</leafValues></_>
        <_>
          <internalNodes>
            0 -1 27 -34880818 -548973874 2029459506 -10624878
            -1080779064 -213807100 1497864183 1430590135</internalNodes>
          <leafValues>
            -6.9455587863922119e-01 3.5771685838699341e-01</leafValues></_>
        <_>
          <internalNodes>
            0 -1 75 -527259510 -1790588357 554178629 1997794143
            -804169989 1111602708 290537679 -686299201</internalNodes>
          <leafValues>
            -6.1105734109878540e-01 3.5617733001708984e-01</leafValues></_>
        <_>
          <internalNodes>
            0 -1 3 -1191182337 12779518 -1219243553 -1780486445
            2008251191 -1460544537 -4233465 -1996490299</internalNodes>
          <leafValues>
            -5.9982186555862427e-01 3.8686296343803406e-01</leafValues></_></weakClassifiers></_>
    <!-- stage 8 -->
    <_>
      <maxWeakCount>8</maxWeakCount>
      <stageThreshold>-2.0669717788696289e+00</stageThreshold>
      <weakClassifiers>
        <_>
          <internalNodes>
            0 -1 69 -1087373313 1071609855 -1625424417 -2130945
            -1131692033 -1078241622 -1146488081 -1615856385</internalNodes>
          <leafValues>
            -7.7506923675537109e-01 -1.6806722851470113e-03</leafValues></_>
        <_>
          <internalNodes>
            0 -1 32 -666896178 -652372973 -1816265377 285859137
            -368755060 -1357945363 -1127290359 894655263</internalNodes>
          <leafValues>
            -6.8811839818954468e-01 2.1513588726520538e-01</leafValues></_>
        <_>
          <internalNodes>
            0 -1 42 -142614358 -785149783 -602549127 358327842
            -631641464 335946045 1380174571 -77072754</internalNodes>
          <leafValues>
            -5.0554341077804565e-01 4.0029340982437134e-01</leafValues></_>
        <_>
          <internalNodes>
            0 -1 56 -376913784 -5516544 -1269795 -2641410 -1050670934
            -73467654 -288823074 -2426149</internalNodes>
          <leafValues>
            -8.3569878339767456e-01 2.5264105200767517e-01</leafValues></_>
        <_>
          <internalNodes>
            0 -1 10 1386205951 243823290 849343903 212500302 -1430848513
            -275797362 -837842465 -1412700162</internalNodes>
          <leafValues>
            -6.5673488378524780e-01 3.3115696907043457e-01</leafValues></_>
        <_>
          <internalNodes>
            0 -1 22 -357832149 -202641682 -1114722357 1936850795
            -1426067489 1918336879 -618812469 -77111297</internalNodes>
          <leafValues>
            -4.5716094970703125e-01 5.0141036510467529e-01</leafValues></_>
        <_>
          <internalNodes>
            0 -1 91 242093827 -139235412 -271097921 -1077006100
            1802484603 -878454469 628063859 -538976849</internalNodes>
          <leafValues>
            -4.9208626151084900e-01 4.5257595181465149e-01</leafValues></_>
        <_>
          <internalNodes>
            0 -1 49 -1207910240 -259926910 -334427701 -711739647
            572575904 -490760057 975607 1263526927</internalNodes>
          <leafValues>
            -6.8767940998077393e-01 3.4926345944404602e-01</leafValues></_></weakClassifiers></_>
    <!-- stage 9 -->
    <_>
      <maxWeakCount>9</maxWeakCount>
      <stageThreshold>-1.5637269020080566e+00</stageThreshold>
      <weakClassifiers>
        <_>
          <internalNodes>
            0 -1 73 -255071665 -67111970 321641435 1541405659 -620767269
            1065027014 -84410881 -1057</internalNodes>
          <leafValues>
            -7.3553717136383057e-01 5.1724139600992203e-02</leafValues></_>
        <_>
          <internalNodes>
            0 -1 34 521621744 -10399496 -1678180691 -537265067
            -1911621416 -1611215911 -816186373 534344823</internalNodes>
          <leafValues>
            -7.3036003112792969e-01 1.7978386580944061e-01</leafValues></_>
        <_>
          <internalNodes>
            0 -1 30 -594616865 -1744274822 -671089761 -744882597
            515838975 -130547026 -928138497 893378191</internalNodes>
          <leafValues>
            -5.8409762382507324e-01 3.1641703844070435e-01</leafValues></_>
        <_>
          <internalNodes>
            0 -1 29 -1031282174 -137365661 -2007508566 -208938397
            -162270293 2000761378 592967451 1920431023</internalNodes>
          <leafValues>
            -6.4391666650772095e-01 3.3141729235649109e-01</leafValues></_>
        <_>
          <internalNodes>
            0 -1 85 188678419 -268611717 1879002429 -67936321 -16790400
            -1078001673 1069497310 -79713325</internalNodes>
          <leafValues>
            -4.4010409712791443e-01 4.9165230989456177e-01</leafValues></_>
        <_>
          <internalNodes>
            0 -1 1 -813182977 -871436650 -12863241 -542435627 -281367041
            -492963187 -940982347 -2064657932</internalNodes>
          <leafValues>
            -5.2352595329284668e-01 4.1819524765014648e-01</leafValues></_>
        <_>
          <internalNodes>
            0 -1 36 -548413053 -737807631 -1001396943 1565782719
            -898722629 -1233082889 1074243547 -551821873</internalNodes>
          <leafValues>
            -3.8242253661155701e-01 5.9145593643188477e-01</leafValues></_>
        <_>
          <internalNodes>
            0 -1 41 1433591283 1565990455 323105653 -1794829609
            1528511678 -3752562 1024940534 453251584</internalNodes>
          <leafValues>
            -5.7163113355636597e-01 3.8428395986557007e-01</leafValues></_>
        <_>
          <internalNodes>
            0 -1 66 -391471048 -573016293 1104010389 -784602434
            -889466296 419613067 55542233 -288359169</internalNodes>
          <leafValues>
            -5.2538549900054932e-01 4.2880073189735413e-01</leafValues></_></weakClassifiers></_>
    <!-- stage 10 -->
    <_>
      <maxWeakCount>9</maxWeakCount>
      <stageThreshold>-1.7273085117340088e+00</stageThreshold>
      <weakClassifiers>
        <_>
          <internalNodes>
            0 -1 61 -3147897 -7375417 -104867929 -1050641 -696256577
            -618417237 -1677726209 -264193</internalNodes>
          <leafValues>
            -7.1569108963012695e-01 1.4986376464366913e-01</leafValues></_>
        <_>
          <internalNodes>
            0 -1 88 140445187 243252479 -844669441 1482681437 2130408335
            -33608835 -67176534 -362807329</internalNodes>
          <leafValues>
            -5.8520042896270752e-01 2.8833037614822388e-01</leafValues></_>
        <_>
          <internalNodes>
            0 -1 67 -118438864 -7175431 -1610949121 1002046719
            -1481471841 989934447 -1851685689 996120575</internalNodes>
          <leafValues>
            -7.1668446063995361e-01 2.6645404100418091e-01</leafValues></_>
        <_>
          <internalNodes>
            0 -1 17 -16793858 1655038670 1648106656 -789240790 -75499273
            -109578618 -151127041 -50471169</internalNodes>
          <leafValues>
            -5.7481783628463745e-01 3.5674822330474854e-01</leafValues></_>
        <_>
          <internalNodes>
            0 -1 52 -125572950 320833923 689920247 287670590 28044456
            69520626 1111967904 1397224067</internalNodes>
          <leafValues>
            -6.6609561443328857e-01 3.0751287937164307e-01</leafValues></_>
        <_>
          <internalNodes>
            0 -1 83 168755243 -2097153985 798092721 1470091244
            -343946514 -1755070421 -1427308609 -607201353</internalNodes>
          <leafValues>
            -5.0830680131912231e-01 4.0383559465408325e-01</leafValues></_>
        <_>
          <internalNodes>
            0 -1 40 1496538842 312496872 2140527290 1576594154
            -856206891 -573436705 1349341691 1452161260</internalNodes>
          <leafValues>
            -6.9253385066986084e-01 3.0557438731193542e-01</leafValues></_>
        <_>
          <internalNodes>
            0 -1 71 -2096939007 -506074619 1283574539 -8534003
            -1515749133 -1953267545 -1101530401 -1349</internalNodes>
          <leafValues>
            -5.0594627857208252e-01 4.0228360891342163e-01</leafValues></_>
        <_>
          <internalNodes>
            0 -1 79 -343433150 -654063157 1097558392 -781331789
            1364424555 -1051016992 -1018822465 -745869430</internalNodes>
          <leafValues>
            -4.5786476135253906e-01 4.5552492141723633e-01</leafValues></_></weakClassifiers></_>
    <!-- stage 11 -->
    <_>
      <maxWeakCount>8</maxWeakCount>
      <stageThreshold>-1.9451276063919067e+00</stageThreshold>
      <weakClassifiers>
        <_>
          <internalNodes>
            0 -1 90 167706943 -550020165 1488279551 -774244369
            -140509265 -807406465 -10485765 -603980097</internalNodes>
          <leafValues>
            -7.5563400983810425e-01 -1.5219337306916714e-02</leafValues></_>
        <_>
          <internalNodes>
            0 -1 59 -234095958 -15750485 -1853849046 -1623203843
            1644749754 1261105899 1938549503 -164628741</internalNodes>
          <leafValues>
            -5.9799993038177490e-01 2.4508735537528992e-01</leafValues></_>
        <_>
          <internalNodes>
            0 -1 89 10944567 406285179 632520119 1577022271 -1912621157
            -342696182 -1021600813 -620769605</internalNodes>
          <leafValues>
            -4.5949810743331909e-01 4.1376817226409912e-01</leafValues></_>
        <_>
          <internalNodes>
            0 -1 78 -855929169 -79999317 -998588885 278923146 -67117121
            -276824597 -34636033 68222698</internalNodes>
          <leafValues>
            -6.1404061317443848e-01 3.3197978138923645e-01</leafValues></_>
        <_>
          <internalNodes>
            0 -1 24 -100930526 1868803823 1757917219 1001894523
            -775626252 1362575361 285405783 2135423990</internalNodes>
          <leafValues>
            -6.0533130168914795e-01 3.2830959558486938e-01</leafValues></_>
        <_>
          <internalNodes>
            0 -1 55 522537439 -6332497 -1617929225 488194523 -1094986785
            -122486329 505805563 -1641026053</internalNodes>
          <leafValues>
            -5.3247010707855225e-01 3.6793166399002075e-01</leafValues></_>
        <_>
          <internalNodes>
            0 -1 23 -1573926357 -500774377 -179583167 -336756873
            -1147326481 1179807705 -2024014861 1465376765</internalNodes>
          <leafValues>
            -5.7724308967590332e-01 3.4159284830093384e-01</leafValues></_>
        <_>
          <internalNodes>
            0 -1 11 -3178537 344485712 -48703077 -713753183 -113284265
            -1532436493 -1113118489 -1661667389</internalNodes>
          <leafValues>
            -5.1706421375274658e-01 4.0798184275627136e-01</leafValues></_></weakClassifiers></_>
    <!-- stage 12 -->
    <_>
      <maxWeakCount>9</maxWeakCount>
      <stageThreshold>-1.7898374795913696e+00</stageThreshold>
      <weakClassifiers>
        <_>
          <internalNodes>
            0 -1 25 -624955601 -2049 -675286657 -136323201 -282076225
            1207088895 2000672767 -144714787</internalNodes>
          <leafValues>
            -7.5608408451080322e-01 -5.5743243545293808e-02</leafValues></_>
        <_>
          <internalNodes>
            0 -1 21 -86167890 1979018742 1861651166 -194007350
            1419441661 1959328500 1475914655 -52429881</internalNodes>
          <leafValues>
            -5.8618193864822388e-01 2.4054782092571259e-01</leafValues></_>
        <_>
          <internalNodes>
            0 -1 38 -1128517380 -1678183752 -90665736 -283436133
            -868292354 -544211269 483106799 -104972376</internalNodes>
          <leafValues>
            -6.4074647426605225e-01 2.6975053548812866e-01</leafValues></_>
        <_>
          <internalNodes>
            0 -1 68 -335024637 -844774921 -1079272005 -431502521
            552335010 1755697763 -2087825682 -299369745</internalNodes>
          <leafValues>
            -4.0073648095130920e-01 4.9553602933883667e-01</leafValues></_>
        <_>
          <internalNodes>
            0 -1 2 -405888286 -134962278 1633609983 -9722598 -810815489
            697271687 -850754834 -850670364</internalNodes>
          <leafValues>
            -6.4297640323638916e-01 2.9480567574501038e-01</leafValues></_>
        <_>
          <internalNodes>
            0 -1 51 -420814464 -353739009 -407468611 63603327 2139478941
            4652923 1127985419 1229440530</internalNodes>
          <leafValues>
            -6.7274427413940430e-01 2.7276474237442017e-01</leafValues></_>
        <_>
          <internalNodes>
            0 -1 77 1351309323 1579925245 822843163 402373567 918271486
            -2004565508 -407027825 147570603</internalNodes>
          <leafValues>
            -5.6367689371109009e-01 3.2918184995651245e-01</leafValues></_>
        <_>
          <internalNodes>
            0 -1 87 555155983 1040008503 -1111401057 -1677902085
            966604607 -1416995398 -718020919 -1081115725</internalNodes>
          <leafValues>
            -4.9595272541046143e-01 3.9287519454956055e-01</leafValues></_>
        <_>
          <internalNodes>
            0 -1 86 191496759 -1715717381 1006597631 -514499091
            -1980645511 -306708626 -67142193 -68159217</internalNodes>
          <leafValues>
            -4.3070730566978455e-01 4.8390024900436401e-01</leafValues></_></weakClassifiers></_>
    <!-- stage 13 -->
    <_>
      <maxWeakCount>9</maxWeakCount>
      <stageThreshold>-1.5431963205337524e+00</stageThreshold>
      <weakClassifiers>
        <_>
          <internalNodes>
            0 -1 28 -70261905 -33564681 -201327105 -2395269 -347619857
            1195825887 -616565825 -35</internalNodes>
          <leafValues>
            -7.3220872879028320e-01 -2.1868787705898285e-02</leafValues></_>
        <_>
          <internalNodes>
            0 -1 16 -284168465 -1056003414 -403704609 -75497641 -3180545
            -131075597 -274859013 -640693043</internalNodes>
          <leafValues>
            -5.0520771741867065e-01 3.1985682249069214e-01</leafValues></_>
        <_>
          <internalNodes>
            0 -1 44 -788578049 -1254614793 -705234081 423934432 -2162705
            -1363640530 -9467987 -1618150722</internalNodes>
          <leafValues>
            -4.6303457021713257e-01 3.7907811999320984e-01</leafValues></_>
        <_>
          <internalNodes>
            0 -1 72 -1967420893 -1677741517 432306879 -540030182
            -2060480451 -1748074481 -336665442 1199559270</internalNodes>
          <leafValues>
            -5.1889508962631226e-01 3.4714412689208984e-01</leafValues></_>
        <_>
          <internalNodes>
            0 -1 26 -353386494 -406079573 2052320713 -205137989
            1512032398 1986335344 1461176812 1398240191</internalNodes>
          <leafValues>
            -6.5492480993270874e-01 3.0338501930236816e-01</leafValues></_>
        <_>
          <internalNodes>
            0 -1 92 159320887 804858779 437743999 1741126143 1444374455
            -1145868126 -572522757 -807928193</internalNodes>
          <leafValues>
            -4.4031137228012085e-01 4.3818175792694092e-01</leafValues></_>
        <_>
          <internalNodes>
            0 -1 31 -672018430 -248004334 2012734604 -714893150
            841207974 1394854514 996147103 1941435010</internalNodes>
          <leafValues>
            -6.2562954425811768e-01 3.2168439030647278e-01</leafValues></_>
        <_>
          <internalNodes>
            0 -1 81 -389141362 -67125458 1754932843 -122003806 -19476673
            -49745914 -428903683 -39672662</internalNodes>
          <leafValues>
            -6.4878803491592407e-01 2.8494405746459961e-01</leafValues></_>
        <_>
          <internalNodes>
            0 -1 63 -489692181 -787753157 -1040711713 -687341573
            1093134251 -145524926 -2067267857 -210763777</internalNodes>
          <leafValues>
            -3.6737856268882751e-01 6.0209053754806519e-01</leafValues></_></weakClassifiers></_></stages>
  <features>
    <_>
      <rect>
        1 3 10 3</rect></_>
    <_>
      <rect>
        2 2 5 2</rect></_>
    <_>
      <rect>
        3 0 7 5</rect></_>
    <_>
      <rect>
        3 4 3 3</rect></_>
    <_>
      <rect>
        3 7 3 3</rect></_>
    <_>
      <rect>
        4 0 6 4</rect></_>
    <_>
      <rect>
        4 3 10 4</rect></_>
    <_>
      <rect>
        4 5 3 3</rect></_>
    <_>
      <rect>
        5 4 5 2</rect></_>
    <_>
      <rect>
        5 5 9 4</rect></_>
    <_>
      <rect>
        5 6 9 4</rect></_>
    <_>
      <rect>
        5 7 2 3</rect></_>
    <_>
      <rect>
        6 2 9 4</rect></_>
    <_>
      <rect>
        6 4 5 2</rect></_>
    <_>
      <rect>
        6 5 4 4</rect></_>
    <_>
      <rect>
        6 8 5 2</rect></_>
    <_>
      <rect>
        7 4 2 2</rect></_>
    <_>
      <rect>
        7 6 2 3</rect></_>
    <_>
      <rect>
        8 6 1 2</rect></_>
    <_>
      <rect>
        8 7 1 1</rect></_>
    <_>
      <rect>
        8 7 4 1</rect></_>
    <_>
      <rect>
        8 10 2 2</rect></_>
    <_>
      <rect>
        9 5 2 1</rect></_>
    <_>
      <rect>
        10 4 2 1</rect></_>
    <_>
      <rect>
        10 5 2 2</rect></_>
    <_>
      <rect>
        11 3 2 1</rect></_>
    <_>
      <rect>
        11 5 2 1</rect></_>
    <_>
      <rect>
        11 6 3 1</rect></_>
    <_>
      <rect>
        12 3 2 1</rect></_>
    <_>
      <rect>
        12 4 2 1</rect></_>
    <_>
      <rect>
        12 4 6 3</rect></_>
    <_>
      <rect>
        12 8 2 2</rect></_>
    <_>
      <rect>
        12 8 8 1</rect></_>
    <_>
      <rect>
        13 6 6 3</rect></_>
    <_>
      <rect>
        13 7 3 1</rect></_>
    <_>
      <rect>
        13 8 4 1</rect></_>
    <_>
      <rect>
        14 5 1 3</rect></_>
    <_>
      <rect>
        14 5 6 4</rect></_>
    <_>
      <rect>
        14 6 4 2</rect></_>
    <_>
      <rect>
        14 7 3 1</rect></_>
    <_>
      <rect>
        14 7 5 1</rect></_>
    <_>
      <rect>
        14 9 3 1</rect></_>
    <_>
      <rect>
        15 4 1 3</rect></_>
    <_>
      <rect>
        15 4 2 3</rect></_>
    <_>
      <rect>
        15 4 6 4</rect></_>
    <_>
      <rect>
        15 5 1 3</rect></_>
    <_>
      <rect>
        15 7 3 1</rect></_>
    <_>
      <rect>
        15 8 2 1</rect></_>
    <_>
      <rect>
        15 8 3 1</rect></_>
    <_>
      <rect>
        15 9 1 1</rect></_>
    <_>
      <rect>
        15 9 1 2</rect></_>
    <_>
      <rect>
        16 3 1 2</rect></_>
    <_>
      <rect>
        16 3 1 3</rect></_>
    <_>
      <rect>
        16 4 1 3</rect></_>
    <_>
      <rect>
        16 5 1 2</rect></_>
    <_>
      <rect>
        16 7 2 1</rect></_>
    <_>
      <rect>
        16 8 2 1</rect></_>
    <_>
      <rect>
        16 8 3 1</rect></_>
    <_>
      <rect>
        17 2 7 5</rect></_>
    <_>
      <rect>
        17 3 2 3</rect></_>
    <_>
      <rect>
        17 4 1 3</rect></_>
    <_>
      <rect>
        17 4 2 1</rect></_>
    <_>
      <rect>
        17 6 2 1</rect></_>
    <_>
      <rect>
        17 7 1 2</rect></_>
    <_>
      <rect>
        17 7 2 1</rect></_>
    <_>
      <rect>
        18 4 1 3</rect></_>
    <_>
      <rect>
        18 5 1 1</rect></_>
    <_>
      <rect>
        18 6 1 1</rect></_>
    <_>
      <rect>
        18 6 1 2</rect></_>
    <_>
      <rect>
        18 7 1 1</rect></_>
    <_>
      <rect>
        18 7 1 2</rect></_>
    <_>
      <rect>
        18 8 1 1</rect></_>
    <_>
      <rect>
        19 1 1 2</rect></_>
    <_>
      <rect>
        19 3 1 2</rect></_>
    <_>
      <rect>
        19 4 1 3</rect></_>
    <_>
      <rect>
        20 4 1 3</rect></_>
    <_>
      <rect>
        20 5 1 4</rect></_>
    <_>
      <rect>
        20 8 4 1</rect></_>
    <_>
      <rect>
        21 4 4 3</rect></_>
    <_>
      <rect>
        21 7 1 2</rect></_>
    <_>
      <rect>
        22 1 4 4</rect></_>
    <_>
      <rect>
        22 2 4 3</rect></_>
    <_>
      <rect>
        23 1 3 3</rect></_>
    <_>
      <rect>
        24 4 2 1</rect></_>
    <_>
      <rect>
        24 4 3 3</rect></_>
    <_>
      <rect>
        25 3 2 1</rect></_>
    <_>
      <rect>
        25 6 1 1</rect></_>
    <_>
      <rect>
        26 3 1 1</rect></_>
    <_>
      <rect>
        26 6 2 1</rect></_>
    <_>
      <rect>
        27 5 1 1</rect></_>
    <_>
      <rect>
        27 7 1 1</rect></_>
    <_>
      <rect>
        27 7 2 2</rect></_>
    <_>
      <rect>
        28 7 1 1</rect></_></features></cascade>
</opencv_storage>
