<?xml version="1.0"?>
<opencv_storage>
<cascade>
  <stageType>BOOST</stageType>
  <featureType>LBP</featureType>
  <height>18</height>
  <width>38</width>
  <stageParams>
    <boostType>GAB</boostType>
    <minHitRate>9.9900001287460327e-01</minHitRate>
    <maxFalseAlarm>5.0000000000000000e-01</maxFalseAlarm>
    <weightTrimRate>9.4999999999999996e-01</weightTrimRate>
    <maxDepth>1</maxDepth>
    <maxWeakCount>100</maxWeakCount></stageParams>
  <featureParams>
    <maxCatCount>256</maxCatCount>
    <featSize>1</featSize></featureParams>
  <stageNum>11</stageNum>
  <stages>
    <!-- stage 0 -->
    <_>
      <maxWeakCount>4</maxWeakCount>
      <stageThreshold>-2.0500342845916748e+00</stageThreshold>
      <weakClassifiers>
        <_>
          <internalNodes>
            0 -1 31 -655306512 -544194416 406930655 -2403951 -931102550
            -91619189 -938956097 -4224597</internalNodes>
          <leafValues>
            -9.1820222139358521e-01 5.8499997854232788e-01</leafValues></_>
        <_>
          <internalNodes>
            0 -1 58 -204947320 -137248768 -947595841 -149831403
            -1870102358 -338637662 -1970734081 -69473617</internalNodes>
          <leafValues>
            -8.5957241058349609e-01 4.2779955267906189e-01</leafValues></_>
        <_>
          <internalNodes>
            0 -1 12 -269570326 -35797810 -2111798550 190220334
            -1144262657 -88350305 -282080017 -8392993</internalNodes>
          <leafValues>
            -8.2718652486801147e-01 5.0360482931137085e-01</leafValues></_>
        <_>
          <internalNodes>
            0 -1 65 -238890806 -683622206 1344831664 -716988273 34954
            16810126 1103225035 -3145777</internalNodes>
          <leafValues>
            -7.6011687517166138e-01 5.5492687225341797e-01</leafValues></_></weakClassifiers></_>
    <!-- stage 1 -->
    <_>
      <maxWeakCount>5</maxWeakCount>
      <stageThreshold>-1.3930554389953613e+00</stageThreshold>
      <weakClassifiers>
        <_>
          <internalNodes>
            0 -1 58 -608124728 -931712 -1114513985 -2231983 -121067286
            -277585 -1433863173 -2098177</internalNodes>
          <leafValues>
            -9.0800100564956665e-01 2.8578704595565796e-01</leafValues></_>
        <_>
          <internalNodes>
            0 -1 41 -204475774 -804945856 1073741968 -715980789
            -1056726390 -2147352576 1359462827 -212860945</internalNodes>
          <leafValues>
            -7.1385633945465088e-01 5.4128277301788330e-01</leafValues></_>
        <_>
          <internalNodes>
            0 -1 15 -219219202 -1540710262 -457019362 -255065394
            -67112961 -2002065745 -87312641 -889196801</internalNodes>
          <leafValues>
            -7.4425834417343140e-01 5.0282710790634155e-01</leafValues></_>
        <_>
          <internalNodes>
            0 -1 34 -765994785 1465582227 1345687711 1600068831
            -804158725 -1726807653 34843071 456852731</internalNodes>
          <leafValues>
            -7.4304133653640747e-01 5.1672941446304321e-01</leafValues></_>
        <_>
          <internalNodes>
            0 -1 46 -661335848 -1613229616 16849297 1427186112
            -2012739416 -2001993557 -1197626625 -1684354881</internalNodes>
          <leafValues>
            -7.2477197647094727e-01 5.4601764678955078e-01</leafValues></_></weakClassifiers></_>
    <!-- stage 2 -->
    <_>
      <maxWeakCount>6</maxWeakCount>
      <stageThreshold>-1.6769387722015381e+00</stageThreshold>
      <weakClassifiers>
        <_>
          <internalNodes>
            0 -1 6 -83887361 720244478 -1436549121 2145775605 -285474817
            -353705986 -266241 -1310721</internalNodes>
          <leafValues>
            -8.1365066766738892e-01 2.9699248075485229e-01</leafValues></_>
        <_>
          <internalNodes>
            0 -1 56 -1280880163 -544253781 -1758339105 532618719
            -1146368518 -272824183 -1624637441 -1088430081</internalNodes>
          <leafValues>
            -6.2837326526641846e-01 5.0401222705841064e-01</leafValues></_>
        <_>
          <internalNodes>
            0 -1 51 -547913526 -1825849214 -1055932288 1090584585
            -1069383542 1073775618 1360236746 -212877109</internalNodes>
          <leafValues>
            -6.1702096462249756e-01 4.9071723222732544e-01</leafValues></_>
        <_>
          <internalNodes>
            0 -1 0 308279039 -26809618 1123942399 13560300 -6291713
            -307762706 -16777217 -268436997</internalNodes>
          <leafValues>
            -5.8790129423141479e-01 5.5016052722930908e-01</leafValues></_>
        <_>
          <internalNodes>
            0 -1 62 -649078022 -540805592 429042673 1527755371
            -1887327586 -1828486515 -2010580069 -1718903809</internalNodes>
          <leafValues>
            -5.5721151828765869e-01 5.7480680942535400e-01</leafValues></_>
        <_>
          <internalNodes>
            0 -1 9 -1880633682 767501954 -539636241 -137378578
            -538968081 -606246978 -680532004 -270544948</internalNodes>
          <leafValues>
            -7.1253752708435059e-01 4.5352467894554138e-01</leafValues></_></weakClassifiers></_>
    <!-- stage 3 -->
    <_>
      <maxWeakCount>7</maxWeakCount>
      <stageThreshold>-1.4451518058776855e+00</stageThreshold>
      <weakClassifiers>
        <_>
          <internalNodes>
            0 -1 3 -145821953 -3682578 -822023425 -3816754 -707921153
            -4356993 -75170817 -1085441</internalNodes>
          <leafValues>
            -7.4704891443252563e-01 3.0168452858924866e-01</leafValues></_>
        <_>
          <internalNodes>
            0 -1 35 -614206477 -775707968 -1315745281 332989135
            -625804293 -2004121142 -72627713 193970587</internalNodes>
          <leafValues>
            -6.3190060853958130e-01 3.9711976051330566e-01</leafValues></_>
        <_>
          <internalNodes>
            0 -1 61 -779357526 -1073700350 1358970890 1073971266
            1140966018 -1862082533 1342229290 -682624065</internalNodes>
          <leafValues>
            -6.3428217172622681e-01 4.2537784576416016e-01</leafValues></_>
        <_>
          <internalNodes>
            0 -1 57 1528321754 -82652662 454762329 1599806427 -73728321
            -83271976 2097831679 526343887</internalNodes>
          <leafValues>
            -6.7799651622772217e-01 3.8724592328071594e-01</leafValues></_>
        <_>
          <internalNodes>
            0 -1 33 -577772406 1560387584 16973824 1360121995
            -1037568376 -1609813977 17137802 -543194709</internalNodes>
          <leafValues>
            -5.5317854881286621e-01 4.8850658535957336e-01</leafValues></_>
        <_>
          <internalNodes>
            0 -1 73 -301069814 -42063844 -611164937 -181933298 654740028
            -549541953 -1138693 -7692406</internalNodes>
          <leafValues>
            -6.4516031742095947e-01 4.5880788564682007e-01</leafValues></_>
        <_>
          <internalNodes>
            0 -1 25 967694554 -1073919782 -1744744740 -612901901
            -1123385174 -14712150 1929575419 457513893</internalNodes>
          <leafValues>
            -6.7502373456954956e-01 3.8145080208778381e-01</leafValues></_></weakClassifiers></_>
    <!-- stage 4 -->
    <_>
      <maxWeakCount>6</maxWeakCount>
      <stageThreshold>-1.7155451774597168e+00</stageThreshold>
      <weakClassifiers>
        <_>
          <internalNodes>
            0 -1 53 -238029141 -750529393 184723 1394070923 -1072962421
            -770989097 -720653349 -7343393</internalNodes>
          <leafValues>
            -7.3216521739959717e-01 2.8662419319152832e-01</leafValues></_>
        <_>
          <internalNodes>
            0 -1 13 -902824193 -1966428502 1825037463 1492121707
            -67113729 -311697701 -554966785 -805309185</internalNodes>
          <leafValues>
            -6.1449664831161499e-01 4.0044257044792175e-01</leafValues></_>
        <_>
          <internalNodes>
            0 -1 37 -36570448 -6167648 828396793 -1690838095 -368514902
            -67412305 -2100786978 -72352773</internalNodes>
          <leafValues>
            -6.5256780385971069e-01 3.8829207420349121e-01</leafValues></_>
        <_>
          <internalNodes>
            0 -1 11 989792991 713435370 -1469073169 4578287 -352333317
            -1930674690 -390202369 -909116421</internalNodes>
          <leafValues>
            -6.9026750326156616e-01 3.6212563514709473e-01</leafValues></_>
        <_>
          <internalNodes>
            0 -1 63 -805047606 -788273118 1212518539 -1073495473
            -2146774870 705929880 1075951758 -146014269</internalNodes>
          <leafValues>
            -5.4899394512176514e-01 4.8640981316566467e-01</leafValues></_>
        <_>
          <internalNodes>
            0 -1 68 -251476862 -691077120 -935313261 1427104001
            1141277192 437649666 1124240079 -748698977</internalNodes>
          <leafValues>
            -5.2739697694778442e-01 4.8062866926193237e-01</leafValues></_></weakClassifiers></_>
    <!-- stage 5 -->
    <_>
      <maxWeakCount>7</maxWeakCount>
      <stageThreshold>-2.2357761859893799e+00</stageThreshold>
      <weakClassifiers>
        <_>
          <internalNodes>
            0 -1 1 -553451532 -6135730 -1614361089 -3166482 -514027009
            -411085 -376783873 -1052737</internalNodes>
          <leafValues>
            -7.5295478105545044e-01 5.7060517370700836e-02</leafValues></_>
        <_>
          <internalNodes>
            0 -1 21 1610047487 293630811 1172299263 1568509887 484114623
            205541626 1337936383 1474263039</internalNodes>
          <leafValues>
            -6.6985106468200684e-01 2.7321627736091614e-01</leafValues></_>
        <_>
          <internalNodes>
            0 -1 42 -20787478 -161419306 -34188224 -76283942 -1060768789
            -2146382351 -1852067669 -116147525</internalNodes>
          <leafValues>
            -5.5245381593704224e-01 4.2523607611656189e-01</leafValues></_>
        <_>
          <internalNodes>
            0 -1 70 -230432126 -788413902 -735526880 -788044253
            1363271811 -1072692606 1090580634 -210787633</internalNodes>
          <leafValues>
            -5.2692490816116333e-01 4.3423369526863098e-01</leafValues></_>
        <_>
          <internalNodes>
            0 -1 66 378471159 530929599 898260991 1572298495 -1431327494
            -1086385428 -1146881025 -1111490577</internalNodes>
          <leafValues>
            -4.8816961050033569e-01 4.7088849544525146e-01</leafValues></_>
        <_>
          <internalNodes>
            0 -1 14 -1464931602 -1433483762 -1461650696 -521146437
            -1230247953 -290785362 -275973169 -196083751</internalNodes>
          <leafValues>
            -7.8157144784927368e-01 3.0619817972183228e-01</leafValues></_>
        <_>
          <internalNodes>
            0 -1 59 -151158529 -2114817 1436644757 1461650525
            -1996814097 -1969319781 184832415 522149245</internalNodes>
          <leafValues>
            -5.1277881860733032e-01 4.2779654264450073e-01</leafValues></_></weakClassifiers></_>
    <!-- stage 6 -->
    <_>
      <maxWeakCount>7</maxWeakCount>
      <stageThreshold>-1.6225476264953613e+00</stageThreshold>
      <weakClassifiers>
        <_>
          <internalNodes>
            0 -1 22 -83887361 -254715437 -2097697 1431434705 -1164977409
            -90178053 -53482513 -78119945</internalNodes>
          <leafValues>
            -7.4146562814712524e-01 6.5217390656471252e-02</leafValues></_>
        <_>
          <internalNodes>
            0 -1 54 -674234638 -675166778 255005115 -548424257
            -875823621 -1953768990 154905599 -1626367041</internalNodes>
          <leafValues>
            -5.2083194255828857e-01 3.6959969997406006e-01</leafValues></_>
        <_>
          <internalNodes>
            0 -1 8 -286390148 -18993474 -1527763390 -1230894422
            -525435137 299359238 -288954626 -2</internalNodes>
          <leafValues>
            -7.3327571153640747e-01 2.6961004734039307e-01</leafValues></_>
        <_>
          <internalNodes>
            0 -1 45 -595556216 -73333184 -1283679617 -645853168
            -1965504344 -4386377 1934150399 -204804</internalNodes>
          <leafValues>
            -7.8659790754318237e-01 2.4353884160518646e-01</leafValues></_>
        <_>
          <internalNodes>
            0 -1 38 -475274776 -356781642 1096538600 -135007235
            -2144408820 85250432 1688592569 1447022043</internalNodes>
          <leafValues>
            -6.5354889631271362e-01 3.1445410847663879e-01</leafValues></_>
        <_>
          <internalNodes>
            0 -1 23 36642818 -784395489 1398141819 1930158467 1191963567
            -1310138547 589212367 -747642552</internalNodes>
          <leafValues>
            -5.4956454038619995e-01 3.5925477743148804e-01</leafValues></_>
        <_>
          <internalNodes>
            0 -1 39 -541071189 -752623445 1079564492 1394712649
            -95178742 1360189532 1293146570 -116921973</internalNodes>
          <leafValues>
            -4.1483482718467712e-01 5.1028954982757568e-01</leafValues></_></weakClassifiers></_>
    <!-- stage 7 -->
    <_>
      <maxWeakCount>8</maxWeakCount>
      <stageThreshold>-2.0648989677429199e+00</stageThreshold>
      <weakClassifiers>
        <_>
          <internalNodes>
            0 -1 69 -322965777 -5121 -2073499425 453306093 -268443665
            -537135201 -1048834 -68681731</internalNodes>
          <leafValues>
            -7.3611110448837280e-01 1.7341040074825287e-02</leafValues></_>
        <_>
          <internalNodes>
            0 -1 30 -547365793 2002217423 1482253019 2004836607
            -1860311913 -1340144370 289133023 390009087</internalNodes>
          <leafValues>
            -7.2515606880187988e-01 2.0120380818843842e-01</leafValues></_>
        <_>
          <internalNodes>
            0 -1 19 -271389966 1467449471 1077969143 1569648863
            -83822614 -281308975 55035 1732061043</internalNodes>
          <leafValues>
            -6.6426163911819458e-01 2.6558512449264526e-01</leafValues></_>
        <_>
          <internalNodes>
            0 -1 2 -989872417 585103055 -649464161 2080349950 1817182207
            -1462766085 -105914884 -1996489755</internalNodes>
          <leafValues>
            -4.7081616520881653e-01 4.3563741445541382e-01</leafValues></_>
        <_>
          <internalNodes>
            0 -1 49 -267392373 -1826435878 1514875427 -1341670893
            1361297642 1610840891 1111821314 -686831958</internalNodes>
          <leafValues>
            -4.4161221385002136e-01 4.5886746048927307e-01</leafValues></_>
        <_>
          <internalNodes>
            0 -1 36 1518301406 -726095139 -35791395 1359256977 418777807
            -1439822146 -1080038401 241150683</internalNodes>
          <leafValues>
            -5.8614110946655273e-01 3.3187294006347656e-01</leafValues></_>
        <_>
          <internalNodes>
            0 -1 29 -17831158 -33950833 1485557440 1974677419 1629998031
            1208026674 1897265579 924286911</internalNodes>
          <leafValues>
            -6.4146471023559570e-01 3.0925217270851135e-01</leafValues></_>
        <_>
          <internalNodes>
            0 -1 7 -587302025 805348188 -717661731 -789514278 -644158081
            -1217541937 -74815892 -1729037601</internalNodes>
          <leafValues>
            -5.8286625146865845e-01 3.3231651782989502e-01</leafValues></_></weakClassifiers></_>
    <!-- stage 8 -->
    <_>
      <maxWeakCount>9</maxWeakCount>
      <stageThreshold>-1.4959065914154053e+00</stageThreshold>
      <weakClassifiers>
        <_>
          <internalNodes>
            0 -1 52 -2103045 -639650574 -279592875 2109673747
            -1006645077 15401123 1373096682 -279909</internalNodes>
          <leafValues>
            -7.2391653060913086e-01 4.1444641537964344e-03</leafValues></_>
        <_>
          <internalNodes>
            0 -1 24 1492975615 -668847880 -394241 -114033675 16581855
            145231098 1312804863 -637535493</internalNodes>
          <leafValues>
            -5.5728155374526978e-01 2.8302460908889771e-01</leafValues></_>
        <_>
          <internalNodes>
            0 -1 17 -2134380569 -2094075986 -1082328835 -714081281
            -916460105 -808978577 -1353189021 -1715480627</internalNodes>
          <leafValues>
            -4.7055163979530334e-01 3.9000344276428223e-01</leafValues></_>
        <_>
          <internalNodes>
            0 -1 44 -1147446311 -7841590 -1147806241 453860030 -74723635
            -70758706 496892927 -552612982</internalNodes>
          <leafValues>
            -4.4030758738517761e-01 4.1150015592575073e-01</leafValues></_>
        <_>
          <internalNodes>
            0 -1 48 -70258486 -788029196 1141031040 1998045187
            -100220790 1342178434 -1809395281 1595650303</internalNodes>
          <leafValues>
            -5.6590682268142700e-01 3.5589969158172607e-01</leafValues></_>
        <_>
          <internalNodes>
            0 -1 16 -19939798 -1997633818 876093624 1890328710
            -153883905 -926421385 -31884833 -989889793</internalNodes>
          <leafValues>
            -6.8229585886001587e-01 2.6311448216438293e-01</leafValues></_>
        <_>
          <internalNodes>
            0 -1 27 -1744752399 -1212925957 1079070161 1365251707
            -123692425 -273987865 134340063 424345659</internalNodes>
          <leafValues>
            -5.4354095458984375e-01 3.4955745935440063e-01</leafValues></_>
        <_>
          <internalNodes>
            0 -1 72 -864416767 -138432545 -520705325 -554145 -2034283267
            -23143671 -870544662 -89387090</internalNodes>
          <leafValues>
            -4.9186962842941284e-01 3.9069625735282898e-01</leafValues></_>
        <_>
          <internalNodes>
            0 -1 64 -147332441 -749478225 -1971139387 -788278705
            -196880198 489847734 1074063072 -516686881</internalNodes>
          <leafValues>
            -3.8582128286361694e-01 5.2388817071914673e-01</leafValues></_></weakClassifiers></_>
    <!-- stage 9 -->
    <_>
      <maxWeakCount>8</maxWeakCount>
      <stageThreshold>-1.5557349920272827e+00</stageThreshold>
      <weakClassifiers>
        <_>
          <internalNodes>
            0 -1 20 -83895553 -68822345 -1140999425 -586812931
            -1566668545 -1433488647 -24118273 -547495971</internalNodes>
          <leafValues>
            -7.0707744359970093e-01 1.0821132920682430e-02</leafValues></_>
        <_>
          <internalNodes>
            0 -1 10 -389250817 -402119959 -454216965 974848639
            -110166017 -823383825 -22151425 -858783809</internalNodes>
          <leafValues>
            -6.6225916147232056e-01 2.0089156925678253e-01</leafValues></_>
        <_>
          <internalNodes>
            0 -1 26 -76619006 -271654138 -500236468 -135529518
            -1556349174 1161983747 -243993650 1935142267</internalNodes>
          <leafValues>
            -6.7536884546279907e-01 2.2960260510444641e-01</leafValues></_>
        <_>
          <internalNodes>
            0 -1 43 799936725 -1107750708 1071586815 1066164223
            -1917986792 -1081955110 449895147 534764543</internalNodes>
          <leafValues>
            -6.3886898756027222e-01 2.9558464884757996e-01</leafValues></_>
        <_>
          <internalNodes>
            0 -1 68 -24919934 -623919104 -401257506 -745807605
            1125304840 51511304 1107740367 -604012241</internalNodes>
          <leafValues>
            -4.9855116009712219e-01 3.5412839055061340e-01</leafValues></_>
        <_>
          <internalNodes>
            0 -1 60 -35940352 -441939480 1369964976 1929919488 437619782
            18568 1502462442 1361048543</internalNodes>
          <leafValues>
            -6.3926440477371216e-01 2.7864578366279602e-01</leafValues></_>
        <_>
          <internalNodes>
            0 -1 55 1549538552 1597830360 293422557 1494343507
            -610542085 -7433640 111673055 -106956737</internalNodes>
          <leafValues>
            -5.6845664978027344e-01 3.0381798744201660e-01</leafValues></_>
        <_>
          <internalNodes>
            0 -1 74 -17953238 -9467473 -1414131889 -1086583032
            -101168145 841721758 -12716083 -135272108</internalNodes>
          <leafValues>
            -5.1969456672668457e-01 3.4562334418296814e-01</leafValues></_></weakClassifiers></_>
    <!-- stage 10 -->
    <_>
      <maxWeakCount>10</maxWeakCount>
      <stageThreshold>-1.7002094984054565e+00</stageThreshold>
      <weakClassifiers>
        <_>
          <internalNodes>
            0 -1 40 -69206065 -204342325 -1869885248 -80479265 -7406597
            -754921318 -83108213 -1</internalNodes>
          <leafValues>
            -6.9909209012985229e-01 5.8988764882087708e-02</leafValues></_>
        <_>
          <internalNodes>
            0 -1 5 -1929380865 417857019 -722217003 -1073741990
            417327421 -1392509957 -841483779 -1999776540</internalNodes>
          <leafValues>
            -5.5783832073211670e-01 2.4919565021991730e-01</leafValues></_>
        <_>
          <internalNodes>
            0 -1 32 -352585216 -340068262 -1912872728 1342173178
            16505786 1153447545 -1862356741 1943491067</internalNodes>
          <leafValues>
            -6.6714793443679810e-01 2.3005625605583191e-01</leafValues></_>
        <_>
          <internalNodes>
            0 -1 67 -628098492 270486938 408018641 1562204691 -542146036
            -2113797121 -25174788 173013951</internalNodes>
          <leafValues>
            -5.8121299743652344e-01 2.9427775740623474e-01</leafValues></_>
        <_>
          <internalNodes>
            0 -1 47 -805244750 1395753378 -78709897 -250120911
            -1962873682 -1698693719 -774968337 -671104629</internalNodes>
          <leafValues>
            -4.1886246204376221e-01 4.1388723254203796e-01</leafValues></_>
        <_>
          <internalNodes>
            0 -1 28 -542679041 -1289561160 -541327361 -819241 1084951775
            195788991 1236733439 -71611017</internalNodes>
          <leafValues>
            -3.6994600296020508e-01 4.6553653478622437e-01</leafValues></_>
        <_>
          <internalNodes>
            0 -1 50 -68162941 2039456162 796913343 1435377685 -788551120
            272362136 1901969578 -335551858</internalNodes>
          <leafValues>
            -3.8982087373733521e-01 4.6490392088890076e-01</leafValues></_>
        <_>
          <internalNodes>
            0 -1 4 2091318655 2101672605 -6750608 -101384236 -1915035564
            -252412296 -78119610 -1135319392</internalNodes>
          <leafValues>
            -4.0739598870277405e-01 4.4066384434700012e-01</leafValues></_>
        <_>
          <internalNodes>
            0 -1 18 579708591 51380207 2071526615 2075129821 1140842467
            261869467 2078669733 1087172228</internalNodes>
          <leafValues>
            -6.0876649618148804e-01 3.0873775482177734e-01</leafValues></_>
        <_>
          <internalNodes>
            0 -1 71 -17373041 -87058 -297210113 -41701464 -1611341954
            -1627455617 -94609 -273701137</internalNodes>
          <leafValues>
            -3.8395181298255920e-01 4.5868948101997375e-01</leafValues></_></weakClassifiers></_></stages>
  <features>
    <_>
      <rect>
        0 6 11 4</rect></_>
    <_>
      <rect>
        1 9 7 1</rect></_>
    <_>
      <rect>
        2 5 3 2</rect></_>
    <_>
      <rect>
        2 6 6 1</rect></_>
    <_>
      <rect>
        2 12 3 2</rect></_>
    <_>
      <rect>
        3 2 3 3</rect></_>
    <_>
      <rect>
        3 4 11 4</rect></_>
    <_>
      <rect>
        3 5 3 4</rect></_>
    <_>
      <rect>
        3 6 6 4</rect></_>
    <_>
      <rect>
        4 0 5 4</rect></_>
    <_>
      <rect>
        4 0 9 5</rect></_>
    <_>
      <rect>
        4 3 10 4</rect></_>
    <_>
      <rect>
        5 3 5 3</rect></_>
    <_>
      <rect>
        6 4 2 3</rect></_>
    <_>
      <rect>
        6 4 3 2</rect></_>
    <_>
      <rect>
        6 5 2 3</rect></_>
    <_>
      <rect>
        6 7 2 2</rect></_>
    <_>
      <rect>
        7 2 2 2</rect></_>
    <_>
      <rect>
        8 0 2 2</rect></_>
    <_>
      <rect>
        8 7 4 1</rect></_>
    <_>
      <rect>
        9 5 9 4</rect></_>
    <_>
      <rect>
        10 2 7 3</rect></_>
    <_>
      <rect>
        10 6 8 3</rect></_>
    <_>
      <rect>
        11 0 2 2</rect></_>
    <_>
      <rect>
        11 4 7 3</rect></_>
    <_>
      <rect>
        11 7 4 1</rect></_>
    <_>
      <rect>
        12 4 2 1</rect></_>
    <_>
      <rect>
        12 9 5 1</rect></_>
    <_>
      <rect>
        13 3 5 3</rect></_>
    <_>
      <rect>
        13 5 2 1</rect></_>
    <_>
      <rect>
        13 6 3 1</rect></_>
    <_>
      <rect>
        13 8 4 1</rect></_>
    <_>
      <rect>
        14 4 2 1</rect></_>
    <_>
      <rect>
        14 5 1 3</rect></_>
    <_>
      <rect>
        14 6 3 1</rect></_>
    <_>
      <rect>
        14 6 5 1</rect></_>
    <_>
      <rect>
        14 7 6 2</rect></_>
    <_>
      <rect>
        14 8 3 1</rect></_>
    <_>
      <rect>
        15 2 2 2</rect></_>
    <_>
      <rect>
        15 4 1 3</rect></_>
    <_>
      <rect>
        15 4 2 3</rect></_>
    <_>
      <rect>
        15 5 1 3</rect></_>
    <_>
      <rect>
        15 5 2 1</rect></_>
    <_>
      <rect>
        15 7 2 1</rect></_>
    <_>
      <rect>
        15 7 3 1</rect></_>
    <_>
      <rect>
        15 8 3 1</rect></_>
    <_>
      <rect>
        15 8 4 1</rect></_>
    <_>
      <rect>
        15 9 1 1</rect></_>
    <_>
      <rect>
        15 11 2 1</rect></_>
    <_>
      <rect>
        16 2 1 4</rect></_>
    <_>
      <rect>
        16 3 1 3</rect></_>
    <_>
      <rect>
        16 4 1 3</rect></_>
    <_>
      <rect>
        16 5 1 2</rect></_>
    <_>
      <rect>
        16 5 1 3</rect></_>
    <_>
      <rect>
        16 6 3 1</rect></_>
    <_>
      <rect>
        16 6 4 2</rect></_>
    <_>
      <rect>
        16 7 2 1</rect></_>
    <_>
      <rect>
        16 7 3 1</rect></_>
    <_>
      <rect>
        16 8 2 1</rect></_>
    <_>
      <rect>
        16 8 4 1</rect></_>
    <_>
      <rect>
        16 10 1 2</rect></_>
    <_>
      <rect>
        17 4 1 3</rect></_>
    <_>
      <rect>
        17 6 3 1</rect></_>
    <_>
      <rect>
        18 2 1 4</rect></_>
    <_>
      <rect>
        18 4 1 3</rect></_>
    <_>
      <rect>
        18 4 2 3</rect></_>
    <_>
      <rect>
        18 7 1 1</rect></_>
    <_>
      <rect>
        18 9 5 1</rect></_>
    <_>
      <rect>
        19 10 1 1</rect></_>
    <_>
      <rect>
        20 4 5 4</rect></_>
    <_>
      <rect>
        20 5 1 3</rect></_>
    <_>
      <rect>
        21 0 5 5</rect></_>
    <_>
      <rect>
        23 0 4 4</rect></_>
    <_>
      <rect>
        24 2 4 4</rect></_>
    <_>
      <rect>
        24 6 4 4</rect></_></features></cascade>
</opencv_storage>
