<?xml version="1.0"?>
<opencv_storage>
<cascade>
  <stageType>BOOST</stageType>
  <featureType>LBP</featureType>
  <height>18</height>
  <width>38</width>
  <stageParams>
    <boostType>GAB</boostType>
    <minHitRate>9.9900001287460327e-01</minHitRate>
    <maxFalseAlarm>4.0000000596046448e-01</maxFalseAlarm>
    <weightTrimRate>9.4999999999999996e-01</weightTrimRate>
    <maxDepth>1</maxDepth>
    <maxWeakCount>100</maxWeakCount></stageParams>
  <featureParams>
    <maxCatCount>256</maxCatCount>
    <featSize>1</featSize></featureParams>
  <stageNum>14</stageNum>
  <stages>
    <!-- stage 0 -->
    <_>
      <maxWeakCount>5</maxWeakCount>
      <stageThreshold>-9.1274100542068481e-01</stageThreshold>
      <weakClassifiers>
        <_>
          <internalNodes>
            0 -1 132 -666845056 -112197632 2101265 -581894127
            -2147450744 -124255608 -2000115461 -74596150</internalNodes>
          <leafValues>
            -8.5223114490509033e-01 8.3504587411880493e-01</leafValues></_>
        <_>
          <internalNodes>
            0 -1 25 -454890770 -7682586 671612938 253886506 -360464914
            -88896257 -846672213 -269488689</internalNodes>
          <leafValues>
            -7.8904354572296143e-01 6.3271456956863403e-01</leafValues></_>
        <_>
          <internalNodes>
            0 -1 115 -239013744 -108003328 -1877456417 -44608367
            -1442272536 -1147107111 134253307 -1148544801</internalNodes>
          <leafValues>
            -7.1618765592575073e-01 6.4321625232696533e-01</leafValues></_>
        <_>
          <internalNodes>
            0 -1 45 -1864969473 1476431872 1350025215 -788277891
            -931800065 -2004877144 -1660957697 -1946171141</internalNodes>
          <leafValues>
            -6.0880053043365479e-01 7.0159190893173218e-01</leafValues></_>
        <_>
          <internalNodes>
            0 -1 126 -741351294 1359421440 16384 1359151106 -1069318006
            1 197258 -749739893</internalNodes>
          <leafValues>
            -5.6747037172317505e-01 6.9411796331405640e-01</leafValues></_></weakClassifiers></_>
    <!-- stage 1 -->
    <_>
      <maxWeakCount>8</maxWeakCount>
      <stageThreshold>-1.5740895271301270e+00</stageThreshold>
      <weakClassifiers>
        <_>
          <internalNodes>
            0 -1 11 -1058617089 -930608385 -1594987777 -2097214849
            -1560346625 -1462977281 -1360003073 -1997537281</internalNodes>
          <leafValues>
            -5.9939301013946533e-01 6.6747248172760010e-01</leafValues></_>
        <_>
          <internalNodes>
            0 -1 153 -52899624 -36372272 1363170641 1431654421
            -1467438936 -24207200 -1190200321 -2156083</internalNodes>
          <leafValues>
            -6.5597057342529297e-01 5.9901028871536255e-01</leafValues></_>
        <_>
          <internalNodes>
            0 -1 35 -164958482 -1654042 201592015 -540065562 -29043986
            -71106224 -615608369 -6339633</internalNodes>
          <leafValues>
            -6.1534887552261353e-01 5.7536751031875610e-01</leafValues></_>
        <_>
          <internalNodes>
            0 -1 160 -1018175350 -805126134 49664 -1073561598 1073922186
            1073971202 1074066330 -1010310469</internalNodes>
          <leafValues>
            -5.9488189220428467e-01 5.9724605083465576e-01</leafValues></_>
        <_>
          <internalNodes>
            0 -1 111 285216976 -16641856 419779071 1561270749
            -1979676536 -1694367616 -1693582849 521866047</internalNodes>
          <leafValues>
            -7.5830203294754028e-01 3.8370603322982788e-01</leafValues></_>
        <_>
          <internalNodes>
            0 -1 187 -263986550 -787234814 4170 1091797003 -805265254
            32769 1342423050 -209722385</internalNodes>
          <leafValues>
            -5.5137890577316284e-01 5.5010437965393066e-01</leafValues></_>
        <_>
          <internalNodes>
            0 -1 34 -152164674 -218716946 -1609691490 -1427460574
            -220147847 1651102377 -554239234 -1376513</internalNodes>
          <leafValues>
            -7.1106386184692383e-01 4.2751273512840271e-01</leafValues></_>
        <_>
          <internalNodes>
            0 -1 183 -716971390 -788496382 1092288642 1090732570 8579210
            805494912 99242 -206833541</internalNodes>
          <leafValues>
            -5.8279114961624146e-01 5.2969980239868164e-01</leafValues></_></weakClassifiers></_>
    <!-- stage 2 -->
    <_>
      <maxWeakCount>9</maxWeakCount>
      <stageThreshold>-1.8156378269195557e+00</stageThreshold>
      <weakClassifiers>
        <_>
          <internalNodes>
            0 -1 2 -1426113793 585559786 549448703 46988782 -234889473
            -420811010 -1 -269484065</internalNodes>
          <leafValues>
            -5.6246560811996460e-01 5.9799122810363770e-01</leafValues></_>
        <_>
          <internalNodes>
            0 -1 152 -239026048 -70127616 -2360877 -36179503 -1065312120
            -2585942 -2002204417 -3428149</internalNodes>
          <leafValues>
            -7.0879632234573364e-01 4.1767743229866028e-01</leafValues></_>
        <_>
          <internalNodes>
            0 -1 31 -269507926 -270029214 -820556045 -6298974 -807670033
            -70261007 -271594259 -12596</internalNodes>
          <leafValues>
            -6.3747090101242065e-01 4.4856005907058716e-01</leafValues></_>
        <_>
          <internalNodes>
            0 -1 141 -212864853 -788412406 -786972606 1359176202
            1078186122 311296 1363397258 -682638709</internalNodes>
          <leafValues>
            -4.6025714278221130e-01 5.5554085969924927e-01</leafValues></_>
        <_>
          <internalNodes>
            0 -1 84 -263008037 -78024610 -1873686305 1528500607
            -2146728822 -1928462310 268933343 523961547</internalNodes>
          <leafValues>
            -5.3290617465972900e-01 4.6376150846481323e-01</leafValues></_>
        <_>
          <internalNodes>
            0 -1 44 -286268754 -1907685206 -456482582 1590626470
            -1008732132 -338441530 -270600449 -570425349</internalNodes>
          <leafValues>
            -5.3759169578552246e-01 4.2126688361167908e-01</leafValues></_>
        <_>
          <internalNodes>
            0 -1 171 -775687998 -805123454 25287331 -788314879
            -264059766 1426246615 1074715306 -879758369</internalNodes>
          <leafValues>
            -5.1347190141677856e-01 4.5619168877601624e-01</leafValues></_>
        <_>
          <internalNodes>
            0 -1 48 -330899206 -2105104 12634367 295305935 -78865710
            -80154451 1618735359 2147181211</internalNodes>
          <leafValues>
            -5.6042385101318359e-01 4.0383222699165344e-01</leafValues></_>
        <_>
          <internalNodes>
            0 -1 200 -321124341 -14914250 887385087 -7788629 -326251809
            -268677 -51794177 -274026833</internalNodes>
          <leafValues>
            -4.7361743450164795e-01 4.7586539387702942e-01</leafValues></_></weakClassifiers></_>
    <!-- stage 3 -->
    <_>
      <maxWeakCount>12</maxWeakCount>
      <stageThreshold>-1.5471634864807129e+00</stageThreshold>
      <weakClassifiers>
        <_>
          <internalNodes>
            0 -1 65 1356389631 271634578 -705298433 -244075533 16269567
            11538608 1291319295 -247860225</internalNodes>
          <leafValues>
            -4.8231512308120728e-01 5.7381325960159302e-01</leafValues></_>
        <_>
          <internalNodes>
            0 -1 129 285302239 -8234878 428957021 1562336543 -1719530865
            -1651896696 -1928470529 521083871</internalNodes>
          <leafValues>
            -5.9306818246841431e-01 4.4197010993957520e-01</leafValues></_>
        <_>
          <internalNodes>
            0 -1 139 -204479829 1359183874 1359036608 1359200258
            -1069309822 1074257920 1078173770 -753941873</internalNodes>
          <leafValues>
            -4.3280896544456482e-01 5.4271537065505981e-01</leafValues></_>
        <_>
          <internalNodes>
            0 -1 19 2137717502 -10311446 -1423806849 -819262738 -131073
            -6299913 -1085280257 -337656065</internalNodes>
          <leafValues>
            -4.6104651689529419e-01 4.9649110436439514e-01</leafValues></_>
        <_>
          <internalNodes>
            0 -1 109 -121089832 -779612024 487065689 -16131085
            -364674850 -27543670 -1979516181 -1073758213</internalNodes>
          <leafValues>
            -5.8929586410522461e-01 3.7028256058692932e-01</leafValues></_>
        <_>
          <internalNodes>
            0 -1 127 -690556174 -749624973 142738483 1461057143
            -791613199 -792721231 169847543 151728315</internalNodes>
          <leafValues>
            -6.1616742610931396e-01 3.2792240381240845e-01</leafValues></_>
        <_>
          <internalNodes>
            0 -1 106 -616316798 -784232384 1073825106 289493121
            1141285514 589824 196779 1393533131</internalNodes>
          <leafValues>
            -5.6619185209274292e-01 3.7460064888000488e-01</leafValues></_>
        <_>
          <internalNodes>
            0 -1 114 815529706 282720456 -1179919393 285306965 9382654
            -923070735 183229439 257945599</internalNodes>
          <leafValues>
            -5.9847325086593628e-01 3.2846802473068237e-01</leafValues></_>
        <_>
          <internalNodes>
            0 -1 43 -359666166 -2144670966 -186258729 -292028525
            -113247101 -1366325045 -78645329 -665857809</internalNodes>
          <leafValues>
            -5.5651199817657471e-01 3.5881206393241882e-01</leafValues></_>
        <_>
          <internalNodes>
            0 -1 156 -120868726 -788332544 -1826614821 -243973113
            -393043830 -1879047480 268683503 -542391649</internalNodes>
          <leafValues>
            -3.9219361543655396e-01 5.2861058712005615e-01</leafValues></_>
        <_>
          <internalNodes>
            0 -1 170 -242753302 1615955976 -2147467064 1191305795
            1090765450 38780931 1342634122 -765466865</internalNodes>
          <leafValues>
            -4.4826593995094299e-01 4.3018686771392822e-01</leafValues></_>
        <_>
          <internalNodes>
            0 -1 211 -858912242 1935807054 1974355391 1932993496
            1483705174 -86080918 -773926930 -7714678</internalNodes>
          <leafValues>
            -4.8927432298660278e-01 3.7802609801292419e-01</leafValues></_></weakClassifiers></_>
    <!-- stage 4 -->
    <_>
      <maxWeakCount>13</maxWeakCount>
      <stageThreshold>-1.8428245782852173e+00</stageThreshold>
      <weakClassifiers>
        <_>
          <internalNodes>
            0 -1 24 -269553938 -134239506 -290795794 -273708306
            -505418001 -202381569 -816853777 -33</internalNodes>
          <leafValues>
            -4.7118240594863892e-01 5.2103561162948608e-01</leafValues></_>
        <_>
          <internalNodes>
            0 -1 149 455171543 -545045101 524114943 522129919
            -1148990226 -1685386867 522189819 -1614823429</internalNodes>
          <leafValues>
            -4.7100797295570374e-01 4.7284051775932312e-01</leafValues></_>
        <_>
          <internalNodes>
            0 -1 123 -246947670 -788299614 -1861205888 1359151136
            -535584598 110720 1342423178 -784080197</internalNodes>
          <leafValues>
            -4.8275575041770935e-01 4.3156063556671143e-01</leafValues></_>
        <_>
          <internalNodes>
            0 -1 73 452976639 446717794 -616759297 -109516289 148834559
            136464443 1240456191 1275068415</internalNodes>
          <leafValues>
            -5.2973049879074097e-01 3.6633485555648804e-01</leafValues></_>
        <_>
          <internalNodes>
            0 -1 142 -70518070 1439363299 -2147450808 -787769266
            -1828656402 -2130667456 -217841718 -2097217</internalNodes>
          <leafValues>
            -4.7277283668518066e-01 4.2275312542915344e-01</leafValues></_>
        <_>
          <internalNodes>
            0 -1 176 -762652456 -83703424 730366136 -1148477573
            -1979012437 -2004875126 -1685350214 -1685087233</internalNodes>
          <leafValues>
            -5.0211685895919800e-01 3.5529211163520813e-01</leafValues></_>
        <_>
          <internalNodes>
            0 -1 81 -487595518 -219221246 -264052214 -163328689
            -481567862 1074992955 -750783569 1934092287</internalNodes>
          <leafValues>
            -5.3429806232452393e-01 3.4691047668457031e-01</leafValues></_>
        <_>
          <internalNodes>
            0 -1 10 -290529537 -1300290 -1975530241 735951293 -118500353
            1720427214 -1350112261 -1879339809</internalNodes>
          <leafValues>
            -4.3414640426635742e-01 4.1989403963088989e-01</leafValues></_>
        <_>
          <internalNodes>
            0 -1 76 -84930352 -738590640 1077413119 -1681354735
            -1723283286 -7666557 4623355 -1085798019</internalNodes>
          <leafValues>
            -5.9415656328201294e-01 3.0004504323005676e-01</leafValues></_>
        <_>
          <internalNodes>
            0 -1 165 -1060920702 -784217597 1115799745 1125118935
            17015466 -1056944064 -1037835638 -682623017</internalNodes>
          <leafValues>
            -4.9276703596115112e-01 3.5786426067352295e-01</leafValues></_>
        <_>
          <internalNodes>
            0 -1 59 1491039359 1881207410 -1656889601 -785255597
            1346310399 -792645455 274902015 1481701863</internalNodes>
          <leafValues>
            -4.7882446646690369e-01 3.7290090322494507e-01</leafValues></_>
        <_>
          <internalNodes>
            0 -1 134 -99958550 -746896310 82072 1427718147 -1970765662
            -1742208740 54644874 1397748367</internalNodes>
          <leafValues>
            -4.9933436512947083e-01 3.5309332609176636e-01</leafValues></_>
        <_>
          <internalNodes>
            0 -1 191 -805265256 -176103312 823138613 -1111403367
            -1559743846 1065553048 1831869115 -1146249825</internalNodes>
          <leafValues>
            -4.8859763145446777e-01 3.6213120818138123e-01</leafValues></_></weakClassifiers></_>
    <!-- stage 5 -->
    <_>
      <maxWeakCount>16</maxWeakCount>
      <stageThreshold>-1.3237295150756836e+00</stageThreshold>
      <weakClassifiers>
        <_>
          <internalNodes>
            0 -1 33 -269553938 -5312786 201346798 -4010258 -280040194
            -8921113 -808991523 -11534353</internalNodes>
          <leafValues>
            -4.7981789708137512e-01 5.1585441827774048e-01</leafValues></_>
        <_>
          <internalNodes>
            0 -1 96 428544216 -7401220 411228383 -10493857 -1937125128
            -1617985282 219217919 530530303</internalNodes>
          <leafValues>
            -6.2098062038421631e-01 3.1852200627326965e-01</leafValues></_>
        <_>
          <internalNodes>
            0 -1 194 -859043826 -8961781 1375596255 -44588241 -389166497
            -640325385 -628913473 -5332337</internalNodes>
          <leafValues>
            -4.6945175528526306e-01 4.0254324674606323e-01</leafValues></_>
        <_>
          <internalNodes>
            0 -1 160 -87301493 -800964469 352710147 -1073528694
            1342297227 -1072967417 1073867266 -756027169</internalNodes>
          <leafValues>
            -4.3004730343818665e-01 3.9431047439575195e-01</leafValues></_>
        <_>
          <internalNodes>
            0 -1 7 -40961 805338739 -67903529 1956708306 -71696905
            -1196889613 -274497865 -1473184261</internalNodes>
          <leafValues>
            -4.3910452723503113e-01 3.9182689785957336e-01</leafValues></_>
        <_>
          <internalNodes>
            0 -1 99 -5178704 -576698208 1077943677 1473583525 -69010696
            -538081120 63999 520240617</internalNodes>
          <leafValues>
            -6.4819002151489258e-01 2.4476614594459534e-01</leafValues></_>
        <_>
          <internalNodes>
            0 -1 186 -805060478 1409348610 1342264330 -788103165
            -1069352310 1360238985 1090898082 -216534101</internalNodes>
          <leafValues>
            -4.9113956093788147e-01 3.1067764759063721e-01</leafValues></_>
        <_>
          <internalNodes>
            0 -1 62 416772863 403044977 987624902 1430615313 -1866841345
            -1738678081 -1468071937 1499332563</internalNodes>
          <leafValues>
            -3.8791492581367493e-01 4.0500456094741821e-01</leafValues></_>
        <_>
          <internalNodes>
            0 -1 183 -225727862 -780074486 -1073575794 1375946771
            -2147300726 -1794928365 1078194346 -543431445</internalNodes>
          <leafValues>
            -4.5625784993171692e-01 3.4971410036087036e-01</leafValues></_>
        <_>
          <internalNodes>
            0 -1 29 -296827162 -546519488 9044046 -813217178 1935469437
            -23395970 1661158011 -273680649</internalNodes>
          <leafValues>
            -5.7904314994812012e-01 2.6718500256538391e-01</leafValues></_>
        <_>
          <internalNodes>
            0 -1 132 -637474680 -78610304 -1307041230 -1690496703
            -324499320 -1078807809 -1429673249 -337051916</internalNodes>
          <leafValues>
            -7.4642920494079590e-01 2.1320258080959320e-01</leafValues></_>
        <_>
          <internalNodes>
            0 -1 42 -2105283921 44983106 -1242589313 -537145137
            673185775 -1950615657 -1538003345 -321388984</internalNodes>
          <leafValues>
            -4.3549296259880066e-01 3.5865300893783569e-01</leafValues></_>
        <_>
          <internalNodes>
            0 -1 133 -268373886 -776736688 967541453 -682265791
            -1174222087 -895307862 720622843 -540023397</internalNodes>
          <leafValues>
            -3.4524446725845337e-01 4.5985773205757141e-01</leafValues></_>
        <_>
          <internalNodes>
            0 -1 21 170791423 445314644 169753437 252203350 -1686578177
            -530692006 -23068673 -808462658</internalNodes>
          <leafValues>
            -4.7955352067947388e-01 3.2350009679794312e-01</leafValues></_>
        <_>
          <internalNodes>
            0 -1 121 -84423990 -205849385 -1784750062 -142609142
            1493743359 293656466 1024044603 1398764999</internalNodes>
          <leafValues>
            -4.7909617424011230e-01 3.2816883921623230e-01</leafValues></_>
        <_>
          <internalNodes>
            0 -1 52 -864623886 -207068065 1073799251 -1343937287
            -751732551 -2137552 1107441529 1877956269</internalNodes>
          <leafValues>
            -5.7135438919067383e-01 2.4769400060176849e-01</leafValues></_></weakClassifiers></_>
    <!-- stage 6 -->
    <_>
      <maxWeakCount>17</maxWeakCount>
      <stageThreshold>-1.1421911716461182e+00</stageThreshold>
      <weakClassifiers>
        <_>
          <internalNodes>
            0 -1 16 -422646017 -5329174 246337279 -273749402 -671088641
            -3075 -1048609 -2113537</internalNodes>
          <leafValues>
            -2.3018001019954681e-01 6.1540949344635010e-01</leafValues></_>
        <_>
          <internalNodes>
            0 -1 162 -219155320 -210832210 -156764020 -1050897 6211758
            16809 1238228219 -538976513</internalNodes>
          <leafValues>
            -3.8714611530303955e-01 4.2935201525688171e-01</leafValues></_>
        <_>
          <internalNodes>
            0 -1 38 -17826113 -2138143102 -87631649 2096102395
            -158863817 -320080409 -54527385 -855642881</internalNodes>
          <leafValues>
            -4.0157598257064819e-01 4.0046060085296631e-01</leafValues></_>
        <_>
          <internalNodes>
            0 -1 166 487218139 -542615110 993613279 1595235291
            -1433732198 -1618863718 -1365568773 1608515583</internalNodes>
          <leafValues>
            -4.7874033451080322e-01 3.3737030625343323e-01</leafValues></_>
        <_>
          <internalNodes>
            0 -1 202 -353399089 -800433 -1938108705 -1111453809
            -230696197 -1154548741 -1133597953 -340725780</internalNodes>
          <leafValues>
            -3.8674661517143250e-01 3.9246165752410889e-01</leafValues></_>
        <_>
          <internalNodes>
            0 -1 91 -502545910 -756293206 1799082506 2003959754
            1081075779 1078084362 3518681 1998025535</internalNodes>
          <leafValues>
            -6.0434925556182861e-01 2.6053631305694580e-01</leafValues></_>
        <_>
          <internalNodes>
            0 -1 148 -87753528 -40250168 536903716 1422255647 -527766806
            -1189363701 -1709699537 -6292489</internalNodes>
          <leafValues>
            -5.7541942596435547e-01 2.4042972922325134e-01</leafValues></_>
        <_>
          <internalNodes>
            0 -1 4 951058427 821033983 -1111374529 2111691510 610793343
            -50350659 -63438991 -2005403435</internalNodes>
          <leafValues>
            -3.7788861989974976e-01 3.6216711997985840e-01</leafValues></_>
        <_>
          <internalNodes>
            0 -1 198 -729554432 -75415552 -922550141 -511495538
            -1072715121 -792329982 1078265994 1397748367</internalNodes>
          <leafValues>
            -4.7385957837104797e-01 3.0256786942481995e-01</leafValues></_>
        <_>
          <internalNodes>
            0 -1 205 -1060700157 -174073125 -287668369 -713044117
            -185663233 -4505729 -467326085 -340875637</internalNodes>
          <leafValues>
            -3.3534675836563110e-01 4.2504340410232544e-01</leafValues></_>
        <_>
          <internalNodes>
            0 -1 125 -70517813 -707527739 864212992 834918811 -532229398
            268542600 1930358990 -11534357</internalNodes>
          <leafValues>
            -3.5379624366760254e-01 3.9377769827842712e-01</leafValues></_>
        <_>
          <internalNodes>
            0 -1 14 -1432467297 1789790826 577645337 537669199 717215599
            -481669494 -270274817 -825308017</internalNodes>
          <leafValues>
            -6.1762273311614990e-01 2.2858223319053650e-01</leafValues></_>
        <_>
          <internalNodes>
            0 -1 193 -191766144 2034479648 286261328 -1827938304
            1711843210 304351748 1122013849 1393554063</internalNodes>
          <leafValues>
            -5.0798213481903076e-01 2.6840808987617493e-01</leafValues></_>
        <_>
          <internalNodes>
            0 -1 128 -2103259051 -140819005 -1081623141 1605735895
            -1920367368 -544303815 -1953636391 1070570199</internalNodes>
          <leafValues>
            -4.3796500563621521e-01 3.1165301799774170e-01</leafValues></_>
        <_>
          <internalNodes>
            0 -1 74 -609230013 -739246133 -412106006 -609425542
            -84936518 1903307871 929817183 -211812387</internalNodes>
          <leafValues>
            -3.3658680319786072e-01 4.0329992771148682e-01</leafValues></_>
        <_>
          <internalNodes>
            0 -1 167 -1852398934 -747585490 -1338056055 -782769661
            -1067933056 1859368527 -2129666013 1393549635</internalNodes>
          <leafValues>
            -4.4654557108879089e-01 3.1444770097732544e-01</leafValues></_>
        <_>
          <internalNodes>
            0 -1 145 -107032097 -686582684 287904007 381573973 270201303
            1460379149 523221474 1543237631</internalNodes>
          <leafValues>
            -4.5180469751358032e-01 3.1114199757575989e-01</leafValues></_></weakClassifiers></_>
    <!-- stage 7 -->
    <_>
      <maxWeakCount>18</maxWeakCount>
      <stageThreshold>-1.2941507101058960e+00</stageThreshold>
      <weakClassifiers>
        <_>
          <internalNodes>
            0 -1 164 294453723 -1611201035 532224511 1065295359
            495721983 -1140912675 -1124270081 -1073750017</internalNodes>
          <leafValues>
            -2.7564254403114319e-01 5.2647018432617188e-01</leafValues></_>
        <_>
          <internalNodes>
            0 -1 46 -52478290 -521426194 -1067187028 1424818336
            -100672801 -34873618 -25239841 -50332673</internalNodes>
          <leafValues>
            -4.6221241354942322e-01 3.4869477152824402e-01</leafValues></_>
        <_>
          <internalNodes>
            0 -1 208 -1079079154 -1073795089 -1412554978 -1086379136
            -69230843 -35664929 -69206019 -524</internalNodes>
          <leafValues>
            -4.3051430583000183e-01 3.3793923258781433e-01</leafValues></_>
        <_>
          <internalNodes>
            0 -1 171 -208672085 -754720177 -828215417 -1056718837
            -230447574 -754745310 -1073549654 -653539617</internalNodes>
          <leafValues>
            -3.2687535881996155e-01 4.3600362539291382e-01</leafValues></_>
        <_>
          <internalNodes>
            0 -1 8 2103410399 891354930 -65 -38469638 -276876689
            -51847329 -67149955 -1197408286</internalNodes>
          <leafValues>
            -3.5326531529426575e-01 3.9806881546974182e-01</leafValues></_>
        <_>
          <internalNodes>
            0 -1 192 470761481 404369179 488249625 490278667 -234963777
            -2146920290 -2114853 137019369</internalNodes>
          <leafValues>
            -4.8556098341941833e-01 2.8225901722908020e-01</leafValues></_>
        <_>
          <internalNodes>
            0 -1 119 -212083749 -134482001 806023240 -8865 107210
            -805267328 -1040059762 -67380273</internalNodes>
          <leafValues>
            -3.1348645687103271e-01 4.4924378395080566e-01</leafValues></_>
        <_>
          <internalNodes>
            0 -1 37 145211375 4681667 -34341377 -572663049 618560495
            1890051471 -456524823 -858788667</internalNodes>
          <leafValues>
            -3.9364561438560486e-01 3.3621487021446228e-01</leafValues></_>
        <_>
          <internalNodes>
            0 -1 53 -526065422 -142010834 1368429535 1996548153
            -96734466 -1081927959 923850687 2002474610</internalNodes>
          <leafValues>
            -4.3182891607284546e-01 3.2702869176864624e-01</leafValues></_>
        <_>
          <internalNodes>
            0 -1 102 -2068642525 -268988329 -337293737 -540556677
            -2027301825 -831816073 -1559767061 -714112001</internalNodes>
          <leafValues>
            -2.9485595226287842e-01 4.5583444833755493e-01</leafValues></_>
        <_>
          <internalNodes>
            0 -1 161 -93066557 -73412009 -679485481 168755257 -606090573
            402915774 1465633706 -367002658</internalNodes>
          <leafValues>
            -2.9780110716819763e-01 4.5976418256759644e-01</leafValues></_>
        <_>
          <internalNodes>
            0 -1 75 -119648562 -8489250 1324405424 1499062359 -696007484
            -788266912 -1686662977 419762303</internalNodes>
          <leafValues>
            -5.3517806529998779e-01 2.4729500710964203e-01</leafValues></_>
        <_>
          <internalNodes>
            0 -1 3 -184590977 847121151 -23192577 -1594442053 -557883789
            1969219063 -298968378 -184619269</internalNodes>
          <leafValues>
            -4.6273374557495117e-01 2.8925552964210510e-01</leafValues></_>
        <_>
          <internalNodes>
            0 -1 189 -11804118 -764761974 -2059352920 1375976499
            -1073341952 -1845476862 1099745422 -766514545</internalNodes>
          <leafValues>
            -4.0202754735946655e-01 3.3743774890899658e-01</leafValues></_>
        <_>
          <internalNodes>
            0 -1 210 -924580845 -11224105 -23356035 -81409445 1654802591
            -544247525 -254344998 -91747318</internalNodes>
          <leafValues>
            -3.7247487902641296e-01 3.6086550354957581e-01</leafValues></_>
        <_>
          <internalNodes>
            0 -1 93 -220216310 -884819129 -13369550 1738801051
            1416355210 1073763154 1907618211 1929870111</internalNodes>
          <leafValues>
            -5.7920473814010620e-01 2.2046358883380890e-01</leafValues></_>
        <_>
          <internalNodes>
            0 -1 86 -74419216 -1827012296 313594321 1360613440
            2005440186 -896738054 604579217 419561608</internalNodes>
          <leafValues>
            -5.7414954900741577e-01 2.1904259920120239e-01</leafValues></_>
        <_>
          <internalNodes>
            0 -1 6 1033338751 541087319 -2057836754 -34082469
            -1377867451 -1125753897 -1312764 -1735203399</internalNodes>
          <leafValues>
            -3.9836037158966064e-01 3.4644088149070740e-01</leafValues></_></weakClassifiers></_>
    <!-- stage 8 -->
    <_>
      <maxWeakCount>18</maxWeakCount>
      <stageThreshold>-1.1032369136810303e+00</stageThreshold>
      <weakClassifiers>
        <_>
          <internalNodes>
            0 -1 182 -390281009 -100716801 -2143752449 152079085 -2049
            -1 -1426129921 -1074266369</internalNodes>
          <leafValues>
            -1.8219539523124695e-01 5.8478188514709473e-01</leafValues></_>
        <_>
          <internalNodes>
            0 -1 15 -288436625 -1118490 -286593281 -3258646 -168886273
            -181406009 -672221441 -1048577</internalNodes>
          <leafValues>
            -3.3222791552543640e-01 4.3075901269912720e-01</leafValues></_>
        <_>
          <internalNodes>
            0 -1 178 521346559 993361885 515735549 2146918399
            -1096065025 -1078244437 -1079443473 -1077936161</internalNodes>
          <leafValues>
            -3.6845141649246216e-01 3.7008866667747498e-01</leafValues></_>
        <_>
          <internalNodes>
            0 -1 196 -229643637 -204741622 -800634741 -784088566
            -1073611057 1073891330 1380565643 -217058677</internalNodes>
          <leafValues>
            -2.8686514496803284e-01 4.4775956869125366e-01</leafValues></_>
        <_>
          <internalNodes>
            0 -1 104 -137889289 -217845257 20608 924044615 314766058
            285222912 866384586 -69207041</internalNodes>
          <leafValues>
            -3.5102188587188721e-01 3.5832780599594116e-01</leafValues></_>
        <_>
          <internalNodes>
            0 -1 69 -2101362173 -949027933 -148113569 -201327781
            -71439697 -450691139 -245377041 -210771831</internalNodes>
          <leafValues>
            -2.5941163301467896e-01 4.4539836049079895e-01</leafValues></_>
        <_>
          <internalNodes>
            0 -1 154 -6033238 856203432 23020674 1435341768 -217276278
            -1971060606 456179754 1393533099</internalNodes>
          <leafValues>
            -4.6247285604476929e-01 2.4219022691249847e-01</leafValues></_>
        <_>
          <internalNodes>
            0 -1 97 947073754 -796001685 -1334584483 1342308191
            552288334 -1397814238 -339743297 1431830321</internalNodes>
          <leafValues>
            -4.9995917081832886e-01 2.5412330031394958e-01</leafValues></_>
        <_>
          <internalNodes>
            0 -1 214 -1350629625 -1221871782 1453661789 522238544
            -335592702 -4201513 2021019221 -8747</internalNodes>
          <leafValues>
            -3.5306644439697266e-01 3.5815244913101196e-01</leafValues></_>
        <_>
          <internalNodes>
            0 -1 40 1324350114 -2138395926 1761400055 1886287606
            -20448649 -1997086724 -20460295 -925372684</internalNodes>
          <leafValues>
            -5.3226786851882935e-01 2.1809785068035126e-01</leafValues></_>
        <_>
          <internalNodes>
            0 -1 130 -754858341 -537423710 -1122989569 -11562624
            254525115 -1348747457 -1095914529 -879763137</internalNodes>
          <leafValues>
            -2.4426756799221039e-01 5.0778108835220337e-01</leafValues></_>
        <_>
          <internalNodes>
            0 -1 173 -168262488 -34572644 143733821 1035505852
            -1592588113 855838367 72582538 331335423</internalNodes>
          <leafValues>
            -5.5915051698684692e-01 2.2461542487144470e-01</leafValues></_>
        <_>
          <internalNodes>
            0 -1 124 -488115704 -1009257588 853402760 1367343071
            1078703083 1078137164 -1860329334 1535066363</internalNodes>
          <leafValues>
            -4.9645131826400757e-01 2.3463672399520874e-01</leafValues></_>
        <_>
          <internalNodes>
            0 -1 22 -1896474053 -90041831 1257454363 -251663395
            -1107603489 -1366491193 991930271 -52693891</internalNodes>
          <leafValues>
            -3.8448420166969299e-01 3.2342764735221863e-01</leafValues></_>
        <_>
          <internalNodes>
            0 -1 150 -1190931311 -149029051 287567129 -1688208390
            -74729542 -1076101659 -89526551 -1952451329</internalNodes>
          <leafValues>
            -2.5818291306495667e-01 4.6478199958801270e-01</leafValues></_>
        <_>
          <internalNodes>
            0 -1 185 -1030762496 -740620030 10650759 1393271298
            -498998396 1107329420 35104719 -741348945</internalNodes>
          <leafValues>
            -3.4431186318397522e-01 3.5617089271545410e-01</leafValues></_>
        <_>
          <internalNodes>
            0 -1 58 1963679984 1063504571 1337345138 2104192510
            286724272 -75763462 1360359923 1400197286</internalNodes>
          <leafValues>
            -5.4510420560836792e-01 2.3244199156761169e-01</leafValues></_>
        <_>
          <internalNodes>
            0 -1 77 -64946827 974128512 -72810497 -101065995 146703351
            4071573 -1157785105 947090751</internalNodes>
          <leafValues>
            -4.4335103034973145e-01 2.6660364866256714e-01</leafValues></_></weakClassifiers></_>
    <!-- stage 9 -->
    <_>
      <maxWeakCount>20</maxWeakCount>
      <stageThreshold>-1.1297264099121094e+00</stageThreshold>
      <weakClassifiers>
        <_>
          <internalNodes>
            0 -1 201 -823260146 -807531505 2130593151 -549777649
            -1889606433 -19476993 -21065989 -1347515221</internalNodes>
          <leafValues>
            -3.3515650033950806e-01 4.5665308833122253e-01</leafValues></_>
        <_>
          <internalNodes>
            0 -1 169 -486277493 -1073493361 -1073491057 -654065557
            -1073678174 -364654150 1363529410 -269485089</internalNodes>
          <leafValues>
            -2.8340265154838562e-01 4.4659760594367981e-01</leafValues></_>
        <_>
          <internalNodes>
            0 -1 20 -1936720129 80478207 -2624683 -571482785 -468200489
            -1127566595 -24139 -1997552396</internalNodes>
          <leafValues>
            -4.2586746811866760e-01 3.0307424068450928e-01</leafValues></_>
        <_>
          <internalNodes>
            0 -1 110 -241437709 -741620798 -1280052741 1405313991
            -101057541 -878978613 -201461513 -1949316405</internalNodes>
          <leafValues>
            -2.9056146740913391e-01 4.4386678934097290e-01</leafValues></_>
        <_>
          <internalNodes>
            0 -1 17 -546365601 1000406907 -554764865 -44761229
            -537037967 -51445897 -354944674 -1192951968</internalNodes>
          <leafValues>
            -3.4670037031173706e-01 3.4115645289421082e-01</leafValues></_>
        <_>
          <internalNodes>
            0 -1 155 -52954556 1574221696 -124266785 -9446627 -62407992
            -2134795135 -822347194 172752799</internalNodes>
          <leafValues>
            -4.4924086332321167e-01 2.7832743525505066e-01</leafValues></_>
        <_>
          <internalNodes>
            0 -1 64 -499128305 -521408537 1667822219 1919940318
            -337656865 1466371003 -1032852785 1987575785</internalNodes>
          <leafValues>
            -3.8914352655410767e-01 3.0134344100952148e-01</leafValues></_>
        <_>
          <internalNodes>
            0 -1 147 -130410342 -134717766 2012420223 -209640774
            -2388017 252839884 -1129865814 -1078081</internalNodes>
          <leafValues>
            -2.9168874025344849e-01 3.8543191552162170e-01</leafValues></_>
        <_>
          <internalNodes>
            0 -1 140 -483137810 -539169105 -146898264 -174064717
            -1068315399 8441691 31441833 1467466356</internalNodes>
          <leafValues>
            -4.1110047698020935e-01 2.9877775907516479e-01</leafValues></_>
        <_>
          <internalNodes>
            0 -1 149 1035164127 -140357187 522541527 1562187007
            -24588599 -7627027 420872159 -14704641</internalNodes>
          <leafValues>
            -3.2535308599472046e-01 3.4721696376800537e-01</leafValues></_>
        <_>
          <internalNodes>
            0 -1 188 -360060246 -924990708 954974778 -708241533
            -603329910 844382208 1615513736 -393483557</internalNodes>
          <leafValues>
            -3.4540843963623047e-01 3.3143714070320129e-01</leafValues></_>
        <_>
          <internalNodes>
            0 -1 54 -893194526 -79289632 -331586853 -141921721
            2067817940 1912754434 -1277217089 1968377945</internalNodes>
          <leafValues>
            -4.9339151382446289e-01 2.3008817434310913e-01</leafValues></_>
        <_>
          <internalNodes>
            0 -1 103 -387385328 -82666477 -541658851 286472706 -8683359
            186387469 1703249032 2041184058</internalNodes>
          <leafValues>
            -4.7771558165550232e-01 2.4990491569042206e-01</leafValues></_>
        <_>
          <internalNodes>
            0 -1 217 524033337 1060255551 -4710469 2147368765 1700078573
            -50366211 1572551677 -54892</internalNodes>
          <leafValues>
            -3.8997265696525574e-01 2.9695928096771240e-01</leafValues></_>
        <_>
          <internalNodes>
            0 -1 143 -788799747 270058686 -458687610 1480656976
            -2131521301 -55699025 -1127224341 -1089097975</internalNodes>
          <leafValues>
            -3.6473062634468079e-01 3.2148331403732300e-01</leafValues></_>
        <_>
          <internalNodes>
            0 -1 90 -202383197 -608183725 -32802697 1729095682
            1108216970 33947969 1021070 -741899573</internalNodes>
          <leafValues>
            -3.0520838499069214e-01 4.0109008550643921e-01</leafValues></_>
        <_>
          <internalNodes>
            0 -1 190 -53230901 -111432701 -258940257 1355923458
            -740786022 1079465217 1478214314 -1572091766</internalNodes>
          <leafValues>
            -2.8204742074012756e-01 4.0962928533554077e-01</leafValues></_>
        <_>
          <internalNodes>
            0 -1 23 -83937537 35693222 -327225121 -591399301 -229287067
            -831072609 -52450247 -184615820</internalNodes>
          <leafValues>
            -4.1472309827804565e-01 2.8724169731140137e-01</leafValues></_>
        <_>
          <internalNodes>
            0 -1 107 -347091126 -9316481 -1653678542 -1786873286
            1734534863 1345343765 -743055169 -116001281</internalNodes>
          <leafValues>
            -3.6460924148559570e-01 3.2713192701339722e-01</leafValues></_>
        <_>
          <internalNodes>
            0 -1 109 -62380868 -573003606 1707607088 -1616257069
            -2674081 -612657613 -1937363073 -1388258393</internalNodes>
          <leafValues>
            -4.4600021839141846e-01 2.8049936890602112e-01</leafValues></_></weakClassifiers></_>
    <!-- stage 10 -->
    <_>
      <maxWeakCount>21</maxWeakCount>
      <stageThreshold>-1.0748867988586426e+00</stageThreshold>
      <weakClassifiers>
        <_>
          <internalNodes>
            0 -1 207 -1393588081 -282665 -1061712457 -252974289
            -184562657 -67108993 -186655009 -267255809</internalNodes>
          <leafValues>
            -1.2402826547622681e-01 5.7526129484176636e-01</leafValues></_>
        <_>
          <internalNodes>
            0 -1 0 -352387073 817550643 -10493671 -16851625 -490766369
            616205035 -2104357 822082909</internalNodes>
          <leafValues>
            -4.4306132197380066e-01 2.8742834925651550e-01</leafValues></_>
        <_>
          <internalNodes>
            0 -1 72 -492838137 -336665685 -244321457 -33557665
            -480247921 1187041705 1998582671 -146810881</internalNodes>
          <leafValues>
            -2.8874084353446960e-01 4.0197560191154480e-01</leafValues></_>
        <_>
          <internalNodes>
            0 -1 116 -559630083 -7012484 51385105 1896943953 537037004
            -1364718977 -1491109121 -1356878855</internalNodes>
          <leafValues>
            -3.5203737020492554e-01 3.2951080799102783e-01</leafValues></_>
        <_>
          <internalNodes>
            0 -1 108 1607425375 -11378721 1527771806 -104712641
            -1090156611 -1793817099 -1693057345 -1626892801</internalNodes>
          <leafValues>
            -2.9405325651168823e-01 3.9002111554145813e-01</leafValues></_>
        <_>
          <internalNodes>
            0 -1 137 -490545152 -127352269 -1730092451 17342927 -2035299
            1510004289 657846408 1091297802</internalNodes>
          <leafValues>
            -4.9670997262001038e-01 2.3338089883327484e-01</leafValues></_>
        <_>
          <internalNodes>
            0 -1 5 738197503 552517557 -560992451 965474423 1903558495
            -1393567849 -33570959 -2000685579</internalNodes>
          <leafValues>
            -4.0165129303932190e-01 2.5055205821990967e-01</leafValues></_>
        <_>
          <internalNodes>
            0 -1 87 463364063 857779250 -151106571 -76349441 161160203
            134237851 469666815 1528913150</internalNodes>
          <leafValues>
            -4.5271843671798706e-01 2.3531834781169891e-01</leafValues></_>
        <_>
          <internalNodes>
            0 -1 146 -35392310 -251601728 4235400 -106705010 -544739253
            -2138892473 1611264858 -9729</internalNodes>
          <leafValues>
            -3.9168259501457214e-01 2.8669393062591553e-01</leafValues></_>
        <_>
          <internalNodes>
            0 -1 122 -641536888 -203902336 1427493333 524421158
            -543445812 1527924829 1434386570 1556277899</internalNodes>
          <leafValues>
            -4.5981582999229431e-01 2.3381720483303070e-01</leafValues></_>
        <_>
          <internalNodes>
            0 -1 168 -347365376 573229963 1410736256 1372561954
            -909602648 -2002255224 -905456958 1397731995</internalNodes>
          <leafValues>
            -4.6734845638275146e-01 2.0776562392711639e-01</leafValues></_>
        <_>
          <internalNodes>
            0 -1 12 -118696737 -641463554 -360752355 459251071 -5572609
            -420685828 -1107361793 -1880166403</internalNodes>
          <leafValues>
            -3.0560165643692017e-01 3.6117398738861084e-01</leafValues></_>
        <_>
          <internalNodes>
            0 -1 158 -2096118141 -920402297 -716179985 -135796345
            -184041041 -861729085 -515378769 1401057665</internalNodes>
          <leafValues>
            -3.5173419117927551e-01 3.3274352550506592e-01</leafValues></_>
        <_>
          <internalNodes>
            0 -1 101 -2111373037 -675352217 -25691177 -113397903
            -1896104003 -806436937 -1259886690 -1014398288</internalNodes>
          <leafValues>
            -3.1737372279167175e-01 3.5041823983192444e-01</leafValues></_>
        <_>
          <internalNodes>
            0 -1 100 -190591808 -1724588277 -4571387 287963055
            2139016910 -1347191511 -1106637816 458816283</internalNodes>
          <leafValues>
            -4.3078264594078064e-01 2.5695660710334778e-01</leafValues></_>
        <_>
          <internalNodes>
            0 -1 163 -105766776 -180875587 1496321823 1068501242
            -15807272 655502546 1567481762 520593547</internalNodes>
          <leafValues>
            -5.1952868700027466e-01 2.1783354878425598e-01</leafValues></_>
        <_>
          <internalNodes>
            0 -1 174 -355475257 -345910953 -878182668 -771271597
            -783652373 -2085857833 -892655062 -91241841</internalNodes>
          <leafValues>
            -2.9048204421997070e-01 4.0471172332763672e-01</leafValues></_>
        <_>
          <internalNodes>
            0 -1 213 -2144927741 -351392117 -100749113 -1686657009
            -550698701 -1936601365 -1032855870 -1068242418</internalNodes>
          <leafValues>
            -3.3171236515045166e-01 3.3186915516853333e-01</leafValues></_>
        <_>
          <internalNodes>
            0 -1 27 1500331439 420612720 1878370008 2107178832
            1743984504 -192136588 -49189600 -1194312848</internalNodes>
          <leafValues>
            -3.6965143680572510e-01 3.0753427743911743e-01</leafValues></_>
        <_>
          <internalNodes>
            0 -1 151 -196687742 -247217650 437215361 -753933824
            1438953900 -821837822 -545272913 1108337163</internalNodes>
          <leafValues>
            -4.7183373570442200e-01 2.3824891448020935e-01</leafValues></_>
        <_>
          <internalNodes>
            0 -1 105 496915967 -655714086 -570491153 -571885318
            481113231 -600276257 2147200827 -660569704</internalNodes>
          <leafValues>
            -3.5168159008026123e-01 3.3143913745880127e-01</leafValues></_></weakClassifiers></_>
    <!-- stage 11 -->
    <_>
      <maxWeakCount>23</maxWeakCount>
      <stageThreshold>-1.1840772628784180e+00</stageThreshold>
      <weakClassifiers>
        <_>
          <internalNodes>
            0 -1 57 -356538325 -504926353 -533591030 -145490241
            -67117265 1929871203 -84418561 1937211391</internalNodes>
          <leafValues>
            -2.2083333134651184e-01 5.0197738409042358e-01</leafValues></_>
        <_>
          <internalNodes>
            0 -1 111 1034113527 -6072837 -1626384899 -4759617 -38813488
            -3456816 -1096810499 -1625292801</internalNodes>
          <leafValues>
            -2.7940776944160461e-01 4.0111580491065979e-01</leafValues></_>
        <_>
          <internalNodes>
            0 -1 56 1482545143 134502620 -123781321 -2753251 1289513215
            13631568 -856098401 1540218271</internalNodes>
          <leafValues>
            -4.3762108683586121e-01 2.4835577607154846e-01</leafValues></_>
        <_>
          <internalNodes>
            0 -1 30 -1360081234 -1060475230 -526337 -5256299 -407908355
            -1040501031 -884486691 -437269300</internalNodes>
          <leafValues>
            -5.0855398178100586e-01 2.0112875103950500e-01</leafValues></_>
        <_>
          <internalNodes>
            0 -1 85 715161728 -2874736 1083376387 -425263 -1702180712
            -5584709 -905442645 -1091032679</internalNodes>
          <leafValues>
            -5.4844337701797485e-01 1.9063185155391693e-01</leafValues></_>
        <_>
          <internalNodes>
            0 -1 82 -3685430 -6815761 16786058 1904341898 -1316255222
            1946162432 318998666 -2097185</internalNodes>
          <leafValues>
            -3.6760464310646057e-01 2.8179579973220825e-01</leafValues></_>
        <_>
          <internalNodes>
            0 -1 98 -284954409 -1114394486 -276836165 -3194814
            -1895171683 -15765120 521133311 1536143489</internalNodes>
          <leafValues>
            -3.1111925840377808e-01 3.2303872704505920e-01</leafValues></_>
        <_>
          <internalNodes>
            0 -1 212 -1352266226 2139557715 894601055 -1081143666
            -461504140 -1344313481 -1476407810 -1346421192</internalNodes>
          <leafValues>
            -4.4516682624816895e-01 2.2214482724666595e-01</leafValues></_>
        <_>
          <internalNodes>
            0 -1 141 -203432725 -720571381 -790245167 1090748555
            -747913078 285327368 1359317506 -714112894</internalNodes>
          <leafValues>
            -3.2328683137893677e-01 3.1304332613945007e-01</leafValues></_>
        <_>
          <internalNodes>
            0 -1 181 -2144632285 -1557425221 -72203915 -805307845
            -613455211 -1151376143 -1143473729 -1019494388</internalNodes>
          <leafValues>
            -2.7965387701988220e-01 3.6624801158905029e-01</leafValues></_>
        <_>
          <internalNodes>
            0 -1 36 -63828368 -252213510 -98685378 -1494569218 429643385
            939436293 -67174919 -260638721</internalNodes>
          <leafValues>
            -4.8054194450378418e-01 1.9555842876434326e-01</leafValues></_>
        <_>
          <internalNodes>
            0 -1 179 -2063531901 -2054258293 -72098981 -270573621
            -897117805 -20982377 1750032027 -70269354</internalNodes>
          <leafValues>
            -2.6771050691604614e-01 3.8332074880599976e-01</leafValues></_>
        <_>
          <internalNodes>
            0 -1 13 145749495 178838327 -1643004425 -3539969 -875069513
            16118409 1172012401 82100436</internalNodes>
          <leafValues>
            -4.3913668394088745e-01 2.4586163461208344e-01</leafValues></_>
        <_>
          <internalNodes>
            0 -1 83 -2111108033 -274050806 -237409537 -257817777
            -1932294118 1182154839 -1575921425 -434119441</internalNodes>
          <leafValues>
            -3.0621120333671570e-01 3.4290856122970581e-01</leafValues></_>
        <_>
          <internalNodes>
            0 -1 177 -167971601 -753576683 -1876815744 1397969231
            -972489270 570488396 -1370834806 -36176113</internalNodes>
          <leafValues>
            -3.1918770074844360e-01 3.2174468040466309e-01</leafValues></_>
        <_>
          <internalNodes>
            0 -1 144 -201334134 -73228313 -1166169912 -282984465
            -1057101649 4207013 -1711286103 -73818917</internalNodes>
          <leafValues>
            -3.0130723118782043e-01 3.4959185123443604e-01</leafValues></_>
        <_>
          <internalNodes>
            0 -1 71 448420078 -89628321 -96502497 -80293665 143543407
            -1465646550 16309759 1211851983</internalNodes>
          <leafValues>
            -4.3649235367774963e-01 2.2020527720451355e-01</leafValues></_>
        <_>
          <internalNodes>
            0 -1 49 -286333708 1932524083 788430591 -1074304028 -2826249
            2136253758 2102352875 2002084638</internalNodes>
          <leafValues>
            -4.4259944558143616e-01 2.2776126861572266e-01</leafValues></_>
        <_>
          <internalNodes>
            0 -1 215 215949843 -322492645 2077675359 1343838205
            2078474272 -605030992 -94902004 -656506881</internalNodes>
          <leafValues>
            -3.1113320589065552e-01 3.3537754416465759e-01</leafValues></_>
        <_>
          <internalNodes>
            0 -1 136 427823225 -1727070191 637867259 522158045 168470667
            -1087685843 1697144747 453975819</internalNodes>
          <leafValues>
            -3.4398254752159119e-01 3.2776483893394470e-01</leafValues></_>
        <_>
          <internalNodes>
            0 -1 176 -1022387564 -1019229082 432998457 1527756735
            109573887 155391147 333295866 -7488513</internalNodes>
          <leafValues>
            -3.2537278532981873e-01 3.3727613091468811e-01</leafValues></_>
        <_>
          <internalNodes>
            0 -1 39 2051954811 -391843837 976682297 36206047 -104883105
            -400250674 -663209109 403199836</internalNodes>
          <leafValues>
            -4.7837543487548828e-01 2.1656483411788940e-01</leafValues></_>
        <_>
          <internalNodes>
            0 -1 80 19073287 -338566761 -1333950729 -1574246932
            -1186752165 57433657 -951822973 -209720424</internalNodes>
          <leafValues>
            -3.2779243588447571e-01 3.2271730899810791e-01</leafValues></_></weakClassifiers></_>
    <!-- stage 12 -->
    <_>
      <maxWeakCount>26</maxWeakCount>
      <stageThreshold>-1.2224333286285400e+00</stageThreshold>
      <weakClassifiers>
        <_>
          <internalNodes>
            0 -1 32 -9506962 -1380634 -277946394 -5309462 -404230164
            -269484545 -1912683452 -29740</internalNodes>
          <leafValues>
            -2.4878574907779694e-01 4.5775929093360901e-01</leafValues></_>
        <_>
          <internalNodes>
            0 -1 95 -1850527437 -1068453125 456339771 398586843
            -1141130309 -1963746369 -1682236417 -1886520321</internalNodes>
          <leafValues>
            -3.0529302358627319e-01 3.6213752627372742e-01</leafValues></_>
        <_>
          <internalNodes>
            0 -1 67 -1427119057 -219959377 -369435601 -202113025
            -50378433 1987272051 -1200620289 -210272257</internalNodes>
          <leafValues>
            -2.8636318445205688e-01 3.7889260053634644e-01</leafValues></_>
        <_>
          <internalNodes>
            0 -1 112 -1850649894 -543010134 488266207 1603226980
            -551577074 -540096102 521788255 -1894876449</internalNodes>
          <leafValues>
            -3.7905788421630859e-01 2.5974771380424500e-01</leafValues></_>
        <_>
          <internalNodes>
            0 -1 50 -835728757 -816853078 1960811643 -226495013
            -308943777 -1376297899 -839127634 -135425</internalNodes>
          <leafValues>
            -2.9875016212463379e-01 3.3482104539871216e-01</leafValues></_>
        <_>
          <internalNodes>
            0 -1 178 792141503 980885503 220952575 1060593663
            -1633134854 -1145080614 1033830395 1001356271</internalNodes>
          <leafValues>
            -4.5449528098106384e-01 2.4756424129009247e-01</leafValues></_>
        <_>
          <internalNodes>
            0 -1 89 -134221365 -720241169 1342472256 -774518814
            -202780022 -788398080 -251157886 -16401</internalNodes>
          <leafValues>
            -2.8712663054466248e-01 3.8191312551498413e-01</leafValues></_>
        <_>
          <internalNodes>
            0 -1 203 -822096177 -549744755 -860304817 -1074040878
            -864170086 2138472050 -1025581105 -1440548936</internalNodes>
          <leafValues>
            -2.7951785922050476e-01 3.4755697846412659e-01</leafValues></_>
        <_>
          <internalNodes>
            0 -1 120 -1073160064 -1985044130 -1672962241 293079763
            -40458363 168108364 1968159882 1342700186</internalNodes>
          <leafValues>
            -4.7103989124298096e-01 2.1112409234046936e-01</leafValues></_>
        <_>
          <internalNodes>
            0 -1 195 -359929141 -531905813 17011467 -678704870
            -2073563157 1142662546 1281086491 -144965957</internalNodes>
          <leafValues>
            -2.4161589145660400e-01 3.9283600449562073e-01</leafValues></_>
        <_>
          <internalNodes>
            0 -1 18 1570115967 -218710345 -557573515 -257652993 -2532034
            -1412184743 -67224578 -1268712705</internalNodes>
          <leafValues>
            -3.3127918839454651e-01 3.0010107159614563e-01</leafValues></_>
        <_>
          <internalNodes>
            0 -1 60 1477964838 1476469275 -1518805142 2031205728
            141236479 146354511 712919999 890293106</internalNodes>
          <leafValues>
            -4.4443595409393311e-01 2.0404258370399475e-01</leafValues></_>
        <_>
          <internalNodes>
            0 -1 79 -1836326137 -1122073 -300453138 -203819318
            -769655825 1668739067 -752430629 1737227820</internalNodes>
          <leafValues>
            -3.1913956999778748e-01 3.0376410484313965e-01</leafValues></_>
        <_>
          <internalNodes>
            0 -1 199 -666644336 1092244542 -194330283 1362039757
            1208292571 1326369013 -880935957 -886048849</internalNodes>
          <leafValues>
            -2.8068464994430542e-01 3.4801957011222839e-01</leafValues></_>
        <_>
          <internalNodes>
            0 -1 55 -286624294 -555184062 1249095674 -14618422 -16256774
            -210673406 541702095 2064061124</internalNodes>
          <leafValues>
            -4.0863430500030518e-01 2.4500976502895355e-01</leafValues></_>
        <_>
          <internalNodes>
            0 -1 218 20718399 2140615639 1991778291 1070413605
            2143578033 -290451142 923628969 -693045316</internalNodes>
          <leafValues>
            -3.3093968033790588e-01 2.9377478361129761e-01</leafValues></_>
        <_>
          <internalNodes>
            0 -1 180 -340885344 -517438974 33565576 1361888416
            1565398208 370677024 286884750 1397747439</internalNodes>
          <leafValues>
            -4.7410666942596436e-01 2.2859169542789459e-01</leafValues></_>
        <_>
          <internalNodes>
            0 -1 179 1090769051 -573859701 -1633551457 -1247322543
            -240939847 -270923 -1897668701 -1074996001</internalNodes>
          <leafValues>
            -2.5503107905387878e-01 4.1412550210952759e-01</leafValues></_>
        <_>
          <internalNodes>
            0 -1 61 1386156921 -653411855 1497596925 -1052392107
            2044071148 1045171393 -1627504461 138431941</internalNodes>
          <leafValues>
            -4.3688040971755981e-01 2.3154366016387939e-01</leafValues></_>
        <_>
          <internalNodes>
            0 -1 172 -1467842560 -1153929726 355839477 -1079923873
            -2039486193 -2092954871 1409000001 185066055</internalNodes>
          <leafValues>
            -4.3066006898880005e-01 2.2874149680137634e-01</leafValues></_>
        <_>
          <internalNodes>
            0 -1 135 -2010193790 -1242917628 1956089856 -788293866
            -2113751382 2131336 33916228 1400886922</internalNodes>
          <leafValues>
            -4.6989843249320984e-01 2.0790730416774750e-01</leafValues></_>
        <_>
          <internalNodes>
            0 -1 66 177680181 1743236783 -291562185 -1338726819
            -2009162245 -1923109537 -616572323 -498075413</internalNodes>
          <leafValues>
            -2.8973725438117981e-01 3.5161668062210083e-01</leafValues></_>
        <_>
          <internalNodes>
            0 -1 26 621759895 1040202406 1528427889 1031207262
            -375571120 -323292293 1549249625 148419236</internalNodes>
          <leafValues>
            -3.8535729050636292e-01 2.5727036595344543e-01</leafValues></_>
        <_>
          <internalNodes>
            0 -1 117 -1022524669 -1014119557 -92571767 -100699786
            -70403089 -861493331 -67116089 -939596518</internalNodes>
          <leafValues>
            -2.4751883745193481e-01 4.2101076245307922e-01</leafValues></_>
        <_>
          <internalNodes>
            0 -1 204 -100163070 -1202617998 -1454926255 286692876
            -61998550 39456256 1633032840 1645212170</internalNodes>
          <leafValues>
            -4.0558642148971558e-01 2.6378881931304932e-01</leafValues></_>
        <_>
          <internalNodes>
            0 -1 157 -1089469735 523329536 1278676765 1601637445
            658249881 975376571 479869917 464761563</internalNodes>
          <leafValues>
            -3.4523928165435791e-01 2.9108402132987976e-01</leafValues></_></weakClassifiers></_>
    <!-- stage 13 -->
    <_>
      <maxWeakCount>25</maxWeakCount>
      <stageThreshold>-1.3972762823104858e+00</stageThreshold>
      <weakClassifiers>
        <_>
          <internalNodes>
            0 -1 1 1861119743 -3240210 -1364267265 -3240274 -1057180673
            -404065161 1206186967 -3375697</internalNodes>
          <leafValues>
            -1.1600971221923828e-01 5.3266084194183350e-01</leafValues></_>
        <_>
          <internalNodes>
            0 -1 206 -387186685 -2125849 -42717953 -4224233 -660672769
            -56742402 -56268549 -1347772245</internalNodes>
          <leafValues>
            -3.5717248916625977e-01 3.0156949162483215e-01</leafValues></_>
        <_>
          <internalNodes>
            0 -1 88 -2027749325 -436229593 -1476538569 -278399105
            -1371820033 -889197121 -2020740745 -134219813</internalNodes>
          <leafValues>
            -2.4945488572120667e-01 4.1481173038482666e-01</leafValues></_>
        <_>
          <internalNodes>
            0 -1 28 1607810917 486563152 -10356909 -213948 -288147691
            -66700 -3179816 491782464</internalNodes>
          <leafValues>
            -4.3248963356018066e-01 2.4532477557659149e-01</leafValues></_>
        <_>
          <internalNodes>
            0 -1 47 1559964318 -450788826 349962316 1895770790
            2002644823 -1376003434 1533804447 -34078729</internalNodes>
          <leafValues>
            -3.8189491629600525e-01 2.3266978561878204e-01</leafValues></_>
        <_>
          <internalNodes>
            0 -1 138 -71305521 1528802223 420474047 420186634 -795874645
            420151839 1359462538 -743450482</internalNodes>
          <leafValues>
            -2.5607180595397949e-01 3.6759358644485474e-01</leafValues></_>
        <_>
          <internalNodes>
            0 -1 149 -1120576001 -1078569551 521543647 1035951349
            -1121464100 -7385651 1594358266 531349243</internalNodes>
          <leafValues>
            -3.6687782406806946e-01 2.5048530101776123e-01</leafValues></_>
        <_>
          <internalNodes>
            0 -1 63 -1576050169 -494425521 -210504922 -521144611
            -1304457233 1954176847 302380015 -750325508</internalNodes>
          <leafValues>
            -3.4406256675720215e-01 2.7725169062614441e-01</leafValues></_>
        <_>
          <internalNodes>
            0 -1 92 33751307 -275819073 -409239681 -1027391493
            -806494721 1597202039 -629844209 -438325249</internalNodes>
          <leafValues>
            -2.4550670385360718e-01 3.7679547071456909e-01</leafValues></_>
        <_>
          <internalNodes>
            0 -1 113 293690586 480816634 934925806 1610470131 702054286
            -573465382 1398920700 521063932</internalNodes>
          <leafValues>
            -4.4869151711463928e-01 2.1587665379047394e-01</leafValues></_>
        <_>
          <internalNodes>
            0 -1 175 -656957438 -1828486638 1343377648 890352539
            -1073471608 1405211835 -1286105637 1931476655</internalNodes>
          <leafValues>
            -4.0109106898307800e-01 2.4250189960002899e-01</leafValues></_>
        <_>
          <internalNodes>
            0 -1 94 -113479528 -105342288 -2141103757 -115344581
            -957346647 -1370961224 -1969488071 -69296210</internalNodes>
          <leafValues>
            -3.8100314140319824e-01 2.5721374154090881e-01</leafValues></_>
        <_>
          <internalNodes>
            0 -1 118 -542910717 -742411549 -36127419 -2253605
            -1761352501 -1012906774 52721549 -273905921</internalNodes>
          <leafValues>
            -2.4327118694782257e-01 4.0748813748359680e-01</leafValues></_>
        <_>
          <internalNodes>
            0 -1 216 -1497755841 -242819 -1368425601 2045154860
            1598564209 2147184511 527387117 -33555083</internalNodes>
          <leafValues>
            -2.6680696010589600e-01 3.5098594427108765e-01</leafValues></_>
        <_>
          <internalNodes>
            0 -1 78 -55772945 -746540524 -74280388 -75480842 -2137104305
            -1430493496 -1470966321 313520502</internalNodes>
          <leafValues>
            -3.5787785053253174e-01 2.6527705788612366e-01</leafValues></_>
        <_>
          <internalNodes>
            0 -1 41 -501156124 -219615099 -2134710653 -159866738
            -461308679 -254754059 1918335754 1996697851</internalNodes>
          <leafValues>
            -4.5312446355819702e-01 2.0664022862911224e-01</leafValues></_>
        <_>
          <internalNodes>
            0 -1 51 -353458513 -680546321 -834638097 -263377 -226511505
            1359431655 -478150753 -221249545</internalNodes>
          <leafValues>
            -2.4299100041389465e-01 4.0266996622085571e-01</leafValues></_>
        <_>
          <internalNodes>
            0 -1 184 -1172073982 -1077218718 -1473877433 -676595009
            -1064329013 147038370 1082900490 1380958731</internalNodes>
          <leafValues>
            -4.0633887052536011e-01 2.4317425489425659e-01</leafValues></_>
        <_>
          <internalNodes>
            0 -1 197 -492835893 -612177728 -1239412453 34242594
            -2071673653 268501377 31393819 1112257231</internalNodes>
          <leafValues>
            -3.4942391514778137e-01 2.7660819888114929e-01</leafValues></_>
        <_>
          <internalNodes>
            0 -1 209 -1342362065 599273449 -420155562 -1382354992
            -1375875197 -1426850119 -1359607005 -301992451</internalNodes>
          <leafValues>
            -2.9056799411773682e-01 3.2424592971801758e-01</leafValues></_>
        <_>
          <internalNodes>
            0 -1 9 -1775892359 -1761860554 -463548674 -1566529866
            -893712939 552802363 1862260955 -190382145</internalNodes>
          <leafValues>
            -5.1553273200988770e-01 1.7787756025791168e-01</leafValues></_>
        <_>
          <internalNodes>
            0 -1 159 1320350850 -94747542 -30555924 1984770399
            -2113155394 1354910427 1391952877 1337968632</internalNodes>
          <leafValues>
            -4.4141989946365356e-01 2.3274666070938110e-01</leafValues></_>
        <_>
          <internalNodes>
            0 -1 131 2073229457 -13571871 -619839489 -547948620
            -274140197 -9437277 155970527 -104607235</internalNodes>
          <leafValues>
            -2.8090110421180725e-01 3.5098451375961304e-01</leafValues></_>
        <_>
          <internalNodes>
            0 -1 68 136511509 1206908775 1324837839 -1871709317
            -1540672231 -281182881 -751226994 -787430357</internalNodes>
          <leafValues>
            -3.0160135030746460e-01 3.3390393853187561e-01</leafValues></_>
        <_>
          <internalNodes>
            0 -1 70 -244060992 -681324814 2070844624 1124313260
            -921977363 70239644 1407370692 1527180684</internalNodes>
          <leafValues>
            -3.9002153277397156e-01 2.5875774025917053e-01</leafValues></_></weakClassifiers></_></stages>
  <features>
    <_>
      <rect>
        0 0 5 6</rect></_>
    <_>
      <rect>
        1 6 6 1</rect></_>
    <_>
      <rect>
        1 6 11 3</rect></_>
    <_>
      <rect>
        1 7 5 3</rect></_>
    <_>
      <rect>
        2 4 3 2</rect></_>
    <_>
      <rect>
        2 5 3 2</rect></_>
    <_>
      <rect>
        2 5 3 3</rect></_>
    <_>
      <rect>
        2 7 3 3</rect></_>
    <_>
      <rect>
        2 8 3 3</rect></_>
    <_>
      <rect>
        2 8 5 3</rect></_>
    <_>
      <rect>
        3 0 9 6</rect></_>
    <_>
      <rect>
        3 0 10 5</rect></_>
    <_>
      <rect>
        3 0 11 6</rect></_>
    <_>
      <rect>
        3 1 4 2</rect></_>
    <_>
      <rect>
        3 3 9 4</rect></_>
    <_>
      <rect>
        3 6 5 1</rect></_>
    <_>
      <rect>
        3 8 5 1</rect></_>
    <_>
      <rect>
        3 9 3 3</rect></_>
    <_>
      <rect>
        3 9 4 3</rect></_>
    <_>
      <rect>
        3 9 6 1</rect></_>
    <_>
      <rect>
        4 0 3 4</rect></_>
    <_>
      <rect>
        4 4 9 4</rect></_>
    <_>
      <rect>
        4 4 10 3</rect></_>
    <_>
      <rect>
        4 5 3 3</rect></_>
    <_>
      <rect>
        4 5 5 2</rect></_>
    <_>
      <rect>
        4 5 6 3</rect></_>
    <_>
      <rect>
        4 7 2 2</rect></_>
    <_>
      <rect>
        4 9 2 2</rect></_>
    <_>
      <rect>
        4 9 2 3</rect></_>
    <_>
      <rect>
        4 10 6 1</rect></_>
    <_>
      <rect>
        5 0 4 4</rect></_>
    <_>
      <rect>
        5 0 5 4</rect></_>
    <_>
      <rect>
        5 2 5 2</rect></_>
    <_>
      <rect>
        5 5 5 1</rect></_>
    <_>
      <rect>
        5 6 4 4</rect></_>
    <_>
      <rect>
        5 6 5 1</rect></_>
    <_>
      <rect>
        5 9 4 3</rect></_>
    <_>
      <rect>
        6 1 3 2</rect></_>
    <_>
      <rect>
        6 4 2 3</rect></_>
    <_>
      <rect>
        6 4 8 3</rect></_>
    <_>
      <rect>
        6 6 2 2</rect></_>
    <_>
      <rect>
        6 6 6 1</rect></_>
    <_>
      <rect>
        7 3 2 2</rect></_>
    <_>
      <rect>
        7 4 2 2</rect></_>
    <_>
      <rect>
        7 5 2 3</rect></_>
    <_>
      <rect>
        7 5 8 3</rect></_>
    <_>
      <rect>
        7 6 2 3</rect></_>
    <_>
      <rect>
        7 7 2 3</rect></_>
    <_>
      <rect>
        7 7 5 1</rect></_>
    <_>
      <rect>
        7 7 6 1</rect></_>
    <_>
      <rect>
        8 5 1 2</rect></_>
    <_>
      <rect>
        8 7 2 1</rect></_>
    <_>
      <rect>
        8 7 4 1</rect></_>
    <_>
      <rect>
        8 7 6 1</rect></_>
    <_>
      <rect>
        8 8 3 1</rect></_>
    <_>
      <rect>
        8 8 4 1</rect></_>
    <_>
      <rect>
        9 3 7 5</rect></_>
    <_>
      <rect>
        9 5 2 1</rect></_>
    <_>
      <rect>
        9 5 5 2</rect></_>
    <_>
      <rect>
        9 5 8 3</rect></_>
    <_>
      <rect>
        9 5 9 3</rect></_>
    <_>
      <rect>
        9 6 7 4</rect></_>
    <_>
      <rect>
        9 6 9 3</rect></_>
    <_>
      <rect>
        10 3 2 1</rect></_>
    <_>
      <rect>
        10 4 2 1</rect></_>
    <_>
      <rect>
        10 4 7 3</rect></_>
    <_>
      <rect>
        10 5 1 1</rect></_>
    <_>
      <rect>
        10 5 2 1</rect></_>
    <_>
      <rect>
        10 6 1 1</rect></_>
    <_>
      <rect>
        11 1 2 2</rect></_>
    <_>
      <rect>
        11 1 2 3</rect></_>
    <_>
      <rect>
        11 1 8 4</rect></_>
    <_>
      <rect>
        11 3 2 1</rect></_>
    <_>
      <rect>
        11 3 7 3</rect></_>
    <_>
      <rect>
        11 4 2 1</rect></_>
    <_>
      <rect>
        11 6 3 1</rect></_>
    <_>
      <rect>
        11 8 5 1</rect></_>
    <_>
      <rect>
        12 0 6 6</rect></_>
    <_>
      <rect>
        12 0 7 6</rect></_>
    <_>
      <rect>
        12 3 2 1</rect></_>
    <_>
      <rect>
        12 4 1 1</rect></_>
    <_>
      <rect>
        12 4 2 1</rect></_>
    <_>
      <rect>
        12 4 2 3</rect></_>
    <_>
      <rect>
        12 5 1 1</rect></_>
    <_>
      <rect>
        12 6 4 1</rect></_>
    <_>
      <rect>
        12 8 5 1</rect></_>
    <_>
      <rect>
        12 9 4 1</rect></_>
    <_>
      <rect>
        13 1 5 4</rect></_>
    <_>
      <rect>
        13 2 1 1</rect></_>
    <_>
      <rect>
        13 3 2 4</rect></_>
    <_>
      <rect>
        13 4 1 3</rect></_>
    <_>
      <rect>
        13 4 2 1</rect></_>
    <_>
      <rect>
        13 5 1 1</rect></_>
    <_>
      <rect>
        13 5 2 1</rect></_>
    <_>
      <rect>
        13 6 5 2</rect></_>
    <_>
      <rect>
        13 6 7 1</rect></_>
    <_>
      <rect>
        13 7 3 1</rect></_>
    <_>
      <rect>
        13 7 7 2</rect></_>
    <_>
      <rect>
        13 8 2 1</rect></_>
    <_>
      <rect>
        13 8 3 1</rect></_>
    <_>
      <rect>
        13 8 8 1</rect></_>
    <_>
      <rect>
        14 0 1 2</rect></_>
    <_>
      <rect>
        14 3 1 1</rect></_>
    <_>
      <rect>
        14 4 1 2</rect></_>
    <_>
      <rect>
        14 4 2 3</rect></_>
    <_>
      <rect>
        14 4 5 3</rect></_>
    <_>
      <rect>
        14 5 1 3</rect></_>
    <_>
      <rect>
        14 5 2 1</rect></_>
    <_>
      <rect>
        14 6 2 1</rect></_>
    <_>
      <rect>
        14 6 4 2</rect></_>
    <_>
      <rect>
        14 6 5 1</rect></_>
    <_>
      <rect>
        14 7 3 1</rect></_>
    <_>
      <rect>
        14 7 4 1</rect></_>
    <_>
      <rect>
        14 7 5 1</rect></_>
    <_>
      <rect>
        14 7 6 2</rect></_>
    <_>
      <rect>
        14 8 3 1</rect></_>
    <_>
      <rect>
        14 8 5 1</rect></_>
    <_>
      <rect>
        15 0 1 2</rect></_>
    <_>
      <rect>
        15 2 2 1</rect></_>
    <_>
      <rect>
        15 2 2 4</rect></_>
    <_>
      <rect>
        15 3 1 2</rect></_>
    <_>
      <rect>
        15 3 2 2</rect></_>
    <_>
      <rect>
        15 4 1 2</rect></_>
    <_>
      <rect>
        15 4 1 3</rect></_>
    <_>
      <rect>
        15 4 2 1</rect></_>
    <_>
      <rect>
        15 4 2 3</rect></_>
    <_>
      <rect>
        15 5 1 3</rect></_>
    <_>
      <rect>
        15 6 3 1</rect></_>
    <_>
      <rect>
        15 7 2 1</rect></_>
    <_>
      <rect>
        15 7 3 1</rect></_>
    <_>
      <rect>
        15 8 1 1</rect></_>
    <_>
      <rect>
        15 8 2 1</rect></_>
    <_>
      <rect>
        15 8 3 1</rect></_>
    <_>
      <rect>
        15 9 1 1</rect></_>
    <_>
      <rect>
        15 9 1 2</rect></_>
    <_>
      <rect>
        15 10 1 1</rect></_>
    <_>
      <rect>
        15 14 3 1</rect></_>
    <_>
      <rect>
        16 3 1 2</rect></_>
    <_>
      <rect>
        16 3 1 3</rect></_>
    <_>
      <rect>
        16 3 1 4</rect></_>
    <_>
      <rect>
        16 3 2 2</rect></_>
    <_>
      <rect>
        16 4 1 3</rect></_>
    <_>
      <rect>
        16 4 2 3</rect></_>
    <_>
      <rect>
        16 4 5 4</rect></_>
    <_>
      <rect>
        16 5 2 1</rect></_>
    <_>
      <rect>
        16 5 2 2</rect></_>
    <_>
      <rect>
        16 5 2 3</rect></_>
    <_>
      <rect>
        16 6 1 1</rect></_>
    <_>
      <rect>
        16 6 2 2</rect></_>
    <_>
      <rect>
        16 7 2 1</rect></_>
    <_>
      <rect>
        16 8 1 1</rect></_>
    <_>
      <rect>
        16 8 1 2</rect></_>
    <_>
      <rect>
        16 8 2 1</rect></_>
    <_>
      <rect>
        16 8 3 1</rect></_>
    <_>
      <rect>
        16 9 1 2</rect></_>
    <_>
      <rect>
        16 9 6 1</rect></_>
    <_>
      <rect>
        16 10 2 1</rect></_>
    <_>
      <rect>
        16 14 2 1</rect></_>
    <_>
      <rect>
        17 1 2 2</rect></_>
    <_>
      <rect>
        17 3 2 2</rect></_>
    <_>
      <rect>
        17 4 1 3</rect></_>
    <_>
      <rect>
        17 5 1 2</rect></_>
    <_>
      <rect>
        17 5 2 1</rect></_>
    <_>
      <rect>
        17 6 1 1</rect></_>
    <_>
      <rect>
        17 7 1 1</rect></_>
    <_>
      <rect>
        17 7 1 2</rect></_>
    <_>
      <rect>
        17 7 2 1</rect></_>
    <_>
      <rect>
        17 8 1 2</rect></_>
    <_>
      <rect>
        17 9 1 2</rect></_>
    <_>
      <rect>
        18 2 1 4</rect></_>
    <_>
      <rect>
        18 3 1 4</rect></_>
    <_>
      <rect>
        18 4 1 3</rect></_>
    <_>
      <rect>
        18 5 1 1</rect></_>
    <_>
      <rect>
        18 6 1 1</rect></_>
    <_>
      <rect>
        18 6 1 2</rect></_>
    <_>
      <rect>
        18 6 1 3</rect></_>
    <_>
      <rect>
        18 6 2 1</rect></_>
    <_>
      <rect>
        18 6 2 2</rect></_>
    <_>
      <rect>
        18 7 1 1</rect></_>
    <_>
      <rect>
        18 8 1 1</rect></_>
    <_>
      <rect>
        18 10 1 2</rect></_>
    <_>
      <rect>
        19 1 1 2</rect></_>
    <_>
      <rect>
        19 2 5 5</rect></_>
    <_>
      <rect>
        19 4 1 3</rect></_>
    <_>
      <rect>
        19 8 1 2</rect></_>
    <_>
      <rect>
        19 10 1 1</rect></_>
    <_>
      <rect>
        20 3 1 4</rect></_>
    <_>
      <rect>
        20 4 1 3</rect></_>
    <_>
      <rect>
        20 5 1 2</rect></_>
    <_>
      <rect>
        20 5 1 3</rect></_>
    <_>
      <rect>
        20 6 1 2</rect></_>
    <_>
      <rect>
        20 7 1 1</rect></_>
    <_>
      <rect>
        20 8 4 1</rect></_>
    <_>
      <rect>
        20 9 1 2</rect></_>
    <_>
      <rect>
        21 0 5 4</rect></_>
    <_>
      <rect>
        21 4 1 3</rect></_>
    <_>
      <rect>
        21 5 1 3</rect></_>
    <_>
      <rect>
        21 6 1 2</rect></_>
    <_>
      <rect>
        21 8 1 2</rect></_>
    <_>
      <rect>
        21 9 1 1</rect></_>
    <_>
      <rect>
        22 0 4 4</rect></_>
    <_>
      <rect>
        22 0 5 5</rect></_>
    <_>
      <rect>
        22 4 4 4</rect></_>
    <_>
      <rect>
        22 6 4 3</rect></_>
    <_>
      <rect>
        22 7 1 2</rect></_>
    <_>
      <rect>
        23 0 3 3</rect></_>
    <_>
      <rect>
        23 0 3 4</rect></_>
    <_>
      <rect>
        23 4 3 3</rect></_>
    <_>
      <rect>
        23 6 5 4</rect></_>
    <_>
      <rect>
        23 10 4 2</rect></_>
    <_>
      <rect>
        24 0 3 4</rect></_>
    <_>
      <rect>
        24 3 4 3</rect></_>
    <_>
      <rect>
        24 3 4 5</rect></_>
    <_>
      <rect>
        24 4 2 2</rect></_>
    <_>
      <rect>
        25 8 3 2</rect></_>
    <_>
      <rect>
        26 6 2 1</rect></_>
    <_>
      <rect>
        27 8 3 2</rect></_>
    <_>
      <rect>
        29 5 2 4</rect></_>
    <_>
      <rect>
        30 9 1 2</rect></_></features></cascade>
</opencv_storage>
